{
    "architecture": {
        "input_dim": 6,
        "hidden_dim": 64,
        "output_dim": 4,
        "hidden_layers": 3,
        "dropout_rate": 0.0
    },
    "weights": [
        [
            [
                -0.5604437362920413,
                0.645831762793442,
                -0.06343288855027984,
                1.16366538627479,
                0.5346811353003503,
                0.25648237125761203,
                -0.2103977546789525,
                -0.5037783724819155,
                0.5741167168844017,
                -0.38389793818349716,
                0.7345208999098247,
                -0.37909614479750764,
                0.34970614164331176,
                -0.002133912555862402,
                0.293034481704238,
                0.3169817303033716,
                -0.34403475250371013,
                -0.011574492101366539,
                0.19869609076323372,
                0.49583439407082064,
                -0.08031800684192586,
                0.4348437538272325,
                0.04499176659585686,
                -0.24529608780409617,
                -0.20957001624306051,
                -1.2275815970983541,
                0.5038598084900006,
                0.3690609923638716,
                0.4444879021813183,
                -0.007877942376317958,
                -0.1675600426510799,
                1.0262502065231702,
                0.47994995690604114,
                0.6777344531742756,
                0.24334979986463603,
                0.7410846484010696,
                0.6394330839013169,
                -0.4196678011416209,
                -0.17849502187061173,
                -0.8902539809340516,
                -0.6018999434582525,
                -0.0012083206309956985,
                0.9038422597514975,
                -0.4659017033257274,
                0.05303997413277162,
                0.45421213849733955,
                -0.09432740091336111,
                0.09181912257593353,
                0.21414685310069212,
                -0.2565996471499416,
                -0.7112510369034262,
                0.5346303893899145,
                0.6024127170181831,
                -0.5778633790318225,
                0.6440068301837872,
                -0.6597923009516621,
                -0.06996462200435404,
                0.8772341916182892,
                0.7417646229314041,
                -0.05214906806289521,
                -0.8373372664951934,
                -0.2073961433288071,
                -0.3325546227024365,
                0.010596652170540694
            ],
            [
                -0.4748556751192654,
                -0.35766775364112824,
                0.37149479561076326,
                -0.8738051471222111,
                -0.44145374925939856,
                -0.02377511335242059,
                -0.6033569319793984,
                -0.5449333888773717,
                -0.795487410456382,
                0.4132116965744518,
                -0.6886319901822722,
                -0.3912222061679039,
                -0.053595588919178316,
                0.9008122554626685,
                -0.726780399043736,
                -0.056175336379100375,
                1.0842269642020235,
                -0.018756857513199672,
                -0.23931853858505317,
                -0.04167768824742118,
                0.08560150726554877,
                -0.06603943422681356,
                0.1704234973915663,
                0.3262149253722885,
                0.3026847578876796,
                -0.7459836556583836,
                -0.2721166853665731,
                -0.20083038359944308,
                0.08767530626031815,
                0.6127250234532977,
                -1.3699042238883612,
                -0.9357522374965694,
                1.627994877544491,
                -0.15130023681077084,
                -0.5019648431693413,
                -0.5890395634808829,
                0.8081395369600493,
                0.3377995788128136,
                0.03762400141192988,
                -0.23093650936384846,
                -0.34841783301037604,
                -0.13023023246938056,
                0.29550632038845115,
                1.0316046824996168,
                -0.5052212061891989,
                0.4419295665400514,
                -1.0969499497134654,
                -0.5923063531180707,
                -0.8325793616142327,
                0.32488016346213944,
                0.8483355629224831,
                0.30670305867083,
                1.1826253007336454,
                -0.23945448667955163,
                -0.24708335232434392,
                -0.3153847793262827,
                1.6962174315612817,
                0.4703223428761219,
                0.5011367218861977,
                -1.0092023400024728,
                1.0335384625863,
                0.06272198647924683,
                0.6669897278859451,
                0.08062494164585597
            ],
            [
                -0.4913701073362918,
                -0.4369854833436759,
                0.40614109416998706,
                0.03319015346135438,
                -0.38755488531500265,
                -0.7108979554084786,
                -0.15733245831021156,
                0.5117235063122217,
                0.6950934320655454,
                -1.3274359838632102,
                0.49538832416371376,
                -0.19659670790813058,
                0.8407300057369999,
                -0.42099819247734077,
                -0.4632930810398311,
                -0.1165189470226182,
                -0.6875157806063158,
                0.38376828175835426,
                0.36018225493613354,
                -0.18139685487273854,
                -0.9573948056591636,
                0.028468619538922418,
                -0.48674191479369855,
                0.5201249128413421,
                0.06134169646283796,
                0.6602983771688654,
                -0.5594541386257411,
                0.28819490448197105,
                -0.7794833731430303,
                0.2527501476050669,
                0.394056633462215,
                -0.3497533648307625,
                0.5813924744615973,
                0.2104420758187492,
                0.13227611255499722,
                0.05426057883160441,
                0.2615088801467674,
                1.0265936053361506,
                1.393408967551304,
                -0.8823168363828251,
                0.9237603237685325,
                0.5533945337410744,
                -0.5992510211896067,
                0.5721534399382047,
                -0.43333145111699184,
                0.4234808184708959,
                -0.11333629540006078,
                -0.08755881839850434,
                -0.141018645090579,
                0.4234049767283372,
                0.7628738584572267,
                0.2840670193065931,
                -0.6334252867711215,
                -0.03544830721623242,
                -0.014558149484931667,
                -0.0719083210493444,
                -0.0385963079712845,
                -0.4072165815431846,
                -0.20102751586128406,
                -0.22937411690602275,
                -0.4784176759518346,
                -0.0743914182969121,
                -0.14444892699987202,
                -0.1331139206428756
            ],
            [
                0.7051035061107792,
                -0.7117836062702111,
                0.8375622075690454,
                0.07076428082278043,
                -0.20001301357490653,
                -0.6137289970335817,
                -0.7473321276199821,
                0.07496058626649242,
                0.058761295364594616,
                0.21932098066819095,
                0.27562042456323876,
                0.27654219969414773,
                -0.32415348851412185,
                0.8086382970524282,
                -0.07854279945428418,
                0.5244938443554371,
                -0.3009927551432982,
                0.11451658897777367,
                -0.632136258190194,
                0.18278014935942138,
                -0.08586105458159378,
                -0.14950479416282322,
                0.0890532027680856,
                -0.4412203814610417,
                -0.45156060170595463,
                -0.8833769275665996,
                0.9877540570353566,
                -0.37901534253919344,
                -0.02501268670041099,
                -0.788108282638875,
                -0.25302319193206707,
                0.744524606121718,
                0.7305628222236933,
                -0.052905353657846904,
                -0.6323354433384768,
                0.00947466567980722,
                0.30144388792072896,
                -0.9714855629687371,
                1.059944618355411,
                -1.1671046778679721,
                1.4383610440510086,
                -0.021467050219528844,
                0.08671282718642831,
                -0.20257792671757238,
                0.4932897540306356,
                0.6560621087613723,
                0.10271314689394992,
                -0.6464403757447462,
                -0.777662058589158,
                -0.5791174492887554,
                -0.17122686915830684,
                -0.0887512940649727,
                -0.40821881065369864,
                0.12170444426260962,
                -0.8944904222741473,
                0.30115305414153715,
                0.21512857795413673,
                0.39841493575623393,
                -0.48589982237709406,
                -0.5029921789688864,
                -0.7120332702613191,
                -0.6047752569928679,
                0.6681614615323049,
                -1.0865986238860128
            ],
            [
                -0.06472218350222682,
                0.4426993816579198,
                0.2536395138704662,
                -0.869288266532587,
                1.4504681541077973,
                -0.15193783883525178,
                0.5711300110704934,
                -0.7893955538148523,
                0.5757093551683472,
                0.3872578817387765,
                0.13656332909955202,
                -0.1605019342671515,
                0.7490782423226586,
                0.8639979815803717,
                0.06967149229511273,
                -0.32769004461579,
                -0.04825864154038345,
                1.13031335517547,
                -0.026927820902600853,
                0.38956325198856384,
                1.2166308498113263,
                -0.249180732441042,
                0.38697873485402795,
                -0.5531103652839674,
                0.17461492517094165,
                -1.197101148961801,
                -0.6763432175879236,
                -0.10958049962352116,
                -0.8040836136155703,
                0.5787357431333302,
                0.42477885651192854,
                -0.683960056925593,
                0.7649740587457382,
                0.5197211511050445,
                0.5942506706948438,
                0.34023384212481633,
                0.957842615593854,
                -0.32518739332965,
                -0.31570487946694475,
                -0.06623234882495263,
                -0.4716216577522295,
                0.1545461549775312,
                -1.5142319186459954,
                0.8845744835529321,
                0.4177804221917011,
                -0.43412909578427283,
                0.15353369812244566,
                -0.3529787646851437,
                -0.4517258098127053,
                0.02186025172654431,
                -0.17735178929432113,
                -0.6290545310315007,
                -0.35465834831421483,
                -0.5581263200181916,
                0.3699379342253143,
                -0.2640026227206756,
                -1.4690419111997302,
                1.0859162836657008,
                0.3771004617364326,
                0.2790931262185697,
                -0.27804826688287304,
                0.016302932550559902,
                0.22811581117841523,
                0.7271855477093965
            ],
            [
                -1.1395022729252922,
                -0.019087547721607787,
                -0.6579598062076246,
                -0.23589624542646087,
                0.11332716960734773,
                0.41147004241511337,
                0.5084184784331243,
                1.2270505055010568,
                0.6252416604738283,
                -0.0573431885972579,
                0.5032397048625478,
                -0.13284714149616075,
                0.027793273813965968,
                0.42818815624426076,
                -0.3403050406473571,
                -0.6406758763515504,
                -0.0619594596558487,
                -0.06692580876107017,
                1.0986547263073039,
                -1.2697546500364376,
                -0.07664543612988489,
                -0.3570710373923616,
                1.1351569511757016,
                0.1858671255418104,
                0.012584388126159515,
                0.3269868794725657,
                -0.8884908168384237,
                0.795264291552763,
                -0.23020562033963474,
                0.402207152547789,
                -0.4941160273369823,
                0.63967065824173,
                -1.0286093211354976,
                0.36811767172099513,
                -0.14146302223756588,
                0.11541924118706033,
                0.4801726825644999,
                0.12170022524455021,
                -0.21218645583230106,
                0.05273500474640579,
                -0.43776716260779736,
                0.22387460284238433,
                0.07657062557791199,
                0.4982995550209416,
                -0.722971574850027,
                -0.4935474729275639,
                -0.017628416515377335,
                0.18205233715404237,
                -0.14936746856462793,
                -0.024930569992076393,
                0.6592294435253289,
                -0.9138283023677802,
                0.04837775543219734,
                -0.08186732751080035,
                0.4521824048389544,
                -0.8106010466972298,
                0.48627177814239575,
                0.2453527746138038,
                1.2086067777666896,
                -0.0821295146591352,
                0.021891790603957403,
                -0.6419173244502058,
                0.24129186193991112,
                -0.49871205205172575
            ]
        ],
        [
            [
                0.11090655322069314,
                0.17789093923795812,
                -0.024065723931689317,
                0.10137436634506061,
                0.1613752369385058,
                -0.13305652143533184,
                0.009845694656231632,
                -0.04158231281751107,
                -0.11436169136357417,
                -0.128425748867427,
                0.039010249295976004,
                -0.12185777299344394,
                -0.1866891773469262,
                0.30255105047477093,
                -0.03655787935641699,
                -0.14908165258011127,
                -0.1727901545760836,
                -0.05233710160516954,
                0.10566614128379433,
                -0.09493012832880912,
                -0.1929806511793876,
                0.10526123757178164,
                0.08878834221389713,
                0.11743615885950069,
                0.12689279477153032,
                0.1544461625506434,
                -0.020084076562849815,
                0.12687301789650696,
                0.1653305670785312,
                0.08503687850694329,
                0.002805768385133048,
                -0.2271094159984485,
                -0.15240984436420135,
                0.19403360458687072,
                0.3509094551046681,
                -0.042212903324948446,
                0.3040857721743882,
                0.4136520091349447,
                0.09373215131308804,
                0.09271125965109227,
                0.1632389160613754,
                -0.01041279371985595,
                0.27394090342348504,
                0.2286966154282285,
                0.036191321590522,
                0.04108422250768797,
                0.20582050879308894,
                -0.04976635569780476,
                0.22410678318303193,
                -0.09233377345378704,
                -0.04984028014496484,
                -0.10678997980897545,
                -0.07342694848773171,
                -0.17244834371317364,
                -0.12344735115590562,
                0.0869451548581858,
                0.0787908242781046,
                0.05114460829297169,
                -0.11312594911108162,
                -0.03975827874171821,
                0.24708473842770431,
                -0.10500058413305786,
                0.04723528951809493,
                0.010841402943385587
            ],
            [
                0.01896898661484089,
                -0.08674289958212386,
                0.2665314370453354,
                -0.1649102384268015,
                -0.19622981196668396,
                -0.2419612896654254,
                -0.24273638099285777,
                -0.14157321705882672,
                -0.3781572282182378,
                -0.14207635753174377,
                0.03576176195359222,
                0.14214068877339545,
                0.3206305255250635,
                -0.27801888448731354,
                0.16184874500247012,
                -0.21265570861199157,
                -0.10520704072345465,
                -0.04500716489904778,
                -0.11176332352292422,
                -0.05552178231528555,
                0.03424543425112846,
                -0.05163192551023125,
                0.06257490839377178,
                0.10909033360562378,
                0.13381260913358436,
                -0.017059056286659362,
                0.019111623485629975,
                -0.061382868550184336,
                0.08949729249902834,
                0.006051247562959217,
                -0.014276349759016666,
                0.027046744245506665,
                -0.007452604077003512,
                0.13115218926853947,
                0.1987291439577056,
                0.0746944762048041,
                -0.04390501115099055,
                0.15915523604218929,
                -0.08372642087622738,
                -0.006413515790969918,
                -0.1695737411454243,
                -0.19771033710021424,
                -0.139702198811937,
                0.27633689487842444,
                -0.04894959975001633,
                -0.20262558780625653,
                0.3239266329878216,
                0.20130220630171736,
                -0.4101256857924655,
                -0.11527024135756019,
                0.2722268245124683,
                0.006741287368411379,
                -0.14214973025245006,
                -0.08591274033525545,
                0.14659434875233457,
                -0.14317947253159963,
                0.0226582629885586,
                -0.16336302219434753,
                0.02017573108916071,
                0.07862967723728337,
                -0.38945689086746715,
                -0.11807428095538611,
                0.08959576025084492,
                0.18892736252380907
            ],
            [
                0.19725824563377642,
                -0.33446975299672566,
                -0.09577897292525873,
                -0.03414591789432398,
                -0.04715727638109607,
                0.20842698982604782,
                0.12761908407271932,
                0.03907018412594456,
                -0.30811772501638457,
                0.22624698951752775,
                -0.08324656868393833,
                0.11543863399197611,
                0.02974419871960601,
                0.14587723101448172,
                -0.08489254358459707,
                0.0025435210612754656,
                0.23063207125643287,
                -0.2742042619271876,
                -0.10626369337419314,
                -0.01311299920355053,
                0.07607177694538478,
                0.022238718569617143,
                -0.07040700385515851,
                0.1332574465461908,
                -0.19684891213656483,
                -0.05466869696844449,
                -0.08753559035466665,
                -0.0023662357122707393,
                -0.23580717227229334,
                -0.055395933422193906,
                -0.12781696294806102,
                -0.0726436968253368,
                0.10837203307136274,
                -0.05533735270333503,
                0.23904262044610394,
                -0.20859871085123513,
                -0.0020797880061519114,
                0.0655245314788709,
                0.10146411810364116,
                0.27365761567618496,
                -0.12258130269091642,
                0.03223879126019421,
                0.1225028670897754,
                -0.10487943319227426,
                -0.014591854040655819,
                -0.10576426598552674,
                -0.40521219809506864,
                0.1386643245323155,
                0.2041567574477266,
                0.0016038614878956165,
                -0.1044595771097399,
                -0.010293316517199032,
                -0.2708570678336055,
                0.20254091694937418,
                -0.030166312796380965,
                -0.09469410704339577,
                0.049197294234664034,
                0.033155832386493986,
                -0.23627232489401204,
                -0.03645049294030867,
                0.005676466519777208,
                -0.05986778688334068,
                -0.29011879429645443,
                0.08294349650733127
            ],
            [
                -0.027816326928007735,
                -0.3030754104107193,
                -0.19265775035753685,
                -0.09340612086975705,
                0.02188816596322704,
                0.286054080946912,
                0.32363619324702136,
                0.1550051108080053,
                0.08583956993940439,
                -0.14628837940263997,
                0.07827443162274536,
                0.03743483514627196,
                -0.15273879861784329,
                -0.24808877010395322,
                0.10665848544882765,
                0.03976072555825003,
                0.15009904707307192,
                -0.038308026668389575,
                0.044796338094128606,
                -0.5074803545639733,
                0.09273756136613885,
                0.1619631414291947,
                -0.08169461469318315,
                0.10591637334549445,
                -0.11505254659824353,
                0.018515068385967916,
                -0.09939573214564465,
                0.06068865113332209,
                -0.10624649881328345,
                0.011638908995192257,
                -0.03058071082549308,
                0.08123313183990577,
                -0.19571661327780093,
                0.08090310053023815,
                0.014636596301080555,
                -0.04713147145029151,
                -0.18014745298671941,
                0.28458618187065066,
                0.049572025132287895,
                -0.05289355288369722,
                0.06745156944372853,
                -0.22243342492727564,
                -0.35169235001665616,
                0.1036384497448826,
                0.06842831842959457,
                -0.08603734491419616,
                0.2648237301888391,
                -0.004417286150481935,
                -0.02558464939437383,
                0.2747248180774306,
                -0.36661306684838685,
                -0.4922573895054484,
                0.05251444268528725,
                0.08751012984700321,
                -0.09145520529681257,
                0.3024251089519919,
                -0.2626937954162723,
                0.03983963826590581,
                -0.039427550035627014,
                0.03475831967736137,
                0.042328323786725866,
                -0.0016433576644220046,
                -0.11413577517839683,
                -0.05325308232503133
            ],
            [
                -0.44756422930678247,
                0.2304633715281026,
                -0.06610238391021649,
                0.051278284059537035,
                -0.08533091059344604,
                -0.07597705235401082,
                -0.09584581602631155,
                0.21662984988154482,
                -0.14689801246389728,
                0.06905648303024599,
                -0.03190156244320936,
                0.30312772553288436,
                0.1521677324476925,
                -0.189816450829718,
                0.38916374309874835,
                0.32846020849716384,
                0.2493660526672893,
                0.1120746610981716,
                0.05918122330030087,
                0.09871237572181016,
                -0.18437018855630033,
                -0.2912827011033692,
                -0.17950821926718868,
                0.18054293690600753,
                0.0627034205310803,
                -0.16412704594070077,
                0.013650712338737686,
                0.13287497161849987,
                0.29030591773697934,
                -0.01827292159575917,
                0.13132320416562018,
                -0.20462783311091398,
                0.3800028451889462,
                0.13154158297591356,
                0.018151613926497834,
                -0.15383022202138485,
                0.351388401805793,
                0.005810945634328637,
                -0.05476786176369742,
                0.003436510300856847,
                -0.1513823122245987,
                -0.029267897949599813,
                -0.13163257971111694,
                0.08480154952149158,
                0.38191757366191903,
                -0.029422685490214526,
                -0.14625586435382604,
                -0.18940280706885304,
                0.3180605860928349,
                -0.191279105140538,
                -0.1455092097521237,
                0.036355648190265016,
                0.014769317853488818,
                0.07255059380185822,
                0.11194650379719619,
                0.0865721723935046,
                -0.310847246179683,
                0.05521934751118159,
                -0.180974366882358,
                0.16807598497433446,
                0.23753882863189635,
                0.19929556742828985,
                0.060526404307414496,
                -0.0029369580898534514
            ],
            [
                0.37115606692488134,
                0.12717403975560648,
                -0.02702952885756644,
                -0.37289810816700353,
                0.2642158117749203,
                0.26232234084440964,
                -0.17164456494862887,
                0.046314138188819874,
                -0.1002305536477131,
                -0.14802463141106517,
                -0.28259875426078374,
                -0.39997776114995964,
                0.14141828131472411,
                -0.04160859721671,
                0.006148214050589037,
                0.30837404142099084,
                0.05886064181551708,
                0.01459945695385342,
                0.1188857124716332,
                0.040217732650555275,
                -0.12894442952968815,
                -0.015118157779849487,
                -0.006325558637284233,
                -0.14332810157870332,
                -0.14640908131763575,
                -0.30156109874425235,
                -0.058543666910843506,
                -0.2406070714016293,
                -0.16459622954577807,
                -0.016325036763537134,
                -0.31334492989727236,
                -0.04787624860131914,
                0.15507843377513544,
                0.12522790180042723,
                0.12036520188718051,
                -0.03716071866016177,
                0.006885924932386107,
                -0.17155938691108585,
                -0.16038323004726537,
                -0.43414456040506094,
                0.27715015821233185,
                0.02634815725744046,
                0.23271981580489248,
                0.27276358965591074,
                -0.22420211245771496,
                -0.005968920134253698,
                0.31799088913661894,
                -0.05919310517720597,
                0.009254123467118468,
                0.4039409918225916,
                -0.0992013607333234,
                0.11052650995115733,
                -0.5538638339506898,
                -0.06465299810426613,
                0.16559238368385976,
                -0.34023595406749507,
                0.20155159497369785,
                -0.18978327342017928,
                -0.06737484047432003,
                -0.20087862470629275,
                -0.0601304090934364,
                0.178566949708648,
                0.10220212095481808,
                0.053161465642651076
            ],
            [
                -0.0013081991886043907,
                0.31568096404966617,
                -0.2645958619107509,
                -0.055080683117382824,
                -0.23847985466275168,
                0.08032212865757982,
                -0.16054885991317708,
                -0.13646134680751246,
                0.07042423367934715,
                0.04449761438538545,
                -0.33642907249402765,
                0.16654484007637688,
                -0.13312899769435496,
                0.24759713873541328,
                -0.035529832569457916,
                -0.30233939528887416,
                -0.0075295744778770615,
                0.17522122008697547,
                0.22560563944799772,
                0.12304802975582166,
                0.14354360129941637,
                0.10518016199885123,
                -0.15742511119084998,
                0.02713759552516365,
                0.13243366435642973,
                0.09427118763967803,
                -0.033764944166794535,
                -0.010074881936982232,
                0.12500816535833825,
                0.01857223361517851,
                -0.47337247379475117,
                -0.0416001792099987,
                -0.016795166509369,
                -0.3013573014463141,
                0.3711889122933284,
                0.03660969248775363,
                0.18488161055410066,
                -0.029882244270422152,
                -0.1715006031387388,
                0.09348113712308258,
                0.13229584949876197,
                -0.07451450314466435,
                -0.18771720253572718,
                -0.06812878462733611,
                -0.17074244683141657,
                0.35621722825564783,
                -0.08285736751315637,
                -0.10748855969122448,
                0.13653941314252047,
                0.18726981686593144,
                -0.16288631467485232,
                0.0870709303530197,
                0.19170363088491343,
                -0.34597067183849484,
                0.2544240226950067,
                0.06518002086616788,
                -0.27385631196163507,
                0.01972116497103636,
                0.0824050153842175,
                0.15823593648309867,
                0.43210821773059566,
                0.08172729788037064,
                -0.05609101242920986,
                0.11877274446524709
            ],
            [
                0.09295756691533066,
                0.2810440194259846,
                0.18336591543107306,
                -0.00731796730708252,
                0.19324303541277338,
                -0.024718368003362023,
                0.15479141282289247,
                -0.07700510575138583,
                0.11449407253163772,
                -0.3891337638764184,
                0.2296655760249332,
                -0.39399385235762385,
                -0.27640546035834573,
                0.24818116881449537,
                0.10261345861464637,
                -0.0113744273669021,
                0.13117799857037743,
                0.020302831761008628,
                -0.1074522635333493,
                -0.05410062630294291,
                -0.14065932407405882,
                0.006889862497251866,
                0.2944645565307007,
                -0.012709821459387238,
                -0.28211134928971726,
                -0.016792205993141445,
                0.0645794230495149,
                -0.22434124872901684,
                -0.020268548601834205,
                -0.1582973815064797,
                0.041818531116512056,
                -0.05309972627830842,
                0.11757650488386,
                -0.098324852101363,
                0.15403181058389048,
                0.18047566515792782,
                0.12491328622523687,
                -0.06051121901023505,
                -0.059183407925163946,
                -0.2688984949864837,
                -0.10141542673905117,
                0.1655329574953509,
                0.0488538622831594,
                -0.04961427870266205,
                0.10025167619117692,
                -0.34564826815411676,
                0.23809933813311587,
                -0.17568650765268423,
                -0.0111014205042419,
                -0.056938223275288455,
                -0.008873601867425135,
                0.008085566635897469,
                0.06120090851348772,
                0.17542398308900356,
                0.009524964147111783,
                0.004938570450789169,
                -0.16538115285292887,
                0.001374544631044555,
                0.26914959186912607,
                -0.08119833008589435,
                -0.37403232410753995,
                0.20911316017258189,
                -0.22924753708343645,
                0.028395738644893486
            ],
            [
                -0.017948628270748567,
                0.20113483026812942,
                -0.20970619553047468,
                -0.10432950288619244,
                0.07262556982429706,
                -0.21660519966034883,
                0.052309057161042616,
                -0.04694145883443589,
                -0.3688375874765251,
                -0.12021756447280287,
                0.1898004490991932,
                -0.14134665193468546,
                -0.04004120352208757,
                -0.027850319404073242,
                0.06662366127823015,
                0.0550817964230361,
                0.09421178979592522,
                0.037146720410139306,
                0.21185618830085412,
                0.024691445621407522,
                -0.20357017994486706,
                -0.02110901579180972,
                0.010124000791234879,
                0.1219725682239962,
                0.05786628990414808,
                0.01754045804948772,
                0.14240527784763263,
                -0.259121734088896,
                0.2389208737039566,
                0.23660110617492844,
                -0.018692507506129354,
                -0.18870371775986794,
                0.17616861009024729,
                -0.09139804021437464,
                -0.02826643146128603,
                0.25780352513915955,
                0.1585142911464204,
                -0.2901312558815614,
                0.24975803648757638,
                -0.0910888402583878,
                -0.056888731010649035,
                0.03055870237635248,
                -0.12291083934935762,
                -0.25213710377816473,
                0.12956734131205203,
                0.11811440105792854,
                0.20482650334898642,
                -0.22970256245856838,
                -0.09338421298221837,
                0.07595477166423067,
                0.2301402258332689,
                -0.3343872842946234,
                0.3401055491383673,
                -0.05342782448938942,
                0.16195008458630245,
                -0.07017013085964584,
                -0.10318492094348533,
                0.05626389233118494,
                -0.16167248267281478,
                0.07373862018946975,
                0.12205502689692228,
                -0.059648343436284786,
                0.03712991097732417,
                0.01136079522221884
            ],
            [
                0.2376246207782596,
                0.12644849063839703,
                0.02046357582125184,
                -0.1589040946534339,
                0.013803019091343991,
                0.04980679747217494,
                -0.04940079142817425,
                -0.16804524544008037,
                -0.07098390145200666,
                0.07532530763139948,
                -0.13136013035342112,
                0.016131750090935367,
                0.07204196224881507,
                -0.16682568488447905,
                0.08278905467593455,
                0.06727760654699727,
                0.02167678158154466,
                -0.11824117922196413,
                0.03737693076446419,
                0.01545088558737675,
                0.21748698876817998,
                0.023094658191612216,
                -0.14077806540099158,
                -0.15190814063692284,
                0.0951738353082498,
                0.10067818571219847,
                -0.21123676268718075,
                -0.23407392177732153,
                0.12340750060027025,
                0.16463789990580688,
                0.24473800157971595,
                0.16872427403555312,
                -0.10968060050343234,
                0.041025369654828316,
                0.017362923450611946,
                -0.09041926449422959,
                0.14494810526663082,
                -0.2573315327927509,
                0.06605725662453166,
                -0.23073109016350674,
                -0.10200837693142634,
                -0.10005306249432387,
                -0.12291940793493758,
                -0.12562281218423113,
                -0.00877156390368332,
                0.12194363012959539,
                0.14513369819779384,
                -0.2682918925317552,
                -0.38757615237437726,
                -0.09064032725968417,
                0.2024117863540447,
                -0.19157788655731003,
                -0.046730721189366616,
                0.16246936191402647,
                0.044536683580787474,
                -0.24055171643658957,
                -0.16761591258885403,
                0.08701073516036709,
                -0.030837481851753158,
                -0.10795387415058394,
                -0.41720198620132765,
                -0.013826030605705789,
                0.06686001996165479,
                0.10957735025575377
            ],
            [
                0.1014752397008981,
                0.10814482702359322,
                0.2827240791032696,
                0.21767705192911607,
                -0.26292511418531855,
                -0.2547988229938572,
                -0.022090934968144894,
                -0.1539423236029919,
                0.4348475858948384,
                0.03323043198437489,
                0.09088432151455264,
                -0.4501824753829126,
                -0.0136394626337678,
                0.03775946931694044,
                -0.17842748246484835,
                0.2633521805258824,
                -0.36171523520974713,
                0.027253791503635442,
                -0.47309451373086636,
                0.5210371495903755,
                -0.12304165017061616,
                0.20933753440711042,
                0.19533892178601933,
                0.042004778515323846,
                -0.27828072174486623,
                0.2250612690718261,
                -0.11601396684454097,
                0.07979854226935218,
                -0.0037170743010259705,
                0.32061897827446706,
                0.12797241069660806,
                0.3986124608128859,
                -0.1238820481087165,
                0.1404554328505271,
                0.12402723303982713,
                0.13568222127535312,
                -0.12115919042854066,
                -0.10008608091534399,
                -0.08483440716134537,
                0.07817797722780545,
                -0.16751134411050153,
                0.0007829723873621572,
                0.308658275873883,
                0.2953800889592456,
                -0.08852206192650709,
                -0.21886220283567603,
                0.12396358143160889,
                0.03719086300563126,
                -0.21821436734837643,
                0.13940763870867642,
                -0.08825407312962211,
                -0.05563118612580418,
                0.3145471133827115,
                -0.09043993269588986,
                0.02554365695939801,
                0.048986954970597886,
                -0.17852698118446883,
                0.2844452276761557,
                -0.028017639181820517,
                0.019005721428906625,
                -0.2527558279154842,
                -0.17490435767389817,
                -0.11458811234099597,
                0.16559055954912613
            ],
            [
                -0.05071229076495882,
                0.028815410328579316,
                -0.18814083409730614,
                0.12695701435399379,
                -0.10367465236753268,
                0.050648957820680914,
                -0.13384389787192674,
                -0.0656906527227527,
                -0.0397134381522822,
                0.039427114456768636,
                -0.13363192956303843,
                0.07292104596627798,
                0.11295933176511273,
                0.3387967481899618,
                -0.13762050393219727,
                -0.16047522430374142,
                0.16062549162570788,
                -0.12325633014029229,
                0.04841694536310385,
                -0.19924795225686523,
                0.025195767818030748,
                0.012362077715743483,
                0.03576929185698757,
                -0.06701727107041713,
                0.02488604953986687,
                -0.5246568315985092,
                0.06764440319385502,
                -0.12028244040887864,
                -0.02241869969014372,
                -0.08400789896552674,
                -0.02226759846478472,
                0.03739895503048947,
                0.22299040641506013,
                -0.04718348466065061,
                -0.055875242581942056,
                0.049154045981105204,
                0.021286741392295947,
                -0.280543277869363,
                0.06637582009155218,
                -0.09394646950983206,
                0.03601069316149158,
                -0.22438704877139456,
                0.26843320009089094,
                0.10025470581362683,
                -0.32374004925086536,
                -0.07616642125144812,
                0.2972534081614917,
                0.2514113336621566,
                0.3709894021723825,
                0.09880879802473619,
                0.18315231968855147,
                0.37060906386710063,
                -0.28828977100043457,
                0.11150185624648609,
                -0.2718139199256532,
                0.2514675876831357,
                0.028540899009666377,
                -0.18813170672494528,
                -0.18374561181489343,
                -0.1738195323034406,
                -0.23467019148435783,
                -0.01938861758981624,
                0.06318016197449361,
                0.16828251977867068
            ],
            [
                -0.03829963818957104,
                -0.2648683687198675,
                -0.23547175368534623,
                -0.21878568315564903,
                -0.0064743581967919624,
                0.16602245006100266,
                0.03731076900945762,
                -0.16930531918741612,
                0.25274948638059774,
                0.10764804586949257,
                -0.41153269451944047,
                -0.38740632442601214,
                -0.057417519211962864,
                -0.12421604181655681,
                -0.021428290796828422,
                -0.09008845747565583,
                -0.02390659331900682,
                0.2102414659017879,
                -0.21288347032148974,
                -0.0005464166972824103,
                0.025799011245567688,
                0.04268897817697562,
                0.054101307790771914,
                0.28838667238312443,
                0.1354500294432891,
                0.02807025353135121,
                0.0429923338730363,
                -0.003750064090007074,
                -0.05575366795634717,
                -0.4548072711566354,
                -0.1482676177662602,
                -0.4079916525874461,
                -0.093140440741359,
                0.23317640547198878,
                0.06724417967546865,
                0.2702356611560116,
                -0.010198566178481808,
                0.28940662972306835,
                0.17781107632745366,
                0.18984537193076578,
                0.06720417550968738,
                -0.09108243919958472,
                0.09555759120434389,
                0.1953187870345594,
                -0.20835609532181693,
                -0.04432955589350785,
                0.1516075192090468,
                -0.18787573264586233,
                -0.19886664104977905,
                0.18381471333761534,
                -0.30539759712526793,
                0.19562172050704296,
                0.38845639794392817,
                0.14022596914813643,
                -0.46758202457775533,
                0.01570775033972227,
                -0.11507541656516868,
                0.25550475488483804,
                -0.3961587357756045,
                0.20049102525982293,
                0.0007330834834528427,
                -0.04317518038011934,
                -0.02326599363649904,
                0.27231302329869567
            ],
            [
                0.11296500206902653,
                -0.0654103970329569,
                -0.18054079632322126,
                0.4169427610870446,
                0.04809042538112697,
                0.22249193912751744,
                0.06895257744033904,
                -0.08234019307663465,
                -0.26286095948466337,
                0.00026638121553906164,
                0.03839215762051249,
                0.4478537208928967,
                -0.10129185572232577,
                -0.18689178744886473,
                0.028165443186320777,
                0.24608495939894626,
                0.13182113803511145,
                -0.009696491969339837,
                0.18925940290904958,
                0.07116964617107663,
                0.24389312188706436,
                0.17872604747039528,
                -0.18611846799425144,
                0.10886631511165791,
                0.11514103326325449,
                -0.10392901952981418,
                0.2568710743167736,
                -0.05087560042158235,
                -0.18986759378616372,
                -0.1926159158601998,
                -0.2411006481266126,
                0.00740349093093588,
                -0.28302869818049187,
                0.6274444557777042,
                -0.005438953258631288,
                0.263860221615908,
                -0.028193581366734957,
                -0.39415888352425776,
                0.08286605290405248,
                -0.08948957142471528,
                -0.1527703350753502,
                0.07665606437798814,
                0.1778861610783124,
                0.31645866438231385,
                -0.06114420702217474,
                -0.1493361832720365,
                -0.05620911999070118,
                -0.03676862225713024,
                0.1406221878411381,
                -0.10915748843976544,
                0.005428049419798969,
                -0.24854924854560537,
                0.2400239537874495,
                0.1413305753667145,
                -0.020030998729621854,
                0.24517394700787745,
                -0.20146890098707962,
                -0.09381077674429215,
                0.3938933560404283,
                -0.14718455290499555,
                0.12501081155641774,
                -0.13226125191537766,
                0.11629488182914648,
                0.2188978445704652
            ],
            [
                0.1545239273616995,
                -0.04253932874498426,
                -0.2114867895421002,
                -0.14284348097876534,
                0.037160649248411726,
                -0.1009166029492929,
                -0.032211080901337376,
                -0.301286953259108,
                -0.18517927354426592,
                -0.43379835144912215,
                -0.1300200853513609,
                -0.13733067476685448,
                0.4242902437278325,
                0.5280738512480159,
                -0.12088681750924815,
                0.2229341170037868,
                -0.12077228087716381,
                0.07311924802763875,
                0.09537265610670455,
                -0.2805724587045639,
                -0.1963209340217526,
                -0.22265420993269902,
                0.022646870989059816,
                0.033072623576035326,
                -0.39595452087210975,
                -0.0038760391687441774,
                0.21391754557675263,
                0.005640024059787938,
                0.04993390356540814,
                -0.3256471158329416,
                -0.123436616152822,
                -0.09913541588911509,
                0.12474771256824065,
                -0.21470434956399687,
                -0.06141054426487538,
                0.22154893449582297,
                0.2888945568699391,
                0.1299272015951634,
                -0.2231390011639876,
                -0.04690746770493053,
                -0.01687313938008327,
                -0.12903170861657307,
                0.2119012058469638,
                -0.18000329993242148,
                0.04489423188403663,
                0.2164653398212076,
                0.19787298392903074,
                0.0452877468817109,
                0.1720542345461228,
                0.0052223725036655375,
                -0.046392470195122305,
                -0.23257714411767888,
                -0.207648043788378,
                0.4756626395582156,
                0.004081559562209737,
                -0.01506487045292734,
                0.13196814224181613,
                0.1417005857231824,
                -0.6534258438466188,
                0.15008565941025812,
                0.37661648112501184,
                -0.09299445985572627,
                0.1839493418440061,
                -0.21755070775962831
            ],
            [
                0.2502008156763583,
                -0.026805729725974524,
                -0.20601340170527116,
                0.18965579950718547,
                -0.12175448340834528,
                0.07032032314247061,
                0.09270805670762605,
                -0.05321761996930417,
                -0.03634650700100263,
                -0.29867975144782655,
                0.11777046848877334,
                -0.018739204200588756,
                -0.008592165524405365,
                0.2901338324205179,
                -0.24775618848048306,
                0.09109480193674324,
                0.0729483680538978,
                -0.03828675240677062,
                -0.1488686763618677,
                0.07129384863034563,
                -0.16611939045752014,
                -0.275499151832122,
                0.09107579940767507,
                0.008187700429645475,
                -0.06326273456113216,
                0.09205561557114898,
                0.0010097537736439752,
                -0.12672734941928765,
                0.031231212716347226,
                0.13023474428210743,
                0.05949655763359815,
                -0.03191213419094795,
                0.08948584042632185,
                -0.21634082426927195,
                -0.3183825690482618,
                0.19538210800976447,
                0.2209238351532161,
                0.028344669504854918,
                0.13429411259301677,
                0.10805615527343099,
                -0.21198064774133696,
                -0.07283403572549613,
                -0.24380483744743747,
                -0.20477903647013015,
                0.07025439216795892,
                0.04669931393338118,
                0.2945897689271253,
                0.06688756849867324,
                0.13038978411641247,
                0.23877458197575996,
                -0.13196728147866582,
                -0.12897169000241523,
                -0.17969913618374325,
                -0.03197558312977672,
                0.10125700422339443,
                -0.33774592994546654,
                -0.0889853369635032,
                -0.05676019532743754,
                7.57349013476657e-07,
                0.04173166896198983,
                0.25028946815285164,
                0.15538782985200347,
                0.038073028468447304,
                0.033498732626490335
            ],
            [
                0.2484570089965739,
                0.3722225480981262,
                -0.07513179831770676,
                -0.055368101755327456,
                0.11217086075746875,
                -0.03180633077391149,
                0.17387281745815972,
                -0.0002614729191390784,
                -0.1282815923116213,
                0.035380712767800096,
                -0.14292432734648275,
                0.15090639687457535,
                -0.10207526095899642,
                0.052353003984263,
                -0.11879714573827921,
                0.21205383182535742,
                0.10399572074922962,
                0.18005555932183911,
                0.12480887475437716,
                0.30298833695002697,
                0.0863144555030256,
                -0.1891925259267038,
                -0.1842966285465136,
                -0.14474407373168197,
                -0.09278712449974957,
                0.2350209032030817,
                0.1302458709940647,
                0.1425022650231304,
                -0.41767567126334576,
                0.12247110123175249,
                -0.28928586529363726,
                -0.0227771656468832,
                -0.15755743494629898,
                0.1140014727952922,
                -0.12503825293467222,
                -0.023810409762807298,
                0.1363457447729829,
                -0.22277827243374584,
                -0.08363800342839818,
                -0.020084022351687443,
                -0.1677786780388094,
                -0.09623400728597398,
                -0.06759697307496139,
                -0.046057608212319294,
                0.011728511364361895,
                0.1027223755703289,
                0.09384796365975835,
                0.06031119740020612,
                -0.21197998532769283,
                0.09302488480037421,
                0.11702639325509065,
                -0.21893843033559152,
                -0.11712930389310719,
                -0.14962302555584062,
                -0.1521852864511724,
                -0.06407500277606289,
                0.016849095068644297,
                -0.34476971820162666,
                -0.047692007232598914,
                -0.008406142813814972,
                0.1554567257232358,
                0.06822860614244361,
                -0.21473804522673026,
                0.020361408396979926
            ],
            [
                -0.2085334580174656,
                -0.24068605380546307,
                0.2856792012004039,
                -0.03587330417298637,
                0.10348476105077854,
                0.01797124347701275,
                -0.08242801150843308,
                -0.03877199316142791,
                0.044055290119616085,
                0.035163789648710815,
                0.05586902485489993,
                0.12154829697622573,
                -0.1462976877567656,
                -0.14333392072798778,
                -0.15781101335251943,
                0.4023966780009969,
                -0.09165465785633482,
                -0.2155440963331913,
                0.22617952421812038,
                -0.09359164615606537,
                -0.2535464349570745,
                -0.3144340310070367,
                -0.09109799515613966,
                0.06934261490109497,
                0.17412070995706544,
                -0.05015927362373513,
                -0.0163066332320376,
                -0.3203383422121264,
                0.26157719471248214,
                0.01919375655341787,
                -0.09922349188946339,
                0.14245997046053052,
                0.05451548388649063,
                0.11549220926316907,
                0.10300270937237781,
                0.007340307466230233,
                -0.09545580813089845,
                -0.04996033340085101,
                -0.22167978344850814,
                0.04829066677788395,
                0.1519816501925549,
                0.3264570869271466,
                -0.04471198971709283,
                0.05355951179735263,
                -0.1216377201046066,
                -0.014943624989691194,
                -0.19015179893836964,
                -0.21161129863402678,
                0.1651834291172735,
                0.006664416210026826,
                -0.1525884382452865,
                -0.26255792412660783,
                0.177223392141867,
                -0.24539130328147063,
                -0.24780995766337166,
                0.3394672562428504,
                0.3798594566108361,
                0.03405815253872317,
                -0.2375096746791846,
                0.0064056773832253285,
                0.05151149795035775,
                0.008791384703957243,
                -0.218370719979762,
                0.14236961830400102
            ],
            [
                0.20327270357768668,
                -0.22487388802025882,
                -0.12058500977558144,
                -0.05520278607464972,
                0.2307331933908781,
                -0.23172926645519623,
                -0.08010872085797378,
                0.20447643197093146,
                0.3260272458766342,
                -0.01272510876269774,
                0.1565188116888473,
                -0.109867265679528,
                -0.19977674021907682,
                0.12212627210068926,
                0.046878873203484536,
                0.16255925220739142,
                -0.20524524379252906,
                0.1095187145529565,
                0.08788064956969917,
                -0.12471166243120765,
                0.11506161069961249,
                0.39501649826580476,
                0.3010314240298007,
                0.19505790834390124,
                -0.07839366804990132,
                0.026954758887439974,
                0.20744737048483902,
                0.006269423567412259,
                -0.14550229580500793,
                -0.031114722819737036,
                0.1577804017009083,
                -0.21509716758729197,
                0.0915045648127851,
                -0.2811033639490363,
                -0.16110646879582372,
                -0.13380024916562488,
                0.1903978618514806,
                -0.11157152699095894,
                -0.26505885692038256,
                0.08811498255081554,
                -0.20455438226749872,
                -0.10946892415782385,
                -0.02759835291538427,
                0.16646992905172547,
                0.22157508241523355,
                -0.17248152489555665,
                0.07754138217855384,
                0.08766937535712836,
                -0.06578958257679172,
                0.297472676088232,
                0.1784299756990559,
                0.06814459050327164,
                0.1807815064250198,
                -0.04737791679469177,
                -0.18283194841291453,
                0.1506436561781875,
                -0.00024112473592421336,
                0.04609768677819442,
                -0.362080463163405,
                -0.06448026863001026,
                -0.022327370976009887,
                -0.43294980301394725,
                0.24602242277680778,
                0.0762540068554484
            ],
            [
                -0.009608504187320328,
                0.020738500813935867,
                -0.09171689086934709,
                -0.12109358151484043,
                0.1259290199590597,
                0.05325906995065811,
                0.030587920810702465,
                -0.24204161241001598,
                0.055698724144283354,
                0.07913235099537246,
                -0.01715280527611966,
                -0.07295713419149943,
                0.2124867687087079,
                -0.013202655575415717,
                0.24859010411956137,
                0.0854775118023036,
                -0.1908536636842566,
                0.13837275724117803,
                -0.10543010829930657,
                -0.20465473657346073,
                0.030443799576737006,
                0.11295141499799263,
                -0.07997905661681536,
                -0.24755313790062033,
                -0.2844229827814351,
                0.0552439123189155,
                -0.16145706969517398,
                -0.18118172746204103,
                -0.010214775612845362,
                -0.11266954260505037,
                -0.16417026461895498,
                0.32410948268952045,
                0.06272554635613088,
                0.2200245500299388,
                0.16684864468493663,
                0.0016247505903086168,
                0.13844322413821006,
                -0.27918726542755673,
                -0.02692725006178014,
                0.2819714215256339,
                -0.001151812814200941,
                0.1801969476860795,
                0.1451360973584417,
                0.016461069492952143,
                -0.05382100937635895,
                0.16827477232106006,
                0.08872760636522678,
                0.020176079447387953,
                0.041245224244649735,
                0.140709270142399,
                -0.05886815052790724,
                -0.0834396947779131,
                0.08940700725021816,
                -0.09621302613105095,
                0.013702897797886951,
                0.11699098752372364,
                -0.07308929186500142,
                0.051534629029044744,
                -0.12808451984386454,
                0.09010587118646042,
                0.10592799813839399,
                -0.14092535779579082,
                -0.03210570842314316,
                0.16212826748579218
            ],
            [
                0.2176669539020793,
                -0.18970676494213,
                0.2944799690684144,
                -0.16593464633784544,
                -0.0033290632815978216,
                -0.28036905304469306,
                -0.03229328564139648,
                0.1847704415739375,
                -0.3227998899090871,
                0.023624141066641055,
                0.0721996128979345,
                -0.07951190616318769,
                0.22382322200466548,
                -0.14946114377024441,
                -0.10962715077151972,
                0.15025911093607724,
                0.21929366144613374,
                0.02602935603716536,
                0.10435162082681973,
                0.04635002304525379,
                0.11164894837823888,
                -0.008214816144207632,
                0.2295750988614063,
                0.09682875293259334,
                -0.05984620924525883,
                0.1375418482005759,
                -0.10346381785816106,
                -0.013722737829890287,
                -0.16854240231764853,
                0.015515525101212738,
                -0.1581399302603826,
                -0.02857272010170506,
                -0.1340330828427267,
                0.03682050140038044,
                -0.03606603505178535,
                -0.0370130175732115,
                0.09242304246903124,
                0.004128761724044813,
                -0.1325103275672466,
                0.025704546354189173,
                -0.10351252670159007,
                0.09224641759605053,
                0.21950908383505513,
                0.021943859822506875,
                0.0761001476817765,
                -0.10084148248623548,
                -0.04321775352216723,
                -0.14138470419481536,
                -0.21987325235092903,
                -0.019539135889358752,
                -0.17586897006820518,
                0.2403346463603506,
                0.15296403481640494,
                0.08994864528736617,
                0.14911757680643592,
                0.21578657777724894,
                0.4524035217947179,
                -0.06434252474739306,
                0.22014498413653,
                -0.3902859393317874,
                0.3761641006344466,
                -0.10174882348863942,
                0.17657422681427126,
                -0.11903157446806487
            ],
            [
                -0.18912406634632087,
                -0.18326665098371425,
                -0.11184911607988143,
                -0.1275413504015319,
                -0.02722033455058961,
                0.08328619464894112,
                0.22057814645170276,
                0.16101133155977326,
                0.042503254747698845,
                -0.12233896056868411,
                -0.18002242310308336,
                -0.24113553188585182,
                -0.08258487928188936,
                0.0928611719675053,
                -0.16209041829661275,
                -0.16281400477246147,
                -0.1239605019573397,
                0.14452271476577544,
                0.11001687676949035,
                -0.05448090063076576,
                0.1489426928854654,
                -0.06144485998721925,
                0.12643953311703768,
                0.24835265446401833,
                -0.27614122569088306,
                -0.03599420202062804,
                -0.16653668975623803,
                -0.2907478123500822,
                -0.2121173581702693,
                0.2881031144886189,
                -0.17663318873535797,
                -0.14524376308186765,
                0.2773010381705207,
                -0.00852266275949645,
                0.10453238776068631,
                -0.2431375968427006,
                0.08552780001721708,
                -0.053249831981254214,
                0.0692606552396574,
                0.22311121214416235,
                0.22900805860943546,
                0.21181959581185128,
                -0.034732766044786194,
                -0.0352748724530822,
                -0.16897415487670844,
                -0.07566768922085665,
                0.13948946093393108,
                0.28287233894647834,
                0.05341301053299159,
                0.15818992752355085,
                -0.07100195512808141,
                -0.2069592599108738,
                0.2789744877602104,
                0.23312170780741587,
                0.05254614566108389,
                -0.19229969741542197,
                -0.08188759218120044,
                0.22525154280606968,
                0.030170648377759915,
                -0.3157646618368906,
                0.035359439148216855,
                0.39788665048600125,
                -0.004958554981590171,
                -0.2287662375913927
            ],
            [
                0.05705553208550162,
                -0.14727084338026053,
                -0.09844362497632478,
                0.3049082467446688,
                0.07666024166995157,
                0.08282367683239006,
                0.6260425302690231,
                -0.1616845660752355,
                0.1270359800855585,
                0.0672900658541761,
                -0.09072458791441626,
                -0.04282733294564743,
                0.2619055569020688,
                0.22505166277309605,
                -0.021264151016313525,
                0.274571364491391,
                -0.04023556610465729,
                0.09280538246779743,
                -0.07050673600114216,
                -0.18065830773752353,
                -0.3392845913423924,
                0.1977511076349001,
                -0.03165706952201733,
                -0.08441068379023595,
                -0.11307962479522128,
                -0.14589538598554702,
                0.06280485997951471,
                0.08206447245857908,
                0.013244962080163174,
                -0.22327944996843854,
                -0.05479737825565891,
                -0.014280378048011078,
                0.026354280853520647,
                -0.0646756462626386,
                -0.2461794871115256,
                -0.004158660152808152,
                0.023175655268437456,
                -0.003981754877202634,
                -0.047569280577288806,
                -0.30902299387934296,
                0.0801970089721986,
                -0.10625365219177696,
                -0.27440141028608245,
                0.07527444811318507,
                0.025239222462762965,
                -0.20435852066831953,
                0.5095354112534212,
                -0.12000503309464344,
                -0.2436626743646279,
                0.06290824395920454,
                0.13308939446171134,
                0.17881906716978807,
                -0.06906290334121858,
                -0.0324772826781297,
                -0.10582316070634057,
                -0.035087221936777206,
                0.3268159742464991,
                0.08484469408876986,
                -0.37894003215175814,
                -0.11325947857423392,
                -0.0363988246898301,
                -0.043255658159368444,
                0.15074027362631068,
                0.027227970073109623
            ],
            [
                -0.0022392518504298574,
                -0.11341476658823454,
                0.13097611455813477,
                -0.2166135731259943,
                -0.34649390880583947,
                -0.007269641208396448,
                0.001841171531474001,
                0.005128473338336222,
                0.10936069571166632,
                -0.31532311367602883,
                -0.0226637202437202,
                -0.45543480166267986,
                0.40544490255297294,
                -0.1791681522928809,
                0.13845435144384616,
                -0.05242657573263794,
                0.312720482474582,
                0.07750118963365481,
                0.08592214978468497,
                0.00835965768033409,
                0.1705187813198164,
                -0.12074183377460673,
                -0.10586707532712072,
                0.1331028656252146,
                -0.2237830665606131,
                -0.3652803008147624,
                -0.34782686627020704,
                0.0034969185322874,
                -0.029435422961237516,
                0.023871536779702048,
                0.0765063849873022,
                -0.0075858181512796045,
                -0.14251490295952987,
                0.19238291636595428,
                -0.02942221520713599,
                -0.013831383271221067,
                -0.018968016825916964,
                -0.17143960711648332,
                -0.05006752191027849,
                -0.43082951779454615,
                -0.07078339179742804,
                0.26243701427645205,
                -0.18472960432815336,
                -0.022481000253480817,
                -0.04589867996673981,
                0.06530883708625647,
                -0.06066424749670734,
                -0.24984438964469916,
                0.16486908219214358,
                0.19255629409207947,
                -0.30182312252075416,
                -0.19347252646831178,
                0.027458272790507214,
                0.1423613511174033,
                -0.26413468433177056,
                -0.0007061196876403022,
                0.18287500446044214,
                0.02646634152512548,
                0.0828862561055281,
                -0.11834476994583884,
                0.0005197939690233336,
                -0.2407655098042112,
                -0.1691180985397003,
                -0.1877353816979681
            ],
            [
                0.0852760370616283,
                0.016279655896977944,
                -0.08125376414747396,
                0.19335642859869062,
                0.0862314534549122,
                -0.19058800688864322,
                0.3563566000905055,
                0.07113212361798335,
                0.09231978948920726,
                0.2211794344416965,
                0.16560496099864863,
                0.007081588781654459,
                -0.20479496169727954,
                0.1749682852547594,
                0.32601700652311116,
                0.17148499400695802,
                0.1905432301115507,
                0.06297995592880165,
                -0.08353402495574261,
                -0.03785647180199877,
                0.12858583235690216,
                -0.014000547310339976,
                -0.023019587483879583,
                -0.08529977383826436,
                0.12418751995584079,
                -0.06340448068895112,
                -0.046748064740023375,
                -0.038860054463518395,
                -0.09458526638508068,
                0.02652761768747146,
                0.20072058615834146,
                -0.06316397787625926,
                0.12271617620050082,
                -0.09162062136830347,
                0.08359466753580558,
                -0.20119886077182447,
                0.0379143112341623,
                -0.11095399142956953,
                0.08865103239823455,
                -0.16866612013113264,
                0.26708588274078615,
                -0.07320454412299102,
                0.06583214768143507,
                -0.04146074645639107,
                0.24963069419724546,
                -0.04730360268686775,
                -0.10328792555899168,
                0.1345221957527345,
                -0.22320018703269842,
                -0.2521791558573964,
                -0.10928607934886864,
                -0.33354313685024883,
                0.17902411209880062,
                0.1870574704634342,
                0.12613657016343896,
                0.2922984481259748,
                -0.10778704967514002,
                0.2283108046983199,
                -0.006734531284324318,
                -0.21510037309084462,
                -0.11720419666000553,
                -0.4542337123593358,
                -0.1802204960201416,
                -0.11930626706855818
            ],
            [
                -0.011472228715400002,
                0.21237217827517252,
                0.08035901742173612,
                0.03750387600863224,
                -0.13274649568164393,
                -0.029825232005134542,
                0.2704869460333411,
                -0.10355103276094996,
                -0.14345447964764885,
                -0.07507320373042678,
                0.26086540236397787,
                0.20772977637383724,
                0.15548676644880322,
                0.0779287048663165,
                0.2745944978945902,
                -0.006829875403721088,
                0.22026173504053123,
                -0.1692695704536176,
                -0.20507946594362522,
                -0.1269555973703886,
                0.07851851384476802,
                -0.4381502293816424,
                0.22582181558516004,
                0.3321462648437987,
                -0.1889930786966086,
                -0.3124993797138256,
                0.03716483138542079,
                -0.07683545406576812,
                0.3875802619735497,
                -0.08321802003363128,
                0.07916124327729385,
                -0.03733937762362565,
                -0.21907150323841684,
                -0.1089694826935,
                -0.22942523459449332,
                -0.2624864228215027,
                0.04255182805522904,
                0.27672964316312826,
                0.15956823714835264,
                0.15314004909009366,
                0.3206702917588005,
                -0.18800915449435104,
                -0.14657870973892773,
                0.23549045486750805,
                -0.07845716339302758,
                -0.08378154020059254,
                -0.1990750885725067,
                -0.12683774605938397,
                -0.24907786801576257,
                -0.04771735355211465,
                0.3493603382325377,
                0.09792541409220179,
                0.05814582160594538,
                0.11125958748240795,
                0.07229942514816012,
                -0.022125192292459555,
                0.11047235910404662,
                0.1720378958709014,
                0.4260424596724059,
                -0.07478582086980917,
                -0.10892683614588573,
                0.11586352789163781,
                -0.14337208387512745,
                0.13873750453717948
            ],
            [
                -0.16355902602030423,
                0.12113802121233609,
                0.1717098624027776,
                0.12546309675980558,
                -0.11282150562444161,
                -0.0015339264373362925,
                -0.3348901620703071,
                -0.12308759695589208,
                -0.11735116231465897,
                0.017195074616289503,
                -0.06903686993717809,
                0.07095841940111178,
                -0.2856285347778656,
                -0.3880000728651952,
                -0.13923505001197337,
                0.10958731248817918,
                0.4284982169450482,
                -0.16685046658045818,
                0.039858227377569375,
                0.0072535248201601,
                0.14432162577389612,
                0.09968872334564956,
                -0.015029130449868889,
                0.1579683939269233,
                0.027466497120847973,
                0.4718313668358611,
                -0.36809108755219727,
                0.05068183722567999,
                0.16954371937666404,
                -0.1332996611761572,
                -0.3089659474933616,
                0.05343109603984168,
                -0.057890807477145374,
                0.01197501285557261,
                0.03771751358649655,
                0.02331586407151201,
                0.0838899519534581,
                -0.04735062432970018,
                0.20312346375917564,
                -0.02576152229025016,
                0.2551363888779624,
                -0.03311177916149666,
                -0.004252590622972983,
                -0.13067705916840205,
                -0.33217404530749367,
                -0.3018006994966367,
                0.12607861870017126,
                -0.0711703559483837,
                -0.0849798613691612,
                -0.06066586431479547,
                0.13543105412726694,
                -0.03896069783215237,
                0.015181994405708915,
                0.22442195451781,
                -0.06508849803748072,
                -0.12852042381439638,
                -0.0826874000471941,
                -0.09087749590838957,
                0.04707215790029573,
                0.12444856543251115,
                0.27688325988418283,
                -0.03190371259049809,
                -0.08888861216055383,
                0.1788339990504974
            ],
            [
                -0.15133407553837372,
                0.06606333321515441,
                -0.0027379714630520343,
                -0.005570017991945462,
                0.07480821493314,
                -0.05323726338922926,
                -0.08524020115556129,
                0.15504646368065747,
                -0.4837545731150863,
                0.04245334287104505,
                -0.03682211184995515,
                0.29514417703705687,
                -0.3102730659852084,
                -0.2514270151638534,
                -0.2844108806577202,
                0.2903374475951733,
                0.014566703079268972,
                -0.20288438045311127,
                0.06143170506328792,
                -0.2023860079869137,
                0.17473670196457633,
                -0.12257864540077248,
                -0.1445815983352188,
                0.1971391187983811,
                0.026829289117402174,
                -0.23507815703521331,
                0.06608437324074445,
                -0.20351175083834372,
                0.18135434979027615,
                -0.37419191976232885,
                0.015031063857533148,
                0.053172143549911496,
                -0.2685089427908174,
                0.3027089795008565,
                -0.1301289431795906,
                -0.021301902628168612,
                0.1471594182773154,
                -0.02211270815091432,
                0.18876082199322616,
                0.07156945623885025,
                -0.14682658773517449,
                0.10025767438814893,
                0.19838783404008006,
                -0.2125166784292734,
                0.18062473164448203,
                -0.04516386311696014,
                -0.17393820725761963,
                0.26686964592174817,
                0.15622186901688617,
                -0.029337579908518426,
                0.1332899425798321,
                -0.1654248170141284,
                -0.0830462448699369,
                0.0006063383838995072,
                0.3617877825255733,
                -0.013695466114299237,
                0.2112242587080914,
                0.33529855557546795,
                0.16741680800211572,
                0.13253708319142346,
                0.33467041364434497,
                0.3541026031615875,
                0.222688030380339,
                0.2908200788364847
            ],
            [
                0.029372225811057782,
                -0.009302889193383174,
                -0.38823230254624513,
                -0.00034612073275857615,
                0.12523713890034502,
                0.4491854243854111,
                0.10444534634092809,
                -0.18465734330196668,
                0.0793075858211977,
                -0.2958800943863809,
                0.06146208889758456,
                0.12409052473184826,
                0.2064081782333176,
                0.13575649853057972,
                -0.3349178471131607,
                -0.018957872212803373,
                0.13102323715417272,
                0.007748317252020871,
                0.02215719234098995,
                0.023489268278975597,
                0.24637481860899896,
                -0.07669141336677245,
                0.1443035776341255,
                -0.046262063142567755,
                -0.13212374135925162,
                0.1407171742423236,
                -0.14039277493318622,
                -0.3750911728252917,
                0.18925999797586684,
                0.07254404559196403,
                0.3174745007850254,
                0.22176377739629838,
                0.415138208221807,
                -0.02470076646516065,
                -0.18389533169313996,
                -0.01439427016311885,
                -0.03039978485774049,
                0.37786659677695694,
                0.2792344574077511,
                0.04330804168277319,
                0.17302327581253024,
                0.17794625130501868,
                0.022561689846692594,
                0.2882531930346247,
                -0.014633130685033427,
                -0.08246651753502494,
                0.2851731137424168,
                0.05909169273069188,
                0.0811615323212918,
                -0.22716099516308677,
                -0.12079949354777282,
                -0.17137205191181445,
                -0.055261461522295816,
                -0.021459434972225102,
                0.13961084468680507,
                0.21559906757668235,
                -0.05436617574068144,
                0.07405031940808098,
                0.2565617907814663,
                -0.3118363517419631,
                0.024200675494312207,
                -0.23762476047039766,
                -0.050843535873648135,
                0.028743965102958853
            ],
            [
                0.1707428778680306,
                -0.15889681992472068,
                -0.08750158353680905,
                0.1380049241399129,
                0.11071818114284396,
                -0.4374535784478359,
                0.20665160976442887,
                0.10129611743904697,
                -0.0021282789310422944,
                -0.04234566998990013,
                0.48143562084458696,
                -0.16698310094695185,
                0.06971861257247891,
                -0.2724392307403946,
                0.04245336500391715,
                0.2668025472519377,
                0.015348920483647152,
                0.10295966907703473,
                0.0915220867659868,
                -0.39441643930395187,
                -0.09126070311943851,
                -0.17336362093228788,
                0.14978273510793438,
                -0.05989904905848004,
                0.18867810588316947,
                0.09205556438510497,
                -0.07426756942167052,
                0.3112114077625664,
                0.003213728232788052,
                -0.24476971464388964,
                0.018727224802242256,
                0.14471217132535955,
                0.4296688777800375,
                -0.24521049112261825,
                -0.10282671668148857,
                0.2863105886801704,
                -0.2543000558331616,
                -0.04840168741285651,
                0.0005109230444469306,
                -0.01471384500480093,
                -0.01023808355495196,
                -0.37304014426942056,
                0.045705918476239844,
                0.23434060314535274,
                0.191681740731013,
                0.0807503306402006,
                0.10381356388218417,
                -0.12991542949609697,
                0.2722821279304444,
                -0.0951062526085432,
                -0.10531744043105576,
                -0.06338556727531391,
                -0.11211900443718022,
                -0.3902078839447045,
                -0.08223768490654366,
                0.13042456594260485,
                -0.30016998504625864,
                0.01597881140555269,
                0.17373175986931932,
                -0.13790162135410472,
                0.3220061239529045,
                0.0810659327586191,
                0.022277449875799202,
                -0.021061096666842576
            ],
            [
                0.37223332091522476,
                -0.20694548335070978,
                -0.06003880014327756,
                0.06933667665895978,
                -0.01243399613997455,
                0.18460011468152354,
                -0.1364466699071798,
                -0.06490981907672881,
                0.052252789756597987,
                -0.03145235207871719,
                0.10242040206655623,
                0.16939401546295002,
                0.2353773149029641,
                0.3134958797091591,
                -0.0373537445058155,
                0.03964197501915262,
                0.11856501963455819,
                -0.05000260686860095,
                -0.058863236935828754,
                0.18017543025403832,
                0.26973497925352524,
                -0.18934293996284798,
                -0.0616042298284064,
                -0.1829035752254533,
                0.006570296192011821,
                -0.019700807029148833,
                -0.007160588802844794,
                0.36947939125993245,
                -0.007356579325397584,
                0.07072372900649075,
                -0.09060382622921498,
                0.20496087113895586,
                0.16748377857194877,
                0.20937548802126754,
                0.28881852282336906,
                -0.01828354016688417,
                0.015392963257938385,
                -0.005173841669554265,
                0.06173415366230236,
                -0.15314057460266076,
                0.0510289623576253,
                -0.06973950782890859,
                -0.012321238841675719,
                0.1505493460496176,
                0.013250531916643628,
                0.33026804438808466,
                -0.30539929919126313,
                0.01951109838685164,
                -0.011041653407123597,
                -0.22086489368238688,
                -0.2350860329786658,
                0.4531654862214777,
                0.20095693743393775,
                0.13985029113487454,
                0.29166324304306196,
                -0.21537592069993547,
                -0.16305342118125332,
                -0.16826835565966852,
                -0.15482692537007248,
                -0.0467408467912479,
                0.06040384063178217,
                0.26364742765035615,
                0.1099587677607267,
                0.15867391852438048
            ],
            [
                0.08175148542818775,
                0.1049090615067922,
                0.10207677528647076,
                -0.1663479611951419,
                0.04449818339029878,
                -0.11388989719974775,
                0.183224148541589,
                0.1368136991159949,
                0.1556106408902574,
                0.10046635714705565,
                -0.25822362967419443,
                0.19854569346750167,
                -0.23695309297410147,
                -0.010613876411425086,
                0.05052364066402304,
                0.08799701924907725,
                -0.1411032178056429,
                -0.08779571563331501,
                0.040633023504407124,
                0.26465020781715465,
                0.33692432224572166,
                -0.06468155260545587,
                -0.133247530795862,
                -0.0721321466588788,
                -0.09104976439521964,
                -0.06104631798872729,
                -0.03643546022782052,
                0.1554715880966468,
                0.11556211889689968,
                0.1469511611661507,
                0.23310689266475132,
                0.003746648610075884,
                0.34612794558355353,
                -0.05800655770339317,
                -0.039080769128379246,
                -0.1641329567975915,
                0.09916116929745689,
                -0.1624119774819449,
                0.15855398434051854,
                0.1450438534830561,
                -0.27350443711237377,
                0.1320815970754642,
                -0.4180863550584332,
                0.28828248010720736,
                -0.030482438120040225,
                -0.04033466231303712,
                -0.29945187132699075,
                0.243019659393143,
                -0.208526331140203,
                -0.08055838113163889,
                0.22443262840094957,
                -0.20584027432437296,
                -0.3771618489237858,
                -0.007394762300165343,
                -0.07901405449298282,
                0.19117230011466405,
                0.3814857595890748,
                0.12000142713594165,
                0.32045342289200635,
                -0.23745204710045553,
                0.11053084989545711,
                0.14902537957043596,
                -0.16532539141065583,
                -0.08467908244777218
            ],
            [
                0.17105687156153132,
                0.016110224126057972,
                0.10321472524191833,
                -0.28942639781802154,
                -0.22619653317057023,
                0.04323278140598091,
                0.1654326882894581,
                -0.13935299947623261,
                -0.15837150206249342,
                -0.09261531081503033,
                -0.3471184701619861,
                0.41045939105028767,
                0.18160686555646904,
                -0.172583796984857,
                0.07362196802517168,
                -0.35262396445078353,
                0.3873414271344113,
                -0.43825255898171045,
                0.32625727070691424,
                0.1624672674844755,
                0.2942552673608392,
                0.38770304562241126,
                -0.05934773355670089,
                0.03816299691653968,
                -0.12235827980686452,
                0.06849027449818564,
                0.10285543427954867,
                0.09323352819250352,
                0.07550478501031328,
                0.10331817857683918,
                0.3005130450149978,
                0.30310707398229414,
                -0.11352883646990759,
                0.2503628754137915,
                0.32214280139028895,
                0.13911301498636194,
                -0.18192925324804904,
                0.09397157950500741,
                0.08777567241231823,
                0.02276720106416926,
                -0.024746175436119483,
                0.17420572144982446,
                0.005097999219851567,
                -0.28461967950560213,
                -0.3239852395838093,
                0.299430735584233,
                0.015695859347876557,
                0.0970609284832637,
                0.13701209669716105,
                -0.06208715060999832,
                0.20612018290799264,
                -0.14862468134322285,
                0.17235939383753648,
                0.0021408129545159244,
                0.2649778104811856,
                0.0904141717546577,
                -0.14229325389752523,
                0.08847205093677431,
                0.0237841282163641,
                0.02360033355779706,
                0.17672651553764016,
                -0.010638622461627575,
                -0.28035203412792814,
                -0.319133713228315
            ],
            [
                0.08518364632356484,
                -0.12746095015699885,
                -0.09777731386543835,
                0.17683153694037615,
                -0.3107961605647859,
                0.015750354110265947,
                -0.001123981695493845,
                -0.12372869781290377,
                0.09491480992368011,
                0.007817479357357186,
                0.08478306670281632,
                0.1821069426455984,
                -0.14887393429330031,
                -0.20590231180122306,
                -0.20692368254995305,
                0.27705352320692156,
                0.23977807103375257,
                0.09197157414567966,
                0.34361494493226613,
                -0.24433212828666317,
                -0.2319293400903968,
                0.09270331080698484,
                -0.0822795591411157,
                0.3987101820004335,
                -0.20197864352823672,
                -0.08529497691251664,
                -0.3989997510086608,
                0.11128261392160411,
                0.03519356063171097,
                0.14822115802970404,
                -0.13426854130855495,
                -0.10646163282244363,
                0.15927121969027105,
                -0.22985435863306697,
                0.02010602255855736,
                0.4650401273685003,
                -0.042298433171578394,
                -0.3423434741283702,
                -0.28240439037656406,
                0.08354957348020567,
                0.15226434056516366,
                0.1473978068100909,
                0.076729788939272,
                -0.03330078875515265,
                0.23082398107888424,
                0.10295365673458684,
                0.09858806370885813,
                0.29182449939562066,
                0.4305942209997325,
                -0.08770883785713078,
                -0.2213816951804879,
                -0.207617263437445,
                -0.05633871686317149,
                -0.18157900896324464,
                0.24224397848363202,
                0.08668022096251697,
                0.36112791012496437,
                0.2988252074153117,
                -0.0969642572456185,
                -0.031167029460441763,
                -0.059266711545925624,
                -0.12619370636126642,
                -0.13302383290549175,
                0.13462133107534863
            ],
            [
                0.31405865653821313,
                -0.028331201458364926,
                -0.12286856320974798,
                -0.16487705459114074,
                -0.04055766811941523,
                -0.10232248496362067,
                -0.1595434443023761,
                0.09250433936963309,
                -0.058712549364131734,
                0.14059009160565772,
                0.2617304137805065,
                0.2564054089157247,
                0.13254048266497442,
                -0.06622932726363287,
                0.21735659548247868,
                -0.20362524016320505,
                -0.21715479066789725,
                -0.0134327429972772,
                0.07431552682940186,
                -0.08227567125986905,
                0.07499443011225378,
                -0.15857561421128183,
                0.14557765403639902,
                -0.32584959947930037,
                0.02057969220670153,
                -0.3157805333296115,
                -0.1078442127549575,
                -0.037700398620633846,
                0.029214558264154446,
                -0.28262310379830885,
                0.2427561540785681,
                0.02321378526594354,
                -0.19031667063239108,
                0.23167237216843453,
                -0.36889678672378234,
                0.08874531932259846,
                -0.24819124116857513,
                -0.055484634129190795,
                0.021018009888616313,
                0.5091627156082971,
                -0.22492053932342523,
                0.12829114198513458,
                0.008102403457321267,
                0.11916717941244344,
                -0.029290265902577325,
                -0.10120819974427958,
                0.1898182668276155,
                -0.02326229040676841,
                -0.49634483386088196,
                -0.1203358192845204,
                0.04522430626384483,
                -0.11753565308574415,
                -0.22979405974866027,
                0.13778626835211805,
                0.10353222448525855,
                -0.2762145142223242,
                0.4187046968328088,
                0.019807256213180524,
                -0.014659821844366825,
                0.19593582308863972,
                -0.03629314030534795,
                0.041244860258353,
                0.1354052942953693,
                0.14448280618164777
            ],
            [
                -0.06700996303025442,
                0.2146761260915744,
                0.1617718669187485,
                0.0659307721610431,
                -0.1793895066709857,
                -0.06667822224815075,
                0.008188696435757778,
                -0.022227300628712,
                -0.11494229254436471,
                -0.1279284582901291,
                -0.3665482377896774,
                0.17195880973375674,
                -0.23305721265901685,
                0.04990024938881294,
                -0.13061054146174692,
                -0.01886129073809875,
                -0.0708366245195859,
                0.08651079882015704,
