{
    "architecture": {
        "input_dim": 6,
        "hidden_dim": 64,
        "output_dim": 4,
        "hidden_layers": 3,
        "dropout_rate": 0.0
    },
    "weights": [
        [
            [
                -0.6364536941865128,
                0.20510345464260482,
                0.5795086387636331,
                0.4902968859495302,
                0.17517439071412036,
                -0.4115360773016416,
                1.751108929132523,
                -0.32285022774133915,
                -0.6759672734925237,
                0.9691881821973067,
                -0.49271991182420455,
                -0.39787938603081396,
                0.11894124639630363,
                -0.02369044042825004,
                -1.7128795461925228,
                -0.6878411927026487,
                -1.1916012812186176,
                0.252342044295515,
                0.6809703972454634,
                0.2960277504699185,
                -0.025532173527465812,
                0.5443157451208595,
                -0.5370124798564206,
                1.404333290684734,
                1.4645327372062094,
                -0.2732294026661985,
                -0.6778997392049763,
                -0.05448800200722104,
                -0.042266349290835975,
                -0.8130934143422216,
                0.1745962313563143,
                0.12116971228179939,
                0.08978888638315012,
                -0.490489234439475,
                -0.6577123621312994,
                0.738874632329324,
                0.17130746387091791,
                0.344206780915264,
                1.366577585956166,
                -0.6426933711572972,
                -0.30513047688352024,
                0.11813999026817947,
                1.1168972051058348,
                -0.930099725920556,
                -0.045051666691406936,
                -0.6260135189390215,
                -0.4774819968331529,
                -0.09630177190620377,
                1.0048129475562633,
                1.4965680976488325,
                -1.0841605234987564,
                -0.12707589037515446,
                -0.05999993233929801,
                0.6423843944750027,
                1.5017982567383712,
                0.34266143626200096,
                0.9619232265740649,
                -0.33830990876830785,
                -0.7345950010907456,
                -0.1845360019667134,
                0.6008769237809626,
                -0.0999819108477109,
                0.007898639903905193,
                -1.2041546274921153
            ],
            [
                1.3623015106397751,
                -0.1599393126457186,
                -0.4371184026772252,
                -0.7810362675914304,
                0.220264964268334,
                1.0970139494505542,
                0.9978369046588642,
                -0.4132522007755853,
                -1.0250109947404742,
                -1.2991535599499582,
                1.2404380296876298,
                0.20347433520947023,
                -0.7779635849337935,
                -0.7764894942259059,
                0.7008910915333446,
                0.6083387863668561,
                0.049112898540053906,
                -1.4578844231418047,
                -0.9145727769798964,
                0.9203842003583061,
                0.0017330820079817808,
                0.3008772227294146,
                1.1161877306327093,
                0.5788283419731095,
                0.05677899849555011,
                0.21540578866863944,
                0.09205348180325891,
                -0.31698267037871897,
                -0.16716874829019562,
                0.010427506170157405,
                0.30353180085178005,
                0.29518727934823197,
                0.3825238426282573,
                -0.2873552717876891,
                0.13137869387178142,
                -0.5090752633396356,
                0.10410791053426731,
                0.16137670373351,
                -0.02944545749513715,
                0.5556877750930898,
                0.9170467681759199,
                0.19885839831512586,
                -1.109812661596967,
                -0.1055297290490741,
                0.005108503655523209,
                0.5645981691197824,
                0.5101530810951659,
                0.1393806832361332,
                -0.38384842109775663,
                -0.4938666692612886,
                0.8880315306109137,
                -0.11661642286131514,
                -0.9342107565153869,
                0.918073188949477,
                -0.39619342922718087,
                -0.051186085614511954,
                -0.3747295187184651,
                0.7450688299649243,
                -1.22050135904254,
                -0.6023762552275301,
                1.8503739297585604,
                0.110545430147912,
                -0.22141281415627612,
                -0.010187171202955442
            ],
            [
                -0.2974800620432736,
                0.0288690027289588,
                -0.6480299209010193,
                0.8843767158951045,
                -0.794139840867199,
                0.19855103858267725,
                1.0129563336841831,
                0.5285578189762932,
                0.35492214329099264,
                0.10194331830612072,
                0.5910843197603163,
                -0.40246428316009947,
                -0.7461931146931696,
                -0.5099271139993599,
                0.020313205465041933,
                0.5641725335533166,
                0.601808000332573,
                -0.012550413641584974,
                -0.7193350120948724,
                -0.670451056117656,
                0.6446246503769971,
                0.17734046212261573,
                -0.25178587998479657,
                1.3679696431186095,
                0.8982128127915058,
                0.4768957489649974,
                -0.18446274080790767,
                -0.012520294304217227,
                -0.6006863310467647,
                -0.7071077503405321,
                0.1953916241444644,
                -0.19242018563041888,
                -0.29527122985042775,
                -0.06856750594264996,
                0.7293238144181601,
                0.07067288426357939,
                -0.22816288619595507,
                0.3042692197274317,
                -0.11383202209587188,
                -0.34862981576015134,
                -0.5226539478812973,
                -1.0249121631030684,
                0.5487779348835989,
                0.6483551802012318,
                0.20559018371118834,
                -0.6810149184301576,
                -0.6573714506617802,
                0.07790443235743327,
                0.20202419875152303,
                0.5838654354534092,
                -0.17727175995107772,
                0.27775259734052754,
                0.15622125142125462,
                -0.48775799247610285,
                0.06823689354225797,
                0.6342485295909644,
                1.391659027195713,
                -0.566041934623429,
                0.6587067181341538,
                -0.16893272121730443,
                1.326321348720043,
                -0.12665603159682112,
                1.6745082748038023,
                0.6243128113305251
            ],
            [
                -0.6205759610386294,
                0.15174996539868957,
                0.7804449441817424,
                -0.16223860254969746,
                0.283785176837307,
                -0.6032494526124255,
                0.021843206717466177,
                -0.24537760176258447,
                0.048505305613937184,
                0.48562203135853893,
                0.09158556498494981,
                -0.9120448968140766,
                0.19813767063243679,
                -0.34493056581053666,
                -0.0174010331668672,
                0.1483338763617242,
                0.5167477464221509,
                -0.354422300818848,
                0.24525208430490358,
                0.5853702389508723,
                -1.2399496222219941,
                0.5587404919649103,
                1.171801007297045,
                0.12805212186540865,
                -0.296029279532347,
                -0.27614520012641014,
                -0.365591798799683,
                -0.7397721067217887,
                0.35751482489533987,
                -0.2908057884910634,
                0.08160606588896385,
                0.9187707170294787,
                -0.9538552687515041,
                -1.0366920854950128,
                -0.09058158276349981,
                0.010929884053052572,
                0.3757468532472511,
                1.0008653360317723,
                -0.1128088358238324,
                0.06853964228356936,
                -0.2263807108189885,
                0.0052968632524327776,
                -0.18196961619227892,
                -0.5074790359177098,
                0.30570184465744743,
                0.06107187832701892,
                0.3032870928550936,
                1.1548529246528678,
                -0.18955743204436984,
                0.4809205294716723,
                -0.2008149161730997,
                0.17967889683446026,
                0.15143988561193647,
                -0.6005968881622079,
                -0.37590065638616516,
                -0.5029508067808699,
                0.3389088145768978,
                0.9947593903623075,
                -0.6471041621592257,
                -1.023649072577946,
                -0.23076403422537192,
                -0.4857897272933175,
                -0.18149735433992772,
                -0.39041966476428275
            ],
            [
                -1.277017528741265,
                -0.18397625813708798,
                -0.37872486689630575,
                0.4659339884711668,
                0.12883614850696318,
                0.9884217712327775,
                0.45531752721831953,
                -0.1153610215651799,
                0.5104064241867581,
                -0.21369595061707913,
                -0.14898868601793375,
                -1.077362056590918,
                -0.5010289312466791,
                0.051659583841307234,
                -0.08431548668871257,
                -0.6751918629202398,
                -0.9725306746014628,
                0.5079061367151874,
                0.16967100042898545,
                -0.5353552876398459,
                -0.12951438815849056,
                -0.11657022175849234,
                -0.1582880002746721,
                -0.3770578429161194,
                -0.827055684945362,
                0.011561309286325372,
                -0.13600216672947057,
                0.20530398095405125,
                -0.8043612339210687,
                -0.9497022086285573,
                -0.9053784249434269,
                0.3336564595586329,
                0.26121665863299764,
                -0.3883259986472862,
                0.1492231413395533,
                0.1856479064539804,
                -0.5481253200505835,
                0.8160063562485833,
                -0.3919080461896935,
                0.7170863737652822,
                0.470659508268764,
                0.2957218579726901,
                -0.2679141885835729,
                -0.4961182803401755,
                0.6165649703558351,
                -0.4994107063597396,
                0.15582123842466314,
                -0.12518001519042724,
                0.09060929150204769,
                0.07535904730561004,
                0.49328541706964274,
                0.1495679360309382,
                0.7357612182808304,
                0.6826069928475755,
                -0.07461813743803737,
                0.18669031771903072,
                -1.1253140698522233,
                0.839481574803752,
                0.2075300248670972,
                -0.26024675039751655,
                -1.164348439875045,
                1.2172333236070074,
                0.3203274904687898,
                1.3165659073891463
            ],
            [
                0.8192335269329659,
                0.12133128825684883,
                -0.10780268213901328,
                -1.0340109496817707,
                -1.3829290722205991,
                0.019315845132623948,
                -1.2487321163798386,
                0.22226604589795948,
                1.0759377967554167,
                0.2955293864480173,
                -0.3896818060099358,
                -0.1640005313315959,
                -1.3149099266463298,
                1.0425701245770245,
                -0.1434448950721227,
                -0.2885626900877688,
                -0.13980900371704563,
                -0.15075508305599447,
                -0.6532156999590039,
                -0.27426901107024104,
                -0.6735815876890819,
                -0.32247865745385934,
                -0.20788690404102392,
                0.3486858419398559,
                -0.7769161341148576,
                0.38533665150435886,
                0.05466836780390748,
                -0.40840394539323394,
                -0.14843064728365832,
                0.31950410787811284,
                -0.4493743471190038,
                -1.5231658895121225,
                -0.43300582661377446,
                0.06931985297750186,
                0.7626618909775337,
                -0.5867459414232953,
                -0.30362313416899195,
                0.008178593544887007,
                0.22924555422873177,
                -0.7027522860171549,
                0.2416824137281256,
                -0.5701933990184515,
                -0.513120737771016,
                -1.1541186549799332,
                0.15213922582880102,
                0.5665465247182497,
                0.48332907465962305,
                -0.21616023569256784,
                -0.5636153270165043,
                1.0204678378787229,
                0.02200422106918567,
                -0.3619522413897978,
                -0.03295829352228541,
                0.5718836970623536,
                -0.8070985096012783,
                -0.96633932306582,
                -0.27635579979263153,
                1.2596312184185023,
                -0.5256510783621156,
                0.16832754397002458,
                -0.13283937450866545,
                0.6620350641181212,
                -0.07399847420524917,
                0.8357051688485501
            ]
        ],
        [
            [
                0.18090264465399,
                0.16872215355259804,
                -0.28780724516815265,
                0.15850717561344763,
                0.18387791634526013,
                0.10720869819135845,
                -0.48344270058135813,
                0.13290197444419932,
                0.47571286235785143,
                -0.3429670458795493,
                0.18399807816461447,
                0.08896043889966068,
                -0.13370718578177296,
                -0.18994244786417852,
                -0.19612023836757017,
                0.01763470289833203,
                0.16974668058517975,
                -0.04979476771968653,
                -0.2096110435166256,
                0.25799832105489556,
                -0.28420315314605726,
                -0.20095001501805373,
                0.02962089193779636,
                0.20145979906972478,
                0.03740988108191997,
                0.4013813767904362,
                -0.10676674048170084,
                -0.46591823772524577,
                0.14998443411100487,
                -0.16634595088175452,
                -0.15602184431819202,
                -0.02044043266963893,
                0.019628446536428926,
                -0.4285944896315031,
                -0.09387125797267709,
                0.018140280484624252,
                -0.10081574181360081,
                -0.16102155816184355,
                -0.10299779766537635,
                -0.05060890663439149,
                -0.261055652309283,
                0.15720236144717814,
                0.11906905144899632,
                0.13166052706894513,
                0.07000160587372892,
                -0.047615756732538046,
                -0.0503094805954388,
                -0.0717249655938107,
                0.2962785481009965,
                0.11926292605540265,
                0.2656968889353436,
                -0.16806360908384096,
                -0.027425127979014363,
                -0.45195287340426615,
                -0.06786285926784251,
                0.3077050377745493,
                -0.03527935170083392,
                -0.12259380324210191,
                0.03455378018063546,
                0.03732594884626526,
                0.05708599794201751,
                0.18200366866289125,
                -0.14483037229436216,
                -0.18162233988012763
            ],
            [
                -0.0738097901091711,
                -0.046195540718508114,
                0.11033695901768296,
                0.10593389028999343,
                -0.1621320921570996,
                -0.2266906820160874,
                -0.23067362825509152,
                0.15467879236236454,
                -0.046813036009954956,
                -0.030197757506262426,
                -0.3359692201024295,
                0.08318876416310138,
                0.07707024532904003,
                0.12897306532356806,
                0.07758326147771315,
                0.11688480685168111,
                -0.12329870473380615,
                0.060387421809119164,
                0.24927434902068155,
                0.23515464308471992,
                0.028666914251709807,
                -0.19662702075476704,
                0.10726565160960545,
                0.21744007207789914,
                -0.06722801834377064,
                0.020751264881051616,
                0.35337249323400216,
                -0.06339526843524056,
                -0.022165425307723436,
                0.10457077688758669,
                0.12570246058315743,
                -0.08581637483742555,
                0.3392608544166068,
                -0.01648231370382767,
                -0.14365690403525413,
                -0.2472873487084132,
                0.11301181820053736,
                -0.0013613922532181636,
                -0.09263079906914103,
                0.17884430967682835,
                0.12413785056610323,
                -0.2313508690972835,
                0.36711169912422936,
                -0.05011667676200148,
                -0.5036759991252052,
                0.05990043998167019,
                -0.08369193320217339,
                0.14826995499671286,
                -0.02889730409366737,
                -0.12798263940399063,
                -0.0031749726560876116,
                0.34756582828082183,
                0.009652035476041085,
                0.04686712635427626,
                -0.10457879142935637,
                -0.310689614837423,
                0.30437952991943606,
                -0.020553170206989393,
                -0.04151663227424298,
                -0.02408208758848738,
                -0.08991983210538847,
                -0.13535675151385815,
                0.01872670279019519,
                0.31419875320330887
            ],
            [
                -0.029107787242150945,
                0.12509408190687746,
                -0.07238087321848075,
                0.3488611101532723,
                -0.0023317333191057634,
                -0.02991910726834206,
                0.162564642835896,
                -0.13532647244274615,
                -0.03930588207877444,
                0.15674605065215033,
                0.040712528669105144,
                0.03286034081462613,
                0.09455016283994325,
                -0.30719899601354606,
                0.08771027358414586,
                0.1786689625629597,
                0.05948442076915816,
                0.29495948987285897,
                -0.015944815881817904,
                -0.1621086587129637,
                -0.006227635245588757,
                0.023392653816280126,
                -0.2004803596068747,
                0.08595423901430267,
                -0.08673384103442151,
                -0.29563127541381057,
                0.3110032509713991,
                0.12969356374063779,
                0.11915461978011335,
                0.10530956091850449,
                -0.040636144401264146,
                0.1314093502304769,
                -0.18184081687172318,
                -0.04253505400865149,
                -0.20347820190023497,
                -0.04807457924968724,
                2.925840374474214e-05,
                0.06963089510458148,
                0.07941675542266308,
                0.07670802741849285,
                0.00903012109419352,
                -0.11289355170252376,
                -0.013233657083481265,
                -0.17186574638967925,
                0.21230419148060586,
                -0.23328443876743957,
                -0.16183501825526467,
                -0.04835591110359671,
                -0.37198674944759,
                -0.04187129032394879,
                0.00021414177199998542,
                0.30472743211155834,
                -0.01325170323162232,
                -0.20916837439321107,
                0.2648218527665518,
                -0.4615313687182292,
                0.3165961872210959,
                -0.26693539684176265,
                0.09709940255811496,
                0.03370441608991959,
                -0.013558613096203109,
                0.1616653715906225,
                -0.15293068166620738,
                -0.08751480365080794
            ],
            [
                0.13398468514652073,
                0.06820159250310728,
                0.04807803639848267,
                0.08796895397435446,
                -0.15242913910164815,
                0.43022976069942026,
                0.16224060264101903,
                -0.05666879506011683,
                -0.06627062186767747,
                0.01793001861779259,
                -0.1835568768107294,
                -0.47360104836231987,
                0.21321873699631272,
                0.11713100826714741,
                -0.34314387046446954,
                0.10012029927966606,
                0.22665598069552764,
                -0.08413975142323038,
                0.0947993615036348,
                0.11702854667572171,
                -0.039673300075270555,
                -0.19591015082547256,
                -0.34791526557041524,
                0.22840785986699993,
                -0.0023688964644615735,
                -0.03745725853482191,
                0.3137436974015217,
                -0.18808950068288574,
                0.010333843607308098,
                -0.15547261857871564,
                0.08525869666330856,
                -0.1079778674427328,
                -0.23032795052915012,
                -0.08200765461546869,
                0.16637261328739217,
                0.02275754894392559,
                0.04584032013450177,
                -0.03498049533108921,
                -0.1392494948025574,
                0.08396713958770233,
                -0.3874183877144743,
                0.20342161422531627,
                0.25076859261440093,
                0.38597521977421506,
                0.16721014091295106,
                -0.07430940799452065,
                0.13330188820678385,
                0.02405058011295736,
                0.15069067227268385,
                -0.27374644717408086,
                0.13666709753856124,
                0.06321005701944703,
                -0.06025114117244966,
                -0.16782197759877862,
                -0.12991480402038352,
                0.6534696640976513,
                -0.15988123410188287,
                -0.03301296278314763,
                0.2565607416701283,
                0.11010271290329514,
                -0.20310781378271153,
                -0.12645090624029282,
                -0.23230626518964365,
                -0.0869068443623763
            ],
            [
                -0.20713686673545093,
                0.048253795304131486,
                0.03230936426469126,
                -0.06787406161756468,
                -0.04462206622753811,
                0.0792256646960417,
                0.28167350984811845,
                0.18131388533711193,
                -0.04064794750097501,
                0.32044782242836256,
                -0.15451769549527522,
                0.09117662008243531,
                0.12968953884054565,
                0.2831238923983732,
                -0.01931454714231257,
                -0.09033406884296628,
                0.07594914495357837,
                0.189379190691472,
                -0.0593139290474849,
                0.06372827116720994,
                -0.1747096065017926,
                0.30966686727844894,
                0.17500178442538059,
                -0.026952296102623046,
                0.06270449790000757,
                -0.15862293563850566,
                0.16549132920110302,
                -0.03911824520241537,
                0.07950990774449841,
                -0.3112699754484999,
                0.0552082469531265,
                0.16315519246023294,
                0.0003847522136738399,
                -0.10046066430157935,
                0.01993871953962755,
                0.2640557872504816,
                0.07377248723334749,
                0.43021516627187206,
                -0.0813472819237137,
                0.019042432506887808,
                -0.05696546486153486,
                -0.09357784051676861,
                0.1222793040367049,
                -0.3588290946092234,
                -0.08769663643267751,
                -0.14238535965912893,
                -0.09208438021287685,
                -0.04823994632001775,
                0.043588343363961446,
                0.2913937267069797,
                0.2302748856856575,
                0.10731085604283708,
                -0.10337940639858856,
                0.24566623542679186,
                -0.06129748930966284,
                0.20320978321365538,
                -0.02716914646203325,
                -0.10773722481546297,
                -0.013569240777487213,
                0.060150944371122166,
                -0.24839459662870267,
                0.07927635235633886,
                -0.023096353474945847,
                -0.10181114197287465
            ],
            [
                0.11926256334022528,
                -0.13946607929556423,
                0.0599618501467713,
                -0.32916141975089996,
                -0.15512960228093253,
                0.30785329457708577,
                0.12917761015272883,
                0.16837299764707112,
                -0.09956837019411227,
                0.19940435044586177,
                0.13068600234808062,
                0.06309919998832125,
                0.10909494841869223,
                0.2453630547627349,
                -0.24980935995424516,
                0.07580709676765124,
                -0.11458197970309598,
                0.2291094438000654,
                -0.4855986559624964,
                0.057326429131551504,
                0.0800559750012572,
                -0.01288388064216074,
                -0.10215180787420307,
                0.14219788372070197,
                0.08922322569954724,
                -0.03980739787946218,
                -0.18705853096788705,
                -0.1462414493620706,
                0.563362737873464,
                -0.16860058383032278,
                -0.004342793632716002,
                0.22931589844969283,
                -0.04788834629733394,
                -0.17351845268321064,
                0.2958624966478074,
                0.23729492942382244,
                0.10195716959548892,
                0.23999423513487575,
                -0.12328828628469918,
                0.38543870822362064,
                0.18085517990424915,
                -0.08305809867367979,
                0.1326581358242008,
                -0.01566537208838105,
                -0.11560786987977202,
                -0.2346601065282097,
                0.024877623718132964,
                -0.2547621869133983,
                -0.03594854397067419,
                0.2957936180070271,
                0.10980257835089258,
                -0.01657605778176705,
                0.38837517443318836,
                -0.2489753934511042,
                -0.25474287183919025,
                -0.08205208884891571,
                -0.2164166137610463,
                -0.039877705447139665,
                -0.3375387916706606,
                0.26304021510728015,
                -0.3359662415189852,
                0.12382398278643504,
                -0.028387501973560915,
                0.13073128324254643
            ],
            [
                0.12114194738868408,
                -0.1585937669535627,
                0.15131679929240796,
                -0.048989839474331685,
                -0.0017562660382274813,
                0.25269847409633706,
                -0.016001355864022935,
                0.3390036301953859,
                0.24099167803204155,
                -0.1840916792789972,
                -0.18588223875965082,
                -0.16267421769010623,
                0.017504223965552363,
                0.4119816012682431,
                0.05936151738267647,
                -0.17624126065972778,
                0.12980820257711023,
                -0.5384037419906123,
                0.003723509149640876,
                0.4336352409394914,
                0.26407500258931504,
                0.4013735330033558,
                0.3720146718016309,
                0.18263569500786908,
                -0.11524729958540939,
                0.7532961173945961,
                0.11024951571897289,
                0.28381934392481095,
                0.16974480274513545,
                -0.3235665946701127,
                -0.3934264527423585,
                -0.19501646711321674,
                -0.14023219311062718,
                0.23741742623090625,
                0.10999148467575162,
                0.3735281631617834,
                0.1722854850900684,
                -0.16901235978169143,
                0.15583694559796687,
                0.22472787962097215,
                -0.05935858537774592,
                0.5643316454320211,
                0.2679331692936341,
                0.041800599053130744,
                -0.3039451254349126,
                -0.13934370134432353,
                -0.24744467530971775,
                0.2284072080861453,
                -0.24200115230953506,
                -0.2858879577972589,
                0.027683793703002137,
                0.296554121650804,
                0.1058753915209903,
                -0.0853621928322838,
                -0.14863927873989147,
                -0.16294058109508266,
                -0.36603171976463644,
                -0.22981664512963823,
                0.15087064851268037,
                -0.062376913468987515,
                -0.02659867938922068,
                -0.2061912333908872,
                -0.041605506132313924,
                -0.19154878845555443
            ],
            [
                0.11879959532265272,
                -0.20601079779041864,
                0.10677339264753635,
                0.3231528645054404,
                -0.28683451814144256,
                0.0631499925000604,
                -0.1286346237265544,
                -0.04619063642187867,
                0.033796742604427985,
                0.3126384534147543,
                -0.1659034840415222,
                -0.007017054302839732,
                0.09159555264820367,
                0.08473168121574547,
                -0.1967093964316585,
                0.12041486096797874,
                -0.12160834185003219,
                0.02742757076419492,
                -0.16933524358513433,
                0.0647466258261364,
                0.022263219002236264,
                0.07691140755695053,
                -0.015271721614474158,
                -0.22799887959785273,
                0.18999468359837676,
                0.10006058947604149,
                -0.1446781515915198,
                0.1269236640110438,
                0.21408013940837536,
                -0.2545814683716843,
                0.07869654225949795,
                0.30132855964275307,
                0.21376077937146024,
                0.01021939896490283,
                -0.05017161536783034,
                -0.27185751504830996,
                -0.01897443937798575,
                0.032210107846030255,
                0.007794546862510031,
                -0.3303886715326463,
                -0.2311806528097245,
                0.2331599053056619,
                -0.04962560435491451,
                0.07581435084415891,
                -0.022431112399172604,
                -0.20522524344137347,
                -0.11783883657481785,
                0.0832167842969883,
                -0.1683375298936977,
                0.17930126069895957,
                0.13758785728266687,
                -0.07063370945579846,
                -0.04913721281762492,
                -0.1824281987303039,
                -0.3691891186065907,
                -0.27778427454440335,
                0.1219580613269425,
                0.050858419926545634,
                -0.30182181998203467,
                -0.2166506231521722,
                0.18266015512622621,
                -0.2383689127055481,
                -0.10688372647234627,
                0.038077301066607235
            ],
            [
                0.16788226266913223,
                -0.012809385494711365,
                -0.05857949137603217,
                -0.06944907824389913,
                -0.03463117311760464,
                -0.21723361937318858,
                -0.22814052705422003,
                -0.2446551115601541,
                -0.09470781348756636,
                0.029940917358148446,
                -0.3186841652235648,
                0.37451700741412525,
                0.00419966963558107,
                0.25152974488264834,
                -0.0969487489228208,
                0.03057551859642201,
                -0.12117330457691852,
                0.11812717712993101,
                0.14661407284394637,
                -0.17420831496508962,
                -0.2373901063283632,
                0.16441721157827316,
                -0.04082889863311413,
                -0.23909806808118847,
                0.0764209938150569,
                -0.038578385816742375,
                0.415283487192008,
                0.08939682937374342,
                0.09157972697660305,
                -0.08731501116269297,
                -0.0319122459995616,
                0.04437904319286892,
                -0.043798838281689706,
                -0.3208412875660195,
                -0.20091027018201899,
                -0.09046629066778955,
                0.008677941337446971,
                0.36966107804989634,
                -0.18710430287533394,
                -0.13279170045622557,
                0.1688543768429824,
                -0.33245636489499847,
                0.03407117954887029,
                0.08730524614248701,
                0.06318579381535866,
                0.4016805172996798,
                -0.2673289685729302,
                -0.2805780482887975,
                0.013185134580493172,
                0.15667182586634415,
                -0.4725851251823791,
                0.16307010934266897,
                -0.16544498524837173,
                -0.10026369948987376,
                0.0733656339386587,
                -0.12107437646479381,
                0.013529038456468247,
                0.29573485061053917,
                -0.05150939283325846,
                0.01356722771694344,
                0.007994740111502141,
                -0.10836095032712198,
                0.14110189602615134,
                0.04628777220292946
            ],
            [
                -0.261307541397018,
                0.2143001618243417,
                0.10769184927115956,
                -0.3295414342538696,
                -0.061464305733696566,
                -0.4317248949634847,
                -0.15082172193382615,
                -0.03743624345592757,
                0.04000592690702271,
                -0.08852985540331454,
                0.28822792823788734,
                0.3184451959209525,
                -0.312473369244724,
                0.09162067583124854,
                -0.03050761299098455,
                0.13709888175082183,
                -0.03472062297375803,
                0.143447600309222,
                -0.07331893000310359,
                0.17502337513637994,
                -0.38637085880348526,
                0.09554903264984994,
                -0.07186027325968856,
                -0.3096308939693149,
                0.22447283758391592,
                -0.11511096953406535,
                -0.06529318208940557,
                -0.019311002509696237,
                -0.4695134266612669,
                -0.14845214291355407,
                0.2177973444880574,
                -0.05843080068812293,
                -0.08672158158207664,
                -0.14114194732260243,
                0.16072562823509895,
                -0.33208813213588817,
                0.21388507838070028,
                -0.26117665992861244,
                0.3585454508327795,
                0.0009754344661549324,
                0.08936476529308147,
                0.25773763848198383,
                -0.09050658770192654,
                -0.08278747355844712,
                0.15209376645342224,
                0.2771659850269319,
                -0.16694461464115892,
                0.03704235947258356,
                -0.6544290003899255,
                0.09097789550450078,
                0.10929743844671329,
                0.15987489434826171,
                0.131212435468575,
                0.008088914603789245,
                -0.020595227708805237,
                -0.7362333594806796,
                0.3400847097880279,
                -0.014040126504185292,
                -0.09640688060969901,
                -0.15748668219279494,
                -0.13035599972166267,
                0.07554774988553123,
                -0.021044163000502266,
                0.5235971570256839
            ],
            [
                0.29655644323760555,
                0.24581915499598114,
                -0.11059622353839962,
                0.02285448672815161,
                0.27184678306066457,
                0.1304401567712277,
                0.04560931793921636,
                0.3162559361017687,
                0.0893832522665172,
                -0.07338864707628888,
                0.08976508702437455,
                0.08605140349635866,
                0.35919883126164925,
                0.027086698163330047,
                0.07758847307796461,
                0.29927681021887753,
                -0.6392808879005559,
                -0.18165430958922058,
                0.09698311593317605,
                -0.25950208041568334,
                0.06846461845098671,
                0.06716718451336522,
                0.388421344550454,
                0.07002410404931039,
                -0.030376291452996723,
                -0.12673919977000764,
                0.09504546574419759,
                -0.0666082222008621,
                -0.04597897487241976,
                0.019518425025711255,
                0.0011014522235364601,
                0.14737756556234216,
                -0.06622295513225875,
                0.16083901974224968,
                0.18597974868240438,
                0.18299570626837172,
                0.22497408434696353,
                -0.058639328738476715,
                0.01371315233170584,
                -0.211891506379024,
                0.1322329770872719,
                -0.13700986241069948,
                -0.30221485244464286,
                0.09986910495385533,
                0.24961981595135369,
                0.2219672705438049,
                -0.2031975277335561,
                0.03949471781883069,
                0.0465902898072339,
                0.1258118965595165,
                -0.436509162501149,
                -0.0345333641925771,
                -0.14619433965686474,
                -0.12227143116281042,
                0.04064388349551031,
                0.14976138217815244,
                -0.09231051633829561,
                -0.30922409510750476,
                -0.23143522209027606,
                0.4169081522692932,
                0.23548087360520478,
                0.06130786224506718,
                0.052957859262072776,
                0.014627877501629775
            ],
            [
                0.3348401225538941,
                0.25308066826733683,
                -0.06131686914523195,
                -0.07371073582089545,
                -0.11504378319099817,
                0.008655715638729177,
                -0.1817750251267406,
                -0.2270771466156056,
                0.04243630976739302,
                0.12560574184713327,
                -0.07839420714718659,
                -0.10505474918118332,
                -0.3688895605907003,
                -0.2425093527551745,
                0.37220436255237055,
                0.3027076759325416,
                -0.00048081479170591045,
                -0.1286795377091356,
                -0.132701651876167,
                0.052611586711315834,
                -0.1621579642098347,
                -0.10268337815436974,
                0.11431331711596698,
                -0.19002263068357975,
                -0.13832763694571015,
                -0.1446300111238546,
                -0.3041581598789967,
                -0.047385885027080334,
                0.08586059526539261,
                0.12198096022457598,
                0.14027839140841653,
                -0.06257813456010854,
                -0.011664971842995135,
                -0.20327852027784513,
                -0.06480975296860568,
                0.08585857193046381,
                -0.22986213141856474,
                0.1930231265909132,
                0.03848044280234154,
                0.16668862018189642,
                0.0031976632992642144,
                0.16390349215289812,
                -0.25053085172278544,
                0.062282630272887364,
                -0.041487552134991876,
                0.05808967852441394,
                0.06653516692103863,
                0.22484783041269923,
                -0.08477403442174385,
                -0.04794429039355682,
                0.05816117281068355,
                -0.20682122833186686,
                -0.20380110764789755,
                -0.17148446478052287,
                -0.0474772596070438,
                -0.017134271079626204,
                0.08348420989840802,
                -0.05165987861502895,
                -0.1120444386243213,
                0.05123492997631964,
                0.1289188521957266,
                0.30339362313591767,
                -0.1169999822736777,
                0.2759839493535025
            ],
            [
                -0.25278839619710997,
                -0.09726990803482681,
                -0.005669881522622703,
                -0.4392120002522345,
                0.260677472867986,
                -0.06724185557251922,
                -0.18043397784448034,
                0.14398007619827802,
                0.040176152420794274,
                -0.19568878648534008,
                0.008123907975761848,
                -0.016597189768310313,
                0.01567827686750436,
                0.14448743872314043,
                0.1572330866249544,
                -0.4741092194973993,
                0.3049653317339038,
                -0.2592151128035366,
                -0.03681496706559054,
                -0.020529514667302965,
                0.0032435899100878244,
                -0.08547308282623874,
                0.058008279967090924,
                -0.04412623064339426,
                0.10725768115164834,
                -0.05415260938230499,
                0.0882868226454722,
                0.045056019575016995,
                -0.0983277940157447,
                0.09040782517384796,
                0.23727324148199513,
                -0.3612020621444051,
                -0.07133562394615982,
                0.05655726955661905,
                0.20740544461856458,
                -0.19855847440898097,
                0.09705353343619252,
                0.2012679102547946,
                -0.14184984270122786,
                0.06454766339969903,
                -0.27535122938468176,
                -0.2912450143268473,
                -0.12768210830973387,
                0.16063935732612358,
                0.3784622102753738,
                -0.08265670248807684,
                -0.004575678527983795,
                0.268828262709199,
                -0.07456796832037695,
                -0.20942329872802265,
                0.19869754628996913,
                -0.0977164236334547,
                0.2924823465612523,
                0.20391849903762688,
                0.055672566035129906,
                0.24943323853855442,
                -0.03945666982240047,
                0.004308159266622973,
                0.2743377516930609,
                0.1337349090475207,
                0.154487399279275,
                0.036601817589093914,
                -0.2230877339946137,
                -0.1839888885286616
            ],
            [
                -0.32810912141495746,
                -0.044707242935987816,
                0.14064127743027072,
                -0.1712006354687599,
                -0.2511732683338387,
                -0.09372365596366088,
                0.30124245478083755,
                -0.2409287015800744,
                -0.3017536279281731,
                -0.14282671810342715,
                -0.11580006603709658,
                -0.01648953393287304,
                0.12106281801642417,
                -0.2557322671067654,
                -0.22187496774572935,
                0.23804237298531752,
                0.0690479707828961,
                0.053749412392551085,
                0.3963158955440231,
                0.4046416105595135,
                0.18801199669302687,
                0.20396204143158525,
                -0.17227207047162035,
                -0.009230706377210409,
                -0.16509061606904857,
                -0.056121628171795335,
                0.1573380532246693,
                0.18624600681129297,
                0.14962828136680054,
                0.018559086510699575,
                -0.012151560306814487,
                0.1787441960307403,
                0.07269768600304767,
                -0.2746766202751195,
                -0.03391216642486974,
                -0.08140144675339198,
                -0.10206136291934928,
                -0.2882915769770861,
                0.13234632114620998,
                -0.029311376886928326,
                0.08790026724834886,
                -0.16257961117054473,
                -0.01675904349242249,
                0.21253832841083065,
                0.011041370547457028,
                0.23827785000773996,
                0.341152754063692,
                -0.2597741560202918,
                0.019859648519076675,
                -0.11638767882940432,
                -0.14228499374363526,
                -0.02487957923320825,
                -0.1314847821543065,
                -0.0723338789699953,
                -0.17175963048834147,
                0.04044993044461096,
                -0.21960551648644752,
                0.2724438145185255,
                0.16386841344547318,
                0.013219630663197859,
                -0.06508055450352848,
                0.4776584513330061,
                -0.34220032677682943,
                0.008614123772293607
            ],
            [
                -0.09984620950453164,
                0.3775859027492672,
                -0.0692458916341382,
                -0.01755540602883651,
                0.059982255766618676,
                -0.05821334709917954,
                -0.40225164209008235,
                -0.3691896741440405,
                0.32949205166795986,
                -0.0754474081471362,
                -0.16525906904112794,
                -0.44777745604948965,
                -0.048516985630214976,
                -0.2404385586324361,
                0.22218860716234534,
                -0.17728388602232847,
                0.2744081371446315,
                -0.21353453949833484,
                -0.41081196232192585,
                0.19362695584868203,
                -0.029334177590137126,
                -0.3809556061376063,
                0.21963106068415497,
                0.4963434024278697,
                0.33291735037349707,
                0.021427682695969317,
                -0.1939399195488561,
                0.05966806792312138,
                0.32917364935756677,
                -0.05801586347522842,
                -0.18625183606328927,
                -0.025268711477938115,
                0.16805613371504896,
                -0.19047264328957367,
                -0.019325854469877692,
                0.21159229121726741,
                0.2427189502978169,
                -0.3587083959692888,
                0.03541013398913992,
                0.13608043209081677,
                0.15675999733985177,
                0.12448705346367736,
                0.13135661316685038,
                -0.16270333054129443,
                -0.4477184001927809,
                -0.24363309705719846,
                0.39565400466968165,
                -0.046614386833492255,
                0.33324855662593683,
                0.003939742082487579,
                -0.013235201228028681,
                -0.09649123997182103,
                -0.2059176943348161,
                0.2779154736722106,
                0.11750462267794923,
                0.10740969098354732,
                -0.03424298939942534,
                0.034182319058169756,
                -0.16162901750282968,
                -0.22251068020114934,
                -0.3592364642656238,
                -0.15947618035135075,
                0.08908042887534395,
                -0.056115885168107955
            ],
            [
                -0.22763436533783707,
                -0.2126797652539367,
                0.04350643716817885,
                0.22182002199062076,
                -0.10516140025176518,
                -0.10256356281928124,
                0.03331194086339994,
                0.36953282538735976,
                0.16532062473524806,
                -0.2175676309407607,
                -0.02285461664918902,
                -0.023889517822482224,
                0.41572384115799427,
                -0.07796933849217108,
                0.04749565669329667,
                0.2992131045646897,
                -0.01427837006548373,
                -0.18288180147641733,
                0.19207490375814779,
                0.1299786660403874,
                0.36871906901617557,
                -0.24579857515422512,
                0.2497265030070046,
                -0.029433618387758678,
                -0.17398696566149524,
                0.15189667492534992,
                0.044771380918784194,
                0.07290526710505284,
                -0.028150848066148124,
                0.0068942416410028625,
                -0.17019399552463468,
                0.1069842711236427,
                -0.313835004951967,
                0.20340088353931426,
                0.26487995324085467,
                0.42082487071188557,
                0.14051420624077227,
                0.11538037385933173,
                -0.09471295830536726,
                -0.16820303182890797,
                0.15755264877580025,
                0.2204096259031911,
                -0.26188357967112086,
                0.31648414302953753,
                -0.1284579802599488,
                -0.27688222866357687,
                0.2203445788174467,
                -0.0797308902976503,
                0.039694984925816496,
                0.3956397565814277,
                0.21347506508598393,
                -0.021008130133288713,
                0.02882912540711361,
                0.0977377687531103,
                0.13614184525364817,
                0.027039684914280757,
                0.22875014180806863,
                0.13426535518273466,
                -0.0118871424711091,
                -0.26329050230789136,
                -0.1837086404135303,
                -0.011624554031491078,
                0.3311040195276343,
                -0.047074180190543505
            ],
            [
                0.10141132580634656,
                0.3378332338216092,
                0.0014370803629110505,
                0.2618489617699316,
                0.3894825034390986,
                -0.04141617923039516,
                -0.03885530401875709,
                0.07992266504051258,
                0.18490056700349095,
                0.1415511273606189,
                0.20613233511676968,
                -0.1792356430764137,
                -0.12119733218655983,
                0.20121694997296785,
                -0.0826325777153904,
                -0.206039789647338,
                0.13585583751535155,
                -0.2001906267858994,
                -0.10688601642993074,
                0.02732025341223391,
                0.07854434813038193,
                0.08088957884832149,
                0.2640372256279288,
                -0.09724543306800514,
                0.19092247304641563,
                -0.24813033987404318,
                -0.13537275963248468,
                0.12650198710935584,
                0.4742801318309077,
                0.19689712657053068,
                -0.17566563715685446,
                0.06915688457136697,
                -0.1674375116437623,
                -0.36201852293616443,
                0.1722966282948737,
                -0.09124525202419169,
                -0.1396512640914725,
                -0.08760769062637484,
                -0.18243551063480154,
                0.11541534117104246,
                -0.012379719510665113,
                -0.14577513069546374,
                0.1119017956046761,
                -0.04928886584829061,
                -0.13683919330047617,
                0.4090431919950456,
                -0.10297389440076152,
                0.054437190506018064,
                -0.2256148254311827,
                -0.4015413268149006,
                0.19176974067233077,
                -0.2354591266365559,
                0.29053076861956983,
                -0.14295758282240661,
                0.04790990946079951,
                0.01944498131250406,
                -0.3895865779126667,
                0.06568244995159336,
                -0.08659488506493655,
                -0.3914694108345119,
                0.05623292606453197,
                0.21826649015811225,
                -0.06784025094227786,
                -0.07252290388886275
            ],
            [
                -0.4141962156902622,
                -0.021094131543760792,
                0.07567801128481144,
                0.0068634618096155035,
                0.15152079333074364,
                -0.02511701750608063,
                -0.0006835160359042618,
                0.04433274723056112,
                -0.21323928032610978,
                0.004106524207794426,
                0.07094583249614282,
                0.1138514296739974,
                0.10820178889207044,
                0.1403653227271581,
                -0.10275566019441527,
                0.0680439101881168,
                0.14810946493928218,
                0.1857858778054998,
                0.10403361508408371,
                0.4716991513264489,
                0.03690532738817867,
                -0.1366426955641421,
                0.03523345416898874,
                -0.2321202959669755,
                -0.04808447611560769,
                -0.10690019047718559,
                0.16606988284080137,
                0.2017847047361915,
                0.17364695895862345,
                -0.10894735534447281,
                -0.12436864682685095,
                -0.06182169702677093,
                -0.20221131931213146,
                0.1057361460029932,
                0.08730302077435688,
                0.09538272785753747,
                -0.18633188579535145,
                0.03758838805593905,
                -0.1490804404350684,
                -0.036722233530902405,
                -0.19913310265517534,
                -0.1207346207509185,
                0.132090592642092,
                -0.07416213837442524,
                -0.3052968481809033,
                0.04070730041053057,
                -0.05832204043567825,
                -0.2825214709182867,
                -0.02360436184445556,
                0.18510066617469956,
                0.4001770924994039,
                0.23438130269614754,
                0.02637973901963348,
                -0.03862292409089769,
                -0.03820245041420838,
                -0.17328203831127406,
                -0.2895058476958828,
                -0.28954306914417344,
                0.18851793603462058,
                0.0638374299648148,
                -0.07704662930153702,
                -0.03700664142164337,
                -0.3215211377259305,
                -0.03182433484927561
            ],
            [
                0.05992932043342067,
                0.0407946200230336,
                0.011141642146628689,
                -0.26733661212461673,
                -0.3742475316792061,
                -0.3067337154574408,
                -0.02092286043037051,
                -0.13175224576844285,
                -0.0302999468165282,
                -0.1380249433622192,
                -0.1515147558526104,
                -0.23623415201012127,
                0.20476213539298824,
                -0.050285390559710846,
                0.07006702517599948,
                0.15510946135183107,
                -0.11256365617569437,
                0.20518607760243782,
                -0.06014511123655174,
                0.12916397275417812,
                0.04192353240194731,
                -0.22646534355933728,
                0.0022491981977333917,
                0.07883022373837777,
                -0.18559493685659517,
                -0.11651627045061286,
                -0.09722760888827084,
                0.27206513319460846,
                0.21610432026208207,
                -0.34396071756283014,
                0.011468505512699257,
                0.2221978905625519,
                0.2679446877687512,
                -0.40036139450609803,
                -0.053792585076719614,
                -0.03216968146091742,
                -0.23025227976032894,
                -0.26394863277128944,
                0.11111620535810139,
                -0.19573649702306786,
                0.015433514008039315,
                0.14712878921576242,
                -0.29111243045848,
                0.1594054190316539,
                -0.17709119016337624,
                -0.3116094695474917,
                0.04612276911891398,
                -0.05999112314996778,
                0.061068671001715626,
                -0.0013645332202727475,
                -0.30668939809727724,
                0.15801280236047247,
                0.003999204906451753,
                0.1050655046268497,
                0.18066680338212646,
                -0.13967624141695412,
                0.41102768774224424,
                -0.11914427555068303,
                0.09002627864560771,
                -0.12449507620927784,
                0.12944976134072086,
                -0.08094960880506,
                -0.26936938774821645,
                0.26715738346213613
            ],
            [
                0.32508900527762075,
                0.03207665485318736,
                0.04797141818467338,
                -0.11588189661031649,
                -0.0486511302425168,
                0.2754322968026299,
                0.12686608325114845,
                0.05548964473511109,
                0.18522096471442526,
                0.310758221233476,
                0.26957389539536547,
                -0.3614740553160098,
                0.0707534765628902,
                -0.028175011328590866,
                -0.25083281043390465,
                0.0035462617804747657,
                0.165338709001601,
                0.25636588914642583,
                -0.19351001323624328,
                -0.06351859290085808,
                0.4126916723789641,
                -0.07719994850142967,
                -0.01195372376328098,
                -0.10244789417253174,
                0.08733318130814287,
                0.09390594097087866,
                -0.15849932532591293,
                -0.04696411241593162,
                -0.12587000165951776,
                0.44901495480748976,
                0.13464451688201162,
                -0.1494163358359498,
                -0.03259846562463691,
                0.25688667701207163,
                0.21192487941370639,
                -0.02274747013543398,
                -0.4297142221367388,
                0.08332030066566608,
                0.09057740555148151,
                0.12880373150927915,
                0.04779781274533049,
                0.08330050443449243,
                0.2960572016978973,
                0.0199057226877113,
                -0.13385512842898897,
                0.365855576527327,
                -0.0907869320026718,
                -0.010963066412538592,
                -0.20146493362703008,
                0.044462749136104256,
                -0.10139494458145941,
                -0.011330789562673487,
                0.034353642715950296,
                0.04211445342037127,
                -0.17269970831752485,
                0.052660572542663764,
                0.09000989365213326,
                -0.1877831288053209,
                0.029748401778142135,
                -0.2007596070285825,
                -0.1956004190304661,
                -0.056859131425246894,
                0.008792694025084714,
                -0.3475260247989683
            ],
            [
                -0.07037511132534092,
                0.1740736284095935,
                -0.17767002256395045,
                -0.16060566530190526,
                -0.08488041081115037,
                0.20382091050200588,
                -0.05019738134585347,
                0.12664817843544013,
                -0.08893040430259905,
                -0.22697327338734827,
                -0.19087449889120445,
                0.16409416515938907,
                -0.20335903828842464,
                -0.10824777342085037,
                0.1017138029705658,
                0.05068580794167564,
                -0.1926446490450592,
                0.18859144880348694,
                -0.1563588949546212,
                0.08247505782561178,
                0.24173457539674478,
                0.2337908018667556,
                0.009426351193295782,
                0.1832775196155969,
                0.09642572840206982,
                -0.029072522647459728,
                -0.21541954169186778,
                -0.1697478340365274,
                0.2407155571328368,
                0.1308324265041762,
                -0.08965106770490613,
                0.3375782802824571,
                0.10334241893688911,
                0.005193024909520949,
                0.04598411628904938,
                0.05497355755496799,
                -0.2872728893897928,
                -0.1041204190632914,
                -0.2637839630029842,
                0.000706805282344345,
                -0.07796750355503711,
                0.2424028600762841,
                0.1961906601490853,
                0.16744763235332666,
                0.09993728716089081,
                0.13505067087297135,
                -0.23756766661341183,
                -0.09594910962514905,
                -0.01595142861555759,
                0.005769315091905471,
                -0.06745740869473306,
                -0.21982086474704068,
                0.21263402358575653,
                -0.045594133677928125,
                -0.06742331313489822,
                0.13500377160480717,
                0.1648041675395551,
                0.10293474625083875,
                -0.15242937105642415,
                0.09918952385244881,
                -0.14880917899156945,
                -0.023447042983514705,
                0.03865352199160066,
                0.115086145412042
            ],
            [
                0.16434651236857178,
                0.06644159325772177,
                0.1111808830539246,
                -0.29661447743998337,
                -0.1819262585603395,
                0.07041348305817369,
                -0.40359537729957706,
                -0.15863626697551464,
                -0.043643743065085866,
                0.1371290935955935,
                0.09681260651283233,
                -0.332224769659862,
                -0.1710082520276649,
                -0.018703565361081323,
                -0.1641256036603677,
                -0.013357683855138608,
                -0.06052895761392385,
                0.13348706945605013,
                -0.0219481482485046,
                0.14870334754739695,
                -0.08066928691454989,
                0.036250952356319435,
                0.3923024170947393,
                0.178552605086476,
                0.31242787829937835,
                -0.0021135387907068926,
                0.11945270903042558,
                -0.014002790993523265,
                -0.09827404985263373,
                0.15814062242636204,
                0.1841262969548414,
                0.04805388955452848,
                0.13409182008333628,
                -0.0707357340112081,
                0.02618347451091933,
                -0.04504817423299445,
                0.24516212070478113,
                -0.24551473637038532,
                0.21533030046605495,
                0.22856734060025002,
                -0.08594896912527149,
                -0.022458862657000176,
                -0.2726140714801049,
                -0.020308208413983366,
                -0.016785993752031256,
                -0.14115909932990922,
                0.06600358552955468,
                -0.06475548010568387,
                -0.22657172677085607,
                -0.05510236699404766,
                -0.18273114283038988,
                -0.24644640263323397,
                -0.35664072278895065,
                -0.15187685420284722,
                -0.07281090074072104,
                0.19372571406326253,
                -0.00852299427135789,
                0.0416124807838984,
                0.013461527628489293,
                0.07064269285453281,
                -0.36543653440388224,
                -0.34576612678908186,
                -0.29401754588435464,
                0.12885073189268748
            ],
            [
                0.35356629199503414,
                -0.04777573528984689,
                0.18443262220795006,
                0.1730091395311071,
                0.22542842096257684,
                0.09395221568924195,
                0.34233136218807103,
                0.41250869952335256,
                0.19235378534277997,
                0.23911873121919466,
                -0.10659223766127689,
                0.2420420447523387,
                -0.19963381251437864,
                -0.08709835487994518,
                0.06899032820729153,
                -0.18417670955517815,
                0.09021695312073924,
                0.16959587177299282,
                0.2759960143441627,
                -0.047249237711523555,
                0.16030762930969344,
                -0.046897130946183176,
                0.5273072818612675,
                -0.19382017056177392,
                0.6190809025336163,
                0.03920140489517165,
                0.04297237281894591,
                -0.0664658151364955,
                0.24397052016529247,
                0.047363442500791275,
                0.1578089380811578,
                -0.08279167581425263,
                -0.32557455611381786,
                0.020953653987874434,
                0.07822455211935755,
                -0.04796019851004264,
                0.09181578693658018,
                -0.10063894463028307,
                -0.041385696423637264,
                0.07142617638779643,
                -0.10961432206105838,
                -0.14604627303205212,
                -0.2621772808052959,
                0.2743605990730736,
                -0.3487896329380185,
                0.2664009045209314,
                0.5096683064335842,
                0.032699965389365364,
                0.01794174881258485,
                -0.07045323829422494,
                -0.19913465658573618,
                0.2469634229756812,
                -0.08810365615829566,
                -0.10299767270608627,
                0.061384138052933655,
                0.1499025862329745,
                0.23705206925161645,
                0.14333004584664977,
                -0.09059396307225381,
                0.15268242647073213,
                -0.19207574962308901,
                -0.18940156672315456,
                0.047719332689981735,
                0.07069184034308065
            ],
            [
                -0.36917886767880054,
                -0.08491267077132049,
                -0.06893054258008047,
                -0.11282388843584815,
                -0.06869437681140189,
                0.1431926387957579,
                0.06999408403667327,
                -0.3778560136135328,
                0.5562914822467101,
                -0.18971450944319004,
                0.032580948477088104,
                0.1898480244099942,
                0.17321632371564571,
                -0.3919027810726233,
                -0.09669976713496173,
                0.13578759580234523,
                0.14883280901824902,
                0.41014204460561504,
                0.10413318774662954,
                0.032739622130777496,
                -0.12369693791158781,
                0.4787038511491099,
                0.016792003551825488,
                0.46608804071232773,
                0.07155533980042654,
                -0.17554722736783207,
                0.1032279071404329,
                0.2969661088025755,
                -0.15868461697473896,
                -0.039029144946867766,
                -0.3322191060088781,
                0.26904914563871724,
                -0.11830268298551702,
                0.13025746459742488,
                0.09306354641359915,
                0.24135265427830185,
                -0.19413109868503017,
                -0.3046391458684908,
                -0.22416233179661932,
                -0.0008426163813904948,
                -0.15668023796362698,
                0.16396165019268927,
                0.04486153822066271,
                0.13227317418091616,
                0.36571789702075974,
                0.2597528558318648,
                -0.4848009670698461,
                -0.23869122686691677,
                -0.49995343375704754,
                -0.027799521541934328,
                -0.1366663892520976,
                -0.13194223858849477,
                0.09658621231879229,
                0.0559030222898375,
                0.07253330058774242,
                0.008867180786987915,
                0.351057110463916,
                -0.1171533766231463,
                0.4014707506764993,
                0.12305389776759297,
                -0.3174402955173347,
                -0.15027483958631382,
                0.006230430460394846,
                -0.21147317380732958
            ],
            [
                0.14789694577326876,
                0.0426057336874881,
                0.34195984459305784,
                -0.4390812403298997,
                -0.19505852980806004,
                0.16706108275692177,
                -0.06496973484758878,
                -0.20066068849870275,
                -0.08533500671494643,
                0.1879684633092133,
                -0.06659550622130181,
                -0.26230828625200936,
                -0.2535192780904569,
                -0.03862465355535672,
                -0.24329579053835035,
                -0.09335068638600777,
                0.09155146526593855,
                0.11638325583809972,
                0.11774976672134772,
                0.06410322021433439,
                -0.05888221938136498,
                0.3408335854210528,
                0.19922846724379084,
                -0.03221794055559841,
                -0.13036820047486225,
                -0.04515027173799311,
                0.2170969954928397,
                0.4313245384223859,
                -0.04638837336352006,
                -0.1867170644583959,
                0.008793867899996066,
                0.17152278297188986,
                -0.11085541332103352,
                0.07795395568267288,
                -0.02721927698771345,
                0.10238312000829572,
                0.3326019380338728,
                0.1297882946107428,
                -0.02270365203575793,
                -0.13604789051030544,
                -0.5221924367682801,
                0.07121476810521668,
                -0.1180998132621802,
                0.09214984836463493,
                -0.062352645199129135,
                0.16541879665504933,
                0.13062971197105014,
                0.06176628103622517,
                0.007584986029806916,
                0.08309291789910846,
                -0.09213583787867635,
                0.3104769166431673,
                -0.05706101667496707,
                0.033000320113572665,
                0.2521698580377861,
                -0.04351559776495855,
                -0.14525637226053323,
                0.02015324243436586,
                -0.13094592667656366,
                0.29624793511837905,
                -0.0802213104458466,
                0.017640700154941562,
                0.1507055778751041,
                -0.013971665146483025
            ],
            [
                0.005766915565251231,
                -0.03164244080148239,
                -0.2273063932701357,
                -0.008514284652928474,
                0.10275789743118473,
                -0.16380544771123212,
                0.2667191810672964,
                -0.005974834413754589,
                0.20447298878405218,
                0.051642109835976995,
                0.1400990470052275,
                0.17425125196636923,
                0.18931951971289868,
                -0.24609969557661798,
                0.2243187540384973,
                -0.1772040894823695,
                -0.22577929250654374,
                0.016980598283629206,
                0.09220342818848641,
                0.4383421416524486,
                0.2514122598185999,
                -0.07842632923302321,
                0.056803359242357285,
                -0.17592294701445668,
                -0.05315095903186144,
                -0.09974922324569213,
                -0.17112801597769134,
                -0.030454429667301698,
                0.2572088691093883,
                -0.029533751683655306,
                0.01649427969314975,
                -0.12200115547136318,
                -0.29353229981256007,
                -0.013093816257836352,
                0.13246917439619085,
                0.09996031459736855,
                -0.21648486055870453,
                -0.11389535734672053,
                0.36405034132901753,
                -0.30266291606129386,
                -0.14914834158920834,
                -0.09644844456581224,
                0.01311744794629765,
                -0.18012717026297353,
                -0.22248051984836395,
                -0.08274935556991932,
                0.018706533618140033,
                -0.09577121903450596,
                0.16897780264170847,
                0.07355814417924528,
                0.10239478840107666,
                0.1930280338122056,
                -0.11995413734136713,
                0.24986210400986192,
                0.026105779876094373,
                0.07012027066115657,
                0.07976874887250422,
                0.04809445691779531,
                0.17394399030903243,
                0.05151449912931439,
                0.09634218447411753,
                0.08288294676896472,
                0.09220579484638185,
                -0.2824520159376527
            ],
            [
                0.1678528256190186,
                0.07527433946890233,
                -0.15882430328785077,
                0.18239914074464147,
                0.1994487640464857,
                0.210304630241989,
                0.17366611393498418,
                0.14560688255357276,
                0.2579301271186254,
                0.367952575545841,
                0.10173590505832036,
                -0.14267721270699943,
                0.07934624797457233,
                -0.12301142018343243,
                0.09871094506143722,
                -0.2072831301954559,
                0.007922923107375001,
                -0.09570866896326645,
                0.18669731923130609,
                0.19061186210493639,
                0.01924235033730169,
                0.287893335643164,
                0.06743256977686397,
                -0.12533442214793214,
                0.20068413302195484,
                -0.2981097472845755,
                0.07260019273467765,
                0.25095135165081667,
                0.15587145073860306,
                0.07923324762509965,
                -0.2012210779413239,
                0.16106427262302295,
                0.006168057811804933,
                0.009526281422103346,
                -0.1625598736917772,
                0.2592339060543094,
                0.04384927070265849,
                -0.12432803300567148,
                -0.05636940083498868,
                0.2917419452984993,
                -0.05099599683463266,
                0.16051342981785663,
                0.011785672546094476,
                0.11964149376194352,
                0.2532603554446408,
                -0.0736137341757335,
                0.04750716621291704,
                0.09132079844671787,
                0.09253074685303297,
                -0.20696197781904876,
                0.3529830153281126,
                0.10149550818359157,
                0.04968397477174926,
                -0.2016231847481373,
                -0.0924576332555369,
                -0.07583659240643584,
                0.11989311196303229,
                0.03882993187312754,
                -0.03627546745599673,
                -0.044300877513619004,
                -0.10072516411918529,
                -0.03559359270249607,
                0.019982977571452565,
                0.05299512195935958
            ],
            [
                0.06303941358815876,
                0.10490479919949822,
                -0.06551320353681354,
                0.1204840914912362,
                -0.45330957841027647,
                0.03928642910073402,
                0.05081259851702033,
                0.1467733395946406,
                0.0019929127993664943,
                0.12928831980975064,
                0.010069924513039738,
                -0.25627333341355174,
                0.04062122609136637,
                0.10733583130348368,
                -0.020215047912930606,
                0.15922016435582115,
                -0.10762641733117763,
                0.16001389921687226,
                -0.21805107468734347,
                0.006766480729817776,
                0.01473423510640345,
                -0.3569129077879365,
                -0.3568307676955918,
                -0.06516124894210343,
                -0.04783189781980511,
                -0.01769773749598317,
                0.20991293685892967,
                0.278710243959229,
                0.06202222761409631,
                0.00896076018576776,
                -0.13865808483370803,
                0.23063869602094986,
                -0.11916613231834443,
                0.07367977535047607,
                0.16470191304791737,
                0.3472919047630374,
                0.15803258614650606,
                0.07129256579738123,
                0.03448149609719891,
                0.022005082521745184,
                -0.27276497487573187,
                -0.2860038261229865,
                0.13772440659774218,
                0.11758853028088502,
                0.1110774123323964,
                -0.15638712167137,
                -0.07957089152472258,
                0.0010601929840054413,
                -0.04027413052414434,
                -0.41700947303412167,
                -0.13321897621895176,
                -0.031493305128349004,
                -0.026617676713419823,
                -0.13387820277783263,
                -0.14794570934472737,
                0.09325727730042663,
                0.08134757478250933,
                -0.12098408065864404,
                0.07545230211402745,
                -0.07387943228255887,
                -0.021317570007792976,
                -0.26469305787090214,
                -0.06761733730198315,
                -0.37677510743419657
            ],
            [
                -0.08041589613496314,
                -0.15781896931618938,
                -0.08707018749212966,
                -0.0425345864351806,
                -0.11511963467208366,
                -0.2433991865433753,
                -0.04145268480181745,
                -0.06398412773108944,
                0.04268863505702876,
                0.12321508888348459,
                -0.11223817384497506,
                -0.29732947062708853,
                -0.024882383403219067,
                0.3757151292613785,
                0.13587768636351372,
                -0.2019325819399895,
                0.10903783898927036,
                0.1520421829450352,
                0.10237165104767813,
                0.1542732777158179,
                -0.1336471953427522,
                -0.11857347134249374,
                0.027011371753449975,
                0.09467796167441174,
                0.1311308344710601,
                0.2628469141624013,
                -0.292297005378647,
                -0.04327135016498058,
                -0.03940376044300689,
                -0.03682195461133265,
                -0.20605875876578747,
                -0.2393802719289393,
                0.16648250588806326,
                0.03900088116648864,
                0.1077012700095464,
                -0.05418089868886207,
                0.03316217290566298,
                0.19698411615359798,
                0.1675075794813383,
                0.09243776560814677,
                -0.06407709470927257,
                0.061248776406420506,
                0.04113560234753728,
                -0.25968535581935887,
                0.2910648662572023,
                0.17641581080329508,
                0.1786546766994985,
                -0.34442041910291593,
                -0.36628823325398957,
                -0.0715136390084997,
                0.0558468145759923,
                0.13352428021550067,
                -0.16830306815376203,
                -0.13167766613930024,
                0.10878916684903765,
                0.22487073937230362,
                -0.1990106061190132,
                -0.0036509949644409124,
                0.020600043887188405,
                -0.051207556462100366,
                -0.11835767153301067,
                -0.20000817395562337,
                0.08765165988551585,
                0.03557046770425817
            ],
            [
                -0.0013995204220265869,
                -0.06974157465827291,
                0.13568497757425582,
                0.26148225308368883,
                -0.1767654824486403,
                0.17549901920037747,
                -0.06576990091465981,
                -0.08236104920624887,
                -0.13989652576854827,
                0.04341235897823862,
                -0.041483282568010156,
                -0.108065138031502,
                0.02870268185256879,
                -0.19384859721034173,
                0.039530644430322844,
                0.056119766719990145,
                0.1546834914596663,
                -0.0012879923060671056,
                -0.10541725268895873,
                -0.11525817064578006,
                -0.05656904434587475,
                -0.08871332579966672,
                -0.03308277941831221,
                0.13623204811845488,
                0.2824622249212951,
                0.0989918182407611,
                -0.035124956153149305,
                -0.18805736532979042,
                0.3700917068287464,
                0.15201235141770666,
                0.12104589993245653,
                0.2533804059026361,
                -0.30917222619324514,
                -0.0020351597297138023,
                0.24225643762747606,
                -0.004199815317559524,
                0.21873982734829372,
                -0.21325081308504917,
                0.188110465289571,
                -0.36325631656651325,
                -0.031138646248681016,
                0.009150977575641386,
                0.015083913363066446,
                0.10811586542800232,
                0.001240871814284421,
                -0.022799556329757022,
                -0.0062124249506324445,
                -0.023776564540007213,
                0.08245499065374418,
                -0.07678047924909483,
                0.23120596701138965,
                -0.230841726692924,
                -0.3442714219685963,
                0.04780387855085882,
                -0.39128210569193594,
                -0.1717344709790402,
                -0.060608242776374985,
                0.36410818992219524,
                0.013474278929148506,
                -0.13596434303529056,
                -0.1121854835725962,
                0.12956811078163435,
                -0.10456807514450436,
                -0.09276556148854258
            ],
            [
                0.1691696138711946,
                0.2970212218465889,
                -0.13301650708490986,
                -0.041010797182859514,
                0.25032728105307694,
                -0.15359657159941698,
                0.023165161110516454,
                -0.1814222583480975,
                0.2650666943579045,
                0.035768962841942316,
                0.29775912013545885,
                -0.11787801963567572,
                0.03900072661502,
                -0.06628048445249782,
                0.010569687667368894,
                0.2584758014610762,
                -0.19640365611975957,
                0.10813071764999828,
                -0.11863079864370132,
                0.3164763502927752,
                0.23543470846931655,
                -0.06304925761202057,
                0.13211450210626857,
                0.09077104497557391,
                0.08341075909461405,
                0.20513589532879628,
                -0.012540081489660324,
                0.2049978704349385,
                -0.020955522925004744,
                -0.032496847727544804,
                0.15260472952128254,
                -0.08251550440055777,
                -0.13032597367600815,
                -0.03731600586379747,
                -0.07076306961093479,
                0.08849204599316958,
                0.27406067755655655,
                0.1415276437504179,
                -0.12175730743440319,
                -0.32170414164206,
                -0.13590783003360715,
                0.007579155894929387,
                -0.016436190575945895,
                0.11831006426013146,
                -0.07230477911272663,
                0.09086686140207033,
                -0.024800973197146428,
                0.014728268798824938,
                0.3708308180579095,
                -0.14038985781197533,
                -0.3714008011394673,
                -0.12308912665366277,
                0.2921398014138996,
                0.19525742835553847,
                -0.13606446478909578,
                0.2680773197692141,
                -0.25656624512347564,
                0.2506089849190592,
                0.05056996535999918,
                0.08916512038430545,
                -0.011495421365035499,
                -0.32943333027702965,
                -0.015341141142842735,
                0.3416241824084069
            ],
            [
                -0.2899787157429841,
                0.14350425074969814,
                -0.009010622674607728,
                0.2894538300465054,
                0.04968307782416821,
                0.03980819876719575,
                0.19909321737462035,
                0.054998977867761124,
                0.08789268790150644,
                0.2867192318757909,
                0.3339907346797575,
                0.12392899175779239,
                0.24613790342879582,
                -0.230737022551874,
                0.16435253801244387,
                -0.07840950775882413,
                -0.05315363301612452,
                0.3615445948796614,
                -0.029487937785032524,
                0.26407380749031806,
                -0.03907597670869485,
                0.0628705895187656,
                0.4807082917855194,
                0.4845018516923402,
                -0.24313312985344865,
                -0.00672603105910883,
                0.01570929199944735,
                -0.27260072638316646,
                -0.30550685420651336,
                0.14661320143392623,
                -0.10236003743293866,
                0.10451542678578986,
                -0.18178386290234458,
                0.034415900997336,
                0.01147694923887445,
                0.14475962962003538,
                0.2628317137728892,
                0.007905110978499975,
                -0.035705685671515004,
                -0.09052901060562421,
                -0.008241284255426558,
                -0.15127217296970158,
                -0.12203752524853721,
                0.007411272961889342,
                -0.1816910083949859,
                0.31801490519051945,
                -0.006295290011935964,
                -0.34673063904183554,
                0.020807454099265203,
                -0.1015535593341383,
                -0.2601654747611521,
                0.18238968841313358,
                -0.20444994396397156,
                0.2317180527102204,
                0.06131871533666857,
                -0.03227751455834491,
                -0.031095023984333146,
                -0.25809801491333456,
                -0.2734016035354841,
                -0.04443393831607115,
                -0.03021296344206751,
                0.13770096370187862,
                0.20718171751418052,
                0.026466805371591743
            ],
            [
                0.08922967215237068,
                -0.11591756641586437,
                -0.2837428649041309,
                -0.1838976185668806,
                0.07719645163665481,
                0.019449117756004955,
                -0.005785887080623716,
                0.30753248014065787,
                -0.0852297132811046,
                -0.12767876628659325,
                -0.00012700452612824775,
                0.08709190906053468,
                0.19686098907176294,
                0.05724101099325109,
                0.23281409125824026,
                0.09186710778002549,
                -0.11150652815643171,
                -0.4908443440620002,
                -0.027800683304417602,
                -0.05042068566770775,
                -0.5596690403070091,
                -0.1612321233346786,
                0.02820558416291118,
                -0.09316035573552536,
                0.1150027991750612,
                -0.0730276384796583,
                0.04598074772386671,
                -0.3215178242707868,
                -0.2790778309624531,
                -0.04677281045275132,
                0.14743077298675267,
                0.1373884224340613,
                0.0634582567538721,
                -0.15006979981997973,
                -0.05365305022306054,
                0.12664745215472142,
                0.042882086564142066,
                0.05717888850073255,
                0.17848965584032253,
                0.00032726816531078754,
                0.2728872828175003,
                -0.03872530887921603,
                -0.0030674362520484804,
                0.0055281350811659715,
                -0.31168676868126816,
                0.12906650216355037,
                -0.37942603348805404,
                -0.12584818495961295,
                0.29992110366387814,
                0.27086576187665234,
                0.056220549285210926,
                -0.1309315416292466,
                0.103245318062273,
                0.052080667161113176,
                0.05098542232760225,
                0.1136654212098269,
                0.17228564072260924,
                0.15626508518026427,
                0.14874116492209194,
                -0.09802816780891323,
                0.12161888926642102,
                -0.34196318265107417,
                0.3159543678192682,
                0.2505082093922922
            ],
            [
                0.22045984934287385,
                -0.03634931102275052,
                0.06622459941909695,
                -0.12691717739537603,
                0.01310867716865787,
                0.26528936214334764,
                -0.017988604202893735,
                -0.20738731753620498,
                0.31910899176556673,
                -0.15427649966080237,
                0.3420824504501106,
                -0.15625405867598283,
                0.28118088302196637,
                -0.16000675985583387,
                0.2535967641919323,
                -0.04413564638294041,
                -0.03691727621892839,
                -0.1807298898793147,
                0.2071497686632237,
                -0.18296452019162757,
                0.17740732514608906,
                0.0906251089085623,
                0.0670073267751602,
                0.14202656779207332,
                0.002771494969303535,
                0.23985253786005534,
                -0.0687400109656656,
                0.26067699394997473,
                -0.2560280851368901,
                -0.241615696493237,
                0.42492305858690327,
                0.010933497072866415,
                -0.2793022927076801,
                0.12249216653069521,
                -0.21960575535102844,
                0.050238018329331266,
                -0.1826919719386617,
                0.23877684631946816,
                0.0009536906765656665,
                -0.06600632818861484,
                -0.13525000933112943,
                -0.3222693015242006,
                0.2771493663980339,
                -0.19218317049578543,
                -0.21227479648243175,
                -0.16755316990468572,
                -0.38517411801498047,
                -0.3032731646025157,
                -0.14890945488710702,
                -0.1941824240744649,
                -0.33199299918459835,
                0.11348381785441292,
                0.022209673833730296,
                0.01908576996272213,
                0.24921278227620078,
                -0.13325387215672282,
                -0.10075912767304793,
                -0.05525358766569483,
                -0.06714693491185902,
                0.13925088243495573,
                -0.023893110477830427,
                -0.10091639989340039,
                -0.0024353566108260903,
                -0.036537872223536716
            ],
            [
                0.05709683091644199,
                -0.05723609674054615,
                -0.06324622861583394,
                -0.34638145682971466,
                0.09743453129260805,
                0.08729532760040065,
                0.11150550460864377,
                -0.22919032745742135,
                0.046138920927255946,
                -0.0964135192003615,
                -0.07154648283842195,
                0.04458488246116146,
                -0.015898456216256827,
                0.09844949799600175,
                0.11210189531202416,
                0.07198371731431571,
                -0.28540029326860294,
                -0.1402679371738243,
                0.07757900732162822,
                0.020098115920837132,
                -0.19544519775929992,
                -0.22956154597812156,
                -0.049499761817048536,
                -0.04350968251653717,
                0.4352298524875297,
                0.08977229481698319,
                -0.05159954860114201,
                0.1093650191671159,
                -0.1383660876770731,
                -0.013051758304900607,
                -0.1401432590164459,
                -0.00825531544592324,
                -0.09810442605608864,
                0.28197791809073036,
                -0.46607325376081377,
                0.030197267219146333,
                0.2093752689459671,
                -0.1719768789161833,
                -0.05615008695740953,
                0.19370599819077405,
                0.029677245542336472,
                0.011941107036738565,
                0.02060738096071265,
                -0.2362889437372318,
                -0.04557974847718589,
                -0.0016855895875161585,
                0.078102130503821,
                -0.02409086920270196,
                0.25473596872961785,
                -0.3687338850642441,
                -0.19956236383308398,
                0.07602140509164403,
                -0.4968741521313343,
                0.0907091239180052,
                0.5472620668753005,
                -0.021803704497769874,
                0.4592154101051974,
                0.25042210130294984,
                -0.19471757114016527,
                0.14182785179911328,
                -0.27574467529344926,
                0.055027110674620086,
                -0.12449730971962597,
                -0.06706552162805463
            ],
            [
                -0.3850633325818411,
                0.20323230584597382,
                0.2216934130095267,
                0.118133872467724,
                -0.12495047615445865,
                0.41768092623477354,
                0.21630082867469375,
                -0.23224047269633566,
                -0.022714949446137396,
                -0.2599011341340937,
                -0.08880267394661974,
                0.0034219937450309197,
                -0.43345174125036495,
                -0.2188489606143099,
                0.011817409077053706,
                0.033205372422725234,
                0.26521546096980164,
                0.03914583846138092,
                -0.19727671316403222,
