{
    "architecture": {
        "input_dim": 6,
        "hidden_dim": 64,
        "output_dim": 4,
        "hidden_layers": 3,
        "dropout_rate": 0.0
    },
    "weights": [
        [
            [
                -0.6199677234661464,
                0.8137544209099973,
                0.22343480970676774,
                -0.10975573169570858,
                0.6514635371728553,
                -0.21023219782706146,
                -0.08328054085180085,
                0.3904077410311738,
                -0.23055698648189893,
                -0.37517669976942725,
                -0.014442742049036486,
                0.5870830348280831,
                -0.20460081771511213,
                0.5231404237753334,
                0.08240551030294212,
                0.5012664704370179,
                -0.7587452648211096,
                -0.2787710164570463,
                0.3863271073551501,
                -0.020797909620215018,
                0.15742280077296897,
                -0.6335419797741065,
                0.6418073584022361,
                -0.7108178577154377,
                -0.2729900485232323,
                -1.209912780016677,
                -0.14267267316415586,
                0.5845384509506445,
                0.7147591697265618,
                0.019209204306460764,
                0.3747005799503751,
                -0.46518247755474945,
                0.13069270103485844,
                -0.7636916922564387,
                0.7531382565035079,
                -0.7952862426329557,
                -0.42024859930106456,
                0.5052838819145768,
                0.310736650517919,
                0.24366599634296676,
                0.3216844842977897,
                0.07976777259310344,
                0.08921158851991817,
                0.027634017159962027,
                0.492863673836824,
                -0.47946196122106527,
                -0.925374909371242,
                -0.9094143869419729,
                0.33335240347256206,
                0.10744705006134793,
                0.07273001254953787,
                0.7408439763543925,
                -0.3299402737480579,
                -0.7655745214404487,
                0.5769799213666548,
                0.07561485650975651,
                0.15238864839319854,
                -0.25570702096905656,
                0.4245413072597749,
                0.6943856744782737,
                -0.175433347192607,
                -0.9387807734312957,
                -0.043432946109025435,
                -0.8263536884082628
            ],
            [
                0.10996404394202969,
                0.5850163697771207,
                0.2671869921732364,
                0.4550784605166973,
                1.267623106864928,
                0.5001649414510257,
                -0.2780245606443787,
                -0.8021267828242447,
                0.36213284586324895,
                1.2136954189947173,
                0.4889162554510067,
                -0.787921912590874,
                -0.1480992278061071,
                -0.4016943343012381,
                -0.3352557630569336,
                0.057118950826013946,
                -0.23779838871258097,
                0.5836748542338888,
                -0.31764264095737255,
                0.4705851603332562,
                0.5597139050068103,
                -0.22795985677980699,
                0.4763408533334897,
                0.36180728986684724,
                0.10744490448443489,
                -0.2866975150972667,
                0.23116089891448996,
                -0.8550542068089451,
                -0.48752548708774285,
                -0.6232237481069921,
                -0.24480294187035392,
                -0.8875614575542857,
                0.3654658537763761,
                -0.0649090092869451,
                0.14292602338889676,
                -0.8550199923473607,
                0.8585258205204561,
                0.30287433907978134,
                0.009360777507350013,
                0.04047495540320576,
                0.38776906787653503,
                0.5699529240993638,
                0.48583401423972805,
                -0.4299844064953265,
                0.0592986885910939,
                -1.633080462412314,
                -0.41859558705378946,
                0.6110932841976227,
                0.6228404677625963,
                0.8720079358832569,
                -0.15019870162616913,
                0.15772292033534008,
                0.33070703289148073,
                0.5992943247681334,
                -0.5897812609728081,
                0.8987326707417058,
                0.2670843870899493,
                0.03838347325021816,
                0.6518499230296289,
                0.993870318986518,
                -0.11593670015913277,
                -0.4424057764505202,
                -0.451922003771903,
                0.08245187402483133
            ],
            [
                -0.12827991634636904,
                0.3737655217010197,
                -0.3551365818275695,
                -0.25426649794594475,
                -0.6424685068723588,
                -0.06588092650955567,
                0.10144299228846794,
                -0.32944616335514776,
                -0.31431678216989734,
                0.010609424814899038,
                -0.25255727996819105,
                -0.592109623478743,
                -0.5085642244666988,
                -0.7988331679495775,
                -0.6540499640341766,
                -0.3237463380791376,
                0.15098422072829437,
                0.5201954469934785,
                -0.5547181870561803,
                -0.37505319362675593,
                -0.15765383496714902,
                0.10535725301796384,
                0.22196852897504546,
                0.5277747051455328,
                -0.41959684564015487,
                -0.5934167144413524,
                0.7088665013959321,
                0.871182697612927,
                -0.091299717419738,
                1.4074920083194618,
                -1.0945377681465225,
                -1.1416366269505516,
                -0.009931137722055252,
                1.0563264609991936,
                -0.254749526138795,
                -0.33904546282966896,
                -1.2796391016276996,
                0.1115293800012865,
                0.4586004997782117,
                0.16512600968173144,
                -1.2540323637016784,
                -0.265471095311466,
                -0.6031790521287362,
                0.5246215840113906,
                -1.2997465336689167,
                0.1683601262151428,
                -0.40085361068100767,
                0.0656436509412742,
                -0.4558827350044677,
                0.14624013284527762,
                0.14818915428129914,
                -0.09101790475706222,
                -0.5019973326637659,
                -0.07217596198046007,
                0.6300022855986674,
                0.9540844073880045,
                -1.1494310092298519,
                -0.42600057019399123,
                0.5922102088094098,
                0.11598212104900499,
                -0.6136187332901238,
                -0.15970254405488343,
                0.7541432855121258,
                -0.005327965484747468
            ],
            [
                0.2696387657499496,
                0.5213265759093352,
                0.22712274011111555,
                -0.04667818785853107,
                -0.3035307618074066,
                -1.1305927452835984,
                0.6159023996390116,
                1.0961354757112043,
                0.6205041746157763,
                -0.2747921391269877,
                0.6404348337142444,
                0.48217054689395056,
                0.2513557347579427,
                -0.10484701398019894,
                -0.7060074073004695,
                0.08188808521176325,
                0.26900335799709546,
                -0.06176858345340673,
                0.20700980821805612,
                -0.4101371008922963,
                1.0052318379352863,
                0.6014493835447613,
                1.5501483337404156,
                1.3403275861069466,
                -0.35196963617727267,
                0.5070191688592762,
                0.4177230428675919,
                0.1620023952240927,
                -0.1884047910987543,
                1.008091748135187,
                0.2557447183465398,
                0.06451732133882893,
                0.36316654137041193,
                -0.9484619988204118,
                -0.5389714140759884,
                -0.371714330992064,
                0.5721019529262555,
                0.33495762147755986,
                -0.2506267299626992,
                0.10809288582950419,
                1.1102936161233818,
                -0.24653764598714203,
                0.8571167722218342,
                0.6372853814114602,
                1.2796315170892163,
                -0.35706241796617594,
                -0.3842005054945453,
                0.3140573768934973,
                0.5174975932727364,
                -0.3263871261201521,
                -0.9411852996685809,
                -0.11378110894694723,
                0.8270454412379544,
                0.46314958786567184,
                -0.4005249437527139,
                2.0564551563417517,
                -0.2985410391109347,
                -0.4158413332577941,
                0.6417357035103456,
                -0.9007628479275037,
                0.07321496275662999,
                0.26045990561677035,
                -0.7467642919795234,
                -0.8837376701084982
            ],
            [
                0.33354177171385424,
                -0.030155432962945723,
                0.7192855888101648,
                0.36289141590565244,
                1.3766991448574781,
                -0.1924613081659916,
                -1.6097891841313228,
                1.0323732354438917,
                0.9680514307306368,
                -0.2061714248470414,
                0.29217012619006494,
                -0.38617025070589256,
                0.3790007657338699,
                -0.3689752277942673,
                0.22576226388474968,
                0.6664772905807841,
                0.5719360888151338,
                -0.36613327951049873,
                0.005124397045763282,
                -0.33089518272920027,
                -0.21197806410557227,
                -0.6823537693032277,
                -0.019367465552267024,
                0.26431474598551813,
                -0.22849737731003122,
                -0.3755654576933229,
                0.4124702902145792,
                0.3175605212044621,
                0.2503356609622035,
                -0.3424170684991936,
                0.02083853223071916,
                0.04740778047146936,
                0.04983559126796021,
                0.226916153665753,
                -0.16880031742856916,
                0.7440527637053099,
                -0.37635312553692163,
                0.38904063008564177,
                -0.6848539378157222,
                -0.24235297584278628,
                -0.32405913900786354,
                -0.8496167985939052,
                1.092895192194751,
                0.2739924450669222,
                0.2856080165280301,
                0.4044817011618946,
                0.3932520021760931,
                -0.10485672073747218,
                0.5980364410992494,
                -0.20463629133897168,
                -0.5390299562139464,
                -1.1132686814645478,
                0.1952011196069741,
                -1.3271723702904032,
                -0.3031780051821612,
                0.0808638188299047,
                0.45888268884118844,
                0.7353037758930677,
                0.08268990260882947,
                -0.8445388106159548,
                -0.11122902166716324,
                -1.944964116112579e-05,
                0.3561169231131088,
                0.07627057527436043
            ],
            [
                0.2848738180991117,
                -0.13097324267200738,
                -1.384432509190486,
                -0.17623242289098665,
                -0.6337211202571388,
                0.5378536026774786,
                -0.12021404508839069,
                1.1282588061823373,
                0.15890708376628035,
                0.8249552427918062,
                -0.32004836413319826,
                0.16267449926912264,
                -0.08328042807833362,
                0.48733418478565227,
                -0.5836747871031742,
                0.13706720579991769,
                -0.5962882349441123,
                -0.49280072695631355,
                0.9483094951047283,
                0.418365566228578,
                -0.9937655758805506,
                -0.012419411975317082,
                0.4472168427530621,
                -0.3862505583653807,
                0.27895287510345834,
                0.21161842302340667,
                0.5833122573184931,
                -0.14242237991014142,
                0.7800965488848264,
                -0.7293567181873234,
                0.7016993331304437,
                0.19066550304906194,
                -0.24086619142282364,
                -0.08737002277603888,
                -0.2933351743638466,
                0.08160154881262956,
                -0.2830112965300915,
                -0.023399667460057085,
                0.47002323398815715,
                -0.07976876512098999,
                -0.4505037490595252,
                -1.1060924297712251,
                0.2752265223437952,
                -0.37446021795153833,
                -0.49755104591443816,
                0.14576442685751467,
                0.5061436553620452,
                -1.481414120249513,
                -0.9085608342644219,
                -0.12344738015693041,
                -0.25443586607295643,
                0.39971974139177,
                0.39117673807165343,
                -0.03912591359991108,
                1.5074334201247774,
                -0.2542088065611271,
                -0.676082409918096,
                0.60915427217103,
                -1.0183779662503527,
                0.17041482561271362,
                -0.8150487019019045,
                0.030693431881609647,
                -0.3330780137030832,
                0.331255304903613
            ]
        ],
        [
            [
                -0.08149812210772979,
                0.21550132030536973,
                -0.41480333901667626,
                -0.012443017875661462,
                0.08426158600609955,
                0.2031919359508537,
                0.07613899629333079,
                0.09217320411191025,
                -0.09897840169538367,
                -0.062291425971359476,
                -0.1883025951205021,
                0.05633505810566788,
                -0.19787371985175112,
                0.18614644498340327,
                -0.1876054755061701,
                0.2196678303788235,
                -0.01809849576254323,
                -0.22994716031316964,
                -0.08757714177043982,
                0.12285965981371783,
                -0.027533875850851437,
                -0.029897014306222637,
                0.11984501028163863,
                -0.3163305433743828,
                -0.030642320473938212,
                -0.015429842932846763,
                0.30515776649836496,
                -0.009337549637739634,
                0.040075479161817376,
                -0.08971720273113068,
                0.13233262076199276,
                0.10701764371283241,
                -0.036445002280757186,
                -0.19946215120173372,
                0.09515521281918322,
                0.06280143529818391,
                0.2754840051152811,
                -0.23893638884352034,
                0.25240536387991575,
                0.16995193801229777,
                -0.04912522532966645,
                -0.2505413520819293,
                -0.4001156511591443,
                -0.09734499322627184,
                -0.021698686291032217,
                0.2660877552710727,
                -0.3473461570594915,
                -0.056501985905747516,
                0.17000000861660286,
                -0.2689974715769259,
                0.18373018931160978,
                -0.10520420859835868,
                0.13677213882637357,
                0.2903466637149393,
                0.29223495368011404,
                0.08081520666656904,
                -0.08704415702624449,
                0.212598518434237,
                -0.27832988700022765,
                -0.010207052056170904,
                -0.22110091891376668,
                0.0562217289434499,
                -0.04775844994493911,
                -0.051666325125746884
            ],
            [
                0.10328086915562512,
                -0.06595295732628752,
                -0.03841895347370978,
                0.14729140914096775,
                -0.043224462519310586,
                0.3781349194662463,
                -0.05792370612577857,
                -0.11752239016478815,
                0.011756527261562207,
                0.029218136042082562,
                -0.26372716249595207,
                -0.12053270213804772,
                -0.2688908211194608,
                -0.12105365776631544,
                -0.024728069779110254,
                0.258923031789493,
                0.14507038695113383,
                0.11347748772659053,
                0.2904694672255649,
                0.06739237987079896,
                -0.11839782045158788,
                0.23279593915037422,
                0.06004339051300451,
                0.14597180463803575,
                -0.09458683718817422,
                -0.018956431246985067,
                -0.17766879841397187,
                0.006565237863652926,
                -0.0031268688458409915,
                -0.024798878859558837,
                0.06703059628208101,
                -0.08277155664137699,
                -0.16920584829003385,
                -0.13763752570977963,
                -0.0783693671230509,
                -0.22086613235621658,
                -0.09186417224168622,
                -0.0391298025618422,
                0.027703737583673997,
                0.20796758434803964,
                -0.10955409255583622,
                0.03343687039094748,
                0.038629422518284065,
                0.005330156439694103,
                0.21596325445133283,
                -0.19143903323239353,
                0.1070904065763485,
                -0.21971974188554727,
                -0.04212134281295508,
                -0.008382955880387837,
                0.42601217170831795,
                0.18075919650122835,
                -0.08379867371214263,
                0.15593336613626,
                -0.08045263548958936,
                -0.08223101052366277,
                -0.046091901474327006,
                0.17395933829329346,
                -0.17790263115369007,
                0.025925902598610447,
                0.2864268287730017,
                -0.3305816618573452,
                -0.07301739585357425,
                0.02973885845294642
            ],
            [
                -0.34769898774702906,
                0.11797497466331494,
                -0.3995960649857141,
                0.12539913950124737,
                -0.023123352723435985,
                -0.11482083176209656,
                -0.0336371142605668,
                0.2576927991066774,
                -0.23757211836979736,
                0.12779882026056047,
                -0.048579750933078425,
                0.0020071742974786186,
                0.24796798507755524,
                0.08780860647079844,
                -0.030779205266347847,
                0.03680820826633398,
                0.06364665264767606,
                0.025814262363872426,
                -0.16300519780322945,
                -0.12653395359200229,
                0.025429018887151943,
                -0.02422824105759342,
                -0.09999259290523953,
                -0.2883989524836932,
                0.06883333642538518,
                -0.20616017460536368,
                -0.31789710317304176,
                0.13820306895670986,
                -0.2190750833437254,
                0.2619799080575508,
                0.362668499512772,
                0.10448555719405354,
                -0.25965949026545115,
                0.19804186434323257,
                0.25899703278136743,
                -0.12554137564594187,
                -0.6223905897298573,
                -0.10965654033270726,
                -0.08541254240075662,
                -0.11779521752826451,
                -0.03417882013313314,
                0.09264776571784507,
                -0.11617245879105208,
                -0.1775153323180852,
                0.20364067810573355,
                -0.11859230360903972,
                0.1881037145899297,
                0.022409262062586317,
                -0.26463180623088106,
                -0.016472385382805852,
                0.044303885384468486,
                0.16940232425551602,
                0.05436635045276666,
                -0.05603875783525015,
                0.12237133605196393,
                -0.041334376086421674,
                -0.14440236446783764,
                -0.024047991048859775,
                0.10674359642540933,
                0.013937892005381956,
                -0.227697428338798,
                -0.3354567324477738,
                -0.14446510877009539,
                -0.17101702876075878
            ],
            [
                -0.30279235086304257,
                0.044661277683892,
                0.13721611285290372,
                0.19876560209105895,
                0.07151559235020133,
                -0.2563523959163666,
                0.13402720336445378,
                -0.09998917313868666,
                0.07134976066039182,
                0.3487401674043666,
                0.05352122547596408,
                -0.047669866404262615,
                0.13790302528245002,
                0.21439456271813803,
                -0.13619300707030724,
                -0.1942320660258395,
                -0.08238929980784235,
                -0.19414788399024158,
                0.1782870257186975,
                0.0513677611168191,
                -0.04938069567103034,
                0.06284448729797076,
                0.3342044692775799,
                -0.008923494629502492,
                -0.1397023877836976,
                -0.18391941308016166,
                -0.17929678876925367,
                0.12085094847521527,
                0.049890616664864586,
                0.10313856179043414,
                0.21906106124372865,
                0.03950459607807579,
                -0.06073343633292293,
                0.2756418735752789,
                -0.04126943250330464,
                0.3046289832596168,
                0.22239757195975576,
                -0.14729647610441537,
                0.2199485041429841,
                -0.03381604723516333,
                -0.025571156508548503,
                -0.14164256967140357,
                -0.046901876940284803,
                -0.30023595718234414,
                0.029127255037004234,
                -0.22803853464317703,
                -0.35177246576256677,
                0.14186572309248419,
                0.057443932908242325,
                0.155507357464497,
                -0.0018606378305447845,
                -0.03547313564725225,
                0.1475613127995126,
                -0.0960042310182109,
                -0.23616336047160974,
                0.2186008841042261,
                -0.14161361603355405,
                -0.40996076145033267,
                0.41081598159577737,
                0.1331760723517023,
                0.34128110827421354,
                -0.09000280098252897,
                0.17165732469792627,
                0.05753289592272904
            ],
            [
                0.09614441094304992,
                0.20032212928042237,
                -0.14774969001040728,
                -0.15195297993758178,
                0.18957255486873253,
                0.14842068012413792,
                -0.08141781594858702,
                0.056396468240511276,
                -0.014802567649980848,
                0.18645958513909172,
                -0.14620801202851333,
                0.08054833275709081,
                -0.09954536684220208,
                -0.10516106841943286,
                -0.023908356782987836,
                -0.13360550090013135,
                0.29923753956895477,
                -0.06285447828683326,
                -0.09953669626906124,
                -0.09224083092353451,
                0.08890949787681822,
                -0.08171837223805166,
                -0.046285525973277675,
                -0.2125577022395417,
                0.26956185180548853,
                -0.05553195839170676,
                0.09245364835184128,
                -0.18248888757189846,
                -0.1864495353357118,
                0.024440663853497212,
                -0.06862459716882002,
                0.1281003596894458,
                -0.2433044505229438,
                -0.13628875157416445,
                0.0995629786341746,
                0.15633566878894187,
                0.1770128919644953,
                -0.05830403262362107,
                -0.027998697577112357,
                -0.05766636268318038,
                -0.053132621422274644,
                0.3542697243203058,
                -0.16422818548858872,
                -0.07716618710221783,
                -0.34769138442707076,
                0.1730370750748181,
                -0.1684172279297474,
                0.17472330359596477,
                0.06293637499577216,
                0.2847432589421083,
                0.2059377127155208,
                -0.16371009844171883,
                -0.04593189599853299,
                -0.13149042322505572,
                0.046449409744021716,
                -0.0830690644731208,
                -0.10122137465357399,
                0.42276183757137614,
                -0.09343996673492723,
                0.32545093642796175,
                0.26127464658300303,
                -0.12930339526395135,
                -0.28804155234641177,
                -0.18770426084374953
            ],
            [
                0.17900649023556542,
                -0.05650939765191711,
                -0.26566200380189475,
                0.04429514636661814,
                -0.08004548427653715,
                0.07915155425638162,
                -0.08050786457805845,
                0.05288082181209418,
                -0.3297388106317309,
                0.09522910244263076,
                -0.3343188713687972,
                -0.12324157141875704,
                -0.04509290061620643,
                -0.0029228295248743858,
                -0.09282196218258165,
                -0.23097676431296707,
                0.07712132378727322,
                0.01715846364524635,
                -0.0021190634953844423,
                0.037095768044500974,
                0.19558352744697902,
                -0.07188728614880827,
                -0.02101699635735923,
                -0.10188664980721303,
                -0.07631817678340717,
                0.2021962936902582,
                -0.3173312056399604,
                0.21775387433907223,
                0.22074009585252552,
                0.17935184939180773,
                0.11491825759077502,
                0.07003459642699912,
                -0.21939281097250585,
                0.2032470242894056,
                0.018729710906033956,
                -0.1814313090747733,
                -0.27360966680306975,
                -0.17054389071544535,
                -0.29067293831685587,
                0.2907084427869732,
                -0.23360396277847278,
                0.016645308680845964,
                -0.21925109476005666,
                0.05177358003431067,
                0.06055047366100957,
                0.17112427362487745,
                -0.07419215136527009,
                0.08017892963531476,
                -0.16081083038973218,
                -0.10341029848221993,
                -0.047890773783950714,
                -0.005134403610909236,
                -0.02612879954549543,
                -0.07092982176720962,
                -0.05862690702953794,
                -0.11732384958327843,
                -0.451972123275441,
                0.016971551721573896,
                0.07402268182460113,
                0.19831809024715671,
                -0.135877232977487,
                0.34924248794197255,
                -0.007619010267758377,
                0.35802911653933267
            ],
            [
                0.1605358777138526,
                0.20268135142297936,
                -0.12435605495134693,
                0.2353094907575791,
                -0.012610293502963499,
                0.12542324633606533,
                -0.40212205618524316,
                0.2874227931844247,
                0.07289715850978362,
                -0.2500909645997484,
                -0.21729025163727658,
                -0.09738644513139197,
                0.1704917183174731,
                0.06551207057179448,
                0.019236710688472075,
                0.035575985906431004,
                -0.46406148065331343,
                0.01698639910046471,
                -0.2737176644277996,
                -0.16120757164014501,
                0.0757625686057233,
                -0.021580427721723323,
                -0.22050200697609254,
                -0.13415585650407613,
                0.25088177086249613,
                -0.06690904069206637,
                0.11482532057596526,
                -0.3090244987136508,
                0.15316101946629532,
                -0.17363103090806195,
                0.06454132465529676,
                -0.06735566252493908,
                0.20004365024371082,
                -0.12087435138052335,
                0.07943376024900543,
                -0.04132404917838409,
                0.09398560249335096,
                -0.3160051031449382,
                -0.26223030802787406,
                0.48623664900263514,
                0.3855371964977428,
                0.08593525643599403,
                0.22360655524676595,
                -0.11670665602527008,
                0.1157586518971489,
                -0.12716773307797494,
                -0.1845681802743631,
                0.12125446210070154,
                -0.13050417510936368,
                -0.10205328163179407,
                0.020749934357928608,
                0.12478574543740867,
                0.04898090671761283,
                0.1312529579400362,
                -0.0495539502057046,
                0.07472108041491354,
                0.015846892907865926,
                -0.10302851429995055,
                -0.2563723458425285,
                0.001490619247572878,
                -0.017396127598413226,
                0.11409261419540596,
                -0.11222484546052668,
                -0.2370359348654777
            ],
            [
                -0.0604059231094548,
                0.0813665586100639,
                0.31970302840503373,
                -0.15360321813605277,
                0.05894604360036548,
                0.17069985777702643,
                -0.11178457937553372,
                -0.1361704130732577,
                0.011750258431228913,
                0.1515729246780329,
                -0.02073280284422054,
                0.15007091761853197,
                -0.1800737448318222,
                -0.2805116980722868,
                -0.10270233801353224,
                -0.028119224645039683,
                0.28684062637141206,
                0.3093762963673673,
                -0.05535647718597547,
                -0.10246296905464503,
                0.14179111794384816,
                -0.31450510914772933,
                -0.20788969466832977,
                0.03248538025810652,
                0.3990352415975006,
                0.019993975020964443,
                0.3574160790873207,
                0.04202516245911393,
                0.2018670744029033,
                0.052544770823368434,
                0.1190858712472371,
                -0.12621799238764722,
                -0.11320316232028946,
                -0.16399405912746579,
                -0.15901469848368424,
                0.3849375909699161,
                0.04264540594132431,
                -0.1916368974991578,
                0.0857242410147145,
                -0.10092652711265834,
                -0.18735474954696404,
                0.1480837457364361,
                -0.17292487016309618,
                0.2430434865978705,
                -0.2063108252220641,
                0.22842165623033017,
                0.08713548353318447,
                0.1283608403087527,
                -0.09547654103398882,
                -0.22118594340610923,
                0.14052356169764565,
                -0.21278372914699537,
                -0.3197924759031262,
                0.26719317954031735,
                -0.1690890619916985,
                0.0399588022127595,
                -0.3019255121614545,
                -0.17248564806259256,
                0.008935917723255703,
                0.12779466465276076,
                -0.034497076722420084,
                0.10638165936719801,
                -0.08407722771201614,
                -0.10991862377366558
            ],
            [
                0.09465888664434068,
                -0.23448054807640684,
                0.3102589920095695,
                -0.2749120917209943,
                -0.017845527489648582,
                -0.17589718514840386,
                -0.2748257457044292,
                -0.1705972748789764,
                -0.2054522970957437,
                0.22013508238460633,
                -0.022855171403277915,
                -0.3168145763733184,
                0.2398039487592091,
                -0.12604562607947892,
                0.13395722770420432,
                -0.015238795282690017,
                0.15741244100298316,
                0.02493791912148715,
                -0.21230017926229847,
                -0.059251395260233444,
                -0.3051796684397269,
                -0.19576621609203543,
                0.018645698745102093,
                -0.47978661153157287,
                -0.021889030985014084,
                -0.031456147281286484,
                -0.12687556419297386,
                0.09802029534203846,
                -0.13016189591996408,
                0.09199688613920474,
                -0.035845227232829464,
                0.2704118817179344,
                0.3824978898099228,
                -0.1102090366988459,
                0.09058438307567476,
                0.017793481584123243,
                -0.0996331541250237,
                0.2126066673341184,
                -0.013777039925783198,
                0.08483812578698578,
                -0.06278960144638876,
                -0.17484540105894283,
                0.17743019689635636,
                -0.09884966552720624,
                -0.22295098792392803,
                -0.04715052905029967,
                -0.05586313721534865,
                -0.1273994657426974,
                -0.09066056919652231,
                0.2016115708799673,
                0.010934733164505425,
                0.20621561195390076,
                -0.1594480119880881,
                0.13064362414438285,
                -0.06243638605048134,
                0.0857001319349875,
                -0.11361412484138697,
                0.2510851414831109,
                0.032971286549064414,
                -0.017429312247980992,
                -0.2889770591959855,
                0.18826124793357793,
                -0.1173723731708493,
                -0.08781431530575678
            ],
            [
                0.23771238112321222,
                0.06904568566436627,
                -0.3417972222653732,
                0.13194751560916138,
                0.12603483728213818,
                -0.04301504376724796,
                -0.18485775419553988,
                -0.08951271973571918,
                -0.051399286367790634,
                -0.35002228540833935,
                -0.088637614995614,
                -0.0952063629480032,
                0.03002801229972536,
                0.07065823366693502,
                -0.015084199580576834,
                0.17513968576105596,
                -0.030940240431981954,
                -0.009273621071157506,
                -0.023989885623285835,
                -0.12603955110600987,
                0.03201539783408264,
                -0.007695636061106001,
                -0.05430921764270482,
                0.1405997954473929,
                -0.1194138961763,
                -0.16381126227276221,
                0.04631146921563685,
                0.13961785604857732,
                -0.2389322139793359,
                0.030808323551792003,
                -0.1605560076819627,
                -0.10711003816273224,
                -0.004416545855854781,
                -0.23200256622069765,
                0.1531859946844438,
                0.16397635616212913,
                0.12625901349432922,
                0.2239984135647939,
                -0.22168187561674785,
                -0.049658956323789506,
                0.00396562675933926,
                0.21542581940338512,
                -0.10639915133558435,
                0.03588948825452893,
                0.04350454307788568,
                -0.17977987644389848,
                -0.04627802331059496,
                -0.29997389004976727,
                0.12008363010493726,
                -0.2482724466515322,
                -0.3030783197759005,
                -0.06558842264329617,
                0.202035957957607,
                0.23748246391538275,
                -0.4082412499140864,
                0.039447501269209824,
                0.06114300171174259,
                0.06028609637996941,
                -0.03788248393433044,
                -0.31868737190679475,
                0.10561330473165238,
                -0.27412233574950473,
                0.06778112419031548,
                0.23775613803475767
            ],
            [
                0.04979369724625014,
                0.3080856089212219,
                0.01277425702354044,
                0.11872506367702813,
                -0.019253533407793712,
                0.057049234794318206,
                -0.10612644084081112,
                0.05212719441923056,
                -0.1872435871012927,
                0.016890619175914907,
                0.05531581058973236,
                -0.08708352916233467,
                -0.18579722478546098,
                0.177463030508299,
                0.3300255927987406,
                -0.026059073987165813,
                0.07846367000265665,
                -0.01836414453204492,
                -0.028885464440118493,
                0.12313168292236057,
                -0.03699790389068721,
                -0.11340336348659975,
                -0.45219128028480066,
                0.1803500186416511,
                0.02411964942926447,
                -0.15144037811658687,
                0.1711036717842842,
                -0.056190462238826094,
                -0.06932995392989136,
                -0.027064013932054532,
                -0.09723917185393206,
                -0.055613678828111884,
                -0.03492928369786901,
                -0.09708472112237015,
                0.1275895726993755,
                -0.17005960050349075,
                -0.012655318646314086,
                0.21986454035984537,
                -0.011594694045203791,
                0.09769147057990825,
                -0.11558434311090407,
                -0.5334030934288695,
                -0.09220439441698042,
                0.05037847682385167,
                0.1362364304676297,
                0.1296896955841597,
                -0.28365841031861916,
                0.0956114889546984,
                -0.011424479502913306,
                0.03900519789303981,
                -0.0451690328189125,
                -0.30203209679398163,
                -0.022417641212123533,
                -0.0023019192345688395,
                0.2985797560911668,
                -0.08699620271994386,
                -0.21922216204805692,
                -0.18043953420031822,
                0.03352455604057298,
                -0.15759711556693246,
                0.2226798108225,
                -0.1297456470869881,
                0.2809133891197671,
                0.2728972621761969
            ],
            [
                -0.15084961555564524,
                0.36495082157833286,
                -0.07845927930540844,
                0.013933317597874572,
                -0.11913109300578992,
                -0.09760454773178212,
                0.07361516652285849,
                -0.39676404874087934,
                0.1359129968243442,
                0.27769650039654276,
                -0.08661823288497493,
                0.0014511037705926529,
                -0.04742068426128686,
                -0.09252424400266118,
                0.1642373115152211,
                0.04815249817389336,
                -0.047806761684599484,
                -0.017277534412026042,
                0.025795213774348524,
                -0.2914052258567519,
                -0.1531569035903,
                0.012520999095447448,
                -0.14812153012880394,
                0.08747241182763163,
                -0.11257964868650837,
                0.03936722000827019,
                -0.032292621242487635,
                -0.052056024861853976,
                -0.1972394594833637,
                -0.17765472960884432,
                -0.0708768705729505,
                0.0073074386936866085,
                -0.06031221745154244,
                0.013493874180985924,
                0.024270496454700207,
                -0.1326209108605856,
                0.16057920486445065,
                -0.33591117442721424,
                -0.05696898672151618,
                0.21148436866888345,
                -0.41341375849591955,
                0.1033910786477887,
                0.05407098470550538,
                -0.016324645245592326,
                0.23868326305318763,
                -0.057419950253245824,
                -0.1812307257956856,
                -0.02493588939866246,
                -0.03943243331192807,
                -0.18508980228119715,
                0.02897074558974644,
                0.00984922683948286,
                0.00934359559088188,
                -0.1257117037807989,
                0.16432434776774268,
                0.3783878849188611,
                -0.06464728741578121,
                0.23713101880499254,
                -0.07916182672444293,
                0.029838419814787666,
                -0.11791631815178648,
                -0.1172103549003736,
                0.012409543279012173,
                -0.186167528190456
            ],
            [
                0.005565230191807812,
                -0.21764205520130914,
                0.1914817269780283,
                -0.06077766568716055,
                -0.36442765022228685,
                0.16599565403896685,
                -0.29225123494549027,
                0.08932055694702354,
                0.043831984939659695,
                -0.01721892358597008,
                0.009546422469647608,
                -0.08029941550939049,
                -0.23290181296450474,
                -0.17114297807759757,
                0.10369972163891106,
                0.2695901645221827,
                -0.004561278340480486,
                0.10584363165549363,
                0.07146831339557633,
                -0.11539530005419597,
                0.12774984150188848,
                -0.4380862643815027,
                -0.03089046865623291,
                0.026101266730882644,
                0.15515440377066705,
                -0.20671259928978142,
                0.031217616363076028,
                -0.13952214994927686,
                0.0363115401263004,
                0.02057842827066071,
                -0.36306186117441663,
                -0.17739395536722335,
                -0.11500860190696033,
                -0.1406020062268144,
                -0.15766244842022245,
                0.08736467401736712,
                0.13424921968260142,
                -0.3179256174323596,
                0.0990464801951198,
                0.012932023127472547,
                0.06814242198519584,
                0.08759477143803583,
                -0.08221522906357341,
                0.1313904209124153,
                -0.18623261274373845,
                0.2807795871533237,
                -0.0930398662233345,
                -0.3320814005888622,
                0.08957062931314176,
                0.1180635254221416,
                -0.190024213482805,
                0.12977514378234187,
                -0.06463785290693219,
                0.03288533577169154,
                0.3206071609759552,
                0.019808192150187323,
                -0.09684474800477565,
                0.3199355146979352,
                0.2575396779179121,
                -0.005462464325804821,
                -0.12886158792438404,
                -0.11857105434411194,
                0.2985413942732713,
                0.0360193878689018
            ],
            [
                0.20433972473959636,
                0.022217117600453605,
                0.029224035261599935,
                0.15242969217558522,
                -0.20327564745810883,
                0.11316006864603442,
                0.08343240776573811,
                0.12330992970501302,
                0.3888936165331611,
                -0.22381255470691738,
                -0.14396579147996866,
                -0.23510806012557509,
                0.16079810695107935,
                -0.11838177920156677,
                0.4735927011987577,
                -0.13255812308877193,
                0.23376809344709867,
                0.3897023270922647,
                -0.03935184273412772,
                0.26324001364600974,
                0.06442962713794556,
                -0.023799553520628233,
                0.3485554627758967,
                -0.11652492948004955,
                0.3873199167880148,
                -0.13502175203905775,
                0.019585432432115253,
                0.05647848916672872,
                0.043615409641155616,
                -0.10649332089736772,
                -0.012723653921935939,
                0.053443858754104116,
                -0.09080979630000556,
                0.10900040926849963,
                0.16562222186416126,
                -0.23012164166411908,
                0.041563924676802345,
                -0.26468181129828655,
                0.020559881761295227,
                0.38759863231819913,
                -0.27957576078316704,
                -0.1135109848130731,
                0.1126829248491066,
                0.2727130906353919,
                0.09416272497280109,
                0.07981795815748015,
                0.01683985431353946,
                -0.01845894771497478,
                -0.16018158203807945,
                0.3648163856692452,
                0.08028455971034254,
                -0.03553023753630076,
                0.24762269754902788,
                -0.15227962853318303,
                0.0123737869338412,
                0.06752143989551251,
                0.2663858297497103,
                0.3844138937567794,
                -0.1517175753803401,
                0.3372389896437152,
                0.009725167378244222,
                -0.1811348129574639,
                -0.014569191090921984,
                0.18970129363122026
            ],
            [
                -0.08680226834171953,
                -0.02581824867762433,
                0.2805999663961829,
                0.0032211749492142023,
                -0.18248049182041012,
                -0.1988356475264825,
                -0.08998324639104611,
                0.01457805166443485,
                0.03687744969692748,
                0.03666200719272086,
                0.151758602726502,
                -0.38359657611331266,
                0.157139126329947,
                -0.006907706382813777,
                0.2460483127777769,
                0.10903481604924012,
                0.20418247249358323,
                -0.05905839857686756,
                -0.16351703413938684,
                0.03561421116572193,
                -0.2740625578578063,
                0.05406295278524015,
                0.1948343104986602,
                -0.3965376186910778,
                -0.31233339887354133,
                0.12505721700367173,
                0.23816324811017833,
                -0.26040271146597416,
                -0.18180834164217463,
                0.1300963983649035,
                0.08999893248310764,
                -0.31459188046351944,
                -0.09100340492990656,
                0.0157914793932722,
                0.3052672905530788,
                0.18425736061837905,
                0.13811685175261898,
                0.0571076704890729,
                -0.26630363224185605,
                0.027234205651214018,
                -0.08129824723260715,
                -0.1404007668195616,
                0.10547685377441814,
                0.17454287839543822,
                -0.010603584070538815,
                -0.37710470884254566,
                0.21025791747468717,
                -0.06958604312155653,
                0.3231619284099757,
                0.019728407290439537,
                -0.13353565943898943,
                0.13363004950363722,
                -0.34012405128549106,
                0.02178421985964413,
                -0.019717247179879563,
                0.1671049100839128,
                0.1603005789759901,
                0.07291570974312406,
                0.02431131621770731,
                0.0879290597024458,
                0.13481908634141176,
                0.06870707209609211,
                -0.2114016585634213,
                -0.16295137140042862
            ],
            [
                0.2084742179389831,
                0.03802626341009551,
                0.1671147701472819,
                -0.15657404288289842,
                0.31621850049860917,
                0.26473684167207784,
                0.12987091506072396,
                0.08761740705197399,
                0.2919536371369397,
                0.12870935178146306,
                0.010659742856159688,
                -0.06086212744332848,
                -0.05206764741910051,
                0.11048259283328155,
                0.0811350462798783,
                0.3511739166741355,
                0.16461427347007784,
                -0.25989674881913466,
                0.007450182314290753,
                -0.14075770396919546,
                0.2854267249032916,
                0.05317456052956905,
                0.07313674094051217,
                -0.279701970461741,
                0.005697870126807547,
                0.0359966497969415,
                -0.22949106826607044,
                -0.17799456051814985,
                -0.0622130825831822,
                -0.0656356874006662,
                -0.2562591691509468,
                -0.030942366576924514,
                0.29780777234690015,
                0.07816744087609331,
                0.254188658411485,
                0.16018750664327866,
                0.015309551752472604,
                -0.12374173243676938,
                0.0473353322413806,
                0.020210053999044894,
                0.22062634233785638,
                -0.10466242059711611,
                -0.12094035606548988,
                0.2391014296623586,
                0.3872749712411762,
                0.1972281059230053,
                0.026436889743668347,
                -0.07361407556417433,
                -0.22368410262596383,
                0.24603706462205863,
                0.04490626332050007,
                -0.08356120058968182,
                0.29240251655139,
                -0.20914393437874576,
                -0.025388926887556295,
                0.18221344966329314,
                -0.09976339001319552,
                -0.0033810370076347886,
                0.1073229398711183,
                0.004953573033213088,
                -0.05306656247320212,
                0.08336927594863028,
                0.34603590629044934,
                0.21642336674005372
            ],
            [
                0.20681629500831838,
                -0.13196932730056377,
                -0.20516885724690853,
                -0.060598721597860866,
                0.13955557348180278,
                -0.13464687746665802,
                -0.09401805592518456,
                -0.4592316479198302,
                0.3356828919881255,
                -0.26364441471676436,
                0.15296559704753512,
                -0.17862640527960216,
                -0.26624352101007415,
                -0.1670604584330889,
                0.08845359439893516,
                -0.04576365660780403,
                0.2663709185648864,
                -0.2185126452721604,
                0.3817005250961203,
                -0.037824028930354144,
                -0.06130128496727967,
                0.00780845016828402,
                -0.11564691862724531,
                -0.04723563003589777,
                -0.44086359897237387,
                0.022627273050719935,
                0.1229906569632628,
                -0.25027947628834823,
                -0.17636806257474308,
                -0.043655085462775904,
                0.17487223781354502,
                -0.21007851940941327,
                -0.07579657806262759,
                0.1847533097192047,
                -0.1860364003223004,
                0.15072076863393846,
                0.0973278968216801,
                -0.4577223604901746,
                -0.06984660044774216,
                0.03422867678546509,
                -0.2601456264622063,
                -0.21092746569630386,
                -0.05513484020662237,
                0.013073711360862977,
                -0.06835575481843702,
                0.2424604706456824,
                0.2266453180775203,
                0.1262945938780306,
                -0.029379491731471176,
                0.06429520367907982,
                0.3087246142257097,
                0.08460869926360998,
                -0.08405777311251128,
                0.20721194079423647,
                -0.09702487699515906,
                0.051433288461194736,
                0.0832574202749366,
                0.015740744488104676,
                -0.0005837178110903892,
                -0.03872721116732159,
                -0.06654602873308726,
                0.038446334852746775,
                -0.05793805431305897,
                0.023728296537672836
            ],
            [
                0.42192151926365146,
                0.10387941980808688,
                0.4135441909536288,
                0.06564169526123176,
                0.11409641600143196,
                0.0814182087667301,
                -0.07299764264746775,
                0.11691816339350762,
                0.09054927288415082,
                0.08172143967439097,
                -0.2910793089427739,
                0.09113052543192521,
                -0.0475751178048544,
                0.3434459543970669,
                -0.3979852727573984,
                -0.18698776234042133,
                0.12049460519949104,
                0.018451139532228152,
                -0.011801966319150963,
                -0.10316826325602427,
                -0.17270881893398465,
                -0.14226659173402834,
                -0.24086860882860095,
                -0.09903434380672399,
                0.20379431126973602,
                0.14124661591443358,
                -0.19942017029831152,
                -0.219734367180761,
                -0.03690265191367021,
                -0.0574034923299323,
                -0.001405945266893016,
                0.022861443501140697,
                -0.04417712503273723,
                -0.15027463846628586,
                0.26483089386003184,
                -0.0839477103473357,
                -0.3557006192181557,
                -0.022056300340670125,
                0.044284887417687366,
                0.055447348178894906,
                -0.014026514234431854,
                0.20942793792455416,
                0.20060689758571854,
                0.04368245030649447,
                0.17975751797598843,
                -0.03686044365848971,
                -0.0683254184169636,
                0.15832995641912698,
                0.13367688746061085,
                -0.08220254113326342,
                -0.08755266510539438,
                0.08531695808482194,
                0.21005789182370022,
                0.18295428869513378,
                0.032497080259654566,
                0.08225897802570477,
                -0.2888610942125867,
                0.2948243778644257,
                0.01782747386233281,
                -0.029625928256243928,
                -0.08236987070261943,
                -0.01995944589943071,
                -0.07571735731893706,
                0.026794975470994582
            ],
            [
                -0.11583608417405425,
                0.36767235684399163,
                0.05174388732194202,
                0.33525892097348314,
                -0.04342560799678049,
                0.25043059570898324,
                -0.22250210503005569,
                -0.11548970787324697,
                0.23316808997649932,
                -0.27068591503612666,
                -0.3023598400029036,
                0.20373893035875715,
                0.07106717528287597,
                0.16021557151856847,
                -0.11836088176235657,
                -0.09344808466463433,
                0.0058068511963867975,
                0.10762723643945354,
                -0.33739847961076036,
                0.43152620804417696,
                -0.07690662832190788,
                0.05384355078376489,
                -0.12070787084559276,
                -0.06660046365965117,
                -0.02115419550302444,
                0.1121448486632185,
                -0.2785874661487819,
                -0.019138003427474563,
                0.1430420844672153,
                -0.11918209736717529,
                0.1163612820039458,
                -0.06516670642850539,
                -0.12419637133414989,
                0.15454831899264856,
                0.10151924500865141,
                0.04344487065695146,
                0.1816203376987689,
                0.07766709504357427,
                -0.3145032515614092,
                -0.058803724069651904,
                -0.26594057483873856,
                0.005511647392996822,
                0.24453484788769944,
                0.14008907564501416,
                -0.05829133013776079,
                0.059144024889993166,
                0.20189715955412127,
                0.003291676541393871,
                -0.12019397736126083,
                0.38325574099734117,
                -0.01722752830471974,
                0.026585346675960735,
                -0.04448829875406558,
                -0.16763048364550617,
                -0.030343203137341304,
                -0.03276773538692633,
                -0.05856354774678083,
                0.010418488344052814,
                0.3001147013086869,
                -0.007397424248209245,
                -0.3067605892172844,
                -0.014155854397637125,
                0.28344942368326836,
                -0.11636886322841171
            ],
            [
                -0.17562054681883735,
                -0.0920691567168498,
                0.02898338094471414,
                -0.055314763923104436,
                -0.1495734736330745,
                0.1607544184085131,
                -0.17892617338903674,
                -0.2305608758211614,
                0.21187609219234066,
                0.284391041188848,
                -0.07516052685824215,
                -0.01093179250038962,
                -0.3281403335009568,
                0.112948444006264,
                -0.12042061103225038,
                0.0628252799632219,
                0.2119878918950074,
                -0.21454936131274258,
                -0.19014836933299467,
                -0.2600170797523161,
                0.07764000631341224,
                -0.03862064136339337,
                0.16894858421339062,
                -0.1358586758442477,
                -0.006441054679911119,
                -0.033106448630361024,
                0.14289072947979475,
                -0.11748315335939792,
                0.14286709488599345,
                0.06760188329627374,
                -0.07894281376593229,
                -0.14077433986518498,
                -0.22687328374186852,
                0.012107543518414992,
                -0.3276153163061225,
                0.12011016669547162,
                0.17276470332534719,
                0.14642437509292097,
                0.13485554818203466,
                -0.22466532997666835,
                0.030826448060551327,
                0.012100486025300018,
                -0.061261400253086205,
                -0.4835748184353891,
                0.09641424678401364,
                0.24231861350031195,
                -0.1449606282773039,
                0.19540746757127778,
                0.1828259956670622,
                -0.03802125716210989,
                -0.1799331576508019,
                -0.1808742384530027,
                0.10590379469731116,
                -0.0656840167545168,
                0.0534708365311559,
                -0.17076580449648973,
                -0.06074703815209838,
                0.06468050241882069,
                0.0426744880375801,
                0.3234690505053367,
                0.22672328542366263,
                0.07734880279799702,
                -0.30853456724096007,
                -0.17035750408414355
            ],
            [
                -0.1185622321028786,
                0.15163643974928126,
                -0.2616677131122455,
                -0.051025364488314406,
                0.11126229643263284,
                -0.09157746563535166,
                -0.14736958306613604,
                -0.16551896086482012,
                -0.18038842260859303,
                -0.030381343805819448,
                -0.2264349443555626,
                0.12763638151174647,
                -0.20171457095427717,
                -0.08833637080862172,
                -0.08939909054943038,
                0.20693779358474684,
                0.1341354236164382,
                0.0010661263590579634,
                -0.12727395179777465,
                0.5519424936140136,
                -0.014700555814538444,
                0.033074361550428366,
                -0.1903939144870237,
                0.211788470857459,
                -0.09211767391026585,
                -0.06551783239857426,
                -0.1882748067915402,
                -0.010455931524191001,
                -0.08598142337748668,
                0.018222311294008052,
                -0.12529940699092373,
                0.08369035399122937,
                -0.2240522386678918,
                -0.08900057706049203,
                -0.11858679874636842,
                -0.31910632891517093,
                -0.18152037976222132,
                -0.21681115281900507,
                -0.09356297940132065,
                0.08065172502096779,
                -0.08510772073265435,
                0.005008508697017755,
                0.02759069170216639,
                0.29347092406774655,
                -0.0057415129022633,
                -0.18483918518420078,
                0.16951185866393062,
                0.05942341172132843,
                -0.30651340898824286,
                0.07885613332529298,
                -0.0815124092793369,
                0.11047885326093611,
                -0.2654612180394328,
                -0.1705260536845132,
                -0.2997862076076065,
                0.05765375147473612,
                0.025581954491263707,
                0.13665342686727772,
                0.4683169590408544,
                0.1419069626533149,
                0.45006884075444537,
                -0.11634379502663644,
                0.22762372263598182,
                0.028142877372607098
            ],
            [
                0.16597424725128093,
                -0.2540759104148103,
                -0.19840024901266132,
                0.0017413884040125007,
                -0.3187077265252526,
                -0.15221110874975063,
                0.12724938084643422,
                -0.21439908063173863,
                0.11430846141699187,
                -0.06476875052870024,
                0.14442553013913148,
                -0.01633346156186639,
                -0.2690139361542244,
                0.0963798427287248,
                0.3348459287374233,
                -0.24798379962599063,
                -0.020678196695358163,
                -0.13357003950007215,
                0.3159042506449876,
                0.19402664453852173,
                -0.058033704834569155,
                -0.14539748586835538,
                0.008218984940402036,
                0.1124823899063073,
                0.09020692212778415,
                0.15189776353968257,
                -0.040714866255580406,
                -0.18355473324504581,
                -0.30216885267789395,
                -0.3014502243374791,
                0.19514248375699955,
                -0.004998651062900529,
                0.23998206534277308,
                -0.04752203605612333,
                -0.20935811857097697,
                -0.19494596608041034,
                -0.5135096283947981,
                -0.25143622291824885,
                0.12965536599794286,
                0.2653947307517891,
                0.2265295611721898,
                -0.006980020025179907,
                0.06712914562747477,
                -0.288416958738487,
                -0.1206810654100905,
                -0.22324459129928392,
                0.2626942076433559,
                -0.3301962200900753,
                0.10243857443282653,
                -0.06092300304856868,
                -0.0661651617580108,
                -0.07410977031243668,
                0.39019602144996773,
                -0.14289514110740895,
                0.1376074736697135,
                0.15809526015095476,
                -0.0481777960579647,
                0.05252673109016587,
                0.0707261648295276,
                -0.1165540753632505,
                0.14490220463834294,
                0.20582768801929865,
                -0.14542752338410692,
                -0.04335136353906591
            ],
            [
                -0.08382096806888654,
                0.245272427759587,
                -0.029095617042815484,
                -0.003377727586942927,
                -0.09551287682676138,
                -0.10312281887122551,
                -0.2913028376259942,
                0.2840144929144987,
                -0.07572319712026303,
                -0.3085146774794957,
                0.2363712964329208,
                -0.32186217527781036,
                0.013259843415421312,
                -0.313914257768102,
                -0.005626169037180239,
                -0.20444029025217578,
                -0.09021362524385872,
                0.08954448255929894,
                0.011306792825454747,
                0.34281701935152925,
                -0.07505651123021206,
                0.09633652076855999,
                -0.006114012637695963,
                -0.14743517987842256,
                0.070746145317016,
                0.12596167038596728,
                -0.1395473366053508,
                -0.10614633000617509,
                0.14659596766205404,
                0.2879049301623105,
                -0.1928361767232354,
                -0.32499497163603674,
                0.17079179433359293,
                -0.05849184562549722,
                0.5504969742285317,
                0.12056916632965071,
                0.10912783253443084,
                0.21964602251145215,
                -0.2266394243703967,
                0.463078716247826,
                -0.1635043840425348,
                0.012215497824669007,
                0.12930035715408153,
                -0.07815864221866177,
                -0.0018901076915194678,
                0.05536546300572922,
                -0.05731169603276161,
                -0.03467948966336682,
                0.3979831918013276,
                0.13908616640584712,
                0.19129203853042265,
                0.2645246292515116,
                0.11718918044742718,
                -0.3461418125290642,
                0.27440121307821513,
                0.3911355050709393,
                -0.12905060540093474,
                0.11131791109515284,
                0.07768904094155955,
                -0.05622694497377683,
                0.19789044574742345,
                0.28443838405075994,
                0.38821397050603235,
                -0.2102513930151112
            ],
            [
                0.11641576841228447,
                -0.02484876423709803,
                0.08497635922541243,
                0.29470440784958024,
                -0.12842680394578526,
                -0.03933817588103193,
                0.15017045478358604,
                0.10927501892553597,
                -0.3163585048151495,
                -0.011662080223552451,
                0.12305720770043521,
                -0.07366305838705031,
                0.36715422803932735,
                -0.02851414293702129,
                -0.32173964248625625,
                -0.3237309666276885,
                0.25476520455669965,
                0.18041033800651904,
                -0.04328536297054488,
                -0.06656148582471552,
                0.14488218562208025,
                0.03680609455099333,
                0.05367270630716032,
                0.013181521309051925,
                -0.2228490110611751,
                0.19594753741380583,
                -0.018941436219100747,
                0.13883244747434004,
                0.010669992229665512,
                0.16769634429881078,
                0.09092912502011893,
                0.042267765591120665,
                0.00916276934961708,
                -0.07693189030545115,
                0.30219722617952527,
                -0.03973283894987454,
                0.367011309990674,
                -0.23150219341738817,
                -0.3589969267471509,
                0.06421911700364794,
                -0.16493619155049974,
                -0.17471645574899047,
                0.017895325103182817,
                -0.15054721195962853,
                -0.25842222061632203,
                -0.05801591683972696,
                -0.1953309047176275,
                -0.06552611524149284,
                0.08136767004119014,
                -0.11769964861641731,
                -0.2255052235663945,
                -0.18632964338383176,
                0.11036893510697644,
                -0.021570331376752787,
                -0.01042995675980612,
                -0.150570040501768,
                0.3511787572210567,
                0.0118404140800857,
                0.1555318635661737,
                -0.07158519656221428,
                0.0770204455867575,
                0.2112658081995515,
                0.00611908035953636,
                0.058584768165640524
            ],
            [
                -0.2166941520123791,
                -0.20955700051175913,
                -0.05399641116252033,
                -0.40733815455023314,
                0.017167257854025272,
                0.306037681114538,
                0.2175060199921066,
                -0.020654890438186777,
                0.10638790741360418,
                0.36563329744629713,
                0.20859342540713885,
                0.2906505974582795,
                -0.06900549160794711,
                -0.025037879154397393,
                -0.2168528397488683,
                0.18915184751762879,
                -0.11520356137402775,
                -0.12262761743871618,
                -0.09830074919942723,
                -0.21860637847569223,
                -0.08485721958015774,
                0.06041793048069286,
                -0.28969187548399855,
                0.14114925926453237,
                0.01931633237047066,
                0.3112052139984874,
                0.13015273941270936,
                0.18679413513223636,
                0.0218994785715475,
                0.21204337014502855,
                0.05072454655595463,
                0.09928400717143447,
                0.2611411796114648,
                -0.1176901382639662,
                -0.07772172285429388,
                -0.02623033358492366,
                -0.16367979582719475,
                -0.13725199212056247,
                0.3268816474587853,
                0.09388704189390171,
                -0.029677342059764234,
                -0.09153108513964736,
                -0.10384777892791466,
                -0.09529069163044503,
                0.3866065908981511,
                -0.0729303869477578,
                0.006463785153896413,
                0.12398549559710267,
                -0.04148192144693725,
                0.101977922836427,
                -0.1759921669454671,
                -0.16109802403508658,
                0.07903852653729096,
                -0.1704839914119773,
                -0.27340881631762487,
                0.39673068891256164,
                -0.05983825460055287,
                -0.03171458325267979,
                0.06683452467808598,
                0.17230244549339774,
                -0.01971396516975589,
                -0.25401222711921884,
                -0.09626413176844363,
                0.0702392108173035
            ],
            [
                0.23055116743611753,
                -0.10170487532255296,
                -0.2265261629764464,
                0.003485295971419374,
                -0.02425680981061638,
                -0.201121098753647,
                -0.039954553040486965,
                0.046457846367221944,
                -0.16239402527146476,
                -0.17190142430956776,
                0.10991653467703193,
                -0.1864956276348739,
                -0.23527238471129028,
                0.015829413192413506,
                -0.07319973885861966,
                0.25111638860818974,
                0.06805430329734172,
                0.024796537512382245,
                0.08342275890626294,
                -0.15160586400674275,
                -0.03759886741461808,
                0.13260831592246897,
                0.006870584998925319,
                0.08777898425265608,
                0.13908312130050268,
                0.014725030448688706,
                -0.0694297091319435,
                -0.3108926491042426,
                0.11755640662028749,
                0.38374711363090863,
                0.04439122501665202,
                -0.06421099652518003,
                -0.013985179265945242,
                -0.028765114303257167,
                0.23049581021656237,
                0.40547355878817243,
                0.14630676844587098,
                -0.10984683364868775,
                0.033304852142310465,
                -0.14029230669921394,
                0.014132683126922339,
                -0.06690581392516458,
                -0.3609602532052743,
                -0.3132246634535731,
                0.027152896395947857,
                -0.12853100846624593,
                -0.2404683817028278,
                0.035431627195165905,
                -0.18204190182521782,
                -0.08246043436153945,
                0.2080389544520254,
                0.05894315074012169,
                0.17575533307871372,
                -0.031815482300876545,
                0.1120561808139005,
                0.04019754762405443,
                0.06144572332645051,
                -0.19028094620644997,
                -0.0822013886055203,
                -0.1916184367160307,
                -0.132256637006191,
                -0.17883233624120928,
                -0.23736153686332798,
                -0.06053518081322715
            ],
            [
                0.22485645352423766,
                0.12815540088033184,
                0.07469219606395351,
                0.12587523604521345,
                0.010720755145831288,
                -0.28935445753278477,
                -0.08334934430773878,
                -0.128962059983272,
                0.2023740949784343,
                0.17858218357645914,
                -0.0831877458355466,
                -0.3678179508797715,
                0.14717529150626066,
                -0.1403835185761558,
                0.0704857203755893,
                -0.017147010241189597,
                0.34079145024945934,
                0.1378628378355803,
                -0.38621634678044403,
                0.09693672689516158,
                -0.009994177875203201,
                0.35975642894704774,
                0.14017938692667556,
                -0.07361977113624325,
                0.1565101433986784,
                0.35131112494840094,
                0.14259435915897936,
                -0.1763859618263449,
                -0.051806638472335804,
                0.11279729397570637,
                -0.09190421280511243,
                -0.1764593426328185,
                -0.12833824278333292,
                -0.17826940252389503,
                -0.14728510341852505,
                -0.15686244075104017,
                0.04968758448453294,
                -0.04658199937697264,
                -0.13404375348645622,
                0.04406343105091441,
                -0.06387960335076992,
                -0.07787821503494971,
                -0.1220438803743809,
                0.1300881857589699,
                0.050189118091350154,
                -0.028438722276798712,
                -0.014604211523182172,
                0.11242664667044873,
                -0.1315138560683385,
                0.06586802386203852,
                -0.10167958992789836,
                -0.2788329757106345,
                0.20252600266287046,
                -0.11746771351184088,
                0.24586335502626885,
                0.06662290329099119,
                -0.18991596946269637,
                0.04496671371618378,
                0.09119246102630348,
                -0.21600109840652582,
                0.14116287651075624,
                0.2848959039968387,
                -0.4398965106997388,
                -0.26724100902337505
            ],
            [
                0.030819797324810248,
                0.20312660374835928,
                -0.3448349816171374,
                0.13833719340127426,
                0.00963752707484778,
                -0.1835551695887913,
                -0.1307316563873942,
                0.07318282177720105,
                -0.19989325755189735,
                -0.09078667267605026,
                -0.04144398204312649,
                0.07367542887616242,
                -0.08585284955207838,
                -0.006073371998244675,
                -0.1685125433908767,
                0.3361925466714408,
                0.12108357787454667,
                0.004884766425152486,
                0.15449555340432683,
                -0.0017268159432145258,
                0.12912502960179975,
                -0.11639473620374335,
                0.2681347503511157,
                0.14861352055116514,
                -0.22106993318993096,
                -0.24185668149688866,
                -0.012004262424133988,
                0.228550263382056,
                0.26972690061460425,
                0.06277003064618583,
                -0.4819990631153702,
                -0.37180213874520984,
                -0.11292759652609656,
                0.20922210759459656,
                -0.037579157330927135,
                0.43816013360825967,
                -0.0971093119436365,
                -0.32920142208482384,
                -0.10591967632418284,
                -0.07396753272006716,
                -0.05958297881822104,
                -0.022748611188497005,
                0.007492569598169116,
                -0.15389028926001705,
                0.4074355580888925,
                -0.06191541646359438,
                0.08801811954533773,
                0.07798824960953352,
                -0.1995297420893088,
                -0.08383450165573159,
                0.18945213450536422,
                0.15596313342810617,
                -0.08790040974598129,
                0.08486777410538757,
                -0.05408460747651,
                -0.060484435238988124,
                0.28343925892633887,
                -0.042038660062686514,
                0.22737024965365343,
                -0.4902254629839581,
                0.09533124984512921,
                -0.28887583208727347,
                0.06193152506245651,
                -0.2673111853855338
            ],
            [
                0.10198297483635807,
                0.1997874902786175,
                0.10701768514282513,
                0.015396776628453455,
                0.16585390020621343,
                0.09553588397069188,
                0.2524480126200802,
                -0.3184588497819464,
                0.14696162786323405,
                0.17887041399056539,
                -0.15563314386456437,
                -0.11712495106638073,
                -0.16483997289083308,
                -0.27743686640320164,
                -0.14828808586775946,
                0.08509942403939671,
                0.02560722684432448,
                -0.30517559976353886,
                -0.3783802084869374,
                0.2009833951782566,
                0.0802322686063948,
                0.3856280822554971,
                0.08924364141574666,
                0.09678628785774743,
                0.13191997911202186,
                0.06124431729028073,
                -0.0313807531923123,
                -0.2414397868493613,
                0.09230163642269362,
                0.02075264064023747,
                -0.3130152948861696,
                0.069098842464367,
                -0.07523995384640195,
                0.036599640240833335,
                -0.04759339251095498,
                0.18617979287746747,
                0.10222227926550151,
                0.2188458569434355,
                0.16220515175357902,
                0.18385834783305782,
                0.007802966215195655,
                0.1836366687555141,
                -0.17091669274333213,
                0.1736824221481151,
                -0.26969953512158834,
                0.0017150032508414083,
                0.1412196611456738,
                -0.20468726446128013,
                -0.17962428510299328,
                0.03165740670620354,
                0.12721179347854114,
                0.1481871485096858,
                -0.0022063808932029486,
                -0.05851641097998187,
                0.10264319618190909,
                0.010026141757396021,
                0.1179104144434273,
                0.1721716323443975,
                0.37127438357795317,
                0.15407990247240955,
                -0.06296647243984284,
                -0.2564486722585419,
                0.31099860016373604,
                -0.22491502165107674
            ],
            [
                -0.08858596324696134,
                -0.32484514272534504,
                -0.0543407089602079,
                0.10782101062523276,
                0.00329297980618596,
                0.14760058982556157,
                -0.024265154986838483,
                -0.21063285580090363,
                -0.17317814340520357,
                -0.10755730780857341,
                0.1594958153414913,
                -0.1694142680496417,
                -0.04767297262095799,
                0.15343241593309542,
                -0.019897650631241826,
                0.028302181723167685,
                0.054932528420998404,
                -0.1221775651559928,
                0.0741381010279273,
                0.12857494258656535,
                0.14296370779249182,
                0.14350150871520587,
                -0.13554621252385493,
                0.11341163876856693,
                0.003599929288859484,
                0.011950543881594423,
                0.22862456906277817,
                -0.035254048669667255,
                0.04614670554098182,
                0.22840667300289041,
                0.19486574640904583,
                -0.0337847597385821,
                -0.03254460606214419,
                0.12343063073814889,
                -0.12097397937164704,
                0.033716859322110056,
                0.18645917451502916,
                -0.19588052291389205,
                -0.019857999945203684,
                0.0917550422075292,
                0.2177843434107953,
                0.015157779437338866,
                -0.13063295811842288,
                -0.13389445333472277,
                -0.20231577231325087,
                -0.0695636147683381,
                0.04189119302925923,
                -0.2349539091946298,
                0.2269380483632803,
                -0.0782919381787078,
                0.0896053121223809,
                0.04918222970647399,
                -0.03170577193085918,
                -0.055574917548536454,
                -0.03776447566710203,
                -0.16582067275467868,
                0.06943676072688293,
                -0.15159657530199616,
                0.1706318312832745,
                -0.09111035063966659,
                0.2811303590082391,
                -0.17752864520865022,
                0.008055109326161316,
                0.26975008126421357
            ],
            [
                0.05671561062830616,
                -0.009819484520586215,
                0.1814816649855424,
                0.07300416066628505,
                -0.030296153156987738,
                -0.17828980039040954,
                -0.091059853139174,
                -0.32281189312275727,
                -0.16650947041936978,
                -0.02129869144411097,
                -0.021600985423412093,
                0.2299795869805244,
                -0.03082026670509611,
                0.11625274191619424,
                -0.003850877056107658,
                0.08836652556455403,
                -0.11824658137919423,
                -0.01275604619376147,
                -0.09555600683232562,
                0.058634035018107475,
                0.10304961114513544,
                0.281074049071063,
                0.0338332779945464,
                0.126671939715914,
                0.1847244236870067,
                -0.10160177745222136,
                -0.1511444277685452,
                0.2656267389209955,
                -0.03504486220473747,
                0.31980006816780676,
                -0.07884615097309114,
                -0.08100176050563371,
                -0.005278709888696331,
                -0.004498937142951637,
                0.1319871530716029,
                -0.16830669956895836,
                0.019514866893780434,
                0.008277795303135998,
                -0.3584705833932272,
                0.15650082035998597,
                0.3790942509171791,
                0.19435885810338574,
                -0.21711443111582165,
                0.10189633610820477,
                -0.008357488732989544,
                0.10934571412420543,
                -0.2684928419681945,
                0.12942671318230203,
                -0.11110241014989113,
                -0.07330760697894606,
                0.35211380478278337,
                -0.06118329040078444,
                0.19978099415134432,
                -0.16228480884211477,
                -0.09820923100524223,
                -0.04475344315533035,
                0.10869595217719814,
                0.2436288537966417,
                0.013568241988729291,
                0.15313911386458526,
                0.24211294392737276,
                -0.03360524087188854,
                -0.14334248109916845,
                -0.03607923435670502
            ],
            [
                -0.4343436940357469,
                0.05407517025501038,
                0.17177098323522053,
                -0.01736750924384608,
                -0.06036029145299081,
                0.13161580117786215,
                0.4138053276991008,
                -0.3627067597365774,
                0.22151639206563428,
                0.2363885995533808,
                -0.10527474892386711,
                0.13978466205919304,
                0.3034665491720757,
                -0.01911637430799953,
                0.15645682524254045,
                -0.10466612768852719,
                -0.04010213727029897,
                -0.029599362953909095,
                0.17881248203977973,
                -0.1544641205713365,
                0.17978680558489502,
                0.056029507942918236,
                -0.1757725095618132,
                0.31218981172557697,
                0.05187468519566094,
                -0.2008432458619237,
                0.031190052701065035,
                -0.1341204946955569,
                -0.2399184574944874,
                0.012127528272482967,
                0.020163927525419872,
                0.16695207905926027,
                -0.3238582183975509,
                -0.23885392934750915,
                0.13369460848869696,
                -0.05574129836755908,
                0.02360745653033807,
                0.3272283132295297,
                0.0864023847430274,
                -0.23416222032717893,
                0.1851337927212842,
                0.18777955158712864,
                0.37500343379957596,
                -0.1995667652633417,
                0.016541800851917653,
                -0.057537309041729746,
                -0.12655141259709965,
                0.016739814058873835,
                0.16734402402856183,
                0.3987878563088001,
                0.18754976772673468,
                0.12459495823164096,
                -0.10586742723710713,
                0.03203096197876566,
                0.21921498872339054,
                -0.21560961308093748,
                0.22282022178042232,
                -0.09297391912101001,
                -0.1804655717866297,
                -0.08365725061073699,
                -0.12660663782688156,
                -0.3350427139800104,
                -0.07891374259094876,
                -0.08168091614835866
            ],
            [
                -0.059437577724344416,
                -0.03754977073167873,
                -0.21799241856257975,
                0.03663016466589467,
                0.04131740730399301,
                0.0018006550625280428,
                0.1429495344603184,
                0.1864282860972257,
                -0.2130335573752096,
                0.08372392410904593,
                -0.3642627109343835,
                0.11884878977935179,
                0.18432154521050426,
                0.16177573813520932,
                -0.4246944552773776,
                0.2158694942077043,
                0.10567380951016296,
                0.06650738096871041,
                0.061579149318415294,
                0.03872548110432721,
                0.33227534526662467,
                -0.05870748156288992,
                0.035419314019241255,
                0.14958848895700688,
                0.1504038069398462,
                -0.009609169424556429,
                -0.1578050007849414,
                -0.2347607758023571,
                0.35596398120710143,
                -0.16038328738621926,
                0.06868417436265455,
                -0.006907293139595384,
                -0.3683456528447928,
                0.024944253421864265,
                0.0025305337400362868,
                -0.24196442130881,
                0.060196336454605044,
                -0.19082367290418628,
                -0.1461343839601021,
                -0.22196078431778135,
                -0.055168183548536226,
                -0.12500750067791774,
                -0.014955882633865582,
                0.2521177138815788,
                -0.25325341979615357,
                -0.03941335700527089,
                -0.2968534765402023,
                -0.3566355642823914,
                -0.2818378849081848,
                -0.177207365501323,
                -0.38746901663004557,
                -0.202602416390563,
                0.055555570068601096,
                -0.11824660510105116,
                0.12961426971249834,
                0.23178940121656183,
                0.09239879489105053,
                0.20344424330583225,
                0.13272747438038957,
                -0.5004340489323019,
                -0.14256337627494511,
                -0.20043630819378958,
                -0.21500371195720916,
                -0.022365316609098695
            ],
            [
                0.07763156045452209,
                0.21674034867766284,
                -0.10870313063065438,
                0.06625892025112477,
                -0.05265703277712267,
                0.08916246214097408,
                -0.26220815357553,
                -0.08342013021718443,
                -0.1264450768863686,
                0.1409525579102123,
                -0.07658320727032683,
                0.10601216741499958,
                -0.03170102493302695,
                -0.05128708898193432,
                0.03713673041507727,
                0.03361105779953247,
                0.11783727677646343,
                0.0068129160053176045,
                0.2373125836210868,
                -0.10797580510171684,
                -0.3879362610597514,
                -0.08717114515921474,
                0.04316897640789492,
                0.18513823460717554,
                0.08873416069031012,
                -0.046230063498607345,
                -0.017493878124300987,
                -0.08218489463810034,
                -0.30943901125949436,
                0.043662399882530505,
                -0.09289385095909572,
                -0.042616776807940224,
                0.18152072126132213,
                0.019140339733033314,
                0.1803943065953861,
                -0.21413097625065655,
                0.08157562902328133,
                0.09229784261948434,
                0.00482381942983606,
                -0.043010825622963114,
                0.2588706846646095,
                -0.0756576818212772,
                0.0017806199951415638,
                -0.007954796008998824,
                -0.10655702777064574,
                0.10154251467167195,
                0.09400886251353817,
                0.019274039339042277,
                0.16919862952061718,
                -0.0749274001661318,
                -0.20550764114073322,
                0.1268097752704266,
                -0.15335554577817223,
                0.026410355724550125,
                -0.04800286872472361,
                -0.14201597867969015,
                -0.3887990048189995,
                -0.02963171659143168,
                -0.06378429088160241,
                -0.11430501521991795,
                0.22768344373221996,
                0.11201421464418372,
                -0.08682068590800075,
                -0.2937202233340985
            ],
            [
                -0.13314563526269219,
                -0.1362636325381941,
                0.20637498063297016,
                0.04862435117002545,
                0.013324657610245254,
                -0.11292330719992305,
                0.01662135504842911,
                0.02748261890073233,
                -0.3448093821746392,
                0.058566479596771685,
                -0.31842466696544036,
                0.19584939729853523,
                0.08333046697039824,
                -0.09820373207285706,
                -0.047315743808115984,
                -0.16965348355396473,
                0.03077263702572374,
                0.026333253471744034,
                0.3565063236227513,
                -0.22654880625127868,
                0.003992205388585346,
                -0.2610421127473169,
                -0.0986218434415701,
                -0.2967926938577227,
                -0.030310353063480337,
                -0.23803342059611537,
                0.0296965606165119,
                -0.40616508578950183,
                -0.22512575772231547,
                0.29147948642925914,
                0.10199818964889845,
                0.16683789769031118,
                -0.3048781260192974,
                0.2678822818744819,
                0.322901726081874,
                -0.228625446474764,
                -0.023972725935386494,
                -0.2951762738216224,
                0.07875405071280844,
                -0.07150811953764796,
                -0.20681635658988526,
                -0.16537733661807855,
                0.33018068897320074,
                -0.4882645273244812,
                -0.42952766152171395,
                -0.044773778130452385,
                -0.3521192313518923,
                -0.04393012213400135,
                0.09998444536207177,
                -0.18052146530639088,
                0.19906069841925883,
                -0.11133046956885624,
                0.06571418172551027,
                -0.40141558499568447,
                0.2647568218051557,
                0.02552967327715389,
                0.07626913351127083,
                0.09059856880340883,
                -0.012035893936178889,
                0.04767799532749954,
                -0.029301877269370172,
                0.25936633441930884,
                -0.3565960847867217,
                0.06326568992088807
            ],
            [
                -0.007135595729752136,
                0.14347051239003075,
                0.40685556488012997,
                0.11832244825451586,
                0.009875765682318134,
                -0.02102774022232197,
                0.04043588784434865,
                -0.2896807016395125,
                0.2124385986262127,
                0.0653558097721942,
                -0.07132554901838664,
                0.0003100283764107548,
                -0.17181140240190582,
                -0.21142116482757878,
                0.06795375090857782,
                0.11539682480649557,
                -0.17438804149797654,
                -0.05378614828193002,
