{
    "architecture": {
        "input_dim": 5,
        "hidden_dim": 32,
        "output_dim": 4,
        "hidden_layers": 4,
        "dropout_rate": 0.1
    },
    "weights": [
        [
            [
                -0.29668617509303,
                0.29672963062765656,
                0.4082125762717403,
                0.022528776057452564,
                -0.7445010126359888,
                -0.5462938320157052,
                -0.46150885084027543,
                -0.4909721189689413,
                0.14829107002826702,
                -0.10145714325978886,
                0.3183136851676642,
                1.0547216895717322,
                0.22154421513212552,
                0.6887249816618882,
                0.7935759893791485,
                0.8690615151625073,
                -0.3523606515237641,
                1.5555683189953449,
                -0.238492687257439,
                2.1449538914927335,
                -0.3018830744253829,
                -0.8098838370759961,
                0.2302742666788761,
                -0.42124871335852615,
                -0.6767300755205969,
                -0.023838742690941536,
                -0.8614603071196032,
                0.2766372222790328,
                0.5838664797598265,
                -0.34712216492122516,
                -0.395496341781522,
                0.19392194738428264
            ],
            [
                -0.023765007958115376,
                0.45921783723528303,
                0.958181069374798,
                -0.4165345241177878,
                0.13452616727629021,
                -0.7650870784129223,
                0.19653525596700752,
                0.08977535757782971,
                1.033252085027678,
                -0.7859698741937776,
                -0.6342883126925685,
                -0.9536135720012243,
                1.1024365384411499,
                0.13228603534341885,
                -0.667935075012908,
                0.7369374879726731,
                -0.09249815954201163,
                -0.3184708532205066,
                -0.7451257350961498,
                0.5714079830081721,
                0.24738240087170585,
                0.8737168134961243,
                0.7402453835802643,
                -0.5740525376451442,
                0.282001314549161,
                0.34512786401613293,
                1.219532093411103,
                0.21368908455429114,
                -0.04701654181522734,
                0.40448080760573585,
                -0.47104252917231343,
                -0.10975827835023727
            ],
            [
                -0.8401562716939529,
                0.10844782259919632,
                0.16756078355128404,
                0.17609622740984554,
                -0.8479234553766469,
                0.8476628450956558,
                0.6925972429477382,
                0.07602915498039185,
                0.11051370277816411,
                -0.004282540741604796,
                -1.5134680630708388,
                0.30020105727031265,
                0.46381657546631644,
                -1.196198412015613,
                0.11839665630993211,
                0.19014969310702506,
                -0.04431617907756712,
                -0.20562554871343428,
                -0.2899847520622665,
                0.6827865577849666,
                -0.8612691198037687,
                -0.23010263167944606,
                0.573284347597256,
                0.808188625771513,
                0.561078194211569,
                -0.08817775563832965,
                -0.4770843091355051,
                -0.17136903517888857,
                0.21407431846296218,
                -0.6088378476083136,
                -0.04455659679475918,
                1.544661617559338
            ],
            [
                -1.0237107082100592,
                -0.615353029165436,
                0.13986030023127966,
                1.4313575096501043,
                -0.19321953585451623,
                0.5592673287334693,
                0.8191016554943258,
                0.07590748410317498,
                0.8630925494207508,
                -0.18970029386339915,
                -0.646555466727897,
                -0.0503636184211898,
                0.39255997205560933,
                1.3172340910293574,
                1.2460872475186773,
                0.22812013764609262,
                0.38822737710350186,
                1.0231903919161605,
                0.7737470897626672,
                0.7579453455451017,
                -1.0377484003435418,
                0.044503807719238044,
                -0.6912461904869308,
                0.01609316466964876,
                0.8404299692665747,
                -0.019126283695398212,
                0.19411967985905448,
                0.3931917762944232,
                0.6281311518889534,
                -0.10066669061905123,
                -0.07574409004984431,
                -0.19187748793247014
            ],
            [
                0.09887359710177716,
                -0.024681500984566476,
                0.759341494985063,
                -0.13942194944690198,
                0.8104712023193232,
                -0.0674928134997659,
                -0.29457058619008875,
                -0.521978747377958,
                -0.18973777399451905,
                -0.46000672318664604,
                0.4209159533037027,
                0.13927058358148972,
                0.023042501929166206,
                0.7195575580860576,
                -1.1529775063102634,
                0.754579401162609,
                -0.13284854177982813,
                -0.043722454131227266,
                -0.3206360914444452,
                0.18916408526400222,
                -1.4870349739030815,
                -0.7965990671947698,
                -1.0799947927338487,
                -1.2086874874329943,
                -0.5496228982049892,
                -0.32578342893666157,
                0.27779584120993595,
                -0.6051115534651864,
                -0.7882380070778953,
                0.43347971614615227,
                0.17773253618826826,
                -0.13006531073652877
            ]
        ],
        [
            [
                -0.1370440888330129,
                0.11204323656200071,
                -0.44511834641595605,
                -0.3115374322118966,
                0.16756275547917648,
                0.28413333331608825,
                0.008155297124583781,
                0.3150516227115767,
                0.02964069549128783,
                -0.16748691921250772,
                0.1992694953362537,
                0.004590976030959792,
                0.22946359419747842,
                0.3505111446107079,
                0.1795516100104576,
                -0.13319520342595878,
                0.07350939937089196,
                -0.15836224769931903,
                -0.19393746983558657,
                0.1868351197663587,
                0.2655920071287872,
                0.39142814535486187,
                0.27115552080775757,
                0.08803495725447191,
                0.181920920318623,
                -0.06699567303735372,
                0.3708020863419949,
                -0.4595536502203793,
                -0.38482278415277965,
                0.11664779487962285,
                -0.12618763711930658,
                -0.3754793614587074
            ],
            [
                -0.2392387341636154,
                0.24258145168348305,
                -0.19019970516586834,
                0.28729349693100353,
                -0.10588430930679833,
                -0.11629334933755704,
                -0.09644953390309523,
                0.6853861380929106,
                0.42294951582664214,
                -0.4536157651951804,
                -0.07367638434154777,
                -0.21081399391569744,
                0.1751537986545518,
                0.010347261539043971,
                0.12568495412208222,
                0.19630405326130473,
                0.08418583469986479,
                0.27160762569108976,
                0.3006846297933736,
                -0.13292745281620547,
                -0.1245305808336232,
                0.7173686990765444,
                -0.15448753580573213,
                -0.2687169763177596,
                -0.2065683940642666,
                -0.3219665054795092,
                0.13560820569093715,
                -0.15050538922159215,
                0.0009875111597838005,
                -0.16883684365830035,
                -0.1567331052419981,
                0.13812485814774966
            ],
            [
                -0.22282020541565836,
                0.07790066592396516,
                -0.27785315497922,
                0.19595316763628673,
                -0.18701817085553887,
                0.1061133827664047,
                -0.2976381303899125,
                0.06012651753429821,
                -0.147028863377236,
                0.036937973920687074,
                0.18350626558710628,
                -0.33567826571542925,
                -0.016769388067498787,
                0.23327544222347457,
                -0.03941419770269526,
                -0.1294700729097148,
                -0.33840618645813064,
                -0.10545605908235761,
                0.058673586982510746,
                -0.33552627016455927,
                0.196860144942763,
                0.12994648970158915,
                0.2199284403786299,
                -0.24356830236336913,
                -0.29441495907076454,
                0.23355547497013104,
                0.09170218472075672,
                -0.15613205129078003,
                -0.027400482499495955,
                -0.05905311889927061,
                0.04279712232974867,
                -0.11999735919567704
            ],
            [
                -0.3697612736454055,
                0.22375491064886613,
                0.05835849954024968,
                0.3268144004209428,
                0.043977799889106446,
                -0.33987368729597567,
                -0.07182024343809301,
                0.29471432964329713,
                0.3772585325949779,
                0.09030743163769481,
                -0.3944460036823281,
                -0.12494601540694251,
                0.5614611104855742,
                0.14687829376004943,
                -0.5672927963357663,
                0.05134893932981301,
                0.16194767123712034,
                -0.3326714945331494,
                0.21654911166231985,
                0.10683769834357068,
                0.019478202477353275,
                0.12175673728737196,
                0.11275187942372414,
                -0.3127235028226543,
                -0.15589252818293114,
                0.45249715462183016,
                -0.4235231550961891,
                0.2691494596696886,
                -0.43191663443375433,
                -0.09790421274912868,
                0.18618794501289002,
                0.2270846346885426
            ],
            [
                0.41449320558661495,
                0.34228526300041306,
                -0.035052897497193695,
                0.032199825763303394,
                -0.14416651425110263,
                0.17000232425067363,
                0.3288084898252344,
                0.2496392966052456,
                -0.07771287743572029,
                0.22650330104064578,
                -0.5648859286014924,
                -0.3288852455869707,
                0.2948405788157165,
                -0.060073093581323206,
                0.10608234187447388,
                0.1636059145066215,
                0.3425138809988697,
                -0.10120460474946733,
                0.13069734334142452,
                -0.019514499318182516,
                -0.2516625828867413,
                -0.2701943790132824,
                0.02775123616371769,
                0.24955222830854656,
                -0.1835573283287985,
                -0.006657923707525708,
                -0.39930130013836157,
                0.09859251658756138,
                0.01956631476019459,
                -0.06406302054888872,
                -0.1898506501812189,
                -0.2879871045327509
            ],
            [
                0.10217158990759577,
                0.04013351040947539,
                0.12559413963081226,
                -0.20391548738942544,
                -0.011557349584970128,
                -0.37783818124768453,
                0.013892547770502738,
                -0.1245872460066842,
                -0.562967876769115,
                0.2077086512950953,
                0.14503545404073567,
                0.1287871493378873,
                -0.041307261457599234,
                -0.08341735931217176,
                -0.1472763706772395,
                0.1760914056353025,
                -0.042913216909192926,
                -0.202004518751567,
                0.09266199859355755,
                0.11784561190592942,
                -0.10428782998256202,
                -0.22313368185190752,
                -0.27484793012003733,
                -0.10832285838620717,
                0.03706096841791737,
                0.12723577164648817,
                -0.007369210570829642,
                0.03033773535920393,
                0.02359815469191165,
                0.026385066191264933,
                -0.017435082391118323,
                0.10703569059385365
            ],
            [
                -0.0076693441659957595,
                -0.08635251577699078,
                -0.3099109926929855,
                -0.42020718907300947,
                -0.24172172835054082,
                0.13578692026649916,
                -0.11367778438461748,
                -0.19990907655283124,
                -0.21055496411429148,
                -0.019769473095350824,
                -0.16499250803563492,
                0.037799029751604304,
                0.5707861206680074,
                -0.02667388423096019,
                -0.5122204561754952,
                0.09372152136136809,
                0.33444578892610227,
                0.07023474943691808,
                0.2386929643939054,
                0.23722765539293547,
                0.04647693842018407,
                0.07917101959805857,
                -0.10140188152422372,
                -0.007251447293472216,
                0.16152698798897888,
                0.3146443878923998,
                -0.03743827251760637,
                0.24376836719461356,
                -0.1597132716321014,
                -0.20089444425293432,
                0.08525650186031627,
                -0.05074008265735183
            ],
            [
                0.4042776913389821,
                -0.3582628842197927,
                -0.00813647118542303,
                0.02085137029783446,
                0.13401200637847582,
                -0.2519003052141982,
                0.2404430475539756,
                -0.22491958516771984,
                0.4284303965641127,
                0.11984131361265829,
                0.3958634499909892,
                0.3362394572217566,
                0.3476692386692107,
                0.11099426135033122,
                0.3634764990152732,
                -0.22780742318383987,
                -0.09756347134934781,
                0.5751975917635376,
                -0.24956822684536892,
                0.08270089102186604,
                0.18258455211808283,
                -0.3932961556163176,
                0.08423235738450126,
                -0.5848729880590025,
                0.3852289983050593,
                0.20790605009219176,
                0.0024117468532662755,
                0.4448152916796471,
                0.19883603979388678,
                -0.1305487217789763,
                0.1816277264352788,
                0.4426619970692868
            ],
            [
                -0.13911356775922526,
                -0.37483155870620566,
                0.1850633187291609,
                -0.05447385894196123,
                -0.009201989310926076,
                0.24731344379848105,
                0.07082560730464454,
                0.47995906569720614,
                0.3180808351431013,
                0.2536405583249384,
                -0.5112237863012021,
                -0.21275326974641068,
                -0.5676247610660076,
                0.3073620907826837,
                0.03058301460328838,
                -0.4386087757196469,
                0.11994780591412448,
                0.04243905238668658,
                -0.3008872139634038,
                -0.3997389644628013,
                0.312321056791859,
                0.04405567967806569,
                0.04017683738569884,
                0.44742882735712136,
                -0.23164240816426676,
                0.2832148476969899,
                0.09683258758134732,
                0.24522651993713793,
                0.1994311991781615,
                0.2838168125907319,
                0.06396095031027811,
                -0.011742145825138398
            ],
            [
                0.03911936024961366,
                0.49535804116855287,
                0.34384566996641835,
                0.2640240724327329,
                -0.5969339654799619,
                -0.14155972741954365,
                -0.2921653893807353,
                0.23612584519613344,
                -0.21195352872769457,
                -0.04145960188999518,
                0.49335404456834364,
                0.11673019873680227,
                0.05378519717028197,
                0.16513151975364754,
                -0.2624063732519429,
                -0.1753978258789089,
                -0.09413442625484934,
                0.34784029439914016,
                0.11155640513057971,
                -0.2582626777907825,
                0.29967072014330254,
                -0.035374863993897616,
                -0.2478631124408322,
                -0.134647821539239,
                -0.12127393456344557,
                0.3262502355186008,
                0.08238915625329242,
                0.12973317605480034,
                0.0025538380083253366,
                0.283242447531692,
                0.22849423799991217,
                -0.044966199826045536
            ],
            [
                0.6434149493293356,
                -0.24596247832212817,
                0.5618644811610541,
                -0.06722002137066808,
                0.09840490088486281,
                0.10761306782593863,
                0.008154192887842297,
                0.25052821162150346,
                -0.2610383992118046,
                0.14465460446570372,
                0.017993609111960355,
                0.051233905956664515,
                -0.20687983306395366,
                0.32725811501853325,
                -0.014466190144374143,
                -0.2716229599096856,
                -0.31609480909186377,
                -0.1305175984447236,
                0.00392705472203861,
                -0.3119629996237106,
                0.06256309965161952,
                -0.021544618700615543,
                0.23584647977613846,
                0.13200048113120197,
                0.005604627294844817,
                0.07787134494376244,
                -0.10770070901526393,
                -0.10878230197965005,
                0.34784537579089736,
                0.2774438219866989,
                0.11014099794614886,
                0.11213801943346267
            ],
            [
                -0.24310348283317285,
                0.621677797090435,
                0.11608555988727397,
                -0.04065512503312877,
                0.24924468420179485,
                -0.25670387779862974,
                -0.05925561496107764,
                -0.21599238587804323,
                0.018995742848228272,
                0.23322115042762295,
                -0.16494288185624564,
                0.2569021811877882,
                0.16537882752835195,
                0.25057299074681916,
                -0.6403014413865445,
                -0.0765189413995083,
                0.284794648144395,
                0.16240989053868374,
                0.23855641049830317,
                0.02172288140246103,
                -0.5019318011454168,
                -0.33501520344652813,
                -0.08564704142794351,
                -0.09100331531977138,
                0.03583704061161075,
                0.11861298628188138,
                0.4755328508710729,
                0.2795148088536075,
                -0.3182380800328685,
                -0.2331701794822401,
                0.050978694373474506,
                -0.10416777246844192
            ],
            [
                -0.5474709742743339,
                -0.053442547312858586,
                -0.33407862089765106,
                -0.023925443420876377,
                -0.45069650949358364,
                0.020139182880149032,
                0.05725968645755932,
                -0.019441148450227288,
                -0.18328683810219487,
                -0.34888540190907774,
                -0.4731235086783514,
                0.20604851066757904,
                0.18883144689321008,
                0.0032550580755164775,
                -0.2812312789996796,
                0.11819040648286579,
                0.01968585397249598,
                -0.29028574757063597,
                -0.025913954805262537,
                -0.04573066737547914,
                0.055443619996162534,
                0.009959766778576325,
                0.10422402818879403,
                0.43796306599969437,
                0.10860104568278624,
                0.04984529431915178,
                0.303598560913743,
                0.025251653146236577,
                0.13290666814771357,
                0.43850766513532147,
                -0.13652211424038432,
                -0.11554702231804083
            ],
            [
                0.3793594877464509,
                -0.12684498862585733,
                0.00884885076257137,
                0.19652198365052162,
                -0.002469418465591425,
                -0.14382319648440461,
                0.08311795706116948,
                0.00226705099458836,
                -0.32184184274950134,
                0.49111323307022003,
                -0.014148890412546187,
                0.02293884253789098,
                -0.08417936318915996,
                -0.05042646362409825,
                0.0901040653922244,
                -0.11198376555947097,
                0.3347602558842777,
                0.13902116651450344,
                0.31902203450344757,
                0.2472074483966663,
                0.17935339976398043,
                -0.10166843113586403,
                -0.15214242401873718,
                0.03517886500264891,
                0.043089669244648285,
                0.11762167563346845,
                0.05255186809275126,
                0.08861199765361143,
                -0.07588906792313191,
                -0.05282332626860693,
                0.20136043955026658,
                0.20294185332213793
            ],
            [
                -0.16433129908454772,
                -0.11252434985759246,
                -0.1265797195108954,
                -0.43791981544519015,
                -0.22422124783155056,
                0.02284787912047599,
                -0.1827900604002332,
                -0.3094316003787962,
                0.029860561844932968,
                -0.08377154524262141,
                0.24399471673572007,
                -0.25478188791917794,
                -0.017261526895364622,
                0.08055321567419492,
                -0.2120103992074817,
                0.17918899238706334,
                0.0343345824463332,
                -0.08137394175232611,
                -0.25894728415121043,
                -0.4431325093036892,
                -0.027197370298492143,
                -0.20809893196591334,
                0.0693361959396782,
                0.07995455856910752,
                0.04321086007887144,
                0.32494700451954084,
                -0.15606488230441526,
                -0.16204549260895498,
                -0.055012239395031595,
                -0.13555995040920507,
                -0.025386054685041782,
                0.20081574321549142
            ],
            [
                0.00012332644617926592,
                -0.621945633792059,
                0.12031431107480407,
                0.03021769843645025,
                -0.22483820913032246,
                0.10612474610258742,
                -0.07767034762575964,
                -0.06764672039579879,
                0.49776426556519365,
                -0.16059471215494378,
                0.26746290719950494,
                0.2217382431930754,
                -0.22474336803414355,
                -0.18545282634648552,
                -0.005457698435437936,
                -0.19852755000203415,
                -0.2556486008146091,
                0.06383396155275876,
                -0.13532827620095772,
                -0.19662531861576232,
                0.09437173042549049,
                -0.1381633279913446,
                0.21663145263874073,
                0.007598759824016508,
                0.05242546721295086,
                0.14940189340728538,
                -0.5788879620797884,
                -0.36599280996469574,
                -0.3204350463536968,
                0.026353378107609984,
                -0.10255274207297425,
                -0.0903018279426259
            ],
            [
                -0.12191594416940273,
                -0.5625991963115623,
                0.12090310639112327,
                0.28851036708884914,
                -0.14970288201717627,
                -0.2547922290453063,
                0.13666708310596445,
                0.29007241925709776,
                0.0273124384868375,
                0.03974660732093284,
                -0.081021649724622,
                -0.10445855823441068,
                0.17211986689427294,
                0.4589287946061553,
                -0.014708802068178463,
                0.19295206779591342,
                0.0427773056307334,
                -0.08683004332227517,
                0.0020867265170747156,
                -0.2813293558796211,
                -0.12416747065415563,
                0.058719355797452515,
                -0.022287689134809392,
                0.10943011180312504,
                0.024160816918058752,
                0.2844340257264382,
                -0.10005771848507855,
                0.021860688303759368,
                0.010571467866637738,
                0.10084099851172323,
                -0.23070928432087662,
                0.44996055608251373
            ],
            [
                -0.08463692267218387,
                -0.0036375858937406375,
                -0.1251449114256843,
                0.02893034542719474,
                0.29507472511787713,
                -0.5881991499601941,
                -0.06435628603367798,
                -0.05074453486886977,
                0.16328308489351645,
                -0.25297608039810987,
                0.2910908982816379,
                -0.2812574580702435,
                0.46060438721427943,
                -0.27432720942754457,
                -0.08306942287528044,
                0.14892387682487299,
                0.2047954223412303,
                -0.13162693514805285,
                0.03768053065322468,
                0.13953531580453807,
                -0.28229013988135115,
                0.11427207411890761,
                -0.444825130227336,
                0.004073971951518216,
                -0.16755607417003682,
                0.2902175888925178,
                0.18522624968785348,
                0.2990356097525988,
                -0.18564051690463235,
                -0.37807933502292035,
                0.092367368990786,
                0.057757651497573934
            ],
            [
                -0.2188398018840345,
                -0.23233146760021461,
                -0.5327561967302417,
                0.3854061809361452,
                -0.008362498578878564,
                0.16197781466382674,
                -0.15421274522797962,
                -0.11918037205463153,
                0.07604790929436557,
                0.005047869832961788,
                -0.15046204276971845,
                -0.12023977460449473,
                -0.21421501616954158,
                0.18466228721259934,
                0.08047444124428899,
                0.2621583782273213,
                -0.31647204705068366,
                0.07536230201450653,
                0.17605534035944706,
                -0.06103704861729097,
                -0.46904575086666483,
                -0.6442863356027876,
                0.2891441923075759,
                0.032986914301228805,
                -0.22711795166340515,
                -0.49910139530214376,
                0.016091510969319014,
                0.12702606967654279,
                0.023608800472310978,
                0.4413448492770668,
                0.1743668953864995,
                0.08094231265730109
            ],
            [
                0.29938314204478456,
                0.2025347649927993,
                -0.3559123923569609,
                -0.048889798437776605,
                0.2930032300084856,
                0.47800430026976326,
                -0.12858462495150236,
                0.12784308954463905,
                -0.025556868728806702,
                0.3382307514652545,
                -0.227311811585967,
                -0.10290166971189814,
                -0.1587725180698133,
                -0.02149012923385179,
                -0.35057072046094245,
                -0.05340382765081671,
                0.19413387700910387,
                0.059580381845226855,
                -0.00947520464682173,
                -0.18755268528566146,
                -0.01852869702300959,
                -0.02728730922053655,
                -0.2164419900297474,
                -0.08666512946601451,
                0.3848218899313032,
                0.011302583667117545,
                -0.37276986565443104,
                -0.44338522756218796,
                -0.14433437226811408,
                0.16862908993752398,
                0.0569652725888834,
                -0.05061328353686396
            ],
            [
                0.28942662542797803,
                0.3492921171896182,
                0.18476291425672609,
                0.09323114604140585,
                -0.30897234810148594,
                -0.032018277060362206,
                0.13344915910170146,
                0.004048365917377806,
                -0.140519698007494,
                -0.32952487262870955,
                0.04865167794578686,
                -0.10694432744669172,
                0.10958283885202112,
                0.07102712469393192,
                0.04130581950478744,
                -0.08837488032459476,
                -0.21276349894168414,
                0.32831092962313224,
                -0.16381120417703282,
                0.09076831039321831,
                -0.1762678359933679,
                0.219037054550011,
                -0.4541712578658654,
                0.2537371483990057,
                -0.1924996147392701,
                -0.09882022326199574,
                -0.2751355909119241,
                0.32477964555985045,
                0.0756432391516121,
                0.5850758074649342,
                0.01139407231230539,
                0.2978792154061303
            ],
            [
                0.027395606715102692,
                0.013881102921471562,
                -0.2446178704327375,
                0.16735386090781887,
                0.37910709763659406,
                0.42097345207631304,
                -0.16753312970433715,
                -0.055140992760683336,
                -0.4970376233999849,
                -0.20115559594541949,
                -0.0314283822963171,
                -0.20321027839916012,
                0.1314948567855881,
                -0.0329807979526958,
                -0.20330675592421477,
                -0.5650963920303181,
                -0.3140759662210936,
                0.16736617580707966,
                0.023744618077873373,
                -0.08184172405294489,
                0.34591170731730575,
                0.09943552114448136,
                -0.276839628835412,
                0.17742868364809322,
                0.07168215153188592,
                -0.09390159766630608,
                -0.34009009419947955,
                0.06973278806283947,
                -0.3048170285697132,
                0.3066984871796039,
                -0.5603833989153951,
                -0.025852052702473226
            ],
            [
                0.17327628129369807,
                0.24687961369942896,
                0.5542868579864113,
                0.049756253541761365,
                -0.34149993337377577,
                -0.24927659098741664,
                0.1544410758051436,
                0.26778022289283065,
                -0.19901980647808754,
                -0.4542229626710766,
                -0.10259748503295375,
                0.3625228126604341,
                -0.04974797033627712,
                0.22439732235315377,
                -0.26658563126782636,
                0.03217655929516593,
                -0.3952087555557195,
                -0.5032131194302676,
                -0.0060543510885368084,
                0.22825472219017898,
                0.21470513809283648,
                0.1776983150791082,
                -0.4094373976810089,
                -0.3727984722812276,
                0.3358467281436581,
                0.0012616721157585895,
                0.13498544823082936,
                0.22043399196819538,
                -0.21347002681553484,
                0.08378436315570442,
                0.1730695126653034,
                0.12931646216042725
            ],
            [
                -0.13783700201798232,
                0.26733130034436964,
                -0.2276846656064278,
                0.09256937024406557,
                0.10275847113115617,
                -0.3497713176471807,
                -0.20901653923984106,
                0.04918607231336917,
                -0.1301175621747876,
                -0.5184499463963943,
                -0.6271376287077971,
                -0.04294736974376091,
                0.1630346522434055,
                -0.023613341477013945,
                -0.15320876193980956,
                -0.38394165376806344,
                -0.09920926884174547,
                -0.10283727701486049,
                0.09903320824381805,
                0.6163474543170091,
                0.07482779595376039,
                -0.2946364128048168,
                0.12354751295145885,
                -0.02657740926569538,
                -0.39497634587087305,
                -0.22084884815750366,
                0.24953227168781286,
                -0.11160852381898988,
                0.06600520320665297,
                0.041265432210617764,
                -0.2818801669438865,
                -0.09088596807659818
            ],
            [
                0.10858268054932484,
                0.14763038365692113,
                -0.07056941166886053,
                0.24377201916584307,
                0.26167003081301055,
                -0.18993654239237506,
                0.19217602934339936,
                0.0017038032177464054,
                -0.2024688078944975,
                -0.4504470100420297,
                -0.026943131274370206,
                0.06566437939950626,
                -0.2701144888912936,
                -0.4295922409334188,
                -0.26140511311304,
                0.22618385210500525,
                0.1967347184671451,
                -0.06944772618561611,
                -0.23853172340457196,
                0.379632277803348,
                -0.2765990039814325,
                -0.25596214297537434,
                -0.09056747973381019,
                -0.27377132526226533,
                -0.2220318981747099,
                -0.3646673056911321,
                -0.07976738856941099,
                0.44088176493814657,
                -0.28641088959107247,
                0.297970923041447,
                0.15388806509861958,
                0.1048904190095469
            ],
            [
                0.003686226061305926,
                -0.31179596599091464,
                -0.17454342418723293,
                0.3338006686276645,
                -0.11510441721712583,
                0.1963619563054682,
                -0.12373620940608547,
                -0.15752748499284505,
                -0.0760260384134736,
                -0.11205021117180007,
                -0.050666432153790256,
                -0.13592192648662482,
                0.21401399868518892,
                -0.01990530095573781,
                0.03841867265634479,
                -0.3877666692534376,
                -0.0628736306554704,
                0.23743944688323546,
                -0.13310527443437206,
                0.304619833215981,
                0.03040931955890536,
                0.25205247325771385,
                -0.5284550227589444,
                -0.6023369478377243,
                -0.2962580817537122,
                -0.07244637725329532,
                -0.2713622862736571,
                -0.07965546386478103,
                -0.3828800042432982,
                0.4846362075080706,
                0.18610735457401956,
                -0.521876192201857
            ],
            [
                -0.17290778520968939,
                -0.3418506795234243,
                -0.0875976474039158,
                0.009240961861370894,
                0.09725766201698915,
                0.03388335960125799,
                0.4125176581368933,
                -0.012820905143206152,
                0.2927581655822481,
                0.05657183798423659,
                0.2895645854186346,
                -0.09272090187653725,
                -0.15488982150195096,
                0.21796704100445216,
                0.08196985801630607,
                -0.21791126490862436,
                0.5290706965502763,
                -0.06513230034708495,
                0.02478001031727327,
                0.029559341885242337,
                -0.02854302875573223,
                0.12028514367729169,
                0.05360386021009433,
                -0.28645921348061887,
                -0.2501462408634497,
                0.06947709599522443,
                -0.01785405568402094,
                -0.13214352711491542,
                -0.24407526718679037,
                -0.21424088833776306,
                0.030991660629702364,
                0.011948187333271383
            ],
            [
                -0.6130288358600938,
                0.05383809655119938,
                0.38003978855643206,
                0.17791579389414602,
                -0.1600367502202158,
                0.02998412859736584,
                0.031277967231877604,
                -0.14287288960881148,
                -0.37614585054274474,
                0.3039162600237839,
                -0.04377192518413923,
                -0.24350738720923007,
                -0.08999483827653315,
                0.13005125762386238,
                -0.15519430122408295,
                -0.051457445236057685,
                -0.0308145810560311,
                0.12690806986969577,
                -0.04706010268631429,
                -0.15560521413458944,
                0.09635533159574514,
                0.05316807830632759,
                -0.1349184855541354,
                0.14670184575767434,
                -0.3982396964645488,
                -0.04013923838184628,
                -0.3464125514996429,
                0.4746901787853189,
                -0.028283334596036113,
                -0.0007828118122587522,
                0.2795232278428029,
                0.2903360810885055
            ],
            [
                -0.17705394197480992,
                0.03401488253169393,
                0.3006735079976958,
                0.10424752345702953,
                -0.0333952803777428,
                -0.09179681065161503,
                0.18112192524102824,
                0.07636957125088725,
                0.13210137418192322,
                0.2970997001699516,
                -0.37592270961658225,
                0.06340602101430173,
                0.07556764696109959,
                -0.2332957964571181,
                0.31409903779812876,
                0.08465417535012953,
                0.16359183172756697,
                0.011731278808376685,
                -0.11233169246261204,
                0.28227787081589106,
                0.13995808749830813,
                0.08146292617515455,
                0.15615049951608012,
                0.026255697174135013,
                0.015623225578194767,
                0.18078999514267313,
                -0.10406846895798987,
                -0.06418350392983141,
                0.13537943466054714,
                0.12499891826312899,
                -0.10866466460697749,
                0.033035934676142006
            ],
            [
                0.4577996212140697,
                0.2661064680311325,
                0.24843571328063144,
                -0.2531264355917047,
                0.19660337600796912,
                0.028385217194291247,
                0.06519052515045895,
                -0.1489884845555795,
                -0.034779543538404414,
                -0.11449421476167465,
                -0.223673848907926,
                0.09245015766555582,
                -0.2238361390478569,
                0.15919215924087704,
                -0.2716133551764096,
                0.06985549459521324,
                0.05753539779369169,
                0.14760416166990142,
                -0.11837528415940157,
                -0.15465500440605875,
                -0.23638697198522846,
                0.2107025379933424,
                -0.09262637406013957,
                -0.3502526091008669,
                0.1322318803068329,
                0.08173242199782954,
                -0.5289649676423048,
                -0.36561378510550874,
                -0.3643894920867004,
                0.1581102073825458,
                0.18645683255479995,
                -0.09280705379274812
            ],
            [
                -0.10613898283988665,
                -0.07383207069548171,
                0.19413444166099605,
                0.3362138671307024,
                -0.37418290437117335,
                0.2563423838714158,
                -0.35711056874538427,
                -0.05087468135887822,
                -0.05827247016699099,
                -0.3917500367371762,
                0.35542181515829097,
                -0.02344559977562584,
                -0.2456276901009067,
                -0.20216403339966305,
                -0.0907287189155099,
                -0.036280763307089355,
                0.00708285071653539,
                0.26864982478258687,
                -0.20826708876157468,
                0.08023194498245682,
                0.41071296079120423,
                0.034861133525402065,
                0.33047870748131003,
                -0.3869075132832558,
                0.2756066915486494,
                0.29354814849291166,
                0.054037438387039095,
                -0.30330901625235923,
                0.07656440589300748,
                -0.28420831729379564,
                -0.2317855761631847,
                -0.13584387627228015
            ],
            [
                -0.11098888384703569,
                -0.13084223943742163,
                -0.1063415362072146,
                -0.0716298088182941,
                -0.22391324914116956,
                -0.11104970875862763,
                -0.19441680627097033,
                0.43852131238631487,
                -0.18724871985605898,
                -0.13186871646834844,
                0.2440293263797522,
                0.5039235592182303,
                0.20990024076045852,
                0.10856737523784626,
                -0.3276910298304565,
                0.07254905557934187,
                -0.5207528709802667,
                0.0352171589419501,
                0.16593647272487705,
                0.010345781166105475,
                0.37021285157965317,
                -0.1604000679138452,
                0.22111682194626617,
                0.14607068810004187,
                0.4424557686388364,
                -0.09570457222884757,
                0.025527758146389322,
                -0.17526270465385668,
                -0.24314160592641004,
                0.04782381881624862,
                -0.14579392597752336,
                -0.21232253630098213
            ]
        ],
        [
            [
                0.1996531494228788,
                0.04057623117424012,
                0.005080569864548642,
                -0.3069668912189825,
                0.4119521940621752,
                -0.09202117494360926,
                -0.06488645244041652,
                -0.10161872583529588,
                0.38413199661624325,
                -0.10766821403280567,
                -0.20573098349301622,
                -0.33493949652286376,
                0.09067571750511885,
                -0.12701948639397442,
                0.19331954042664148,
                0.36730000461194123,
                0.029011831292795096,
                0.16168019531783,
                0.2895919310582298,
                0.21071330373158342,
                -0.31832666733673737,
                -0.1613284025696847,
                -0.009019622281194385,
                -0.3546126909825796,
                0.23729057934106274,
                -0.23788646947558062,
                -0.115566429220753,
                -0.5776323736976928,
                0.1603673736234465,
                -0.08797358093480077,
                -0.049959037324503346,
                -0.17344924392242664
            ],
            [
                0.15763170081539066,
                0.3116484351302747,
                0.3280864251081752,
                0.6990742057239175,
                -0.1696660022807733,
                0.31756412727485533,
                0.07592693375265938,
                0.0699068166811613,
                -0.18387552059651782,
                -0.16763813687023268,
                0.10349907336796743,
                -0.11992804487228162,
                0.2281526021569283,
                0.14228777931132378,
                -0.33022331256581117,
                0.10652643500142094,
                0.24193740891131169,
                -0.225188996016137,
                0.25448293490987356,
                -0.10596707345472738,
                0.09304916110711976,
                0.022941703155694878,
                0.4474195887124965,
                -0.10460144433439356,
                -0.6362143310828141,
                0.2900162956535867,
                -0.299254476164838,
                -0.33713863457015525,
                0.5483347268983677,
                -0.008383093753604472,
                0.1228402396950405,
                0.10846531305083452
            ],
            [
                0.020616544306723744,
                -0.0323601924836101,
                -0.22453491414559434,
                0.08684648813393561,
                0.27396311578453053,
                0.3471457878477772,
                -0.02285875400669109,
                0.39274082878959277,
                0.039344896120868014,
                -0.27239644270961955,
                -0.13614863592934529,
                -0.21445969808136275,
                -0.1415729008161693,
                -0.1358567818541428,
                -0.06951011166980851,
                0.23437495728053162,
                0.15075200203571446,
                -0.22216018030899465,
                0.3373070468967817,
                0.17951485837143727,
                -0.05803298201716157,
                -0.04336005582719486,
                -0.0916732048059161,
                -0.35357673743358475,
                -0.2151102595846434,
                -0.34745909841405775,
                0.2493565354776748,
                0.42408803998768885,
                0.18526795109343655,
                -0.4122817732891198,
                0.22657049279361424,
                0.24165942848306057
            ],
            [
                -0.20838158303538265,
                -0.1752572415637139,
                0.11146471024664732,
                -0.16592444375752965,
                -0.0649665729549033,
                0.0027618619720393466,
                -0.13232104260818153,
                -0.4681135755548329,
                -0.19895910046319232,
                0.2745234020692192,
                0.12978161509224242,
                -0.006338040371769357,
                0.1835704642137026,
                -0.6196169524091231,
                0.3247713041363975,
                -0.25842470107506677,
                -0.15054536574463748,
                -0.14097875591637615,
                -0.2635259755889588,
                0.08554266215221111,
                -0.19326514930861508,
                -0.19016160197014892,
                0.1153892442922845,
                -0.5230989323977142,
                -0.08266253080823502,
                -0.09286519421420716,
                -0.06580347136634566,
                0.342415319159192,
                -0.4949741203225007,
                0.07605770596883843,
                -0.2274414528241965,
                0.0452250243076203
            ],
            [
                0.19405769674332118,
                0.4836097251099351,
                -0.5495649532257241,
                0.04030460269970893,
                -0.3570959885724141,
                -0.04456786451792352,
                0.003491951691170832,
                0.32976444611430616,
                0.02820462946231763,
                -0.16636000171635054,
                0.07709027442086709,
                -0.3238201635418983,
                -0.36041753405661275,
                0.29496547444596977,
                0.08195205557183335,
                -0.07823194934887602,
                0.5515781418453578,
                0.09559811386722426,
                0.3200222069830821,
                -0.11665848640034207,
                -0.19445732103460112,
                0.08668202652080025,
                -0.0667176189754162,
                -0.054999568818444894,
                -0.13423593274897827,
                0.35386223311028897,
                0.4085572718756302,
                0.08088545429271546,
                0.320381011426513,
                0.18154378140427305,
                0.1443614481855363,
                -0.21171660654575178
            ],
            [
                -0.06945534587595958,
                -0.2138646750508507,
                -0.24761366332338242,
                -0.2107616554423924,
                -0.1310993443793936,
                -0.13800489125472234,
                0.021984130661251287,
                -0.3451249341559524,
                0.032006451546854595,
                0.044669379776052176,
                -0.3239795915425695,
                0.042827962932211576,
                0.3566269602474637,
                -0.4792410295340324,
                -0.11240171430481086,
                -0.11936402980259038,
                -0.11760399105734172,
                -0.14875692819759953,
                -0.20413876565920924,
                0.019353717691928368,
                0.18978086196610666,
                0.39252712276344065,
                -0.05114037008984167,
                0.2811688732368073,
                0.04210968430707028,
                -0.7405765883203635,
                -0.2649568134669817,
                -0.1698521594017192,
                -0.16191370236818975,
                -0.07233860619564912,
                0.14928257561650227,
                -0.10054447875381406
            ],
            [
                -0.1976046300535533,
                -0.1564664696474086,
                0.13466028350494955,
                0.06836565428328574,
                -0.28163392668671655,
                -0.06075623189077705,
                -0.0288172521700426,
                0.02451516855369675,
                0.025719073720869682,
                0.2447955510198018,
                -0.24841299666331573,
                -0.361807361940563,
                0.056874806786972515,
                0.1896293507533679,
                0.29323893120041483,
                -0.0628698430530451,
                0.04371760999451667,
                -0.4006222739944054,
                0.6745850759338942,
                -0.33045498959080416,
                0.2923129250320628,
                0.06039530931062465,
                -0.1197994031204585,
                0.68991322671869,
                -0.07646303448462183,
                -0.10151816483832467,
                -0.2969704205942422,
                0.26228781977684407,
                -0.4450967854696333,
                0.5556341407395988,
                -0.5118531452030284,
                0.006544019328803774
            ],
            [
                -0.4783035431818915,
                -0.3797307125866432,
                0.0268062268415361,
                -0.2722793466813633,
                -0.2476536439649693,
                0.14716892006584445,
                -0.017099481851070436,
                -0.37972167019946296,
                -0.2987813018242478,
                -0.016918770304429735,
                -0.1708175564798187,
                0.17266800215470304,
                -0.1927189602972942,
                -0.19523623265037116,
                -0.5258641013136499,
                -0.5672041294197869,
                0.07193884294168648,
                0.27128333631232887,
                -0.26634115484781845,
                0.03680536808708416,
                0.16795669474962333,
                -0.7407491191707556,
                -0.3806687109713783,
                0.3187075585084158,
                -0.09414873440434848,
                0.2289075081084813,
                0.07923012892761709,
                -0.4295012181954202,
                0.003817653560532452,
                -0.33256417379317255,
                -0.20130625942498082,
                -0.17226609996881534
            ],
            [
                0.28770766258415365,
                -0.21200938266755234,
                -0.4293799454583019,
                -0.2050794806745501,
                -0.19115259348198677,
                0.042639019500841875,
                0.1951626917164541,
                -0.05647108922529824,
                0.09063685616087265,
                0.4823006509262545,
                0.24887362806936664,
                0.15026527247514698,
                0.3047313477385437,
                -0.1314808203834346,
                0.47651179463909316,
                -0.5472366511491908,
                -0.055047277389011086,
                0.19733668845775376,
                0.5082552978293929,
                0.28896970767778657,
                0.15013059752667324,
                -0.04195505920092765,
                0.08516872900196584,
                0.27934020896010425,
                0.18158713428861867,
                0.16224056400547332,
                -0.166833789217033,
                0.13685404065494863,
                0.3799207116983608,
                0.10391686146876383,
                -0.159154864903206,
                0.3058109887834233
            ],
            [
                -0.4012271303342939,
                -0.2585996738189965,
                0.20147407370838552,
                0.13045974264791757,
                0.13506344164878975,
                -0.09342346564918512,
                0.21867532164218872,
                0.1272879795729788,
                0.03965994458052215,
                -0.22131960803287967,
                -0.15842287893070628,
                -0.23058303584893353,
                -0.012695635869290636,
                -0.25250227770554107,
                0.34662514053192933,
                -0.011782330443240771,
                -0.5375270515282948,
                -0.06868415114550959,
                0.03717349351238588,
                0.16690864230419428,
                -0.42545352304995615,
                0.37234173764285167,
                -0.12234117636881398,
                -0.2833094901208459,
                0.07941840655641708,
                0.16344993587416995,
                0.40430608093659004,
                -0.0973120862235775,
                -0.4077424782075224,
                0.3161312527084224,
                0.10617043738261357,
                0.10617945956163916
            ],
            [
                -0.2965663744215652,
                0.3128478654018899,
                -0.17862502184199655,
                -0.10883934270801826,
                0.04636655972172027,
                0.11472502192256749,
                -0.3095788899770541,
                -0.21726550582193285,
                0.04647891645586886,
                -0.3653502197709534,
                0.2784881229102811,
                0.4118561801293148,
                -0.20733291575594637,
                0.018432495913142687,
                0.03994596598938348,
                0.26264498920134144,
                0.09041025582601044,
                0.13008153804151695,
                -0.1325425594410567,
                0.0016596856989542041,
                0.38544250088856497,
                0.3417683304546349,
                0.3431163818544024,
                0.04844138372706435,
                -0.047496520323956896,
                0.35833803383926305,
                -0.3791076693800164,
                -0.1422562826650621,
                0.16120433699440972,
                0.2512967994604039,
                -0.19165455719848376,
                0.007802728957061041
            ],
            [
                -0.3274589239067074,
                -0.049097507435994094,
                0.30890237108120217,
                0.09612624844674038,
                -0.022270101403902884,
                -0.1279537211218901,
                0.20451013430756132,
                -0.018390060634368096,
                -0.18069651960199962,
                -0.23906848476251127,
                -0.058513856570088514,
                0.004065594808831214,
                0.05166162729292178,
                -0.21416826441315834,
                0.2209945423659957,
                0.04340483018827848,
                -0.07323118927595956,
                0.22686836749001366,
                0.055499815494365994,
                -0.22895296471669754,
                -0.3731485906872691,
                -0.2008173001617608,
                -0.16489415884306524,
                0.28424982270067395,
                0.03209480064110527,
                0.10767474503461658,
                0.31868108079212326,
                0.08673769797754716,
                0.1628248227738388,
                0.07043386867113129,
                0.43524059616801875,
                -0.1595354106338196
            ],
            [
                -0.03871601552345598,
                -0.022668996947288852,
                -0.12061036630209808,
                0.2661878517411892,
                -0.31423072329755775,
                0.07246261043426772,
                -0.05515908052442458,
                0.05038073890336099,
                -0.32139365071935416,
                -0.16259820988171356,
                0.052022725060610724,
                0.02395588990306892,
                -0.3343609988565219,
                0.33988520920223136,
                0.07174409940875133,
                -0.20108995710792515,
                -0.49168900163920976,
                -0.0850405310601149,
                -0.24487115739366072,
                -0.006529959080588777,
                -0.2784834996359386,
                0.47179276892124,
                -0.0933664391192443,
                -0.17024898902803154,
                0.03220788279685611,
                0.2575437653645768,
                0.19113485436778,
                0.053429204334900296,
                0.038415355734460754,
                -0.21560997152232492,
                -0.546725867439736,
                -0.07399597915823229
            ],
            [
                -0.16970602150598507,
                -0.23186319509049264,
                -0.4447379406578283,
                0.27557971049741553,
                0.1931793394444541,
                -0.2577626923189259,
                0.2639775964386809,
                -0.16927569797264347,
                0.1710581172597333,
                0.37675608598176946,
                -0.07922616260292015,
                -0.3997921181197419,
                -0.05742957735400143,
                0.03689268294561848,
                -0.081064527448812,
                0.7995488022687663,
                0.06283050153010102,
                -0.09077333920517043,
                -0.06790886292782375,
                0.3102140288048706,
                0.31703830468413313,
                -0.31515481500655806,
                -0.23777169248385832,
                -0.03192018864676546,
                0.0335022042267728,
                0.06689037769431538,
                0.08967586367748236,
                0.026760177272388667,
                0.2500126299674428,
                -0.34684847921696077,
                -0.027110574062736596,
                -0.009150950662527848
            ],
            [
                -0.0640229525479974,
                -0.15003648659473903,
                -0.023694341742472654,
                -0.2424633659394818,
                0.21908986512969578,
                0.02536047862389848,
                -0.47576131638599384,
                0.04834019212841139,
                0.05491685913626466,
                0.2794417049288568,
                -0.21866322436882907,
                0.005322398565161796,
                0.02465429024258348,
                -0.28172515133589426,
                0.05707352478368586,
                0.16736328584843432,
                0.08796497235207859,
                0.5016785695616808,
                0.01568961640394578,
                -0.10404126242887267,
                0.2902282088922014,
                0.32883086175981496,
                -0.1184881934105927,
                0.09804414887793614,
                -0.41413496294564567,
                -0.1745923650278411,
                -0.161150310776166,
                -0.07581253525980015,
                0.008808229945889662,
                0.5775560397174595,
                0.1842259643693048,
                0.4537052688226825
            ],
            [
                -0.2511642221240218,
                -0.09920001448844963,
                -0.08903477892774214,
                0.2892503039644116,
                -0.13977786797095057,
                0.05278656149936326,
                0.1803450907767703,
                -0.05928439591048291,
                -0.06726785414959703,
                -0.18841716409629203,
                0.2265668277771003,
                0.09401015972629022,
                -0.17645765091363722,
                -0.037033999589237324,
                0.2659951384156597,
                -0.22309951616815438,
                0.49377854720700065,
                0.19372541907176238,
                0.4765858016384652,
                0.15471623270137333,
                0.09275659256929555,
                -0.2974320801166759,
                -0.3429005194544113,
                0.27219941451171475,
                0.1656876964041678,
                0.3810367373326079,
                -0.2398027899001786,
                0.3173326879999398,
                0.1295829687721677,
                0.18305592128971893,
                -0.2753854004100386,
                -0.03540389423899561
            ],
            [
                -0.1595404535148963,
                -0.08050776104647495,
                -0.1293049637537076,
                -0.2343429684206196,
                0.2759635792709314,
                -0.003240870210348286,
                -0.2741526756404201,
                -0.10994423605933992,
                0.3283676052880138,
                0.13006249936949005,
                0.415442650362886,
                0.07443606534478821,
                0.3231701742879057,
                0.17100423281147287,
                -0.3143411157410609,
                -0.3238970980912204,
                -0.2253824567883138,
                -0.037217302398925636,
                -0.0014451265455417011,
                0.26396097826508896,
                0.2876331696991991,
                0.32190965816664313,
                0.3874709165518634,
                -0.20429226972211176,
                0.3126115405380128,
                0.10224148081808049,
                -0.4041811132798454,
                0.06914976176088503,
                -0.47393798803430676,
                0.11511298336375231,
                -0.08141423891124747,
                -0.10895303143604722
            ],
            [
                -0.0851784446232466,
                0.37227028500097703,
                0.0176231494713886,
                0.31593650198846207,
                0.40482321246483516,
                -0.1329673836129858,
                0.1530762673253698,
                -0.09839152095663767,
                -0.13667977830214126,
                -0.14971069036018694,
                0.34652518490747675,
                0.1589934756805038,
                0.2576195923017593,
                0.05513655534286034,
                -0.24967642069118504,
                -0.11958292984520034,
                0.08785717078192273,
                0.8147460894039623,
                0.09064489193781321,
                0.11453120613729882,
                -0.09088191422397447,
                -0.12697251575440274,
                -0.07593303501515886,
                -0.04624538160817967,
                -0.042058423888017754,
                0.05872608485482858,
                0.15113863933987914,
                -0.07219175071635289,
                -0.5243181827685129,
                0.12647576402962488,
                0.3406142624054576,
                0.03373628476942612
            ],
            [
                0.4385366202990068,
                0.05846991912119938,
                -0.5293765830438999,
                0.2368756335311745,
                -0.45100668160098134,
                0.19730517868531347,
                -0.08033375720726008,
                0.07595867291381668,
                0.2868948548127155,
                -0.26014710510247113,
                -0.2590109551891847,
                -0.14590994996174517,
                -0.4911820697584769,
                -0.18256434358574172,
                -0.0342219668539036,
                0.3138114594758248,
                0.04613263186523755,
                0.0050347945704910385,
                -0.26358166773846886,
                0.0905101567619503,
                -0.3937393246190049,
                -0.2653587578600483,
                -0.24495022341824657,
                -0.4907306080462577,
                0.11774128112328808,
                -0.3067318513943407,
                -0.5076730879648598,
                0.03177170665161352,
                -0.04338020515775636,
                0.2504191137514944,
                -0.026883754339155987,
                0.07091462855367986
            ],
            [
                -0.14092062015690326,
                0.06247044731824712,
                -0.2979411864821174,
                0.005044476700749758,
                0.22922895158804574,
                -0.10634339062865769,
                0.43361659505774325,
                -0.4541539314969239,
                0.07876880390323739,
                -0.041406283624221454,
                -0.5217273229167511,
                0.23809140744209734,
                -0.3903444986550974,
                0.5485493109938351,
                -0.19101577402948974,
                -0.20495866754493072,
                -0.07469313165689993,
                -0.010032171911502486,
                -0.4842813354498783,
                -0.023358309020387213,
                0.009484713840182832,
                -0.21041784364142702,
                -0.15854511994924939,
                -0.13882389706237414,
                0.12743630595775168,
                0.2623958705901811,
                0.07213303104527172,
                -0.096739779694011,
                0.25760685022412,
                -0.14995932686465943,
                -4.680366243583257e-06,
                -0.0548086852856974
            ],
            [
                -0.40191932793388746,
                -0.2653678391020286,
                -0.011058119540349446,
                -0.04255696520015345,
                -0.1842328308982742,
                -0.18807145560946445,
                0.0869242321753313,
                0.09710634495413943,
                0.23795125078887255,
                0.5496081724283147,
                0.4189569359131651,
                -0.3552911068629141,
                -0.04041924095144017,
                -0.2523385325873701,
                -0.889575092347236,
                0.24180118893643207,
                0.34638650384444963,
                0.4138328179565763,
                -0.0801271867638418,
                0.09606819095718867,
                -0.14265458389506747,
                -0.20310362126044715,
                0.08443942157021093,
                -0.4379074364661465,
                -0.2325442306630296,
                0.03898298659251316,
                -0.3952282526654634,
                -0.2511286692541248,
                -0.2359854600124537,
                -0.2219286063336124,
                -0.26815935006248953,
                -0.00567194803479882
            ],
            [
                -0.11221774475168944,
                0.4703660759183453,
                0.19262424732076536,
                0.003542582510281958,
                0.05274848912621386,
                0.3989334299583996,
                0.04157437097039115,
                0.20786973726654984,
                -0.14620654569531055,
                0.3035190000397392,
                0.11495693661984553,
                0.05737875160425765,
                -0.3021744282093775,
                -0.043698456168051535,
                0.09821037353179797,
                -0.32877778659346507,
                0.34536975841587014,
                0.42917355905795407,
                -0.4519703624268494,
                0.4596242192215103,
                0.10577358028412637,
                -0.3255950863485094,
                0.637329497476716,
                -0.6508490166558326,
                -0.1229297243669705,
                -0.36200763161623767,
                -0.24657917588705838,
                -0.15922540873111152,
                0.05638010188992447,
                0.06413411367622605,
                0.1752915519209702,
                -0.17013718333110706
            ],
            [
                0.24475510619913624,
                0.27763658064922025,
                0.0012198142177594405,
                0.20896671688580845,
                0.39390056032459436,
                -0.035506884412704956,
                -0.1606909096268682,
                -0.08518627343200945,
                0.05216196241978315,
                -0.2962089158760207,
                -0.28119963333456266,
                0.05551911574965592,
                -0.11716718039084326,
                0.6482345929695389,
                -0.33867861287768425,
                0.03970600059506579,
                -0.3679363803431265,
                0.07123124451411933,
                0.06843688199266809,
                -0.186147639805268,
                -0.09076738145136087,
                -0.281731834476045,
                0.1880369515033616,
                -0.0643762881777709,
                -0.08881026248660641,
                -0.10358156392773638,
                0.06080015026001406,
                -0.23290609305456345,
                0.19115179568405144,
                0.5607727210190073,
                0.17193151349293093,
                0.24785158228649737
            ],
            [
                0.12842528675278558,
                0.0032005192425548354,
                -0.12159048708089072,
                -0.33887711232164647,
                -0.143692000809547,
                0.1813985660308615,
                0.055936836119786344,
                0.2791011120438513,
                -0.32191352504817194,
                0.29429145782456906,
                0.06318701946168323,
                0.11758788801272485,
                -0.18010870668623064,
                -0.11857463190575948,
                -0.4061082373143461,
                0.050171779755259424,
                0.18781483292301054,
                -0.04011645285682555,
                0.17039811018446124,
                0.08537886075539498,
                -0.018558393562171857,
                -0.3840475121383214,
                -0.2185335863550385,
                -0.1823369469394094,
                0.2284523419140934,
                0.37352344606402466,
                -0.02138456736931796,
                0.4914969653379131,
                -0.20951159342968198,
                0.12846798650869068,
                -0.08169241492481087,
                0.023734076383999818
            ],
            [
                -0.15384950974051154,
                0.10996595661339974,
                -0.06419987284476704,
                0.09833757169487746,
                -0.058787042475822684,
                -0.16441642101246204,
                0.6489314612623971,
                0.07857087467640965,
                -0.17047273789260686,
                -0.0897749901188396,
                -0.10262868594430367,
                -0.5083902816248863,
                -0.013231388517904005,
                -0.2243177270158894,
                -0.04491381960279072,
                -0.15216010603388647,
                0.03587980695677976,
                0.17606654236772848,
                -0.19404486943268068,
                -0.4513845836621702,
                0.04825073899197236,
                0.362087867845205,
                -0.3781453049300424,
                -0.34375509200256443,
                -0.2320341455644721,
                0.020294499039239727,
                -0.40575115104380977,
                -0.07914326614916511,
                0.2393923697370643,
                -0.18678496402435366,
                -0.2189697684214533,
                0.02760212218293832
            ],
            [
                0.1773472365647254,
                -0.0766929930076972,
                -0.046556802503698445,
                -0.2724725261527367,
                -0.16974286270703406,
                -0.09443845390215053,
                0.054081234614766806,
                -0.14770686140949849,
                -0.027292195169940244,
                -0.1005002010878113,
                -0.23769872370991993,
                0.002047415780714855,
                0.005494459391406902,
                0.06318897764157404,
                -0.11738371962024295,
                0.28876517790549716,
                -0.2928482523335221,
                -0.12295672492288062,
                0.26851990005438336,
                0.017886101423629022,
                0.1669132579612584,
                -0.0643413983586614,
                0.02549092957677931,
                -0.2802862886686944,
                0.1437844189707723,
                0.23714989804643657,
                -0.034032591109349634,
                0.028284434380192798,
                -0.15343596675318133,
                0.3147357908175223,
                -0.10695890273341307,
                0.06621727258186844
            ],
            [
                -0.32513333895081453,
                0.02378855640122797,
                -0.36493784204550844,
                -0.13478658047036254,
                -0.362780313078854,
                0.11909507274864373,
                -0.14910902204717172,
                -0.10685914383420489,
                0.19752796920877497,
                -0.12303922742534397,
                0.06496529986644607,
                0.10707774014802272,
                -0.08882788959133056,
                -0.1686518392548394,
                -0.11783314143068388,
                0.08169997643510968,
                -0.16021026062972557,
                -0.10753568810969004,
                0.018465001829898433,
                -0.25982633869239113,
                -0.08001245294649542,
                -0.1312765107953376,
                -0.22255396149364626,
                -0.11428631481056412,
                0.31049164644243216,
                -0.31587230662126575,
                -0.38999755686047427,
                0.17586277046173326,
                0.2046490737626344,
                -0.04455655111655895,
                0.05477420521508162,
                -0.04554585763597569
            ],
            [
                -0.024463093772191843,
                -0.31581950405101256,
                -0.12026671508076309,
                -0.08068996825302799,
                0.20207333924702556,
                -0.14482674639310178,
                -0.003416408091150952,
                -0.01551008708085335,
                -0.05853343608780499,
                -0.03882406089955536,
                -0.2974159944741394,
                0.02879477003207822,
                -0.017712733685518244,
                -0.1224901673322931,
                -0.4581730138678703,
                0.16169215743268953,
                0.21837809570271033,
                -0.16939038663293338,
                0.13401091866323225,
                0.2288050561279986,
                -0.40740467519618184,
                -0.07073738543327168,
                0.044640476554552486,
                0.02649211722330046,
                0.17326341593483485,
                0.11971343387941165,
                0.042064758558642334,
                0.11291232135329819,
                0.033087630919989224,
                0.0011142803477660042,
                0.3580655182380018,
                -0.11815800170438504
            ],
            [
                0.1508211820593294,
                -0.0144504208093743,
                0.10864874819467962,
                -0.05418705461819668,
                -0.07067210869608331,
                0.5043271535912026,
                -0.07744056984758302,
                -0.15479654971032436,
                0.13523582149766497,
                0.1375091877816029,
                0.25658306262206715,
                -0.11274281583217499,
                0.2675894617314543,
                0.15008148520599218,
                -0.4040412289430328,
                0.009203870462737343,
                0.1149797968566328,
                -0.15608305857414426,
                -0.10983008228199359,
                -0.23472222797592646,
                0.05122274757052467,
                -0.15549246244929332,
                0.4885437627806256,
                0.32393183878231374,
                0.2032344187133484,
                -0.004713637131660215,
                -0.43564965169971775,
                0.23422969078416883,
                -0.457142583205846,
                0.0057801955389326035,
                0.11541345598326738,
                0.1361566055742588
            ],
            [
                -0.3060037769410175,
                0.09681238602447957,
                -0.10553538197770679,
                0.18522597946169606,
                0.04050821434702309,
                -0.07752575295185934,
                0.07662219938484624,
                -0.3838114896074953,
                -0.11537687090451915,
                0.21017057313751858,
                -0.2146260714133406,
                -0.07828012809500087,
                -0.09031219379079145,
                -0.14502947090893806,
                -0.011883078159764077,
                -0.21466100075782474,
                -0.3091257419464938,
                0.07438090924757271,
                -0.21673204093545617,
                0.2308894047922104,
                0.25553082120471154,
                0.43192643650172274,
                -0.3600445687894516,
                -0.16231689484690645,
                0.040190225930378215,
                -0.068468132875483,
                0.007011952961472336,
                0.3880190588789559,
                -0.13455616282549285,
                -0.13919698709226183,
                0.10541062920243964,
                -0.35849834630878286
            ],
            [
                0.13513353010547555,
                -0.5213252036886151,
                -0.16527328631308194,
                -0.3940734463347462,
                -0.31142092887237877,
                -0.4332854275783731,
                -0.06790609029040777,
                -0.2746445015968652,
                0.15113098236835848,
                -0.2982980683452329,
                0.4147025537896019,
                -0.08921844366630849,
                -0.21891334394379225,
                -0.09832841732525571,
                -0.33554448902436007,
                -0.08251519617028628,
                0.4479306867416203,
                0.14712593245216857,
                0.14131831575172402,
                0.4520834137386568,
                -0.07668644798270616,
                -0.3073071744620875,
                -0.0879142181384607,
                -0.14179975469113684,
                0.13254213934654538,
                -0.25027468079317394,
                -0.19561457261800627,
                0.3294973060582976,
                -0.19358303646054512,
                0.014504496218019844,
                -0.06547693242434355,
                -0.044309870972992695
            ],
            [
                -0.271876946938322,
                0.1493984830796501,
                -0.23338165484537246,
                -0.11836064267952322,
                -0.18587708260348354,
                0.08619705053990086,
                0.24410565709096999,
                -0.0013625924558493315,
                0.12483855707254374,
                -0.2844726749271756,
                -0.06071795499024684,
                -0.3684369217290573,
                -0.24905731459701236,
                -0.4253802304287506,
                0.013467937141523776,
                -0.15402951725394512,
                0.055108441690454736,
                -0.10346137713271313,
                0.14083299400733656,
                -0.11442899133228264,
                0.342524835947521,
                -0.13379187243685586,
                0.09339918804559741,
                0.03194028288170486,
                0.7180180395033902,
                0.06380437263254765,
                0.3262312813196885,
                -0.26535417877424006,
                0.13771308595299364,
                0.40450990093230454,
                0.37264255029821475,
                -0.17254734356554238
            ]
        ],
        [
            [
                -0.01785901129856085,
                0.01815786631154456,
                -0.11863468500854096,
                0.25290487279047946,
                0.29034968336268036,
                0.09715907412980469,
                0.3915259512743995,
                -0.07343049921729035,
                -0.041486408534455725,
                -0.19442550097975572,
                0.5936378016709366,
                0.5770281710000016,
                -0.02743840835747951,
                -0.11744109600739103,
                0.3381429691383702,
                0.4121284974774753,
                -0.4565695064534826,
                0.2214961995156287,
                0.155417260080767,
                -0.1955346085820956,
                -0.21139383522967498,
                0.02600658270315946,
                0.3466352478836952,
                0.19296441247068133,
                -0.20274778969653243,
                -0.4283441014336402,
                0.025705726021659336,
                0.000316375341802315,
                -0.05311835609664329,
                -0.02851712010884878,
                -0.013467154725675478,
                0.5831078103985387
            ],
            [
                0.17673760388816512,
                -0.17689570238592445,
                -0.30264185642634195,
                0.042657582414625465,
                0.22573678902517647,
                -0.24170708306293176,
                0.036977362006532094,
                0.4514091348151112,
                -0.6640983035600218,
                0.03116663649823623,
                -0.13187399157169857,
                0.4047590123566031,
                -0.1919537885240478,
                -0.38428942870468463,
                0.2686053921214949,
                0.24575919495346824,
                -0.01986438912482683,
                -0.29910440540799577,
                -0.5631014620584525,
                0.006669071533410462,
                0.2790030897586374,
                0.15762869190454065,
                -0.338903050592759,
                -0.15576956695443844,
                -0.05947678721892769,
                -0.1553512980089891,
                -0.15462608855854612,
                -0.2247854814822211,
                0.643933637000127,
                0.38015911891316967,
                0.09098998774053788,
                0.22853729330584993
            ],
            [
                0.1994030544434904,
                -0.1843396346710848,
                -0.15494629752723924,
                -0.004674302973411483,
                -0.09558571568298259,
                0.5015406659138862,
                0.428263920252655,
                -0.007171997249246588,
                -0.11764656621957006,
                0.32421094280525303,
                0.1622156276156599,
                0.12302426978553553,
                0.10543905364897449,
                -0.15198523414950416,
                0.1874601969488599,
                -0.2611778898646214,
                0.06698036313357239,
                -0.037862225647100775,
                -0.43923547636313126,
                0.2811916811028206,
                0.128948831709342,
                0.05420892554039108,
                0.2433333520843168,
                0.3240580169507047,
                0.09191802657771238,
                -0.35780607280669124,
                0.33247587671595547,
                -0.04663754641980282,
                0.2088004367369155,
                0.10557671640811728,
                -0.08011891328939276,
                -0.178911251610093
            ],
            [
                -0.03638912064642432,
                -0.1572969439931174,
                -0.2362427758242568,
                -0.05713853912767217,
                -0.025155111328630346,
                0.029549213313297153,
                0.2022225165683534,
                -0.22575085610849724,
                -0.29251306489541257,
                0.03797176982800168,
                -0.17626200854060411,
                0.3652741517762028,
                0.027365634978721614,
                0.06210589077914027,
                -0.24367939124269442,
                -0.1410118468156185,
                -0.220329582099298,
                0.676910986091457,
                0.029075084414016798,
                0.03833011239051398,
                -0.42175728454229056,
                -0.060323170289307275,
                0.14409809222315365,
                -0.23191133028235916,
                0.043216924443363024,
                -0.23349329170564137,
                -0.3282570962807855,
                0.4362797270507637,
                0.0345450998301489,
                -0.031510158675160174,
                0.14204189181570204,
                -0.38157760180253875
            ],
            [
                0.35581276069442397,
                0.4317605404944147,
                0.0362429394339643,
                0.583111080567374,
                -0.05883285786651761,
                0.19056229817640682,
                0.1777200302649489,
                -0.17668957710067032,
                -0.16685188046308905,
                -0.014305550599460766,
                0.18801082126498705,
                0.16369191311211034,
                -0.1962178460154248,
                -0.06840263703471655,
                -0.43701234828081437,
                -0.3172345307159781,
                0.22639653930311765,
                -0.2668841680960325,
                -0.34447126718047405,
                0.04507319503459689,
                0.13945085735627305,
                -0.1773532698653579,
                -0.03925311702082661,
                -0.2523265859938678,
                -0.16481497990908406,
                0.31555707965701546,
                -0.09332757038238676,
                -0.07844247198918373,
                0.13410782622789852,
                0.15861470978471,
                -0.045887079625488665,
                -0.04908911760233717
            ],
            [
                0.1331561831585429,
                0.026577992968234997,
                0.3311868152359098,
                -0.12266293278588694,
                0.21537976436586898,
                -0.12225120267909667,
                -0.10061055529303597,
                0.12359172399468968,
                -0.09547164183631036,
                -0.14625378166958178,
                -0.14269476814543414,
                -0.11048280566893974,
                0.2957324822597702,
                -0.5283056417525221,
                0.44484441307560324,
                0.4677249958077497,
                0.13884749167159688,
                0.21382721973395347,
                -0.3562900933703555,
                0.03971362608106267,
                -0.00580872582016012,
                -0.22190556631553132,
                -0.2193651255360767,
                0.35240799229852243,
                0.28559813001652173,
                -0.16009705137055383,
                -0.21336546729990422,
                0.20512167641572718,
                0.016493832588457998,
                0.9725174513560204,
                0.3007519562865659,
                0.12114626043289883
            ],
            [
                -0.23739117385386876,
                0.05703230270040631,
                0.021922979225249002,
                -0.02428114055371749,
                0.09211848582627981,
                -0.10644996133767774,
                -0.05218979930320981,
                -0.23315442825019658,
                -0.004189249696495561,
                -0.06402666322672981,
                -0.24717976221538132,
                -0.11240570839729379,
                0.07384401463341962,
                -0.447455051652585,
                -0.07469690941712896,
                -0.3554610081773034,
                -0.23294054298990746,
                -0.23464871416443736,
                -0.1867833300658887,
                0.03596872125728455,
                0.19596397337883306,
                -0.16062219951437395,
                -0.0032640176762025047,
                -0.22056855585763915,
                -0.457882830961015,
                0.15705030263756956,
                -0.052512281484984394,
                0.09295483876684156,
                0.18268526048447178,
                -0.7560931190237972,
                -0.07913819479842445,
                0.10485823278303397
            ],
            [
                0.1989684133954303,
                0.1265996995204622,
                -0.5532119033222409,
                -0.06651584055850451,
                0.22594482648948327,
                0.0983037326870262,
                0.8726024793237721,
                0.04589003055033911,
                0.23524181926912993,
                0.022391797667432774,
                0.379653491745222,
                0.7061034245321287,
                0.24449962056817612,
                -0.04677698329560559,
                0.07039628788666663,
                0.3432844354625209,
                0.10429281599178929,
                -0.027049834080282425,
                0.2668758912340778,
                0.4340871195026992,
                -0.3387554489966918,
                0.2047767178847893,
                0.18226777428339316,
                -0.04723931187421004,
                -0.08852284295547984,
                -0.2850186485154324,
                0.01718752672619097,
                -0.3913502581182018,
                0.1459741805175037,
                -0.09640595568825083,
                0.3389959127404913,
                0.2489876437603943
            ],
            [
                -0.09988952735038534,
                0.280563921756151,
                -0.12874789802848013,
                0.037551728918376784,
                -0.36379312979349754,
                0.1837952323700442,
                -0.3278862199782156,
                0.017679443438862328,
                0.24531537766578215,
                -0.30627148448117597,
                -0.08187835181616375,
                -0.10366900489414643,
                -0.378800239784824,
                -0.14259951531773096,
                -0.5703542573580189,
                -0.14615748000934684,
                -0.2031724283635481,
                0.0873008925336858,
                0.11542395288811579,
                -0.410936204951838,
                -0.029577674027512598,
                -0.018243556548843413,
                -0.4156369044098424,
                -0.067440359284546,
                0.12555039550367847,
                0.15677387426584893,
                0.11749182687873216,
                0.26984741141534196,
                -0.21816455119873646,
                0.12593819238531734,
                -0.12291912330739192,
                -0.3009237647528179
            ],
            [
                -0.007824569534793392,
                -0.20839500479644932,
                0.16970597997326373,
                -0.10617669834955883,
                0.048452379803939544,
                -0.07414415194983649,
                0.011476866679881825,
                -0.40068592905498424,
                -0.22353062434627868,
                0.21071149066075265,
                -0.4059124468499483,
                0.8069190353423462,
                -0.20158821880179856,
                -0.15489373010298585,
                -0.19413909957637093,
                0.6979429290576233,
                -0.309840738355392,
                0.432547064739684,
                0.21453797124180665,
                -0.35961275009804156,
                0.19627485940156827,
                -0.3195479523611942,
                0.05648869549024458,
                -0.2397127715954392,
                0.08389952856878427,
                -0.1216967495482273,
                -0.13442036596660986,
                -0.16738691027248523,
                -0.22124085972505908,
                -0.18311055661920306,
                0.13055412649295284,
                -0.012913149516239727
            ],
            [
                -0.010336161677011867,
                0.18480118391126507,
                0.29669517010835494,
                0.3434096312747656,
                -0.0031911116199865616,
                0.20446842918245392,
                -0.07545733740298378,
                -0.18677763455555715,
                -0.285345672635463,
                0.30553937379181123,
                0.07546185553845897,
                -0.10443756242992487,
                -0.22270724536714573,
                -0.007887614101373749,
                -0.19707613882910557,
                -0.17711252400858848,
                0.23802016376145926,
                -0.1982093665110397,
                -0.2068769997903179,
                0.09991283826305776,
                0.16539548923801584,
                0.34587080804757564,
                -0.1277331759496554,
                -0.00714199109804885,
                -0.47697630674709374,
                0.16660106709191488,
                -0.04820365480463403,
                -0.02358825304077033,
                -0.8158168623598222,
                -0.5464247496686617,
                -0.33007580016624644,
                0.009940924842818014
            ],
            [
                0.0037787353633133886,
                -0.1867819263977608,
                -0.5838403402311337,
                0.2574707306570211,
                0.11443004139516313,
                -0.025968447795036823,
                -0.059493652453298684,
                -0.4622224983539984,
                -0.11265358656132766,
                0.14736991549301207,
                -0.0810250108120713,
                -0.5616124346912033,
                0.22566744089728688,
                -0.13181556044924717,
                -0.008000626310707946,
                0.009760489055364256,
                -0.19017636520851336,
                0.05994189963668924,
                -0.4943277841257847,
                -0.10434740537257275,
                -0.1447629908817091,
                0.14600258487111867,
                -0.19077328000807084,
                0.21066718723669525,
                -0.004554105725763745,
                0.28598776282908844,
                0.013648214063239312,
                0.3742670681330844,
                -0.4865824443753094,
                -0.007657544767131387,
                0.5187245110054578,
                0.15471139314975055
            ],
            [
                -0.050535736864660806,
                -0.18974284812876022,
                0.10901147251184966,
                0.15585242987045217,
                0.012871491285812026,
                0.1740258252621611,
                -0.28879719770184314,
                0.23334798905272425,
                0.009221803274025725,
                -0.13422114403445173,
                0.1845576967767571,
                0.23109811418055462,
                0.2932781669488355,
                0.05498437212529451,
                0.191404021467385,
                0.18526607660080752,
                0.05117425805284814,
                -0.20864291003662247,
                0.4430182267748198,
                0.09171255667440495,
                0.20201541210739182,
                0.1167983714545868,
                -0.23638125942441032,
                -0.0554614088531958,
