{
    "architecture": {
        "input_dim": 8,
        "hidden_dim": 128,
        "output_dim": 6,
        "hidden_layers": 3,
        "dropout_rate": 0.0
    },
    "weights": [
        [
            [
                -0.2768176117099649,
                -0.21192962144075106,
                0.4551747607810512,
                0.14608434481966642,
                0.1578923438990627,
                -0.022548287093447653,
                -0.576778376249146,
                -0.0629861028196464,
                0.9206438087692336,
                0.038208999666308724,
                0.39109857423295136,
                -1.3708159589101587,
                -0.285700469823766,
                1.2071821694671476,
                -0.2507990556031878,
                0.5747567628529152,
                0.00010562547565756416,
                0.6862556931565197,
                -0.2939761125268056,
                1.9861132809287092e-07,
                0.07407184879779881,
                -0.8773383302775402,
                0.026439913642698556,
                -0.22148277373892516,
                0.10626913632697418,
                0.11822627438456557,
                0.5957933899958407,
                -0.2457281114222271,
                0.7095326677163936,
                1.1791521759407693,
                0.5407704711994503,
                0.038219979726542654,
                0.3592804368986045,
                -0.3101245167288495,
                0.1863368288144079,
                0.25131732743923973,
                0.8019941381533727,
                0.8772534529686064,
                0.1595941699619041,
                0.06663107290863501,
                -0.2231910147193598,
                1.1998690359674007,
                0.5590240103004791,
                0.1253228078638221,
                -0.06752780041750314,
                0.17536578709990588,
                -0.5399208244888143,
                -0.5649592060050355,
                -0.5503793965693272,
                -0.2052644158750193,
                -1.3897394920089667,
                0.2341740316368414,
                -1.096167023174389,
                -0.26955219712497497,
                -0.11850160913300768,
                0.15687906610513946,
                0.40611798120280174,
                0.2295206967795623,
                0.3488681433682695,
                0.8963347679447418,
                0.5505766033241594,
                0.6545802114211212,
                0.791354650931845,
                0.09300645943581917,
                -0.11509857742018363,
                -0.4957087465961804,
                0.6707173107550436,
                0.41913730053295234,
                0.4940357150299532,
                -0.23306535517431234,
                -0.07847436461312003,
                0.7784837735938189,
                -0.12003730937732368,
                0.6320649604012507,
                0.2202973233109938,
                0.03912815338246827,
                0.26566279019604216,
                1.0153612155933693,
                0.17201924521040593,
                -0.3008254138464827,
                -0.620751814316987,
                -0.30011176734404127,
                -0.6404339238175993,
                0.21131275930532062,
                -1.514537955945734,
                0.4238346109831001,
                -0.5539812332675752,
                1.226176846042516,
                -0.9054219673294788,
                0.3978201617356261,
                -0.6927278509142791,
                0.48851794687098077,
                -1.212232927309167,
                -0.22252506698203298,
                -0.3279112182440768,
                0.2447781417593695,
                0.4305471451051131,
                -0.019964081664396924,
                0.4099491369463546,
                0.9728268575785479,
                -0.1819094847222629,
                0.930805508804166,
                -0.5663085451595212,
                -0.5469301727730085,
                -0.06730869726217358,
                -0.12390112205705103,
                0.2682742413874363,
                -0.4522755592077729,
                0.15842845041779885,
                0.0917894874888852,
                -0.2440597161499404,
                0.48195065436496576,
                -0.03958004531782604,
                -0.6897765779262922,
                0.8994892572075144,
                0.031234123387369826,
                -0.7601536177813653,
                -0.8594171961724933,
                -0.32653273474769634,
                -0.6707921514912665,
                -0.539887305453788,
                -0.2612353417217378,
                0.3839406065758063,
                -0.36450792346266303,
                0.3605643217427786,
                0.12837078680563327,
                -0.014898167145630904,
                -0.2422375320527195
            ],
            [
                -0.21558832496572627,
                -0.5580973238638648,
                -0.41802735025351095,
                -0.13096326754630536,
                -0.024119241214351727,
                -0.06307872927037327,
                0.25169346567067824,
                -0.5634180347946837,
                -0.7338415975400514,
                0.049012294016491285,
                0.11758301378180294,
                0.4792459933991924,
                -0.03636060298417021,
                -0.13074591362534038,
                0.7288758399070149,
                0.334582579662983,
                -1.0278675367097627,
                0.6906423529318314,
                1.001629550408285,
                1.5039206246638688,
                0.661116799651047,
                0.6441607820704681,
                -0.6065610534822391,
                -0.916311187285101,
                0.5018288973746117,
                -0.45431909317471986,
                -1.0625865228894766,
                -0.6385969039350928,
                0.16140262078055703,
                -0.08187287899877142,
                -0.19137261135072892,
                0.8667431247428384,
                -0.8785987033284895,
                -0.49635516297287663,
                -0.6120778540007867,
                0.7941297195945971,
                -0.6692420314498423,
                0.9856799280405527,
                0.21844455617699415,
                0.12376959094730008,
                -0.7718048421970597,
                -1.2641485097222875,
                0.4203587374208536,
                -0.0992123562993995,
                -0.04834367546872108,
                -0.7963582834780031,
                0.4416599409530933,
                -0.3727766031224505,
                -0.13618377892360128,
                -0.13875681992778138,
                -0.5075614756847314,
                0.8534993975957813,
                0.49551953408019794,
                -0.2589093197286129,
                -0.24980691893048249,
                0.2615900132950037,
                -0.6846008469524307,
                0.40787233629581066,
                -0.2350535475070079,
                -0.13675425555983697,
                0.1460846433502637,
                -0.3945406268024851,
                0.09703290752198501,
                0.09016266233749469,
                1.0789463631359326,
                -0.0018190520795777192,
                0.4969164718054264,
                -0.23744169023004938,
                -0.408810996611766,
                -0.19390640822706134,
                0.19523361146360066,
                -0.11319483235954492,
                -0.5034560242483642,
                0.5511005604814404,
                0.03665430656826118,
                0.8346311650365402,
                0.6020970899450987,
                -0.9068241501790615,
                0.31609940294905503,
                0.7777740500082252,
                -0.22207342861223292,
                0.20562960755282642,
                0.4054409822748826,
                0.6784300876843432,
                -0.547877261344348,
                0.00783756844044483,
                0.018997866180552228,
                -0.2389726509277801,
                -0.5603217675669836,
                -0.48565000248690987,
                0.12731781106261086,
                0.43606596093498046,
                -0.021270459689791528,
                0.3816474530378333,
                -0.0918413794472909,
                0.33624264762022893,
                0.05861097346662326,
                0.6024913835948432,
                0.9238594946384995,
                -0.3283840665526665,
                0.645554890339694,
                0.08606285917054425,
                -0.3985093272630356,
                0.07181669617759784,
                -0.6919791788395543,
                0.10497382030507728,
                -0.5439655855128436,
                0.9054071735555083,
                -0.910257874103561,
                0.023943566283232087,
                0.13075244147087473,
                0.3389984237452733,
                1.0699238066442822,
                0.3698128526410404,
                -0.6722516149431029,
                0.697092101281805,
                -0.38245241482441744,
                -0.24759643943292603,
                -0.25663980610505827,
                -0.1381822986500156,
                0.3670227469676797,
                -0.15862735752856652,
                0.20325000422294393,
                0.03701660866035471,
                -0.3375487358022646,
                -0.014342780618329007,
                -0.8667016500950188,
                -0.48994498137694537
            ],
            [
                -0.25342820109245395,
                -0.4135157015116481,
                -0.10355447086328212,
                -0.31700956008973846,
                0.09815910801074282,
                0.238835321976522,
                0.18200799830184197,
                1.2842896933077883,
                0.22008239110495922,
                0.33555993054981964,
                0.43962299463497695,
                0.6873319583613703,
                0.09224016042566488,
                -0.38638870746628673,
                0.6884364023252617,
                -0.05469114598453604,
                0.33775485310922554,
                0.18354612041251786,
                0.22688124177741373,
                -0.47304324233023876,
                0.34556976377850535,
                0.36174482396501767,
                -0.62071286575862,
                -0.8708719659945761,
                -0.741679789631228,
                -0.025737284146374387,
                0.024610433371771975,
                0.24345670544515124,
                -1.099458830314316,
                0.16632997161499577,
                -0.28392904110675515,
                -0.46202793599608594,
                0.21666830144038393,
                0.7236409905894073,
                1.1479321070466824,
                -0.9896484628558083,
                -0.45289586343458826,
                0.20451876544258624,
                0.17219347932740234,
                0.1854132622235962,
                -0.33714634183084713,
                -1.2737284491861307,
                0.5934117411740087,
                0.6012140017346919,
                -0.025667293113932045,
                0.1934772410352817,
                0.655537347516217,
                -0.09766186899759009,
                -0.33059379173642794,
                -0.5822493596208401,
                -0.37207559637061044,
                -0.3959979897720479,
                0.09220492373073673,
                0.640800593732732,
                -0.5076390423121567,
                -0.30187531724078104,
                -0.019400427492721722,
                0.4243489298522389,
                0.25013064903119625,
                -0.7802935152426925,
                0.8491665300204542,
                0.2709765625941224,
                0.037646226400659594,
                0.9480194388165699,
                -0.3250609241062462,
                0.15635443369702784,
                -0.12860462876848605,
                -0.16420913723721117,
                0.3557479675620246,
                0.022222304150003806,
                -0.6705762707461277,
                -0.11509013903902147,
                -0.17278100962957446,
                1.1067236742885238,
                0.276347789298247,
                -0.05271513750893395,
                0.6509766036756908,
                -0.14301492445947117,
                0.3216752942382416,
                0.3984882036432548,
                0.42892322794049903,
                0.061893209768447276,
                0.6850311926821326,
                -0.19534840280996432,
                -0.06794310737543044,
                1.0301306337141094,
                -0.07488138745257686,
                -0.21929083702504049,
                0.559020818881211,
                -0.10577491011890568,
                0.2657389409185833,
                -0.9145193498744029,
                -0.269298268605433,
                0.1826930666371723,
                -0.34474647620420634,
                -0.6727305452866819,
                0.27373674086026345,
                0.30229702880725845,
                0.19586576825858343,
                0.7057345385174169,
                0.2921807339878572,
                0.05972016967972334,
                0.2824881463030648,
                0.6257594823897222,
                0.8314863325247066,
                -0.1074002584185988,
                -0.201983584668325,
                -0.14521921616117633,
                0.9416138513633676,
                0.10028788139689389,
                0.9418403880254262,
                -0.1511991688481121,
                -0.9220914126696179,
                0.07317730083678513,
                0.21136699647310134,
                -0.4058577338804188,
                -0.5185661932456446,
                -0.29651696812921924,
                0.6441885039517136,
                0.9254375553561719,
                0.7296841044277825,
                -0.8639610637178669,
                0.9493792218237038,
                0.044249699813998365,
                -0.5448308774283617,
                0.38859881459976375,
                -0.43931032314875207,
                -0.14293313265501364
            ],
            [
                -0.4572058402843948,
                -0.39447734561923703,
                0.2710702709869453,
                0.1788728735518522,
                0.7568057028405186,
                -0.27843703576764667,
                0.1658217089071664,
                0.03285212292404274,
                0.1548093224961409,
                0.18170809783554664,
                -0.16579437965264576,
                0.1874007167434607,
                -0.9501139029666592,
                0.5306469074163612,
                0.06206043945441736,
                -0.689798122154505,
                0.10894484399718204,
                -0.11911104217731101,
                0.4181760673737809,
                0.4148075736891883,
                0.8288877437526342,
                -0.4890204116706011,
                0.1705531355275669,
                0.6138054917205612,
                0.3398145965236142,
                1.4825411298321955,
                0.9680690916058882,
                -0.1195245486303921,
                -0.02526216843541081,
                -0.379273075928746,
                -0.39075518031057993,
                0.24681647991767844,
                -0.30318879161892376,
                0.4691968043838359,
                -0.5725833294496251,
                0.10824563995209233,
                -0.016040105541468983,
                -0.2312224150269094,
                0.7089099375883301,
                0.21333563714215598,
                -0.2592233613386852,
                0.5552471768465219,
                0.5081349901275266,
                0.04705389643234987,
                0.926857233007382,
                0.43037247269379386,
                0.1455435708078881,
                0.10076978108775571,
                0.6590420632885002,
                0.18759417117233032,
                -0.012290347326682239,
                -0.7501751497805139,
                -0.3517264044391306,
                -0.24061971318109804,
                -1.205846858604332,
                0.18114037762178734,
                -0.23811011789888867,
                0.7968583743635873,
                -0.36687409844694385,
                0.5134490310465595,
                0.36330734265918563,
                -0.6039304199739435,
                0.34569803753298944,
                0.3461240558521132,
                -0.5356964676198747,
                -0.8616645852986538,
                -0.6388664650033217,
                0.4986743324280106,
                -0.19647606883310592,
                0.13915188859359562,
                -0.24668290538006046,
                -0.4170135821732273,
                -0.1780619684307029,
                0.19031813130612937,
                -0.16859690718174983,
                -0.3993555171410346,
                0.5546445529665959,
                -0.09478542000877209,
                0.056731868025759524,
                -0.1980908944770249,
                0.5108563979218422,
                -1.035089533791925,
                0.7390795509883218,
                0.33267745584870073,
                0.34965409031989975,
                0.19087989990809176,
                -0.058831366201989074,
                -0.9901939166009316,
                -1.0966454210443637,
                -0.6348584583342722,
                -0.2540099414178161,
                -0.0831729276702364,
                -0.29987169132016184,
                0.34918157301688535,
                0.5907136724641309,
                -0.6399126065262108,
                -0.2957689981791894,
                0.9101489189612079,
                -0.7195273320167971,
                -0.04747506109330592,
                -0.47325778040794514,
                0.5101044697842289,
                -1.0599532360873885,
                0.1565755798234703,
                0.4526407449129606,
                0.47558490069706055,
                0.8060539548789096,
                -0.01668961421927664,
                1.3781496489600036,
                0.7610598106804896,
                0.7166219824637685,
                0.11195524100925712,
                0.8388474475878366,
                -0.9237051359116415,
                1.0422252279190385,
                0.44543175577996075,
                -0.3601089931982077,
                -0.010468312658268518,
                0.37226905226041773,
                0.39106840824807104,
                -0.09687458837958493,
                -0.23925848152925075,
                -0.8801884782267039,
                -0.913403597339306,
                0.6020788260419734,
                -1.253072999191621,
                -0.6058867901985554,
                -0.6324535494417861
            ],
            [
                0.9115871495566069,
                -0.002955411940792565,
                1.184906279630762,
                0.006729880026256558,
                0.18655026881774558,
                -0.07499692617897533,
                0.5841265996365138,
                0.05331262222390751,
                -0.15754089534057286,
                -0.37185110919344205,
                -0.9844177565764761,
                -0.9150860941873432,
                -0.6622528648475782,
                0.3651535302706428,
                0.24962336859184805,
                0.3198096571766895,
                -0.8946292442390137,
                -0.030071865479557633,
                0.21165603127171645,
                0.32163473827456507,
                0.5299929573614779,
                0.11205412709772399,
                0.5055562239053905,
                0.7183200266216502,
                0.038106030210018585,
                -0.1099498066984752,
                0.22821981415466044,
                -0.007589342751856019,
                0.22436900103404628,
                0.4781782359617554,
                0.5798639988054415,
                0.3069965236501952,
                -0.0853951442358277,
                0.49534463213066693,
                -0.4916267430857617,
                0.5812264674525127,
                -0.25378657174758845,
                -0.4202755474108897,
                -0.24963421102894837,
                -0.6784132368159523,
                -0.9533077595713896,
                -0.4687389923710474,
                0.34926978775374595,
                0.29517021796008563,
                -0.42049070366025854,
                -0.10040653604040421,
                -0.9446568199777668,
                -0.6713052488464779,
                -0.37482350130351927,
                0.4326831570330932,
                0.03945920883786619,
                0.20263190077271598,
                -0.7789747179715584,
                0.7447523568675531,
                0.44452578115721375,
                -0.7896924549334876,
                -1.3694070756856964,
                0.493705627681949,
                -0.1990352763503482,
                -0.7797066570976426,
                0.028492177974183297,
                -0.5061660180973296,
                -0.34498958853241773,
                -0.08670089468330168,
                -0.6968524165233579,
                0.10156465702970856,
                -0.24508725959250097,
                0.233410712836517,
                -0.40497857520964664,
                -0.01673262176963125,
                -0.3797459004392294,
                -0.42280967308250356,
                0.21427584994207752,
                0.24333028761729053,
                0.059172313427048755,
                -0.09062721468196643,
                -0.8376039667723763,
                -0.6886855469532932,
                -0.22124249288587258,
                0.03348293852247889,
                -0.15744592871200233,
                -0.512538043013529,
                0.7572480731787721,
                0.9768261344346205,
                -0.4248768756205957,
                0.261920798214659,
                -0.15630142995247281,
                -0.36005020070741445,
                0.5582806883929817,
                -0.7808496409546403,
                -0.4266249933119948,
                -0.19562636071579456,
                0.06052313045075605,
                -0.2533648895007239,
                -0.8424061940529095,
                0.08771841796613247,
                -0.2054272361479726,
                -0.0840808399139404,
                0.03464388664945457,
                -0.28372183981543875,
                -0.13893003576130206,
                0.5079186222504176,
                0.19842806288130427,
                -0.35133609228744844,
                0.35522006522305527,
                -0.4935501859043386,
                0.4199068152303028,
                -0.5834950909967456,
                0.24180274292667842,
                0.008994925529291042,
                0.7030644899287789,
                -0.24598499088725995,
                -0.053026722506639055,
                0.2812428025954287,
                -0.06480350707976293,
                -0.45131012723520686,
                -0.05112726275784152,
                -0.8194852896057406,
                0.022936270167043356,
                0.4369000111658859,
                -0.47578998612814377,
                -0.44546470357951795,
                -0.07123667693949279,
                0.31322640054544154,
                -0.21796928847253844,
                -0.21048713584179654,
                0.5882670603331629,
                0.01955644995748968
            ],
            [
                0.5699658867962348,
                -0.3839378537689015,
                -0.744233298628945,
                0.6295859921083163,
                -0.07629586787328906,
                -0.08165079247763801,
                0.25583276749064326,
                0.19494873458540196,
                -0.059948911865345095,
                0.20123545736437706,
                -0.41424462703688497,
                -0.14041027670054027,
                -0.14773134447493666,
                0.4363932816217152,
                0.1416812072042212,
                -0.12316129919963979,
                -0.41092335045793094,
                -0.3966412908903727,
                -0.5386972384979215,
                -0.3409998378434832,
                0.22882982584496314,
                0.18736911675642853,
                -0.779871552977178,
                0.8466938482670675,
                -0.09440779275074943,
                0.23484656023895575,
                -1.0233153254145022,
                -0.9283530228659549,
                0.46330502236599147,
                0.00353929826685309,
                -0.8002925155749703,
                -0.2546231668628487,
                -1.0358684214138931,
                0.7296630536504473,
                -0.41811136174275193,
                -0.8024088073359233,
                -0.6031615451231089,
                0.22239835139402886,
                0.2737712695146785,
                0.20497962576045414,
                0.620327583989881,
                -1.5064426028822981,
                -0.8107675202165272,
                0.9049936700176935,
                -0.45003394108487144,
                0.35680372689515216,
                0.08796083236600885,
                -0.0031919557033149647,
                0.997846941208894,
                0.23640936264477452,
                0.2826717105274156,
                0.13375021525004321,
                -0.46201908435905753,
                0.057949469382275715,
                0.8974785426380784,
                -0.5062490884064003,
                -0.003522723680092332,
                -0.5331997270284965,
                -1.3032772470031901,
                -0.4661950169334568,
                0.897390980588211,
                -0.030375682132510705,
                -0.8341457087785096,
                -0.280313221403886,
                -0.5327711342235774,
                -0.14384230762167602,
                0.1995946780170331,
                0.08800093356161588,
                0.7686613656907876,
                0.3456286775676625,
                0.2890290657532921,
                0.04997695775266646,
                -0.8796207578775594,
                -0.2349101578520187,
                -0.4090127573208905,
                -0.2321749225693786,
                0.04670757720344277,
                0.09237756794258765,
                0.047051006572845416,
                0.5438145300680787,
                1.427377752787259,
                0.5212205259272561,
                0.1264042423681772,
                1.5535346669049839,
                0.6802648313028908,
                -0.5855056763304871,
                0.1063071504841283,
                -0.1772947716493479,
                -0.5421258312883367,
                -0.3667724602862178,
                -0.7716140873241978,
                0.07501904545965393,
                -0.22199927767314281,
                0.0021461362197564664,
                -0.5089572803413529,
                -0.4458659944022163,
                0.6960785024184223,
                -0.3150240558422604,
                -0.39409455720154835,
                -0.4327447583896828,
                1.364183153242416,
                0.28311531337968454,
                0.18864275634567562,
                0.3242441384596008,
                0.2570883075880447,
                -0.6265915929114357,
                -0.43991940754715475,
                0.7565973594129686,
                0.7308320765509054,
                0.22821692157611667,
                0.5940014857175822,
                0.6343173029099692,
                0.2551597142199121,
                0.04994172161518847,
                0.23360634775779407,
                0.430983560424072,
                -0.6727783759762292,
                -0.011217040772920921,
                -0.4339900279512108,
                0.2730292362694284,
                0.29224841017728675,
                -0.23641496789698396,
                -1.0338043283184772,
                -0.5676165296792878,
                0.10869787708575887,
                0.6378475221492077,
                -0.4045329088333727,
                0.8790377694534796
            ],
            [
                -0.07926562488192239,
                0.28271233203735074,
                -0.12882857552353888,
                -0.15416470488035444,
                -0.5878779784328593,
                0.09188524420338488,
                0.7580237227549267,
                0.04804135667321596,
                -0.5138888940468087,
                -0.1297808212325762,
                -0.10586136061285778,
                -0.825100736650362,
                0.6261116945372257,
                -0.4663868476612164,
                0.420350165294793,
                0.14523682025150342,
                0.3381842085753373,
                0.33301282644412417,
                0.49795978724666523,
                -0.34132472674483655,
                0.5130736649751722,
                -0.09936171126339866,
                0.8120363771914002,
                0.0380429117047462,
                0.09336954018714938,
                0.3585831357623725,
                0.3957535367159318,
                0.22664468765898918,
                0.35914568923094964,
                -0.7319597401488493,
                0.45324535598827537,
                0.4445993976556208,
                -0.7244455880355525,
                0.9092229218406905,
                -0.23711597417528696,
                0.5938638272181123,
                -0.05854998425298154,
                -0.06820122945125448,
                -0.14629505938999787,
                0.5868738126285177,
                0.2663151406989747,
                0.12522434743901437,
                0.7480883676689123,
                -0.28430591681598083,
                -0.43656683724506756,
                -0.6791256680710821,
                -0.5031906365909006,
                1.20272267963628,
                -0.3505403069363752,
                -0.9578716292897771,
                -0.30581437591870897,
                0.04713380711765098,
                -0.47274580727434545,
                -0.031287951381630985,
                0.2153383330437305,
                0.04104774941798199,
                0.15569731796834585,
                0.5707214095175448,
                0.08300012478058216,
                0.3448861713649369,
                -0.8476252337248452,
                -0.045655207491798924,
                -0.5792830994971824,
                -0.13948695904078073,
                0.709408004268623,
                -0.09969126017290057,
                0.4240609768347301,
                0.5277611759373985,
                0.5650125569586705,
                0.4967668125545826,
                0.423807161679688,
                0.1821991540231681,
                0.1615485621586688,
                -0.13572465445280393,
                -0.46634302748307127,
                -0.04261330484145425,
                0.8709567306539991,
                0.12541114533660114,
                -0.2587387347372015,
                0.4873938965329744,
                -0.15564852398968604,
                -0.021307280475361078,
                -0.015593416617044411,
                -0.773126581827951,
                -0.24783824713064542,
                -0.5178322813531819,
                0.22681770667782317,
                -0.6464788891596973,
                -1.4027723322576076,
                0.01581452673340579,
                -1.106704962797125,
                0.6868541991782846,
                0.09482254707809497,
                0.5306211078350799,
                0.5270792843615012,
                1.330849129626287,
                0.37259208990934484,
                -0.5652556117041694,
                0.6263576171207478,
                0.15874849774306468,
                -0.9551500659724733,
                -0.20976779148041066,
                0.08558883284718195,
                -0.08666400545242646,
                1.1462050814667994,
                -0.9834168952149372,
                -0.0013449058102975586,
                1.1988664231256214,
                -0.9956016741241357,
                -0.23071429277641978,
                0.2854863341601176,
                0.37107143180079843,
                0.27474854412749944,
                0.4890387939244021,
                0.010948330134190373,
                0.23674359386502564,
                -0.42283277675655345,
                -0.04441049279410978,
                0.23792094279248313,
                -0.26842097239171864,
                -0.5589098039806687,
                0.3227580932596798,
                0.3678646346512738,
                -0.8075590489715129,
                -0.11303031218838822,
                0.11919190981466182,
                0.09589483098399747,
                -0.6124692856476622
            ],
            [
                0.22685924590190468,
                -0.1879480636994509,
                -0.07939647392777287,
                0.3526115035976554,
                0.46226710848678954,
                0.051012134714246746,
                0.16233622958068442,
                0.8528289550694873,
                0.46471513898047373,
                0.34084845767721883,
                0.14780346992362164,
                -0.6058970735108969,
                0.5316888758224189,
                -0.22268191477760413,
                -0.3634292290465961,
                -0.09935988374734726,
                -0.2723628977520923,
                -0.22870698385857216,
                -0.47343759074022673,
                -0.3420248129305091,
                -0.5192257771681364,
                -0.12703741182764752,
                0.6610349745036316,
                -0.11540893594127867,
                0.23028568836932212,
                0.43670727017882066,
                -0.41477816004066115,
                0.3802650064666551,
                -0.06810542405387952,
                -0.15927326526943106,
                -0.27776743852500246,
                -0.18208387937293272,
                0.7198671558291365,
                -0.13958529307103973,
                -0.11186032503342967,
                0.7306035533572555,
                -0.3188488378220127,
                0.46066075477414675,
                -0.31656596832219214,
                0.06769281816205676,
                0.4018657013764379,
                0.38909568398852784,
                -0.8201659371203196,
                -0.5380796287947475,
                0.4725922652095316,
                -0.10781053641162645,
                -0.014276581674443652,
                -0.2758532244926563,
                -0.5496659612891268,
                -1.047348060618781,
                0.21179193514408648,
                0.28103255867601656,
                -0.022373817208773513,
                0.14262902058973398,
                0.6122833804594126,
                0.01250221578498871,
                -0.28306048460790545,
                -0.03421182699808694,
                -0.6257960787297634,
                0.27579656855147705,
                -0.2960570788313856,
                0.20541317866114797,
                -0.5633846822124123,
                0.7419200804071407,
                0.5321425467556927,
                0.307618673271332,
                0.9069842224496294,
                -0.8811256836909269,
                -0.8429202995030064,
                0.8621587045620753,
                0.07262523538798424,
                -0.35149829652438913,
                0.14213985329678763,
                -0.6308181708699804,
                0.019621176393060012,
                0.899513336140177,
                0.5654118578853581,
                -0.14368947376466262,
                0.12487251876688625,
                0.46020315773996123,
                0.18204014211903288,
                0.2897429030137178,
                -0.02515284447999601,
                0.2185304637643614,
                -1.0106547050491497,
                0.6312880322536791,
                0.41574822358001173,
                0.9595068188133606,
                -0.16640222993197087,
                -0.3906845987537098,
                -0.5694147929855075,
                -0.29660964471832946,
                0.4890652227360194,
                0.42055600685703853,
                -0.6829410073777775,
                0.22087322024271527,
                0.20799662608844083,
                0.4400135416565721,
                -0.43362735245442535,
                -0.13996595440843645,
                0.5614872077172128,
                0.38349556810977176,
                0.10834417819391068,
                -1.2769360285576656,
                -0.8539101536323506,
                -0.8815820417848261,
                -0.33061918013564195,
                -0.13973890051224505,
                -0.007443130592300347,
                -0.05729232684788518,
                0.18323015429267261,
                0.07255137876717997,
                -0.5180115304067747,
                -0.3982091933783506,
                -0.37913702801791244,
                0.21325416006436723,
                -1.1176819771383468,
                -0.5115530783913643,
                0.9235007387006505,
                -0.888800873031873,
                -0.25189438984070234,
                -0.6364981524723656,
                0.5962571521702645,
                -0.37665496723835185,
                0.2356998016576808,
                -0.16291544803480545,
                0.19623484584662304,
                0.17472302493522704
            ]
        ],
        [
            [
                0.24782713689926752,
                0.13304752023262434,
                0.0440789882990076,
                -0.053776400793429845,
                0.1149235042464202,
                -0.1979762392080599,
                -0.0725014934076158,
                -0.061864548258650356,
                0.061228709923183584,
                -0.06485386909474913,
                0.060003881244488376,
                0.08389397752390142,
                -0.03709177219372624,
                -0.1329518383970124,
                -0.046648881072348894,
                0.19416100023964708,
                0.12206075225004209,
                -0.053416547186229985,
                -0.016554254690698985,
                0.1623830999624235,
                0.07199096709835355,
                0.02122698641342253,
                -0.17962163056949676,
                0.07847158055811945,
                0.18226031926167024,
                0.1961828042982563,
                0.2303791019363416,
                -0.040463683382347126,
                0.06790397116815643,
                0.09621159759423505,
                -0.2006764196322886,
                -0.04482691449324999,
                -0.14885765612126656,
                -0.05369210495551526,
                0.05845215193274916,
                0.018765173410642096,
                0.13751010194112875,
                -0.1199241499833554,
                -0.04946801843560486,
                0.004434958232359903,
                0.02855728359277254,
                -0.03951149936831054,
                -0.08122906978105622,
                -0.07835321221519052,
                0.088924400664313,
                -0.11058014690862335,
                -0.07168038010374549,
                0.11210584328588694,
                -0.1845002058048737,
                0.04716935325690145,
                0.07004918812283391,
                0.1061046396150513,
                -0.030707387406187985,
                -0.028653225701704168,
                -0.0132962245983464,
                -0.004392801114924388,
                -0.11499708283755813,
                -0.08799001320949972,
                -0.08659785457939757,
                0.06574872265847578,
                0.05085126650523828,
                0.11664730904850401,
                0.02701582426412964,
                -0.12267527057620704,
                -0.13158208723467069,
                0.08141853687233244,
                -0.16432833594173918,
                -0.07937013130894656,
                -0.17620205837947125,
                0.09264269821404758,
                0.012177255144083745,
                0.03143355794267877,
                -0.07695919137600955,
                -0.10630545397016856,
                -0.15026697087451227,
                -0.04105364089701499,
                0.20641864279289154,
                -0.0053076873766773,
                -0.15672687787007059,
                -0.18306886851563667,
                -0.15906669158932588,
                -0.0441382958866173,
                0.12060240609524904,
                0.10388915112318473,
                0.011362795613902755,
                0.0895551562770569,
                0.07802441790311289,
                0.042331381622317005,
                -0.042157142618823286,
                -0.13538855260412214,
                0.07555898529556501,
                -0.10991060084138488,
                -0.18382119419571863,
                0.21367334027952034,
                -0.07524058869049309,
                -0.12463873026268743,
                -0.002961956004571916,
                0.18614014784281913,
                -0.08387835137419133,
                0.0895475903639172,
                0.0835609870714768,
                -0.08971682188716006,
                0.08317802417356279,
                -0.11241942377515583,
                -0.09864780898947952,
                -0.06747663584859764,
                0.05207068095870978,
                -0.049093199972085076,
                0.2394959951538862,
                0.07778800314382354,
                -0.4451075600454609,
                -0.029699511110402862,
                -0.015054645432855744,
                -0.03425572216440067,
                0.1540342546156774,
                -0.1429844515158527,
                0.04283187098283634,
                0.1133929531493609,
                -0.2253860863146175,
                0.03823738032193176,
                -0.1206870218691674,
                0.21239634548257838,
                0.13035494942447787,
                0.11273609660929912,
                0.14019033721540372,
                0.1555586821559914,
                0.03493746666262434,
                0.07308510525640703
            ],
            [
                -0.15492459113378998,
                -0.13368247120600155,
                -0.022101641989231497,
                0.051557393800597644,
                0.17158298725165044,
                0.11969426432750864,
                0.1385500011021402,
                0.04720791196085245,
                0.11877722451094551,
                -0.16525434376289125,
                0.19421463325300276,
                0.024499803843537515,
                0.18745166160707735,
                -0.02997556427490376,
                0.014273869175569,
                -0.04897240251631183,
                -0.053016346604587546,
                0.18309381207114478,
                0.03422452089739281,
                -0.12654801554600406,
                -0.11986382425690334,
                0.09078868013256963,
                -0.08086981234134338,
                -0.026245791012230867,
                0.20889725355014122,
                -0.038090290866568184,
                -0.13246946757282196,
                -0.21549033253133723,
                -0.03211571412129213,
                0.05713237145538352,
                0.09368131442277738,
                -0.040077395907700736,
                -0.01527009599249613,
                -0.028372506373995028,
                -0.007303332561639738,
                -0.05939836936227994,
                -0.008265326976793693,
                0.11037284758921846,
                0.21412068918177565,
                -0.0745645295199303,
                -0.06693891606596439,
                0.08476867482671213,
                -0.18910238248014968,
                -0.03905375304776659,
                -0.026797473703914755,
                0.0007666290824323224,
                -0.009110195279528638,
                0.18679314473787764,
                -0.07604503258588724,
                -0.06547845407029886,
                0.06330343060067048,
                0.07656328512922446,
                -0.07126690087951477,
                -0.051169356093626196,
                0.0028471718653872357,
                -0.05111934088827848,
                0.018779735889445703,
                0.16847617552380406,
                0.0690902914585438,
                -0.14109690266120403,
                0.01738640069255134,
                0.05803559774421496,
                -0.012492962845856851,
                0.0319688002674266,
                -0.12154754939603642,
                0.31018530245329673,
                -0.0353963909980508,
                0.21268275159656258,
                0.06557791908924282,
                -0.07884150098100197,
                -0.02101257536024966,
                0.009839146420573954,
                -0.12901814750630886,
                0.0608670733862978,
                0.1038827013856871,
                0.029296402187663082,
                0.05029756485206552,
                -0.05000160032934572,
                -0.1298165985301869,
                -0.04416935531367431,
                0.13632023317542766,
                0.1212287992660096,
                0.07243318339245676,
                -0.07855077425466686,
                0.04692838675911915,
                0.038631819564668934,
                -0.04424512818460746,
                0.21618370451669047,
                -0.04684467309899733,
                0.07498960886327975,
                0.17042969121023943,
                0.05575820940686641,
                0.061113203092283686,
                -0.0935271162284544,
                0.14983686097391366,
                -0.1500966063176348,
                0.19457793131077436,
                0.19402815718409633,
                -0.21945688858919957,
                -0.09272919308742919,
                0.06150255299003743,
                -0.11908703067379926,
                -0.18033762158274722,
                -0.25207052661366025,
                0.018565642880394334,
                -0.03363004404183598,
                0.011096481721451371,
                -0.1270468946114259,
                -0.04572432225082809,
                -0.003550337879353873,
                0.18378796333481043,
                0.1547619918803957,
                0.04018651234712859,
                -0.13496968282956323,
                0.15362811889385244,
                0.23696037741389975,
                -0.06714637645201048,
                -0.2905215681356769,
                -0.06459586196602554,
                -0.13910571272505137,
                -0.10651212508730122,
                0.015217126761718136,
                0.042850618532055955,
                0.03173966015219945,
                0.1775926372567797,
                0.09904862470783998,
                0.03913655746845999,
                0.048623317511719784
            ],
            [
                -0.11736349319935145,
                0.10840963796448883,
                -0.08889301695270588,
                0.10155997041577658,
                -0.019820823082015493,
                -0.13783742171835614,
                -0.16416307656995288,
                -0.16262332367767024,
                -0.25111291400785835,
                -0.08432866186773291,
                -0.07791407209867705,
                -0.05237080248859474,
                -0.11813896225345522,
                -0.4288632330275742,
                0.007484615405945824,
                0.19476933369294797,
                -0.066808847863692,
                -0.09092349072359396,
                -0.20087037207611483,
                -0.02641947898905582,
                -0.14531721442943393,
                -0.0020751284316376534,
                -0.0568624056722216,
                0.22050510051943953,
                0.08293128573302985,
                0.049090372509624364,
                -0.04797875239590103,
                0.2356395217677724,
                -0.11629611082080359,
                -0.08732879042976259,
                0.05969889689857942,
                0.17368102248900735,
                -0.07115220465340025,
                0.0024058728194757493,
                0.1002825901406765,
                -0.1228977007613888,
                -0.02114864272190705,
                0.047101959474056244,
                0.11148997929707985,
                0.190452818187451,
                -0.01550194626000383,
                -0.03379961364398288,
                0.06854351398472296,
                0.0960366257615214,
                0.06308126911433691,
                0.07578852815523425,
                -0.05539840630467406,
                -0.10394941390583189,
                -0.1053701457076256,
                -0.052017543165461345,
                -0.1383425519382159,
                0.2854434420320482,
                0.08557632176489192,
                -0.09467271859928658,
                -0.08524114387332198,
                -0.0728935543953483,
                0.08056732411795778,
                -0.01205028502203071,
                0.1396413994989753,
                0.09304034592533553,
                0.25521181127995224,
                -0.05464662704863038,
                0.12310823699484545,
                -0.07059811132098442,
                0.019911774240214355,
                -0.0635237235869562,
                -0.02762504406223464,
                -0.0571085500752309,
                0.033113556930513426,
                0.2412906815399538,
                -0.03470482399970213,
                -0.0653628708915435,
                0.12406996516897567,
                -0.2548999205732199,
                -0.1557973086234122,
                -0.11069964123441177,
                0.10395351564233277,
                -0.11880564263370214,
                0.0009855165953679133,
                0.05251659441623615,
                -0.419883946389941,
                0.062202289874188674,
                -0.03698208763552247,
                0.1446737296368401,
                0.34878635544281206,
                0.2390719729698595,
                -0.16079485524813955,
                -0.3428723208004887,
                0.10319141366540135,
                -0.18079610649401648,
                -0.018441923365451817,
                0.17843084849546006,
                -0.05871256548227878,
                -0.038622823747534306,
                0.06685689109291469,
                -0.166039967229575,
                0.02161101596109729,
                -0.23001447196002384,
                0.19324810004566048,
                -0.1127444998849817,
                0.20795851417515443,
                -0.10189289230889396,
                0.0424502999943178,
                -0.09438864701404265,
                0.10298827895308492,
                0.01212588410609128,
                0.15762147935539475,
                -0.03980743627327753,
                0.024934807982337874,
                0.10010802602274879,
                -0.14738129828455726,
                0.08107933145929148,
                0.07901666919606495,
                0.0768315411274627,
                -0.1372274647871202,
                -0.02138436228972553,
                0.17770853172933995,
                0.09233388341709742,
                -0.14500812819787973,
                -0.22539672358366158,
                -0.15873013267624175,
                -0.019661448805972457,
                0.07680248752660108,
                -0.17725577734444253,
                0.05301370902284377,
                0.14430591578602037,
                -0.05848793877970482,
                0.023651660371020285
            ],
            [
                -0.22850988817788032,
                -0.1823969202757458,
                -0.019993538793348427,
                0.2802995901768119,
                -0.024710777238853985,
                0.04843117289917971,
                0.13049468123135644,
                -0.022004811826598226,
                0.011089015751627105,
                0.16168175495214934,
                -0.2403199632905878,
                0.07320406263770042,
                -0.1097662680356038,
                -0.25278654061051503,
                0.18757614200559247,
                -0.21186890547713377,
                0.06886196292997483,
                -0.07017720500373627,
                0.0325856526274279,
                0.004503625276420384,
                -0.09414172474042988,
                0.1281702634029399,
                0.05079477857461284,
                -0.07018703393245622,
                -0.24698333461658287,
                0.1152109007485711,
                -0.2196934471125879,
                0.08351439054799635,
                -0.04884603319458676,
                0.16658354684133936,
                -0.33736337462766564,
                0.008925056841687115,
                0.12581305540986418,
                0.09633903812615485,
                -0.21583354991256906,
                0.2444070613991212,
                0.053371013814769254,
                0.10128673310335727,
                0.04755493626137693,
                0.07671477291514717,
                -0.18649859191242174,
                -0.08104483720426672,
                -0.2378541171049927,
                -0.1229239206628198,
                -0.12422850962195414,
                0.016418029189138608,
                0.22292765893300281,
                -0.03335195696095623,
                -0.20520359163360388,
                0.1255023253241916,
                -0.026442230859309402,
                -0.03590126755949408,
                0.2138902169884759,
                -0.17541009807187233,
                0.13242950136083306,
                -0.04518068787435582,
                0.07624933690000302,
                0.06939165502659927,
                -0.07764425256657873,
                0.05622869070217727,
                -0.14105064881867926,
                0.19300818146453544,
                -0.0647077057087279,
                0.08355227817047518,
                -0.027081671186863186,
                0.024821723699812826,
                -0.0476138952290194,
                -0.046661854427063366,
                -0.00548847648383269,
                -0.3108537214955604,
                0.15680857031847326,
                -0.02737092724438804,
                -0.20951269748554094,
                -0.13907870938790337,
                -0.009961308479918283,
                -0.029294797795738108,
                -0.14615852054108575,
                -0.14216072789715908,
                -0.2359935681447892,
                -0.2497803084829911,
                -0.29084395921925155,
                0.014721452861669157,
                0.11287891364557454,
                0.10680724751562887,
                0.11544543390341094,
                -0.07758606293679558,
                0.13038260087106426,
                0.11859391676141007,
                -0.010651475121514231,
                0.18144855165338247,
                0.06372724267181397,
                -0.018772771718759428,
                0.24461664921833332,
                -0.08388625712688332,
                0.0826562407041311,
                -0.021337469809903326,
                0.06033476460787714,
                0.2199936464425115,
                0.21499544799743484,
                -0.03244077885830501,
                0.11341086377731409,
                0.16305275710814301,
                0.0702568436188988,
                -0.18963958577583515,
                0.05003074405592474,
                -0.07235987174319988,
                0.19626141494700905,
                -0.10990149566495373,
                -0.24714924240256558,
                -0.13520558916968858,
                0.22147057622322933,
                0.0022850239978689656,
                -0.1396141714268532,
                -0.1259340752299393,
                0.012386922136282084,
                0.13814503796554423,
                0.06971324566554234,
                0.18732512287143854,
                0.047342451106833,
                0.011611939378328537,
                -0.0392714803953567,
                -0.12682554480352445,
                0.01813949900584007,
                0.14896925230613312,
                0.0009457176156244864,
                -0.25399421394107236,
                0.2718799673717956,
                -0.13600579209355873
            ],
            [
                -0.041069314544141595,
                -0.10357648271058358,
                0.075561368845894,
                -0.19161648687764427,
                -0.05736900759619158,
                -0.06802236799075703,
                0.02428355252173231,
                -0.18107140804994384,
                0.2347419558909318,
                0.05828738341687333,
                -0.03925929491748937,
                0.002141378953528001,
                0.20082945326829724,
                0.010756182798075015,
                -0.03809314577690157,
                0.028680182250081114,
                0.06995816739721435,
                -0.013831968667029472,
                0.08031885095704207,
                0.12640125058861842,
                -0.18305344774463886,
                -0.0198858858127421,
                0.20357614293179438,
                0.13243872920638525,
                -0.11911206277511385,
                -0.0595055707655822,
                0.06857646177396494,
                0.060704242306411076,
                -0.012840512714324792,
                0.07447586662902016,
                -0.05048067344465589,
                -0.2731751715422538,
                -0.11507545309028963,
                0.055704226606356155,
                -0.1559702708719153,
                0.05385589278856301,
                0.08652548917019148,
                -0.001970217061273678,
                -0.029404000950636083,
                -0.1901082573564507,
                -0.1681338184105697,
                0.05033005728474227,
                0.23385069026973074,
                -0.08908041409225316,
                -0.03427134640327263,
                -0.2070048650779893,
                -0.26507907070687614,
                0.005424864310929569,
                -0.08983679366149479,
                -0.08455171701450558,
                -0.17814188472337616,
                -0.041479818453275995,
                0.11112122418435146,
                0.11164033773032371,
                0.06926939230534918,
                0.00773526078950066,
                0.012702923271094405,
                0.08721005863006301,
                -0.2497769998259957,
                0.010904236970081993,
                0.02195552180912385,
                -0.05268346075782106,
                0.05662445951130212,
                0.011848128872354763,
                -0.20091909467883323,
                -0.07423519166777655,
                -0.06803451895819933,
                0.046256829289335166,
                0.20108408017621637,
                0.0418529654203332,
                -0.10817709662873835,
                0.04888703651798227,
                -0.012644463593486383,
                -0.3559477038072347,
                0.18881537492328068,
                0.044036474520976046,
                -0.12080432878927248,
                -0.06063249488410773,
                -0.09063821493253027,
                -0.0369798184500998,
                -0.014246590366454063,
                -0.15894472528653336,
                -0.09402808050813746,
                0.11444919312557829,
                0.12050963403727763,
                -0.03234611555870618,
                -0.0483362749132032,
                -0.024975329681940002,
                0.01022012865935714,
                0.03647587682825416,
                0.2799424064531614,
                -0.1778527092742964,
                -0.03754348664408674,
                -0.23770669027508998,
                -0.09483297138687964,
                -0.07334277679807909,
                0.15010536381066797,
                -0.13771046452391317,
                -0.015783784186311392,
                -0.06134294543239749,
                0.1381122433745911,
                -0.18562552858359826,
                -0.08457542811949753,
                0.12250631898576063,
                -0.21719732432884187,
                -0.2760418413848083,
                0.11352719446283709,
                0.03140114208331388,
                -0.1514542613590812,
                -0.27520357502676507,
                0.0984380307156194,
                0.13022775455592925,
                0.2501739422656514,
                0.06008160838557828,
                0.18736054739792687,
                -0.04008937209220423,
                -0.034401721715428116,
                -0.15463654182668146,
                -0.14712793958190873,
                0.07152699147368057,
                -0.01042283894887634,
                -0.09124836435970594,
                -0.10052141555449608,
                -0.2013439143247451,
                0.023411615929826348,
                0.16000370375647915,
                -0.3703325352431591,
                0.06794667687154612
            ],
            [
                0.29798652880608406,
                0.1118287103893277,
                -0.07026558502999485,
                0.29401819416889896,
                -0.039912208822129445,
                0.06608672673156007,
                -0.28254783787911575,
                -0.22969946186555426,
                0.021953057393106813,
                0.138744031823178,
                0.06496914940316466,
                0.028932449500772207,
                -0.12309770729271169,
                0.051142592688873986,
                -0.06211690224602995,
                -0.005453456718584886,
                0.07875905316427556,
                0.1178623186342275,
                0.037321781516761035,
                -0.055228817339025515,
                0.18241748373938932,
                -0.006562437672279133,
                0.03981012148113004,
                0.13939682085225671,
                0.06998686971359894,
                0.08157392187970822,
                -0.152508893500837,
                0.09118295282816606,
                -0.0815360204522405,
                -0.054439613961252804,
                -0.098877223438218,
                0.04827733643531545,
                0.10201407513007049,
                0.06457778609043248,
                0.08141378884399839,
                0.06908979522291038,
                -0.03683083023619863,
                0.06629342454905311,
                0.030172329594869984,
                0.0748776810216626,
                0.04479916526509999,
                0.08458582467901064,
                0.04458046489241265,
                0.0662413178230329,
                0.07607644991270239,
                0.19979611457225746,
                -0.05548675706204219,
                -0.059118516678225694,
                0.1103155594063373,
                -0.07551228194695585,
                -0.1820763365288779,
                -0.025660171979781838,
                -0.01711743491550961,
                -0.02082893316436135,
                0.0005695117154821393,
                -0.05401593755834202,
                0.18020292514130185,
                -0.07804430111319828,
                0.07835061054708127,
                -0.11038832479580447,
                -0.21742894088996667,
                0.13370024989867374,
                0.11017746949678352,
                0.012944817532160991,
                -0.09435772543813906,
                -0.07751666022294099,
                0.036804126028805416,
                0.005710507594130155,
                0.02857961615190814,
                0.1756489508348159,
                -0.08972114595723343,
                0.019597450688117194,
                -0.1305942311300847,
                0.06340872238025805,
                -0.29892687278305347,
                0.1026470065161957,
                -0.03136473699000217,
                -0.10819827601170158,
                -0.10657232565157987,
                0.12951793763418804,
                0.09773346988622071,
                -0.11128753737597873,
                -0.23904956274650158,
                0.2043101287527465,
                -0.015729731427876988,
                -0.019947967446954522,
                0.03431204402173661,
                -0.00861296422815134,
                -0.2109367832628224,
                -0.020827049424323615,
                -0.045872559244934524,
                0.27118715743890426,
                -0.18461846845832636,
                -0.14507062419334757,
                0.023196161838568766,
                0.17050414439401354,
                -0.12769692348026498,
                -0.04498076966580051,
                0.13154253591729373,
                0.0740975691012026,
                0.10777293862124471,
                0.030578990470248184,
                -0.1426164012859616,
                -0.10600303499332506,
                -0.0005633721409985811,
                -0.09474958923899826,
                0.0063814025358747565,
                -0.14604649853595436,
                0.01766365481841343,
                0.06773469948652805,
                0.2114432159983255,
                0.19482178697590136,
                0.13836978470252764,
                0.037513005018679754,
                0.028444247709655406,
                -0.09487500221415826,
                -0.14374550459168103,
                0.16572848007299806,
                0.2324072736270038,
                -0.02143450318755734,
                0.039661408925661584,
                -0.09808428563884526,
                0.10116261567665312,
                0.21598785387665972,
                -0.026282025482181427,
                -0.02578103817336784,
                0.20506341927306596,
                -0.0857109672983764
            ],
            [
                -0.11372357173263983,
                0.29388350288873893,
                -0.15142773295361925,
                0.033683564583903904,
                -0.21060159724118868,
                0.03704282182534271,
                0.04762720509411945,
                0.26134564257650655,
                0.22182825618162938,
                0.11375429009470464,
                0.030495139715071028,
                0.0371318573388562,
                -0.033918231336091995,
                -0.07600839840344369,
                0.05299508837830685,
                0.11363696969321388,
                -0.068046579233089,
                0.13136513376463546,
                0.019548987430917687,
                0.04130388383699833,
                0.04089701656442082,
                0.07502880820462968,
                0.11136649574547516,
                -0.02538590184616217,
                -0.003199980796609308,
                -0.1108514639007165,
                0.0544234547797364,
                -0.03607151615608422,
                -0.002213293915714993,
                -0.18099215937221738,
                -0.07386183000629853,
                0.04557835199895374,
                -0.16446474503862685,
                -0.11905921341321263,
                0.06542618567988498,
                -0.010968205631547974,
                -0.0441166086165887,
                -0.058031721057328296,
                0.046107533099002965,
                0.04864676917623455,
                -0.14998759310816326,
                -0.08051345527216122,
                0.07554782780405309,
                -0.4278939477006376,
                0.026680832880134644,
                -0.14480067657616977,
                -0.13892279870649243,
                0.01526862091711918,
                0.04588544053709127,
                0.17658143915774827,
                0.09200811464384237,
                -0.07925988684662069,
                -0.25514622117064684,
                -0.2278410737034023,
                -0.07366752961759802,
                -0.13392597728659866,
                0.045225335233354653,
                -0.19865404935252817,
                -0.1650059546172887,
                0.047059287160861656,
                -0.05662289123388092,
                0.08113775536422664,
                -0.1603795136210826,
                -0.15205621202452205,
                0.053930206607250654,
                0.11174890173675285,
                -0.2379807887538239,
                -0.16007501429530333,
                0.16695041960160903,
                -0.17692849509066613,
                -0.08793561616276435,
                0.043639981527608486,
                0.2498517724214535,
                0.08117931186176772,
                -0.12218969772895535,
                0.20270762151563043,
                -0.2195149960643796,
                0.12232782552051265,
                0.09604694796468173,
                -0.14873492331986343,
                -0.16720301863218084,
                0.19033904085884507,
                -0.18257671596869257,
                -0.2898971166253731,
                0.12288187546255039,
                -0.08054240983198173,
                -0.11678483877705369,
                0.20179280833056537,
                -0.18819043240177669,
                0.017051117523250107,
                -0.19413033357157825,
                0.12304037479189488,
                -0.01323769226948844,
                -0.12466604558562788,
                -0.17038692580607284,
                0.12974465267416546,
                -0.41376408142543525,
                -0.13456783515457718,
                -0.10549598388266716,
                0.12469650528383704,
                0.12696118736853743,
                -0.11078047689933686,
                -0.023645244512353912,
                0.17038105268311043,
                0.1173883173968411,
                0.001854940378925609,
                0.19837408886956875,
                -0.16109094630578547,
                -0.13078172886627062,
                -0.0982271341260837,
                0.15619910127347303,
                -0.02132118354762028,
                0.023354872905594053,
                0.00489000330036273,
                -0.1188021069730043,
                0.04118451692622652,
                -0.1532618970943064,
                -0.21621019265911315,
                -0.12123754424568862,
                -0.06375655029821234,
                0.07462491679491004,
                0.04228754681159751,
                -0.007902756472258984,
                0.11364147283886676,
                -0.025099215688529297,
                -0.011854161182393191,
                0.05936130104400717,
                0.022438924438773006
            ],
            [
                0.0436664664856296,
                -0.07060882443769245,
                -0.05515256162733055,
                0.05812021182349947,
                0.21337548575447957,
                0.021131868143187724,
                0.04502448379029929,
                -0.14091718014113178,
                -0.26665851874031626,
                -0.05480108696609677,
                0.04707122329418993,
                0.007942862583051762,
                0.278588159317582,
                0.09319847451121976,
                -0.013375826472870037,
                -0.004116862385438094,
                0.18600528535805866,
                -0.3051229717741148,
                0.1793185067047274,
                -0.03852770835579841,
                -0.031933109879517425,
                0.11874510574125471,
                -0.048593225123203354,
                -0.04353854775539956,
                -0.14016826553267242,
                0.011770041224228233,
                0.02165413130319415,
                0.0734997207636902,
                -0.052221688578970915,
                -0.10062932302591403,
                -0.07324074876799001,
                -0.020178137819862874,
                -0.09658934637228815,
                -0.2243957562154521,
                0.01380334986228201,
                0.19385713324083198,
                -0.026992013747857778,
                -0.0018520068644623043,
                0.23923991869771127,
                0.2403419087113821,
                0.21908480544985137,
                0.12660161221975236,
                0.045988933960625304,
                0.1873290389789306,
                -0.0027685078910750223,
                -0.01680748819299038,
                0.005080094759935221,
                -0.1375441132048297,
                -0.06276328569855823,
                0.26077893684649495,
                -0.02824695872256044,
                0.10388600329332202,
                -0.04050956044983677,
                0.02918987797667201,
                0.007220333525934176,
                -0.14449024737293517,
                -0.08376447568830327,
                0.07677933932284702,
                -0.15937077529576296,
                -0.023595175229012035,
                0.031639136813053644,
                -0.02628649942386504,
                0.13190294342901737,
                0.08586408210268039,
                -0.03798680254718836,
                0.2577145473441687,
                -0.07785317744712458,
                -0.06261822538684401,
                0.12033865580890274,
                -0.16180537391396024,
                -0.07778609123602684,
                -0.2035584274383481,
                0.015612098196268265,
                -0.1218089871906866,
                -0.006817328037014926,
                -0.17785442497963885,
                -0.06709570676838524,
                -0.12234692842932492,
                -0.06260369464452584,
                -0.12323716953336648,
                -0.04273749315779721,
                -0.10231844275768343,
                0.043234691335477894,
                0.16619531588904676,
                0.1705672744775187,
                -0.20190402539305646,
                -0.2574600434754384,
                0.20624253891190197,
                -0.08504437546090318,
                -0.09976554043205887,
                -0.1567922674202868,
                0.14075887962782213,
                0.0011322089157230419,
                0.3062446954437262,
                0.07067200729541735,
                0.1310407859497632,
                0.023334565871308936,
                -0.12046632117099684,
                0.03219809934241616,
                0.08765645957238828,
                -0.17993500573150822,
                0.03758780755199965,
                -0.029076318979300575,
                0.09444415381486332,
                0.02873262902426309,
                -0.023549946435423075,
                -0.1569767517423848,
                -0.07725591911312733,
                0.12163624829305376,
                0.18230125817208462,
                0.048547334851497426,
                0.03141263892350501,
                0.1273501893952835,
                0.08872743659256314,
                0.19635749307199565,
                -0.034503315480192705,
                0.06953323595196957,
                0.03131515959549842,
                0.119458640060117,
                -0.08180866272948933,
                0.08795033110789703,
                -0.10377956982833289,
                0.056515541851315215,
                -0.18750338364298505,
                0.09593156655737986,
                0.1234648907913747,
                -0.06375455413960836,
                0.16081109447371195
            ],
            [
                0.09217163070734657,
                -0.0924784480315451,
                -0.04511294316443224,
                0.15835197532734896,
                0.15879175772915377,
                -0.11499382016418455,
                0.09616185642830048,
                -0.0796147204578929,
                -0.023723101377428037,
                -0.14489522760037502,
                0.08634646476084577,
                0.06429613098562902,
                0.09744146273464947,
                0.1816948903629373,
                -0.0018498317099204136,
                -0.1586390772942841,
                0.016074255719855407,
                0.15981281911190842,
                0.34776756873959375,
                -0.22536407105612768,
                -0.1639414368308511,
                -0.09079644154591135,
                -0.10013990900161605,
                -0.23551305725266508,
                -0.21062210177107873,
                0.0008104467182036686,
                -0.1541456202328593,
                -0.024394823658082522,
                -0.049893791829411026,
                0.20123247475414902,
                -0.04883950926293734,
                0.04806027244740255,
                -0.11767547246309716,
                0.10599263414585561,
                0.11375752327754841,
                0.07127023126229536,
                0.016419515068506745,
                -0.020785203834018016,
                0.10593216694065341,
                0.16017588026881785,
                -0.006657951937144957,
                -0.02633127190530305,
                0.17702172592917853,
                0.2270489326559034,
                -0.006164497944161884,
                -0.16132064617259398,
                -0.07331626294406302,
                0.0072393944356942555,
                -0.05432745441702321,
                -0.25825519942170083,
                0.030037989635888895,
                -0.030978039117605792,
                0.07275916166031683,
                0.372734173688837,
                0.11640684352845283,
                0.0037372087992497893,
                -0.06644104318042307,
                0.16971209848463165,
                -0.04404137788152174,
                -0.10336359872061454,
                0.2942105075204948,
                0.21109168173299375,
                0.07068039183269684,
                -0.060631255665561316,
                -0.03507089399106216,
                0.045732980218512326,
                -0.08831963769017015,
                -0.06825805063990424,
                -0.14655496995087458,
                -0.11525139700928048,
                0.04122728436316134,
                0.010251976212772953,
                -0.15425958701648437,
                -0.07875783721010267,
                -0.04904542383207136,
                -0.02812508954527382,
                -0.048631184854901296,
                -0.22628760229234104,
                0.13253230917701478,
                -0.05452278909069525,
                -0.12230851699087879,
                -0.14071875025696057,
                0.0682901467971791,
                0.06752130705508826,
                0.12509585478819785,
                0.12799787977799926,
                -0.10009121051041038,
                -0.13467776835915538,
                0.06400977290857185,
                0.17066287641930408,
                0.16828186957025898,
                0.18704813931856099,
                0.1575241689859664,
                -0.04004320820372578,
                -0.005612164125983903,
                -0.08141948930881084,
                -0.08991204076977599,
                -0.0952773830731996,
                0.051220421483375224,
                0.13271563973486208,
                0.14884059010707307,
                -0.06470056009301232,
                -0.16384305446468103,
                -0.12751004334941676,
                0.018821714711332944,
                0.06189000743240812,
                0.04338056468122299,
                0.14321317416090903,
                -0.15607449067143428,
                -0.19835595584437418,
                -0.05554204503595503,
                0.08343797448231824,
                0.06634702544486079,
                -0.10081134082664105,
                0.05804108576862076,
                -0.07684404359288387,
                0.0166481093248531,
                0.0025512670878354514,
                0.07795302848890369,
                0.03201978945215943,
                -0.12540853300530075,
                0.09497980316531528,
                0.039589240369175306,
                -0.29401642373681636,
                -0.047918071403788676,
                0.057595049362833904,
                0.14248512061771532,
                -0.2057624259987493
            ],
            [
                0.07533606923770024,
                -0.05090644454277904,
                -0.06932697168739706,
                0.07839976610731166,
                0.08079113200626592,
                -0.014773381618571424,
                0.13948912877294545,
                0.09586622530981576,
                -0.026084272482013792,
                0.19823032022469195,
                -0.17499667852305376,
                0.10943653292433193,
                -0.036715221445908906,
                0.09766902337447098,
                -0.20975096950386324,
                -0.01074535451762237,
                -0.061880980972633906,
                -0.29066503382404946,
                0.12925832398231699,
                0.09708167361253106,
                0.15411634592043347,
                0.04397954270641769,
                0.35270136325825097,
                0.09639051243469329,
                0.08297694295880187,
                -0.041104142969537356,
                -0.13249564061470429,
                -0.12713425702938325,
                0.14766076820562368,
                -0.027998213128920073,
                0.015342790519286807,
                0.03678771561386825,
                0.2192036367229147,
                0.09855109689080623,
                0.011596364495513432,
                0.06481848937509527,
                -0.09424379611332814,
                0.10706982319820302,
                -0.010412800449764349,
                -0.07289100799478737,
                0.18302824456358852,
                0.13578150900419333,
                -0.06260029262518732,
                -0.16210791031578337,
                0.0533972587111362,
                0.004395018225617142,
                0.17380094438502458,
                -0.15779737093874646,
                0.06529877783787948,
                -0.042139259592412034,
                0.18017089978838033,
                -0.041241576000955744,
                0.02990591882208432,
                0.032813864692763726,
                0.05764338023190981,
                0.03492536656013742,
                -0.044292952663132865,
                -0.0590188564199784,
                0.0022956975674817467,
                -0.0979036304704192,
                0.028014149109245195,
                -0.056219959780123695,
                -0.12068214045866772,
                -0.10812201256676528,
                -0.040757918252996746,
                0.195479058102532,
                -0.17197682962219965,
                0.016086853183701465,
                0.07570248452890148,
                -0.04784515589052811,
                -0.04927923634725691,
                -0.18803287049632258,
                0.010353508730627969,
                -0.3979304156206909,
                -0.1710130717374724,
                -0.0014319236641495714,
                -0.09618801608929713,
                0.13627717396532807,
                0.18090300066739703,
                -0.05928669474700485,
                -0.08371280040659479,
                0.02063784700290905,
                0.3549045514919755,
                0.16718278060630729,
                0.0011359798695042558,
                -0.08053388646259155,
                -0.00992844911970057,
                0.05138209453904777,
                -0.25448633402276943,
                -0.03949635834882263,
                0.10074352825043438,
                -0.15005697448681887,
                0.14787972429307703,
                -0.1397474419016355,
                -0.09562763131007669,
                0.02108761093304467,
                0.0344029825012875,
                -0.0880380481393761,
                -0.038348165069232505,
                0.013077514261835921,
                0.08488992287955312,
                0.037094580168804674,
                0.09387556521188484,
                0.07327999479164594,
                0.1486058215173052,
                0.0582057238982976,
                0.020346492916714528,
                -0.2992610869389265,
                0.17037976441979175,
                0.14212085712913147,
                0.06771676572298845,
                -0.0013535432854600467,
                0.0012834774577077464,
                -0.07220223693897755,
                -0.35234399527741206,
                -0.01974374427030768,
                0.17854159833331967,
                -0.022983903498756918,
                0.018779140757618943,
                -0.11316013987200828,
                -0.020176470574190117,
                -0.04355415299291027,
                -0.05829997249391446,
                -0.11041866932234214,
                0.18502001395522139,
                0.1532149298566187,
                -0.16184787381574184,
                -0.20984829191264737
            ],
            [
                0.2285685115381699,
                -0.02383596451041026,
                0.05964583562746802,
                0.16534730046565096,
                0.04998945006983408,
                0.04405428109762208,
                0.08351398515006807,
                -0.03267324556511981,
                0.19490800657649573,
                -0.19039743102823503,
                0.034724861521476004,
                -0.030918112339126457,
                0.30140888432703034,
                -0.03513751268694214,
                0.1619533875254287,
                0.05885273404344007,
                -0.06612994308350363,
                0.11853890227215999,
                -0.06348131563432982,
                0.21499157327631271,
                -0.05892129332800895,
                0.051820970903833696,
                0.1211331366673022,
                0.004957066408803115,
                -0.04793633614141234,
                -0.1257587968017875,
                -0.07540787565988573,
                0.19610138579983183,
                0.04720998022656723,
                -0.020619534553446308,
                -0.09721317068072421,
                -0.018411668485250512,
                0.0711119385214331,
                0.06002501089818941,
                0.03371224154116436,
                -0.0707111322119557,
                0.08941441546285056,
                -0.04739434296809323,
                -0.044263503680439305,
                0.12556194802197548,
                0.13567960685120353,
                -0.01701217756344216,
                0.10497346014384314,
                0.31972199830863984,
                -0.2629584091747489,
                0.03187613654230323,
                -0.10714866169844957,
                0.07958483161414369,
                -0.04754319188293646,
                0.14420687551537165,
                0.17492158318556167,
                0.02551381965136906,
                -0.03978848450301242,
                -0.0038540515963527565,
                -0.12656634279648474,
                0.009472471911322694,
                0.21044138687968592,
                0.13183334447681788,
                0.08466231057211297,
                0.06538984163242062,
                -0.16704321443264264,
                0.09588385671880503,
                0.33254657245838204,
                -0.14297598904096845,
                0.12025644768884088,
                -0.05871488022471719,
                0.2177063565970513,
                0.015889029236617103,
                0.08584641092129451,
                -0.19300181890846288,
                0.11485666483674144,
                -0.02638415557326237,
                0.1854973014172355,
                0.13407178432019243,
                -0.06646600899103804,
                -0.08306800990491743,
                -0.1744504975286061,
                0.09598823051796239,
                0.025598948377797647,
                -0.2883626978585052,
                0.009537548463602686,
                -0.06153063297975043,
                -0.0019849624996343264,
                -0.0014181372761451001,
                -0.1541286016293038,
                -0.0009384439886613959,
                -0.06024250150386838,
                -0.08504400865843076,
                0.05583587218876713,
                -0.010432403211082296,
                0.025043948533083542,
                -0.1338818149625826,
                0.3417156426219745,
                -0.22224802690326254,
                0.04139116795371574,
                0.11652835793623278,
                -0.02467222490588746,
                -0.04560090804818943,
                -0.008891717514823367,
                -0.009082903230362462,
                -0.14262656277970226,
                -0.14933470331380383,
                -0.015409782518831223,
                -0.018766104605207334,
                0.1213352175468799,
                0.11571363921824586,
                -0.20064948726149667,
                -0.1270240013913115,
                0.11544349591332104,
                0.20555207806565753,
                0.0405200013095724,
                0.2830869522386047,
                0.032572193628697024,
                0.1308428487289478,
                0.4073019663574959,
                0.04128881348414361,
                0.06218825062043033,
                -0.2558815590495091,
                -0.05102372423113931,
                -0.14282330405334231,
                -0.017357478588329648,
                0.08330803724991995,
                -0.2244697286288006,
                -0.12049144068042057,
                -0.058265382288178603,
                -0.0010187912866468384,
                -0.0681311292319568,
                -0.2551813499616171
            ],
            [
                -0.18482010409529978,
                0.06456024414942005,
                -0.22538084081491094,
                0.43415812800458653,
                -0.24561829290420012,
                0.01580429793913772,
                -0.06266848718794961,
                -0.025969261659639562,
                0.02272102610292702,
                -0.09192555858777633,
                -0.09619838110135345,
                -0.1826273039902929,
                0.044742889846906456,
                -0.0750009671540608,
                0.15474216149747408,
                -0.16358759069159653,
                -0.24679703994892177,
                0.1284246777226172,
                0.2007297785265851,
                0.03751558574972829,
                0.232216209598771,
                -0.043881725089946415,
                -0.06361959843216845,
                0.0936825011763789,
                -0.10453470321318399,
                -0.11460481039501279,
                0.09473567295432539,
                -0.05375660989770694,
                -0.10739956525338523,
                0.0574068378497539,
                0.10374881906220883,
                0.11612663962564504,
                -0.04278335563185578,
                0.22163272913959542,
                -0.044546436814909995,
                0.13397317205232864,
                0.09807368013817787,
                0.04107129964084811,
                0.18855918929687138,
                0.12280275350094137,
                0.05873179020180357,
                0.07765597570729307,
                0.1181639567800064,
                0.046784563494883184,
                0.16169814225148488,
                0.008017247282237397,
                0.20271686095357117,
                0.12218269045685433,
                0.15122086673692356,
                -0.15210626585937237,
                -0.11247245665389333,
                0.1181335363520492,
                -0.06034032469203347,
                -0.15087570299957234,
                0.146814479949155,
                -0.18213422749481248,
                -0.06987944130000533,
                -0.016221979448611076,
                -0.14585090576749943,
                0.11647162709264296,
                0.10568323919486171,
                0.05560928482571515,
                -0.018182975998963895,
                0.015395130982258908,
                0.048783913224784765,
                0.190136746281608,
                0.14143852045083946,
                0.12561925576411975,
                -0.025052384030425017,
                0.03695114144947312,
                -0.11599313994270526,
                -0.03750273405867639,
                0.0089769720785815,
                0.023133059451628392,
                0.07038868670986609,
                -0.10441374919486765,
                -0.2724965344783616,
                -0.135134674994461,
                -0.08964929433841469,
                0.2009316533263002,
                -0.06698172342837737,
                0.13670691548972858,
                -0.031270408922313295,
                -0.19228558854890726,
                0.0032439096121721807,
                0.03456416844761666,
                0.07770033009543324,
                0.08470534758804502,
                -0.06411499450228862,
                -0.06762947166038974,
                0.08870630799357032,
                0.03547250576693481,
                -0.08613276459287222,
                -0.13011083490069195,
                -0.17639305354830057,
                0.0787291043469628,
                -0.14979605091281042,
                -0.1387589322776361,
                0.12450440700548154,
                0.1546838787309686,
                0.06917333351098805,
                0.04867804183395772,
                0.18353077539195384,
                0.06964313064619768,
                0.02026630359865252,
                -0.10178037153386145,
                -0.20634500223819843,
                -0.2603238014786301,
                -0.1075534524387297,
                -0.06814327984577374,
                -0.10162045864132681,
                -0.2888099936005142,
                0.038859717053047464,
                -0.005159436158993322,
                -0.0637392363521846,
                0.025146730760872826,
                0.015605326587110831,
                0.2567783496841966,
                0.005786995898202025,
                0.1115305364468807,
                0.05701858410000696,
                -0.04858489928297893,
                -0.012854003638002494,
                0.036728262273183716,
                0.03382512605122808,
                -0.17840404807815516,
                0.030205450500333797,
                0.2844049588261136
            ],
            [
                -0.04998673034099931,
                0.0965170344818255,
                0.10879205132083934,
                -0.009243113467653014,
                0.06541864542014965,
                -0.017422169287748885,
                0.11348430327548656,
                -0.18874731335441297,
                -0.10876853729620654,
                0.0775470468940861,
                0.01773963763416002,
                0.05027720004546061,
                0.0124803681952095,
                -0.12045618735898107,
                -0.02346200128087689,
                -0.09792439523695876,
                -0.14275040203323763,
                -0.11690130225517921,
                0.1010987172726914,
                0.15476572226431792,
                -0.23293277980293092,
                -0.15379153537985565,
                -0.18384071874281466,
                0.07033789164405459,
                -0.047321202620969754,
                0.06625350181669212,
                0.027520946063998037,
                0.026661687831603872,
                -0.06043665557544048,
                0.11864816373417358,
                -0.028164891755187427,
                -0.3254260643948591,
                0.07293985411967979,
                -0.09747241553658045,
                -0.3152633479148377,
                0.015786610564490447,
                -0.1375229964214434,
                0.044428125286485785,
                -0.19911470975206075,
                -0.021967371373335723,
                0.075828981897736,
                -0.029215596000549935,
                -0.1846028994211039,
                0.024955244734073522,
                -0.033284594874837786,
                -0.19681511706743465,
                0.05418273067917981,
                -0.22259250192995977,
                0.10948634474023754,
                0.15757032767409251,
                0.17400222551866276,
                0.012986580359043558,
                -0.0644052174766479,
                0.06187470275033902,
                -0.18504100485314637,
                0.09278064374455935,
                0.008516186397689638,
                -0.05373086566025274,
                -0.05010134579384012,
                -0.0049607240087101104,
                -0.0850603104913488,
                0.21265379512688823,
                -0.23388030510716085,
                -0.020517314174816913,
                -0.07448511147553857,
                0.06855409617849886,
                0.04298796885127569,
                0.04604122848688593,
                0.060773434432493986,
                0.15018957083567558,
                -0.14558596610602134,
                -0.025430585684099012,
                0.0906902211854513,
                -0.010188506615505168,
                -0.09352693904038197,
                0.07041156886648219,
                -0.13756227343419264,
                0.021640199485091688,
                0.11432299890722708,
                0.22886869855600928,
                0.09000026362132674,
                -0.11505846479484115,
                0.1274209714543094,
                -0.1692143065410669,
                0.1123927280496196,
                -0.0026981303755122675,
                -0.21085547382646455,
                0.030896292611528046,
                0.12969408560141274,
                0.24304292593482163,
                -0.10876345343642733,
                0.11056492207486722,
                0.2349637404454079,
                0.1191728420610534,
                0.0660841846911396,
                -0.13517033799377678,
                -0.2583079894964898,
                0.020187129623647968,
                -0.16283996500470607,
