{
    "architecture": {
        "input_dim": 8,
        "hidden_dim": 64,
        "output_dim": 6,
        "hidden_layers": 3,
        "dropout_rate": 0.0
    },
    "weights": [
        [
            [
                -0.05365894241270837,
                0.155754185794168,
                1.1433525573645618,
                0.16385746530781137,
                -0.7394936732087223,
                0.07975615370726925,
                -0.8458093300294357,
                -0.21935319511671741,
                0.04555378303332904,
                1.4968756622865407,
                0.5961280789832246,
                0.30122318715062457,
                -0.3070435814466122,
                -0.4721400674191526,
                0.18791135895419084,
                -0.006542776301373925,
                -0.16345272226807134,
                -0.10069985120831873,
                -0.29281465544661694,
                -1.0996103958323762,
                0.5778863310597669,
                -0.8397010639981953,
                -0.8836528615108399,
                -0.4268703749576922,
                1.735794301579712,
                -0.8061826870269387,
                -0.11356664063149453,
                -0.3645035231478084,
                0.5644527105849066,
                -0.6309420943328727,
                0.29143014734948525,
                1.0820809729611722,
                -1.0145784764635253,
                -1.967141714560339,
                -0.7231706720770514,
                -0.64045479791426,
                0.02833372542731978,
                0.16714023418747864,
                0.4076221283008372,
                0.5119223878980823,
                0.11821624891226264,
                -0.43430344408385435,
                -1.1403151497246589,
                -0.8419328840664922,
                0.35115465772098575,
                -0.4631229244455589,
                -0.41430307757313806,
                1.0341983228339886,
                0.94010327456132,
                0.5437824586494926,
                1.0953827842133477,
                -0.05649916698671182,
                1.40024934241594,
                0.6835571873689265,
                -0.6736056038946256,
                -0.9448149814935147,
                1.069345419745683,
                1.583377176914082,
                0.4775421936146137,
                -0.6220985322030236,
                0.6867957195959289,
                0.4840226646889065,
                0.7863025825316337,
                1.103656946867365
            ],
            [
                -0.15373034477080105,
                0.10293651497595327,
                -1.1421623056061025,
                0.27517013254958095,
                0.05673573401979557,
                -0.952783887816324,
                0.6639348524985619,
                -0.24132775964510464,
                0.3804370952331497,
                -0.8968260254090749,
                0.7578400545929361,
                -0.5785684100534989,
                -0.9183750904802415,
                1.5415128696048115,
                0.8165431069589854,
                -0.5779930945787131,
                0.5883042004919318,
                0.6856423235577718,
                1.0404834695891425,
                0.6221388336697339,
                -0.18836370951711057,
                -0.36310769491452227,
                0.43691655412079583,
                0.365261953916402,
                0.7446977100501777,
                1.1021238794141106,
                -1.0870926822347646,
                0.14381432938728467,
                -0.9231381104612737,
                0.0764588020111995,
                -1.2586248352765257,
                -0.7388257700248833,
                0.6983498201803522,
                0.10879642667931747,
                0.17759906846341114,
                -0.3517122340950611,
                0.12562900739080443,
                0.23797775116402042,
                0.07393115147119787,
                0.5011629161729257,
                0.279219259678277,
                -0.0976385651615665,
                -0.09029095248172883,
                0.3052360643709916,
                0.4355671449853129,
                -0.8829309085439181,
                1.059235505336177,
                -0.7938382176569401,
                0.10558300778174792,
                -0.8129069338738577,
                0.048203198764826184,
                -1.1311151861737003,
                0.584602488481346,
                -0.13209881503093832,
                -0.5924570234559169,
                0.08773926158698526,
                0.8106432853334388,
                -0.026319548994159944,
                0.12978217718798257,
                0.1911612752734311,
                -0.92040424109101,
                -0.9137830437270049,
                -0.23371638881753812,
                -0.1454793930192108
            ],
            [
                0.9703609920898743,
                -0.7857848921451642,
                0.4926913541256394,
                1.0443479326321556,
                0.17685930114526888,
                -0.11033974567152757,
                -0.6677785369401912,
                -0.18221522501945592,
                0.4528893799792396,
                -0.23724966208752174,
                -0.6691452812051752,
                0.10365780826596355,
                0.2985032840252503,
                -0.12637432057281234,
                0.7703034171211707,
                -0.22537452930554236,
                0.09726118902727206,
                -0.3110388816917137,
                0.9399268871221531,
                1.0306807226832062,
                -1.0047787508069865,
                0.12187210818883591,
                0.30556555233310356,
                0.5337421350687462,
                0.7210114274970584,
                -0.5082864161809644,
                -0.022985862704666425,
                -0.3408507051167488,
                -0.5248555879643819,
                0.743650076792575,
                -0.11489789631507791,
                0.22350574889410202,
                0.21286406594216362,
                0.6209769530847192,
                0.07886507346581476,
                -0.1471527409885734,
                -0.1623620942688062,
                -0.4889374927548094,
                -0.014598902864551015,
                -0.07427601528461887,
                0.34639765540363265,
                0.141269536870419,
                -0.7957555401338716,
                -0.3936133570717664,
                -0.374720396632663,
                -0.1825457098041663,
                0.7022541682047421,
                0.3077678846313302,
                0.43778838145711796,
                -0.2855011082512372,
                -0.4234556164013556,
                -0.02923094024994129,
                -0.18763268072294573,
                -0.3810180777908207,
                -0.12013391750880517,
                0.7446868687425171,
                0.5217576088730939,
                -1.0046632880925108,
                0.2521210181515927,
                -0.15334327974709472,
                -0.028728686927499972,
                -0.15822874321273833,
                0.33181154054763057,
                0.6464738198588093
            ],
            [
                1.0109416052723634,
                0.16187408247376572,
                0.302005413213926,
                0.10647579296034224,
                0.06077514915018427,
                -0.2986539839537763,
                0.9411556131214573,
                0.13935698272189498,
                -0.25074423733405926,
                0.7208488576056887,
                1.067461612671707,
                0.78316954396808,
                -0.15320559837687003,
                0.1503286055803187,
                0.3745648557727368,
                -0.772008144887279,
                -0.16124297123804715,
                0.27472731345495094,
                0.08711388328710289,
                -0.6605999617487575,
                -0.6628587035795755,
                -0.36730974109815523,
                -0.03735948543444206,
                0.35953592126569606,
                -0.16317687913095003,
                0.047114772104413914,
                -0.5841854081048143,
                -0.14357752712029537,
                -0.41986704389097196,
                -0.036690933068218495,
                -0.04181731859046573,
                0.4540346583740727,
                0.1569591220246396,
                1.105602622359848,
                -0.15252720750195245,
                0.3511636615460937,
                0.07218333917196677,
                -1.3472366485120288,
                -0.5452802557799055,
                -0.4237540528608992,
                1.0694233812031793,
                -0.08772866969958266,
                0.4934383498616804,
                -0.9836482997041124,
                0.17893294081531844,
                -0.4465285617178782,
                -0.23462303358055844,
                0.2972968765605391,
                0.5849668731689853,
                -0.10158549574566093,
                -0.47725776712263235,
                0.4123871630472055,
                0.6302355158834826,
                -0.41131783943789335,
                0.28476299325106746,
                -0.13551649329236526,
                0.008973013423689292,
                -1.6036460511050523,
                0.28460827434839164,
                0.858197125865304,
                -0.4801476396495949,
                -0.6127354272648181,
                0.5458173113542687,
                -0.23388803276839581
            ],
            [
                0.46278518842219035,
                -0.5370035390696688,
                -0.2468858672403099,
                1.6085364297404052,
                0.37165963475574265,
                -1.1422975735176948,
                0.459595438278583,
                -0.9896059865719619,
                -0.11279831851604298,
                0.047518017547617517,
                0.051415333815352036,
                -0.14988893503729292,
                0.05590615238029507,
                -0.27847390603823313,
                -0.6232578802625401,
                -0.40629259061234746,
                -0.37571044858491226,
                -0.30426102191434606,
                0.06571324514783886,
                1.1889682496653646,
                -0.7126446534137372,
                0.5875879536840929,
                -0.10971693140334261,
                0.2444433861760643,
                0.060844264473074935,
                0.2772864490225155,
                0.3048619300852513,
                -0.7602859891632111,
                -0.34838685952423737,
                -0.07772178703241858,
                -0.07331879431248048,
                -0.30815878018659243,
                -0.7856994521537378,
                -0.06533475162905512,
                0.5722358300324052,
                0.7499780872151001,
                1.0584469025661662,
                0.8898951494489052,
                0.021024432341130637,
                -0.35601777452265265,
                -0.2799604023838415,
                0.0890263616847728,
                -0.5018135953667039,
                0.26060460212274433,
                0.25591999592991815,
                -0.12782196753712935,
                0.4781172885029827,
                0.2660215135041418,
                0.481502318822287,
                0.15773443253091188,
                -0.2766158905082182,
                1.0234926099439667,
                -0.6508606728747728,
                -0.14841698653813243,
                0.1548440082512893,
                -0.4809084107644012,
                0.9604837056304134,
                0.1660534437952567,
                -0.9848366721199114,
                0.22152817272647052,
                -0.6348621144260672,
                -0.34269660069640834,
                1.0117401724866109,
                -0.06458422361921147
            ],
            [
                -0.14885227143758084,
                -0.48996447188398223,
                0.0434134741977829,
                -0.2616229970209293,
                -0.30777517251562586,
                -0.11043767353194044,
                0.4532377732707158,
                -0.5782922957029434,
                -0.2614820379935462,
                -0.7077028129675789,
                0.15558135878463325,
                0.799304815062268,
                -0.1825538237310523,
                0.38769530757442233,
                0.384464384401856,
                -0.3119068482814663,
                -0.8238418202562923,
                0.05337527005032752,
                0.8085011504596811,
                0.15211994038911794,
                0.46235280955208213,
                -1.6990505796670647,
                -0.7077410759393482,
                0.3597057438207002,
                -0.765185726481066,
                0.3320406237952561,
                0.21136628128433524,
                -0.2356363299943424,
                -0.4550404787303013,
                -0.25839741064130245,
                0.16735543471656214,
                -1.0004441167863618,
                0.9963093810975467,
                -0.38183641867530416,
                0.4583003714280864,
                -0.02664046538821663,
                0.9859172303622925,
                0.7481019559622688,
                -0.4562601429516714,
                0.13273400982504982,
                0.042837854445374225,
                -0.2600559504863431,
                1.1850054513100228,
                -0.44012915295130856,
                -1.1564060658828188,
                -0.3636987396379238,
                0.30775191782623634,
                0.3040281086356333,
                -0.24316644698715706,
                0.035295692845586056,
                0.5438246706083106,
                0.7146532533703703,
                -0.8394137900297788,
                -0.593243876688003,
                -0.2120196112971661,
                0.11967269976182338,
                0.20856725019883757,
                0.3724620005619955,
                0.27825843478510565,
                -0.315515456835079,
                1.1307494428888876,
                -0.0017551985922341776,
                1.1312693203908533,
                0.7759365858869092
            ],
            [
                -0.3203093231902893,
                -1.5983715404808685,
                -0.804670981415267,
                -0.016667517710327245,
                -0.20400660225586054,
                0.7074285861984843,
                0.14448117879241448,
                -0.1254972916298167,
                0.12705490976516953,
                0.8867797049685968,
                -0.15067749632964172,
                0.20308990715902336,
                -0.7131487770305349,
                0.6367231214621116,
                0.02666046444007729,
                -0.8367692400302875,
                0.055811193492324794,
                0.19267420603323807,
                -0.046037019508255554,
                1.875333380972052,
                -0.51276636792436,
                -0.17002230649971473,
                -0.824698200234124,
                -0.059863411048030564,
                0.43704171394625885,
                -0.3610050992462503,
                -0.5348465264717465,
                -0.8156369307840088,
                -0.44516159291848817,
                0.3823269624961081,
                0.6353526892163713,
                0.6179096276732601,
                -0.6064075481344933,
                0.30785944767792633,
                -0.9367056577247258,
                -0.014394989229260845,
                0.1938842790349096,
                -0.2513271225413669,
                -0.36506172865107056,
                -0.19476469915594374,
                0.13780217268778644,
                0.3034290310150196,
                0.09735067537749419,
                0.8407936023198505,
                0.358101700219785,
                0.012617082779095986,
                0.6655132508517195,
                -0.116709802159259,
                -0.5279096705920626,
                0.7180228399300811,
                0.3073699424441485,
                -0.5355757191349654,
                -0.48497726553298726,
                1.3330157500741957,
                -0.45359974399589087,
                0.39781934540412445,
                -0.10758624604625373,
                0.6008811875427176,
                -0.3779477376845203,
                0.42716556714273746,
                0.23407787108509365,
                0.3653130351527536,
                -0.2331770437665222,
                0.028337276870763522
            ],
            [
                0.5256015327790657,
                0.6039971079798626,
                -0.0824805606352005,
                0.5068888663352732,
                -0.45482479573352763,
                0.0664824513249933,
                -0.07551673520265853,
                -0.47872209163864005,
                -0.37806823770510156,
                0.3695834297167408,
                -0.20851312491098598,
                -0.39496575316050925,
                0.4020937782614803,
                -0.061567103794028105,
                -0.12835222186517128,
                -0.6529559822524186,
                -0.8151341332386097,
                -0.7970594440850889,
                1.4132718274459986,
                0.13866895379431696,
                -0.6365778193454886,
                0.46650773148573127,
                0.762810070411132,
                -0.42554085920900536,
                1.093128917081529,
                -0.09259604457514635,
                1.6552032644628234,
                -0.03292583423190544,
                -0.7549659026351855,
                -0.2715568510094143,
                0.7897471997588645,
                0.19650625543654088,
                0.2212773218696101,
                0.6710091658000442,
                -0.052039885609779894,
                -0.44316283981625537,
                0.4490032485144309,
                0.9561708846762784,
                0.5753792409469565,
                -0.40575193354862527,
                0.6186385176466397,
                -0.029126241841585687,
                0.3203199560462536,
                -0.15230220960607121,
                -0.2877195876118332,
                -0.3823372931481705,
                -0.846365519763338,
                0.2338758515795882,
                0.4812728764639454,
                0.7378791623238867,
                0.8045908134052213,
                -0.850767138186684,
                -0.6177473592819581,
                0.019494859521925114,
                0.4408185642065862,
                0.18459502472387737,
                -0.4431677221191628,
                -0.6216132828976244,
                -0.2702040853004828,
                0.03133212121953027,
                -0.830233480713036,
                -0.2678937136973817,
                -0.01729983126648465,
                -0.1552671276246101
            ]
        ],
        [
            [
                -0.08620824342606018,
                0.05969761918993248,
                -0.113405698811081,
                0.05752737331407858,
                0.11063178000061503,
                0.39158526378297454,
                0.13032065585656769,
                -0.1731989739418743,
                -0.04345681539827084,
                -0.1748650831644597,
                0.14313027973662137,
                0.0505790234830668,
                -0.05901476993259349,
                0.10995242285263826,
                -0.1666387792106425,
                0.2092406263659645,
                0.23610988982638154,
                -0.06908610135086148,
                -0.18854652132052024,
                -0.02623245937140304,
                0.07236452492330399,
                -0.03267045205729897,
                -0.30099666301586697,
                0.03259967369996367,
                0.02834903961185998,
                0.013169948926476252,
                0.0017154448990475966,
                0.0035976001894706447,
                -0.1759511415167446,
                0.06499746279531635,
                -0.11194166736751722,
                0.16045158239434762,
                -0.08885238242659589,
                -0.12892412377969692,
                0.057382139727090734,
                0.10522033840579499,
                0.10584883266321214,
                0.05355526779447641,
                0.11434760639852895,
                0.09235505391308199,
                0.3974338471300864,
                -0.09561394967163984,
                0.10617384287989319,
                -0.11729270215549684,
                0.4827198151420703,
                0.06604817850375198,
                0.05097332743531463,
                -0.18696525768814587,
                -0.14862071454735457,
                -0.2491391114030635,
                -0.24083939853325848,
                -0.008798009158710738,
                0.2813584003826962,
                0.39685164570549414,
                -0.22388076845351193,
                0.24913822837580013,
                -0.019124481499534253,
                -0.1698394572767302,
                0.27238936913006684,
                0.04703367751328168,
                -0.12140685219211227,
                0.02444507965757151,
                0.018294575804434495,
                0.16788088897354794
            ],
            [
                -0.048612227912963824,
                -0.03311563028605483,
                -0.14603830011963265,
                -0.22788733638696934,
                0.17596114606453406,
                -0.40056453733833564,
                -0.1417854224654667,
                -0.05955141203936033,
                0.09397265077278241,
                -0.052892070926114004,
                0.06118963979947702,
                0.0674307081750788,
                0.007150283556922543,
                -0.23011956687639665,
                0.02759430309248859,
                -0.0963279640156504,
                -0.06593019327211874,
                -0.12266138213763529,
                0.17400077256949914,
                -0.07862833320401724,
                -0.2353008867706826,
                -0.11104322899076642,
                0.08554926787377536,
                0.17377271549547163,
                -0.1045621771239213,
                -0.03700517114182445,
                0.10985267807753686,
                -0.13531968727530666,
                0.14329895281582747,
                -0.16234411606586704,
                0.016211766934808716,
                -0.14359704951413918,
                0.06427022808876445,
                0.13841776063217895,
                -0.08250169049566604,
                0.05416009474685108,
                -0.05269757188352383,
                -0.005796069348731314,
                0.18391006053977113,
                -0.046928014645938716,
                -0.05874765866214056,
                -0.03394634568611988,
                0.11232708656154297,
                -0.11069977729140802,
                -0.2187241050233761,
                0.1133456482264183,
                0.15845497957770277,
                -0.009379703083940958,
                0.2771141387037765,
                -0.12399662737634022,
                0.16574136387673719,
                0.18226907899278638,
                0.0010849546678186228,
                -0.08573231309832365,
                0.02744709165525357,
                -0.07526922640950104,
                0.11967060443720054,
                0.11207331157181422,
                -0.03508504014015434,
                -5.066101763165991e-05,
                0.04265237452001769,
                0.11821540076536087,
                0.2821370120868032,
                0.22950967897753838
            ],
            [
                0.3715597821096031,
                0.043849507192431844,
                -0.19378042737256646,
                -0.07856007384906534,
                0.14888354142880092,
                0.03768130371059828,
                0.3084842053237922,
                0.05555624278277321,
                -0.2842596107000624,
                0.1813726271967456,
                -0.20342661851973445,
                0.08018678295659866,
                0.00803329444711695,
                0.28504373627386453,
                -0.19457487123496142,
                -0.12914843791064598,
                0.33542346631302233,
                -0.21945561648514608,
                -0.06738797125277975,
                -0.242701936129522,
                0.02543557106328374,
                -0.44334269964899214,
                -0.06626773236884624,
                0.09935674448766178,
                0.40227142962541895,
                0.33790304026448603,
                -0.18522400258305757,
                0.12763695026190416,
                -0.44367150703907093,
                -0.03308938795136837,
                -0.2813580569717823,
                -0.01651582514919733,
                0.33000133025611994,
                0.2817248498068172,
                -0.3803224041580173,
                0.1113191697111798,
                0.027348921518240487,
                0.3886853248344569,
                -0.1553127235385766,
                0.3607410293184244,
                0.036844777713876065,
                0.06549031958996862,
                0.07651952114115616,
                0.0715000477685806,
                0.3060628270136956,
                0.04334009180245419,
                -0.11016268244293494,
                0.19738983845717678,
                -0.05605130235741063,
                -0.05531208614259306,
                0.05590084229279373,
                -0.2555691934327334,
                -0.08152698702647902,
                0.4925275407467337,
                -0.2998831857857184,
                0.13707048446304254,
                -0.19209514862742907,
                -0.09360044218052346,
                0.2089619482125869,
                -0.194681933673306,
                -0.3237492556241364,
                0.11164993410218074,
                -0.1127559003389942,
                0.10098040201948671
            ],
            [
                0.14799676561502642,
                -0.04477459080393,
                0.32596109150216895,
                0.13031027291954528,
                0.1617181075265317,
                0.38475970778574536,
                0.163208133060268,
                -0.08781745608540423,
                0.20850104568921476,
                0.07077060817733972,
                0.15573365526914076,
                0.23290805711319146,
                0.028814301038172948,
                0.28916031997406605,
                -0.03258791799676961,
                -0.1940732382474936,
                0.0391273885674708,
                0.2433872901772634,
                -0.34278065005906355,
                0.37619457037725895,
                0.15212172991398715,
                -0.15545283030311155,
                0.18827013916496813,
                0.11977189971714516,
                -0.05868457080932808,
                -0.032287141364092685,
                -0.07076951746176223,
                0.37672582392667164,
                0.25199183259670294,
                -0.1787790363384701,
                -0.07939871476588169,
                -0.13027907511146178,
                0.15462369771672987,
                -0.16609332914481628,
                0.020802606695551826,
                0.3877321572643982,
                0.019611615287764107,
                0.18453057017906335,
                -0.2243594578503853,
                0.233223744904105,
                0.46072210437730776,
                -0.05188810788840917,
                -0.07095025065662396,
                0.014709374241624749,
                0.2324746123888745,
                -0.19585674513906862,
                -0.4043443899270849,
                0.2690530120501366,
                0.14310886150427904,
                -0.10637262350033357,
                0.07622862002854554,
                -6.956489447038892e-05,
                0.5182942284454065,
                0.22802727225980454,
                -0.010103558141004007,
                0.03006638831911948,
                -0.20997683503063622,
                -0.29209386857496034,
                -0.0474528526585748,
                -0.24541406479161262,
                -0.24810193334667813,
                0.03281727125931018,
                -0.06976387271313832,
                0.04949549431818066
            ],
            [
                0.01043643149281322,
                -0.06624707028784926,
                -0.06973709465448472,
                -0.15375213609849428,
                -0.0896327786522788,
                -0.0004910902152246397,
                -0.0766157306373008,
                0.21127226512432004,
                0.19862182091507816,
                0.1652976230443951,
                0.10028501466454132,
                0.09161367127708467,
                -0.06100720660702431,
                0.034586541220397456,
                -0.19608580106321327,
                0.3266057594371279,
                -0.01723946926985195,
                0.12295172400004101,
                -0.02211954716053904,
                -0.06900381172795982,
                0.03790533262471334,
                -0.4102330234501774,
                0.4060970459536807,
                0.04148648862822036,
                -0.2144471310547991,
                -0.016301613340141425,
                0.16846610395186826,
                -0.07932394439606165,
                0.026249976447724945,
                -0.3072889450679361,
                0.4173449864439886,
                0.17489450715523275,
                -0.23643518778024822,
                -0.15212738651259758,
                -0.17099453142717802,
                -0.23723334854718958,
                -0.008897815081204756,
                -0.2089699127921155,
                -0.25919579805304316,
                -0.3419671358738205,
                0.3603506383092963,
                0.05219928245304326,
                0.5427957261149259,
                -0.10582137934552296,
                0.11508916093891504,
                0.06532163312524335,
                0.030247017251161107,
                -0.41270073097717164,
                -0.05203431197624494,
                0.2810898770090634,
                -0.12072568435586369,
                -0.05226118844244379,
                0.009405405633329846,
                0.20129767136572163,
                0.06136487827490488,
                -0.019899884752618436,
                0.00556313238814675,
                -0.08636748466614226,
                -0.11967833535933549,
                -0.17842412191435794,
                -0.1389256993882319,
                -0.04807120250968162,
                -0.2285365108654307,
                0.06932458005760495
            ],
            [
                -0.09738126504775799,
                0.2186489093474077,
                -0.14322772143189386,
                0.18230723076451233,
                -0.06743775785375263,
                0.343578175360593,
                0.0332006163130529,
                0.06778593640495591,
                0.11305767276711828,
                -0.6609963745920509,
                -0.09296881754298703,
                0.007302383409463903,
                0.02827486177099842,
                -0.09121688397822907,
                -0.015805065741916022,
                0.1765315553077496,
                -0.08605424754499642,
                0.0860099855288813,
                0.21104172052012796,
                0.021923608762415104,
                -0.18151926086701572,
                -0.2166469675814076,
                0.0024966235897590032,
                0.0004039245655357305,
                -0.044377843766703874,
                0.06854875209699586,
                -0.08959184069611098,
                0.006545456941137995,
                0.23580917817778815,
                -0.04855902755105406,
                0.29052354512817014,
                -0.37618261950748616,
                0.08367061196644889,
                -0.0665924219074698,
                0.008602557526249438,
                0.008387191838746753,
                0.026660270748192796,
                -0.23177657758249331,
                0.12684614717718973,
                0.14019711677780416,
                -0.19551734669000875,
                0.27988491952945543,
                -0.3000294244562869,
                0.14855999303034678,
                0.023645250245970393,
                -0.050371010611023406,
                0.42829442716173155,
                0.21404634593673208,
                0.043639276028371574,
                0.17651531776768117,
                0.22085291123602466,
                -0.040470758153233484,
                0.10251693528969258,
                0.054803942205098835,
                0.2740157173536669,
                -0.1926965444373797,
                -0.22631181357180583,
                0.16185406577532113,
                0.1171072011518635,
                0.046756816989128154,
                0.03333108158038895,
                0.03712226578707181,
                -0.08593159743429465,
                -0.06574804576092398
            ],
            [
                -0.1685312059061471,
                0.04301453875628374,
                0.3474708623157392,
                0.33678592542764063,
                -0.03835795389013521,
                -0.06552637711390598,
                -0.06726108288521253,
                -0.16171246283421462,
                -0.1458732414747998,
                0.22767274760569126,
                0.027874652429233836,
                0.16830124109873965,
                0.2436205668392754,
                -0.06629327164822273,
                0.18735950916980237,
                -0.09399675287156965,
                -0.07458525728098837,
                0.02377008387922659,
                0.18473671472786843,
                0.31661894593274914,
                0.37793540635218714,
                -0.32299723347657777,
                0.29939055060922476,
                0.20271934872676758,
                0.3818948557041677,
                0.011898942398318853,
                0.08926020295585922,
                0.26786844417819566,
                0.08951078472949776,
                -0.012557282608347146,
                0.009803099032882269,
                -0.023617450070600222,
                0.3277506113716991,
                0.17803437076237708,
                0.15029034911002576,
                -0.20676826103686344,
                -0.37837993249756857,
                0.11098425640481777,
                0.11468583058882892,
                -0.06992855243634397,
                -0.19752861308749883,
                -0.026439161109166803,
                0.14496026574557289,
                0.029986567133474144,
                -0.11202503746622529,
                -0.08410180988378203,
                0.24415040625834752,
                0.16191326954422727,
                -0.135908544134186,
                -0.2544318456564892,
                0.023570243728889183,
                -0.031381127496417235,
                0.3708277126950058,
                0.3813920904225516,
                -0.23054393538598333,
                0.4194699659912158,
                -0.10138764688905148,
                0.3482864614533704,
                -0.2154118794682479,
                0.2672902100660655,
                -0.04728335037297598,
                -0.2609277461136946,
                0.10353920243948707,
                0.2271717757456943
            ],
            [
                -0.09710413465089066,
                -0.012968041342026,
                0.32872429203247366,
                0.14040478624743694,
                0.026436958489834596,
                0.0014593758305928137,
                -0.12407277284361844,
                0.01721617582125338,
                0.016001189274503412,
                0.19207967008920007,
                -0.14018141310721097,
                0.07178003949744759,
                0.0988467550374536,
                0.07606597602716589,
                -0.18723204763338935,
                -0.39802095393032577,
                -0.12552347059188088,
                -0.34913189805779743,
                0.06843118693228503,
                -0.2014077598870115,
                -0.029802357206440165,
                -0.03718523116268405,
                0.16312839829083767,
                0.5589411851731523,
                0.021951506781763015,
                0.06870587327047897,
                -0.1042414027384248,
                -0.011980622144649723,
                -0.23715133951971534,
                0.11736856580228709,
                0.25884117887153424,
                -0.029531521329445254,
                -0.05014568851744155,
                0.7636766554830213,
                0.05235853442112131,
                0.05640237348562124,
                0.010034860059593736,
                -0.1003333692460242,
                -0.10723107108655527,
                -0.04593312916915934,
                -0.08405653263079364,
                0.20584421815940054,
                0.17280710956853643,
                0.1982100059049967,
                -0.08163005328287572,
                0.22892039382470875,
                -0.13154206791658277,
                0.3438714120951493,
                -0.017145998102212148,
                -0.058362702636862204,
                -0.057587165859560925,
                -0.12784707221793515,
                -0.13454143301005936,
                0.03073157098022809,
                -0.11829471439639734,
                -0.032765260021041534,
                -0.11965255875883704,
                0.26454912658834406,
                -0.16681675398514897,
                -0.2155669461476576,
                -0.13532249224687073,
                0.10052050763989977,
                -0.01857650402691257,
                -0.10239710305281041
            ],
            [
                -0.018293835886677264,
                -0.05126712627966082,
                0.3307574587095614,
                -0.20951849442367465,
                0.06535778263283551,
                -0.1733347594923969,
                -0.19326059934880596,
                -0.11867997277937395,
                -0.1031628695670305,
                -0.1779330524891064,
                0.11071230191468225,
                -0.17062444996321716,
                0.19527713863411245,
                -0.3427164559799547,
                0.2413076327842362,
                -0.016669952327625862,
                0.13758385539811266,
                -0.0990436238049212,
                -0.2551482930700224,
                -0.043564357486495106,
                0.08317990651547413,
                0.1386143178731629,
                -0.20686111455693357,
                0.16232810640715128,
                -0.09148088930049339,
                0.019357538056638274,
                -0.022267887100073044,
                -0.0082779529666477,
                0.3807017349080985,
                0.2160979165685742,
                0.0803319135963307,
                0.19149399843843437,
                -0.11787252453271213,
                0.21390885233346382,
                0.07642448140892269,
                0.17316019387067105,
                0.0981281423013987,
                0.047840285585113294,
                0.019963866563965187,
                -0.021465973575018678,
                0.06026024685550696,
                0.02463512133857272,
                0.06604314011413696,
                -0.30176381529075086,
                -0.3521442804033564,
                0.060180274141507804,
                0.34618980428378726,
                -0.2185580624113713,
                0.18804487756479796,
                0.035728807843018975,
                -0.1598629319729659,
                -0.20410562351778058,
                0.05652033056666423,
                -0.17340829326420992,
                0.29312199211406326,
                -0.12550862282886172,
                -0.12190912533574187,
                -0.17960159014487523,
                -0.4045401306009991,
                -0.24137593178886557,
                0.07312653638677927,
                -0.42111130044432954,
                -0.05083345320324179,
                0.3341578674566417
            ],
            [
                0.008126943381937767,
                -0.31919518834291394,
                0.019115108819683736,
                -0.0684676260579837,
                0.19468750965473192,
                0.4358971998387864,
                0.36939718817383044,
                0.17651844737229624,
                0.27547781210632805,
                -0.09703153359876339,
                -0.29395729169943735,
                0.040690067648052115,
                -0.27496927422486095,
                0.1678652426626253,
                -0.35543116784032147,
                -0.1407752017971554,
                -0.08739634252827697,
                -0.08561200747543428,
                -0.044793658806774835,
                -0.3762839018356646,
                -0.4104728662641881,
                0.0516749300069405,
                -0.11400868620688065,
                0.02521874780489745,
                -0.05172618692671693,
                0.1775262283123365,
                -0.06645459775405071,
                -0.19135364404403918,
                0.01155824887777503,
                -0.006076606637841441,
                -0.012388276558888573,
                -0.25536465925677376,
                0.05425118780456868,
                -0.20876387818590414,
                -0.05186226955881584,
                0.0874091852065297,
                0.6157385534719583,
                -0.011907146313726814,
                0.15402467296977773,
                0.11571491005999748,
                0.2630702567053699,
                -0.027906642575992763,
                -0.18604913431663764,
                0.2090275887698976,
                0.28416999273560545,
                0.06688985390144629,
                0.23867275217298933,
                -0.31802686194693264,
                0.10927087118261973,
                0.08648503713481638,
                0.030642202344708696,
                0.16109413286547236,
                -0.5214546178417367,
                -0.07359519600313491,
                0.4015184451555774,
                -0.2383823495186575,
                0.11547283023524806,
                0.4781417223618826,
                0.09667537850027831,
                -0.16714339227688085,
                0.14884972677469255,
                -0.18008621994322815,
                -0.2254135382054025,
                0.061779977805256334
            ],
            [
                0.13737773601799103,
                -0.43968088164702507,
                -0.04285332450195744,
                -0.260850848977876,
                0.19064812226618116,
                0.16457993223877398,
                0.014310307469448303,
                -0.049278476667202184,
                -0.01515529203201721,
                -0.005857452940629126,
                0.0839199205914241,
                -0.06392729768924567,
                0.20988477548097115,
                0.203224140542012,
                -0.47841318040753006,
                -0.3060725705168953,
                -0.059041335251524184,
                0.3576587887567936,
                0.05546264821479355,
                -0.028193870996499584,
                0.203275040790686,
                0.22995380185304465,
                0.08443466589519696,
                -0.023195751585700034,
                0.16926827910892975,
                0.22382939559485,
                0.0847112948684337,
                -0.003580050933992591,
                0.35308793193036553,
                -0.021763703701993417,
                0.03024938152470558,
                0.19937205435896369,
                0.23976368990823704,
                0.005831267808883782,
                0.21351442454127634,
                0.37658712239100484,
                -0.034578588978765805,
                -0.07191707721902223,
                0.2949849212566952,
                -0.049940897233825256,
                0.08170168484157396,
                -0.1548462556981467,
                -0.3276836608315067,
                0.21774168965243637,
                -0.040561900450561045,
                -0.15088573472801073,
                0.030668568291814236,
                -0.15285351566347602,
                -0.1613687731764682,
                0.06343990497528877,
                -0.00547574033062249,
                -0.23242115826530363,
                0.17446393366974322,
                0.19264881754848648,
                -0.0848133941195471,
                -0.012712419483606142,
                0.5026321933387905,
                -0.11742753416728993,
                0.15142271429765283,
                -0.1128207011955278,
                0.497035414819803,
                -0.055876675938962346,
                0.16158988025435225,
                0.4831249276981074
            ],
            [
                0.12115209032112782,
                -0.09089427779562738,
                -0.3316683148840893,
                -0.338904717577887,
                -0.3768956833623413,
                0.4134804305479534,
                -0.020281448466663028,
                -0.08372181547587312,
                -0.00825152755928959,
                -0.15618476974220466,
                0.21948538426587852,
                -0.04594573675655497,
                0.11641840398575298,
                0.005053151023880458,
                0.14264167363591385,
                -0.08886769068137283,
                0.029021448826616347,
                0.35934169056182735,
                0.028528846672414166,
                -0.1346087233829817,
                -0.5529708179695618,
                -0.15318744874889062,
                0.08019565078665543,
                -0.27296393839422267,
                0.15655403773860269,
                0.04100374776804143,
                0.02887234451314456,
                0.24725123077788289,
                0.10816476315566675,
                0.043930806119257884,
                0.3925125323114878,
                0.12040598472707031,
                -0.11981142380750938,
                0.06213529025087989,
                -0.060236292306304826,
                0.13557434733533621,
                0.14217449430715992,
                0.011598324411226704,
                0.050552122166247895,
                -0.3904702960945503,
                -0.26049875620114493,
                -0.053118708518692874,
                -0.13258424462472015,
                0.1863703835690266,
                0.17246943502352344,
                0.13422481726521887,
                0.08652427006743235,
                -0.028604612642297213,
                -0.3800474757415512,
                -0.10669720204000917,
                -0.11593864483593712,
                0.08430084515938606,
                -0.20637108920669048,
                -0.13110072038855358,
                -0.26002213349360304,
                0.27695393491108206,
                0.5566033017113344,
                -0.29953253930322105,
                0.2197952390855235,
                0.1863719320531534,
                0.017530707784403212,
                0.07412575804661131,
                -0.09785896927470923,
                -0.20706596355430126
            ],
            [
                -0.05752334567334763,
                0.16065551438722997,
                0.014952500839662626,
                0.29376936122505065,
                -0.1812909147903596,
                0.21087890963792177,
                -0.08182545285328997,
                -0.05638548457020796,
                -0.3272984104269307,
                0.20548173327729716,
                -0.10558891529889548,
                -0.014640862826781866,
                0.0986412614530938,
                -0.4024927159247303,
                0.1495799532445746,
                0.12776073387853926,
                -0.05792366431141832,
                0.23329398543392588,
                0.18486557187584057,
                -0.05369053525150851,
                0.06131644391723237,
                0.03979080625249102,
                -0.10990675400373028,
                -0.387834770461448,
                -0.2791129031903907,
                -0.22720226056298098,
                -0.08025688188537994,
                -0.04197994977024769,
                0.004133976808709984,
                0.22422933804530307,
                -0.45757188431475204,
                0.18527959142165265,
                -0.2549888329429325,
                -0.11816289317228386,
                0.15037140150727607,
                0.18651422377812965,
                0.07805570506287349,
                -0.20773533316722498,
                0.22201049943310863,
                0.1720374434302589,
                -0.15500464326298882,
                0.047330066546885895,
                0.1848668768915761,
                0.42229364828237553,
                -0.012777442906801249,
                0.1795122833690851,
                -0.39156286836962684,
                0.14770481988240083,
                -0.09462139351426611,
                -0.15134091840508934,
                -0.024206454634789987,
                -0.015477222707863381,
                -0.06178721775628098,
                -0.1057166408887304,
                -0.245809724446048,
                0.2123430947056693,
                0.10553728262066749,
                -0.031873779063140754,
                -0.11582705867339471,
                -0.2909522138702182,
                0.17127729165737482,
                0.1588908448129887,
                -0.18438936093825853,
                0.023273310796087344
            ],
            [
                0.0655688516849632,
                -0.10255520654127796,
                0.2157161601832617,
                0.17611074665484383,
                -0.08086237730963862,
                -1.0193678264708177,
                0.08064239887323511,
                -0.10928351371851835,
                0.1555956566956904,
                -0.09282127178078711,
                -0.018915504769829835,
                -0.37836579101643397,
                0.006798832286256042,
                -0.2526278620413571,
                0.35187148010266733,
                0.10768328895015622,
                -0.3554694909153541,
                0.34142604929912956,
                0.15807441046860826,
                -0.17770480988982748,
                0.2485561152499764,
                0.35806630936503986,
                -0.13822020027153156,
                0.2146013604720697,
                -0.18058428876214686,
                -0.07950886997990249,
                0.11618857304546569,
                -0.01954001679352589,
                0.0995625199140522,
                0.34354125017571135,
                0.025478061878613963,
                0.044829281083279805,
                0.5228813297080485,
                -0.2645065299837655,
                -0.02697316561460994,
                -0.20481332627757914,
                0.001212830530045604,
                0.12009478827137937,
                0.23575826502359218,
                0.14410951446960393,
                0.2368424830149141,
                0.37248795355991865,
                0.3549753000974122,
                -0.18827766685100233,
                -0.04926802233812119,
                0.13652171008084446,
                -0.15347698779480393,
                0.3307402042163409,
                0.15488884199690575,
                0.14961919930711015,
                -0.2594950873450328,
                0.06278455430355297,
                0.14235544056580424,
                0.03246538620275447,
                0.07519706265819598,
                -0.1297447203616389,
                0.3661013021309429,
                0.10766685386232558,
                0.05868126064048216,
                0.34620106791179445,
                0.3191852221829847,
                -0.002814791466987594,
                0.25927515799158957,
                0.10659242269977731
            ],
            [
                0.3544369482900815,
                -0.02809272070293161,
                0.062146622838951865,
                0.27062262064746967,
                -0.0551550702444754,
                -0.10957527721143459,
                0.15656263153410002,
                0.024466781426504044,
                -0.1986009098106311,
                -0.23112256231542597,
                -0.06444656793432299,
                0.16131583081532938,
                -0.09102891882804484,
                0.18214319867190032,
                0.3535311521217218,
                0.06679849924296456,
                0.06825767229089229,
                -0.20735467551540673,
                -0.05746345494258939,
                0.07404099257348645,
                0.2852761085861134,
                0.32853741737105635,
                0.06460608165653658,
                -0.02427941216967715,
                -0.05534017523345334,
                -0.08529888178887772,
                -0.20951344726082494,
                0.013614580780068632,
                0.0014152788587588909,
                0.01989968806085316,
                0.22826013918555021,
                0.10487848211528156,
                -0.1450446566481203,
                -0.20033571584627904,
                -0.35812355247844785,
                -0.3115611243638363,
                0.06453935765895653,
                0.03444856339653097,
                0.014254910934270736,
                -0.06403643531358118,
                0.573025522618344,
                -0.12375074387787595,
                0.0094735888891871,
                -0.04419364641094455,
                0.15910756542112017,
                0.020573865491144313,
                0.164161153327455,
                -0.29579923460542834,
                0.026803925487427584,
                -0.08995541344781952,
                -0.10952437767028313,
                0.1103604501156801,
                -0.07118044115239083,
                0.09446221074424686,
                0.16230474601395262,
                -0.026806421786746373,
                0.19085706105849953,
                0.04141768011370795,
                -0.006619100600869715,
                0.0580439186241868,
                0.6075856788117561,
                -0.13533585177915555,
                0.07137446184727428,
                0.20430337983358457
            ],
            [
                0.19784358876318445,
                0.14296330943878202,
                -0.0048147318482596735,
                -0.09397975975329981,
                0.17001010736778274,
                -0.0933518826758182,
                -0.1100004600644935,
                -0.10092764004731891,
                0.10594937829795208,
                -0.08384001026601816,
                0.20753801823574494,
                0.12675671545730954,
                0.32309114703844544,
                -0.31184378233916177,
                0.21482214673632388,
                -0.11025850272180024,
                -0.0736242239814502,
                0.21428834469081878,
                -0.11732288862457321,
                0.10050673444173766,
                0.03869580117454826,
                0.04241333141901078,
                0.1432144599211416,
                -0.02512602702016188,
                -0.310692076672516,
                -0.03271331265254798,
                -0.09821380585228051,
                0.24267006237143826,
                -0.0697810353388172,
                -0.013511392369798852,
                -0.08018924687188941,
                0.5024048130829607,
                -0.04157625929028538,
                -0.10368851855969939,
                0.21761488548298658,
                -0.08531381587978484,
                -0.25258943699217223,
                -0.14511351507244852,
                -0.28090419813704176,
                -0.21340721228427528,
                -0.18598428251838348,
                0.08714608664299765,
                -0.10106805086878229,
                0.07550172685242709,
                -0.09998335386388212,
                0.05946402909725002,
                -0.0922735860385765,
                0.26500767715708823,
                0.08044219174649801,
                0.08556218437948358,
                -0.1622879789779193,
                0.32907031769768563,
                0.18982103740206233,
                -0.11192486742121988,
                0.272981795890899,
                -0.0780769289001945,
                0.06144284965222539,
                0.16433538418888224,
                -0.0010422563367573248,
                0.022513826879379847,
                0.17088043039124237,
                -0.14624272479021536,
                0.0339072473302658,
                0.10584309075225935
            ],
            [
                0.06482394063178197,
                -0.014529987426905302,
                -0.06640724252010473,
                0.2152215445176645,
                0.0806491549077432,
                -0.17876404812846966,
                0.1443066651852829,
                0.20064501386263828,
                0.0341733049382609,
                -0.2813849151801264,
                -0.36744943127914936,
                0.19356102776346845,
                0.16386786785898036,
                -0.04835840906309403,
                0.11316706733157658,
                0.0914258360363156,
                -0.10046750634507123,
                -0.12818069345381095,
                -0.2686399949737122,
                0.1914165142218128,
                -0.21991816284554733,
                0.16991431246444955,
                0.3805033637761039,
                0.011090274494630636,
                -0.01974329187319881,
                -0.2947495716086416,
                0.03556339772393773,
                0.21677130493649527,
                -0.0649661563556475,
                -0.14399872293489727,
                -0.21983189142520043,
                0.09916323299856546,
                0.19011302880933054,
                -0.027539137394863848,
                -0.3674904705924743,
                -0.0034905972210467905,
                -0.2516874310118812,
                0.06759108216861374,
                0.028496321046077824,
                -0.04028129574719662,
                0.27363895040286623,
                -0.31141537234196515,
                -0.13232580660765905,
                -0.08259813407952887,
                0.14024056976082455,
                -0.07453185122337788,
                0.23677776267078085,
                -0.23147248526409347,
                0.10016694538001857,
                -0.2754835674023589,
                -0.22650798162779717,
                -0.2956140386057634,
                0.010420756450416818,
                0.09318794032186709,
                0.01925918834173493,
                -0.0875071568592731,
                0.38700254810635154,
                -0.06550065433812195,
                0.14550736528542083,
                -0.4226620744832891,
                0.05822382573089741,
                0.38521733393774316,
                -0.3077034445802069,
                0.03272607891824914
            ],
            [
                0.05283705773734313,
                -0.027777878583021547,
                -0.06413163900278801,
                -0.012761075851744571,
                0.1269140377637904,
                0.14684499840420573,
                -0.0036292166128687165,
                -0.12283448990551459,
                -0.16342343253163472,
                0.3686609466072163,
                0.08354625464375066,
                0.07666488515495497,
                -0.11517381201305585,
                -0.03127765476647457,
                0.16791961312720552,
                -0.17678137633292165,
                -0.07398341126640393,
                -0.06082650731204795,
                -0.1744742265219425,
                0.07745782387923549,
                0.11919675094058692,
                0.04901158118364345,
                -0.2061090283977911,
                -0.1087641733299784,
                -0.1804415963723036,
                -0.7026922004517732,
                0.13270450171432194,
                0.13342942010312323,
                0.06615868445185545,
                -0.3220279410144594,
                0.267770880369776,
                0.15698601624761155,
                0.2212380427918844,
                0.03594365546045098,
                -0.29315689002763173,
                0.20266169102624618,
                -0.22806635856106083,
                -0.29094830704639946,
                -0.05986643709656158,
                0.1895022616321617,
                -0.1283185461444234,
                -0.12830332720764512,
                -0.261601526741295,
                -0.08468607461109215,
                -0.019809540017196453,
                -0.31169289248337156,
                0.29834314667034983,
                0.29989628950752567,
                -0.027424903058972574,
                -0.19468832532709487,
                -0.30966457764412014,
                0.13554253146886683,
                0.0013601168213849828,
                -0.1357415121913374,
                -0.2348873716325157,
                -0.26271668851533625,
                0.1479594633332427,
                0.2690475669131641,
                0.22061537662295544,
                -0.12605311649783887,
                0.19418326481484885,
                -0.01661563623157675,
                0.34953500922094966,
                -0.2495724368099233
            ],
            [
                0.11906743404779914,
                0.2369613058559225,
                0.11174767182295504,
                0.046541486235083064,
                0.019510147807628723,
                -0.4191275917560746,
                0.055909451472673635,
                -0.06397439203438851,
                0.01773149359738733,
                0.10372141785311277,
                -0.13413587881864852,
                0.12469092482406997,
                -0.026474548173937455,
                0.42110493703984764,
                0.3747583585997546,
                0.17529345647473174,
                0.17847913703951993,
                0.3620720774517277,
                -0.07290698395732052,
                0.04211893019307526,
                0.18478646560591797,
                0.03427061083411466,
                0.10423589002754015,
                0.121053213338891,
                -0.27228900985502613,
                0.05972393299104374,
                -0.06623241869041854,
                -0.029878722049594606,
                -0.33887555327629826,
                -0.3226200544558234,
                0.4245839158661868,
                -0.044452388725684536,
                0.036280605973855753,
                0.024385821521183775,
                0.3479304873039358,
                -0.2692858828771256,
                0.16075009592675227,
                -0.00383765771581815,
                -0.2920317105794204,
                0.17231610852611395,
                0.4397218143943183,
                -0.20950804378817722,
                0.09790129021454345,
                -0.1896093212751324,
                0.12669743416465035,
                -0.07128329645095513,
                -0.00677185363467177,
                0.39742642528398353,
                -0.1281531290039399,
                0.035693718824854774,
                0.04292570190929534,
                0.020852155115258696,
                0.5377191511457173,
                -0.03928461289219059,
                -0.2935539968455651,
                0.3282147440274923,
                0.2373942362068343,
                0.03896610183601116,
                -0.1782618513172985,
                0.008203214346663183,
                -0.0009335052047858952,
                -0.0372797673734014,
                -0.2460516229246903,
                0.31042599135912935
            ],
            [
                0.4671924070350922,
                0.004795735184601354,
                0.21547925524658235,
                0.37085993865823785,
                -0.19770726579054476,
                -0.24030706461696658,
                -0.17968106071958947,
                -0.14512572236543347,
                -0.06191034447460959,
                0.0936661498487877,
                -0.13433449064172612,
                0.22972719571394817,
                0.04029035717249064,
                -0.041085775790879395,
                -0.09594923629317849,
                -0.20536646689135762,
                -0.04436284382682584,
                0.027398586096956102,
                0.1475983464285857,
                0.20320300558124768,
                0.42315667556142295,
                0.06721287792149551,
                -0.13227759907940512,
                0.15151422375334928,
                0.09924974049562574,
                -0.1566042594643916,
                0.4382581122843197,
                0.24212855659651075,
                -0.13183857885264774,
                -0.3609759678053104,
                0.2446536166585795,
                0.016391645059038666,
                0.0032599935354307593,
                0.15061079970126512,
                0.1338477489102343,
                0.18272704892689562,
                0.07070323615484478,
                -0.03036741632768537,
                0.14463784126869492,
                0.09199370646225716,
                0.06658008319578369,
                -0.017144009366647586,
                0.06888155827728537,
                -0.16308668012998404,
                -0.11489773081726941,
                0.27525076707242363,
                -0.439974670868898,
                0.6307869412210826,
                -0.2515348592332542,
                -0.09031405060495296,
                -0.12916306185288942,
                -0.001985861564885724,
                0.8143307646963367,
                0.462043504106375,
                0.08321851495180704,
                -0.0045079155420043055,
                -0.3353915641605852,
                0.11871258552907724,
                -0.34952333403836094,
                -0.07877627629418284,
                -0.541289430674884,
                0.017341984422895137,
                0.10642880707680673,
                0.09712043366093932
            ],
            [
                0.10513338605352146,
                -0.2839939175861594,
                -0.20528839089839399,
                -0.014677709736536588,
                -0.10374934423389937,
                0.25298268457832007,
                -0.05151937887190413,
                -0.04768390602034079,
                -0.3008500414798991,
                0.08513976384811585,
                -0.013738706553196426,
                0.028348291476762728,
                -0.22997265690743196,
                -0.06921506728665726,
                -0.05978313083656575,
                0.11645867396143429,
                -0.0763790299090915,
                0.04880867128303489,
                -0.13645101498171264,
                -0.09504539443305508,
                -0.39780862314728305,
                0.13808487595428143,
                0.11281672361127221,
                0.25879347757923227,
                0.22386836009511987,
                0.3097008912598292,
                -0.27696640176694265,
                -0.04920727539345461,
                -0.07969659951862956,
                -0.2603647425717899,
                0.12119103652611868,
                0.0252590993197424,
                -0.04156419423804013,
                0.4305617632854909,
                0.010909039819364067,
                -0.35277395510376935,
                0.16453410650750772,
                -0.16358112022000074,
                -0.022774612846405556,
                0.19246125879776912,
                -0.24268894304127792,
                -0.20401303364442167,
                -0.2397880021941819,
                0.19632601277908773,
                0.031543827853959046,
                0.13167405128635273,
                0.04672150965746819,
                -0.1579244517373103,
                0.038961127416071495,
                -0.1843281425497685,
                0.2779071489182158,
                -0.09283678689466957,
                -0.04313199029966586,
                -0.27353988612413904,
                -0.16157389495926472,
                0.056748578614663495,
                0.17676881599600036,
                0.32666976692810473,
                0.01632659166647899,
                -0.05453742692475393,
                -0.13759736769001515,
                0.2579469020352041,
                -0.03656575991951617,
                0.09251716501442851
            ],
            [
                0.10200590710894851,
                0.1989374550351384,
                0.004879776048790057,
                -0.001257598110957325,
                0.0610286009626167,
                0.10831207701917817,
                -0.11258306969120527,
                -0.20631128928413273,
                -0.06558055580923339,
                0.28713801789961946,
                -0.20731807540396024,
                0.2943020796774053,
                -0.04221257981349078,
                -0.05137621364872261,
                -0.2422663084869606,
                0.2788463638282553,
                0.1243186805234927,
                -0.07759474440608044,
                -0.3553282972045858,
                0.030988094625184575,
                -0.1870887219521228,
                0.07783094971401501,
                -0.14604485653230959,
                -0.2528688144874578,
                -0.152451377623802,
                -0.17125951578011475,
                -0.1984556933694605,
                0.21374373240096897,
                -0.09670737193747832,
                -0.29069779814968294,
                -0.21926014270637437,
                -0.3317815031099666,
                0.0210805252394155,
                -0.028319561111773302,
                0.08886539529611225,
                0.15790856936316353,
                -0.2130935919931869,
                0.20631881559582943,
                0.10285276347853281,
                -0.11132951148374272,
                0.23958093457473637,
                -0.02191062765995069,
                -0.18254781873229833,
                0.3554334526471415,
                -0.07319598146658521,
                0.3125049455690411,
                -0.1989402277385068,
                -0.06525840264688745,
                0.07073855234080172,
                -0.1467037342314107,
                0.2460206236662101,
                0.1384399588614065,
                -0.037209771325828284,
                0.34767119385350137,
                -0.05031467301959111,
                0.11093090449743497,
                0.32745491129415294,
                0.13999537336413356,
                -0.16425159027881464,
                -0.2881103551246749,
                0.0575135472350794,
                0.15453630557196865,
                -0.08700483029749195,
                0.12218832948279272
            ],
            [
                0.24049190615744556,
                0.07161659278778952,
                0.04950860837791227,
                -0.035865980050828944,
                -0.0069414024991712436,
                -0.30581070223472195,
                -0.13048664857180556,
                -0.02753995806093304,
                -0.12238562599468474,
                -0.07066043567611995,
                -0.0043115536687170185,
                0.5098330994946221,
                0.17489806032337146,
                -0.03592784270915573,
                0.09530782839150226,
                0.03290826333841584,
                -0.057265152148221074,
                -0.15173348187972935,
                0.17569826012419376,
                -0.03586091898115145,
                -0.07805023688622822,
                0.0059587122517767935,
                -0.07386948521911163,
                0.0960747174555259,
                0.06311695989464092,
                0.07951296147796291,
                0.2657931507930658,
                0.13437927506914346,
                -0.20899413466660863,
                -0.11780341463688439,
                -0.032411872350230186,
                0.002856189022974461,
                -0.04734830159135055,
                -0.2819444987386936,
                -0.09563122639957705,
                -0.1240918616285425,
                -0.3191719371470081,
                -0.14107170169102778,
                0.05757501266531325,
                -0.15307952954641527,
                0.0015591871450982737,
                0.03610864146758491,
                0.15013057906045102,
                0.2528054871901417,
                0.2430801568146793,
                -0.08672870006748125,
                0.10903123996176774,
                -0.038951948468893084,
                -0.13270264641311025,
                0.07671459574741776,
                -0.08941082545778974,
                -0.17294649552954944,
                0.5278692546196636,
                0.3540295950443129,
                -0.22684830878152662,
                0.48300932191204704,
                -0.1265182281074181,
                0.02731950022483505,
                0.011984731273856422,
                0.2852103560217925,
                -0.2858432476802039,
                -0.05025547059802912,
                -0.12682961597253775,
                0.34735272879290985
            ],
            [
                0.20251206396619492,
                -0.11450231945216599,
                0.5012101404782502,
                -0.004781401706260548,
                0.11785659160432486,
                -0.08241547816794241,
                0.030410894326747182,
                0.24259736581804284,
                0.18444557098131956,
                0.22763080200961056,
                -0.0906862192026255,
                -0.1580614672017458,
                0.02705777548966071,
                0.09387383401026565,
                -0.18749593006567786,
                -0.089840474577755,
                -0.284033161407706,
                -0.06111109953930922,
                -0.022042646068098422,
                0.6326433787844166,
                0.15027327540843294,
                0.20895014133420042,
                0.3120270367079652,
                0.15405729498224313,
                0.2563384524428825,
                -0.10991447441220384,
                0.09533879443499857,
                -0.027383332326551307,
                0.2820959848151073,
                0.04129318743695504,
                0.4218184753923832,
                0.4298141585607771,
                -0.125352109745294,
                -0.3643718615752961,
                -0.3418780214570398,
                -0.051467625700082786,
                -0.14140746850705257,
                0.11139710061551132,
                -0.0016933551836847604,
                -0.3859893169414931,
                0.20444492862868932,
                0.3529742225110112,
                -0.03737848460498974,
                0.18115332092482253,
                -0.23615921822048702,
                -0.08639479722726125,
                0.27935027171656235,
                -0.42458501861892717,
                0.09654304598810681,
                -0.22994083905270893,
                0.3436040195654105,
                0.01864803484283927,
                -0.06587305421204855,
                0.042371098957757314,
                -0.30175944139640076,
                0.2711237272918887,
                0.2895921992544617,
                -0.2157577061059898,
                0.004145074357996077,
                -0.03340607196575496,
                -0.06323287685298663,
                -0.16691493601193771,
                -0.41182613477876023,
                0.0044117552859524725
            ],
            [
                -0.1984387074897609,
                0.08857874928760483,
                -0.1252137651995671,
                0.0014291786590538249,
                -7.831998100807998e-05,
                -0.11851389434781258,
                -0.028344957575310258,
                -0.24856028185011841,
                -0.029117635416038117,
                -0.05827635331590953,
                0.2880846731655667,
                -0.2978194764051418,
                0.12224212872184202,
                0.47860128069368457,
                -0.2653368139392581,
                -0.07616725363451354,
                -0.09556056176335888,
                0.3909589859326289,
                -0.37981444387020147,
                -0.5823023324585473,
                -0.4870565020693421,
                0.370080328787099,
                -0.0907435008829501,
                0.2519405866975099,
                0.20503561929271252,
                -0.10875169816895854,
                -0.3468622899160908,
                -0.3000512583481125,
                -0.07671340463947131,
                0.08509182559040439,
                -0.301937381103301,
                -0.12843865191689652,
                0.2500432997880203,
                -0.1654034997398814,
                0.034607943284316364,
                0.06003746529723952,
                0.13962230802804304,
                0.0020950707030912073,
                -0.1516612073346605,
                0.6546522447348628,
                0.2700301908481791,
                -0.2722492129363337,
                0.3385344753782498,
                -0.3216474669736164,
                0.20637791970066344,
                -0.3916997303574315,
                0.3756766186754737,
                -0.1432840225119213,
                0.01052681641397359,
                -0.30076580438808215,
                0.27380710979199857,
                -0.1541306652819429,
                0.10615939535203876,
                0.028853907751822064,
                0.24431267058596112,
                -0.17104501010817114,
                -0.09872395629744153,
                0.09573100166047656,
                -0.16892372757630486,
                -0.06944344556452914,
                0.2598555557241767,
                0.06214198657215603,
                -0.06421958363013894,
                0.07650462143870174
            ],
            [
                0.023721320392271435,
                -0.006701577658640984,
                0.05822364410731347,
                0.14201647693909852,
                -0.06595663536287469,
                -0.41426001778837923,
                0.045964807334603994,
                -0.01626938447446241,
                -0.32579797777593544,
                0.026425294759698265,
                0.05646905472591063,
                0.20328464457390016,
                0.402287706900239,
                -0.05579136683443074,
                0.2284194020368879,
                -0.3392847829064297,
                -0.40792445724500703,
                0.14862248947048992,
                -0.1501024405887108,
                0.09064352396976952,
                -0.29440436038566886,
                -0.024622765768590224,
                -0.011967121788896291,
                -0.12614031026971181,
                0.11996652558700796,
                0.10157351475422834,
                -0.016953805896061436,
                -0.004393334841697538,
                -0.12367442567458745,
                0.0645188141075649,
                0.20660564312885832,
                -0.5044705263006427,
                -0.15559187352931805,
                0.22893458769797007,
                0.25487286558385486,
                -0.19691103241829488,
                -0.021802954865775683,
                -0.1956586710799418,
                0.22565195870715568,
                0.08434176584453612,
                -0.2619899939604331,
                -0.01720351091004019,
                0.3123842481598399,
                0.07721658000288491,
                -0.09221300341358982,
                -0.2763618793509896,
                -0.15345834497597932,
                0.30625638505888,
                0.041124726024872306,
                -0.15876944317797057,
                0.05601682772103158,
                0.19603142706397125,
                0.1642385831840843,
                0.3666781045554055,
                -0.18078360830196305,
                -0.014655632674981293,
                -0.15178965051909488,
                0.29130334420641363,
                0.08341515411573934,
                0.4535558310845471,
                -0.38096504913750034,
                -0.1941201992653102,
                -0.13353646835789296,
                0.18428461533157992
            ],
            [
                -0.006115542994404867,
                0.15053778259575992,
                0.047813691374462015,
                0.07307567438494426,
                -0.11720530813210008,
                -0.010162343294813294,
                -0.0240131539592339,
                0.03612448458204388,
                0.41088098713754395,
                0.10356350186458776,
                0.08174211204027784,
                -0.1346391082046276,
                -0.4397118139243971,
                -0.0713296520831298,
                0.04179921290257124,
                0.14436595521873116,
                0.5501225122839842,
                0.11503540150658305,
                0.13232665457932324,
                -0.4797642316435205,
                -0.33810143237174156,
                0.3360774974973174,
                -0.046279832791478036,
                -0.23044172898309856,
                -0.1761660935122716,
                -0.38685960336374253,
                0.39362482890495054,
                0.06464290388664909,
                -0.051897268135488506,
                -0.02151338042822363,
                0.045420290368694896,
                -0.0703965899697458,
                -0.29336676206460277,
                -0.1328635827561766,
                -0.002911335679836635,
                -0.2365554362996504,
                0.0031449346890110043,
                -0.12725902123762323,
                0.24956220967633044,
                0.20063087203357632,
                -0.1446766817805897,
                -0.1224989810845859,
                -0.11800509439865561,
                -0.19354855690904935,
                0.021444626090881037,
                0.28231384884899063,
                -0.35609773572417713,
                -0.03384691129695757,
                -0.163371487843699,
                -0.007825403133336413,
                -0.23029785640958877,
                0.005208783037387864,
                0.03793114157713758,
                0.06597399533853261,
                -0.2707794765775819,
                0.07109204016177666,
                -0.1637249640079256,
                0.039880098143948446,
                -0.004657671258385381,
                -0.045377933983879834,
                -0.11091181687174116,
                0.2508304393688197,
                0.04467151807771983,
                0.12333403206991966
            ],
            [
                -0.20410335101566943,
                -0.24857112366568,
                0.04532647200434514,
                0.21201362211238012,
                0.246481159948087,
                -0.058959244069077606,
                -0.23341006055878566,
                -0.38823572598226674,
                0.07892960863604095,
                0.277462436006522,
                -0.1935220103227803,
                -0.08914239102229995,
                -0.14118021596221314,
                0.21759218050716234,
                0.14266411289604278,
                -0.12749796689694665,
                0.08777395142650915,
                0.004599105316887019,
                0.18732931170319142,
                0.25435851978786866,
                -0.23497059164643389,
                0.23336911535737745,
                -0.13246564437052397,
                -0.004295747740997475,
                -0.0342676664354733,
                0.11293416684292824,
                0.27559104381398547,
                -0.030776018303745135,
                -0.0787801570444453,
                0.09594931376944407,
                -0.13837379914267983,
                0.05260142227651138,
                0.1570903785160532,
                0.13756544569465604,
                -0.012753922902382702,
                0.07597971804264858,
                0.041658525292918296,
                -0.25095978121904133,
                -0.15596976132888127,
                -0.08283556124209539,
                0.20940016829222521,
                -0.0082189285881019,
                -0.2526534417007793,
                0.2788016240431715,
                -0.14216849003604592,
                -0.1461539508357803,
                -0.04417849850644854,
                -0.1524715075399207,
                -0.22758118171414046,
                -0.030806369369619974,
                0.06477451301983501,
                -0.04326451286403037,
                -0.22294861310174743,
                0.4586510575374755,
                0.04758691054383227,
                -0.1304918150055934,
                -0.30432775495142367,
                -0.06856019481238702,
                0.30983883029687426,
                -0.1042022675915303,
                0.04285837643885206,
                -0.09838175539541559,
                0.11588953721477599,
                0.23849188229256485
            ],
            [
                0.1843593920195404,
                0.34956725902635877,
                -0.021772491629141254,
                -0.1394123451673685,
                0.00840240690389888,
                -0.1535484719408836,
                -0.02599700259503211,
                -0.04665603844233708,
                -0.012348182435756605,
                0.29331883586777074,
                0.2738758798034143,
                0.18478842063756507,
                -0.09802506284749138,
                0.3815039495646193,
                -0.17911462650949167,
                0.16724063517044957,
                0.06404181420601754,
                0.16278589268031385,
                -0.3264609298302378,
                0.12757495546120093,
                -0.23785829002047568,
                0.08619801047419708,
                -0.16471476782985917,
                -0.016070039202950765,
                0.1394414110591082,
                -0.1523552112729585,
                0.16059392604546188,
                -0.021680740339492088,
                -0.04302957454941616,
                0.29294266292781845,
                -0.18709583368548002,
                -0.10415841867035176,
                -0.1957679354532246,
                0.18105212768201193,
                -0.0823624302649891,
                -0.06115253450024099,
                -0.046387314678042614,
                -0.0575097942162467,
                0.06618601545229649,
                0.15562109082735212,
                0.11961748718727257,
                0.2214016484863068,
                -0.1928060596461084,
                -0.09829662840822224,
                -0.2883143185681766,
                0.11061569662279115,
                -0.22675045947645334,
                -0.0626125227806584,
                -0.030845565182622586,
                0.08351451981431642,
                -0.23888832737804963,
                0.032685713136656504,
                0.002437783980204273,
                0.2549273808508389,
                -0.4848189284855025,
                0.11785199136664545,
                -0.11698135961561829,
                -0.36892406745077533,
                0.011323478148232683,
                -0.21799051739726083,
                0.1487406532095473,
                0.018225898690560724,
                0.08908962065214003,
                0.14886970844672484
            ],
            [
                -0.026541774060506167,
                -0.474327528331545,
                0.34536870359024735,
                -0.04153951668393903,
                0.14252712397837122,
                0.16098364988360916,
                0.21626275742115167,
                0.08734959889831577,
                0.20949749144081334,
                -0.23797059301996273,
                -0.013696338180592614,
                0.2528627016052175,
                0.14601418708816305,
                0.07989402854623086,
                0.026152431961530487,
                -0.010037301354375519,
                -0.027847700932890837,
                -0.0925230879865219,
                -0.33459786782065615,
                0.3497296523128316,
                -0.0994727627149387,
                -0.029982126983863655,
                0.12383196345727276,
                0.22912426439090003,
                -0.11058459899064771,
                0.04063225648038063,
                0.07432653997066938,
                0.052016166609599214,
                0.08937132445531572,
                -0.15064090428745813,
                -0.06876362780076195,
                0.1534069276367246,
                -0.08415826411134006,
                -0.11493232187019888,
                -0.1817726522472531,
                -0.2161949037992156,
                0.17824315478551575,
                0.11716338264008312,
                0.23423567180118224,
                -0.4838864643614697,
                0.27406909734022017,
                0.07372144886015239,
                0.14950634970753326,
                0.04578905009417298,
                -0.14074935022618273,
                -0.1777773831907395,
                -0.20810129640178396,
                0.40431585665830627,
                -0.03114806999120137,
                -0.12387664344453132,
                -0.09566159453555229,
                0.04884968684938922,
                0.36547966315770486,
                0.15491450694485573,
                -0.06951451927527112,
                -0.44158947972540696,
                -0.08053598666700747,
                -0.46391108846918633,
                -0.2156683952319812,
                -0.0783764498937862,
                0.07178504247323653,
                -0.1875241386095494,
                0.11757431600363465,
                -0.18019922254301346
            ],
            [
                -0.0688242633151221,
                0.3766328259262432,
                -0.33221807980665713,
                -0.125495327091547,
                -0.558704026653783,
                0.24582747413625433,
                -0.06064658922132568,
                -0.08671259948844798,
                -0.17606713319118358,
                -0.5186556565003536,
                9.301579856239412e-05,
                0.1138113536920396,
                0.2504328805761351,
                -0.323306471625902,
                -0.14833411539625177,
                0.04632129850225239,
                0.34670392271454176,
                0.1823169924378156,
                -0.15454526821389492,
                -0.05141192364419631,
                0.1133109956313397,
                -0.18136292157674375,
                0.07017964855986762,
                0.22846607003688402,
                0.3355474620239589,
                0.23021833561061933,
                -0.020083619227687748,
                0.10660699072890066,
                -0.012168246906831425,
                0.0810491288186885,
                0.11634868249381314,
                -0.23417664182272308,
                0.10719553220949837,
                0.04542227695838741,
                0.10516841075516532,
                -0.35315769743813696,
                0.3436282743139472,
                -0.12691595142873893,
                0.057670472998380566,
                0.0884472012705527,
                -0.1286739829148409,
                -0.015723921901580347,
                -0.15574594360767305,
                0.12242811420614019,
                0.005691569700240709,
                0.17623810540256524,
                0.11682641365638886,
                0.2914074936457461,
                -0.032485838586730154,
                -0.05163316506637141,
                0.19682099392542438,
                0.30082104906022816,
                0.0050038199932922545,
                -0.3318461032427869,
                0.019560710578336384,
                0.2009925718350507,
                0.08762489081859254,
                0.03040315826656441,
                0.5542068178031765,
                -0.21615987154049024,
                -0.22606180397690526,
                0.14906894426689085,
                -0.01929980086281293,
                0.485970173666777
            ],
            [
                0.08719053667652653,
                -0.22125362604522888,
                -0.23300760114861097,
                -0.1260011099083976,
                -0.01641033588983712,
                0.8829094894720614,
                0.22263263094562913,
                0.014433023894913003,
                -0.04157475730699103,
                0.30202046152132994,
                -0.0025744805658579613,
                -0.1834512152070135,
                -0.014664552153290085,
                -0.07371226503213443,
                -0.1767281216448053,
                -0.02056726211244536,
                -0.0532559014726574,
                0.45188871372000194,
                -0.1258273653940239,
                -0.43432406720420513,
                -0.05995587938656904,
                0.03738966858771847,
                0.037442070320623785,
                0.1302224160289883,
                -0.013771012894324076,
                0.3004222051626658,
                -0.16534556584579638,
                -0.3182060882573492,
                0.13297554630379443,
                -0.11284009885392657,
                -0.5113180421543423,
                -0.017568561735746602,
                -0.20353101157213724,
                0.0664765999125425,
                -0.0571001442578919,
                0.19454101991936534,
                -0.21523396715522447,
                -0.1765907931511648,
                0.08855718606230435,
                0.11013959272640315,
                -0.08867124329075131,
                -0.15415545088938779,
                -0.25312052750585873,
                0.44206786646857765,
                0.20315888443995775,
                0.1829425980941794,
                0.045476706654652005,
                -0.028133506473811423,
                -0.18431995685380387,
                -0.14755924733581152,
                0.2260152215619097,
                -0.12119529591104217,
                -0.21078144422769404,
                0.14491029706477365,
                0.2622091040708428,
                0.06705241600448966,
                -0.16994618492913485,
                0.2290435842301562,
                -0.0810551247274199,
                -0.1934113690458979,
                0.1754631883573722,
                0.00844956935944881,
                -0.06338063468260452,
                0.2468098728083273
            ],
            [
                0.06638060598413201,
                0.1728370918535381,
                0.12768844355319703,
                -0.11841736242973129,
                0.10925471551321417,
                -0.39435932134574603,
                -0.167500857572701,
                -0.1010039437674682,
                0.0912074483803971,
                0.3429120607488358,
                0.166820559301253,
                -0.18854935265060443,
                0.31515700785990847,
                -0.20218763667110096,
                -0.038020154975179916,
                0.2275310047214743,
                0.12836210109059923,
                0.0852863447390725,
                0.05524901178336241,
                -0.3370985430960183,
                0.12399164613331722,
                0.05785161309654542,
                -0.19459104523273046,
                0.0572032852835761,
                0.4699672980612317,
                -0.34401427743375146,
                -0.04640408633869267,
                -0.34789725099040825,
                0.22333980528146258,
                0.01909459135318718,
                0.3459232762032654,
                0.3658998537174345,
                -0.20623718457965318,
                0.24806835756001663,
                0.3952377316701403,
                -0.10348257869928211,
                -0.15761082641533458,
                -0.395976597607702,
                0.1955803923588269,
                -0.07879246128268218,
                0.07064557365163864,
                0.018967018809244476,
                0.3879142700771158,
                -0.38011944957662624,
                -0.24682704461922791,
                -0.04720135426300275,
                0.09532488087665024,
                -0.03355972928275456,
                -0.31451198499152005,
                -0.29476279408494555,
                -0.13573531789741153,
                0.15707521703544924,
                0.35689590924651904,
                -0.1503775268377125,
                -0.2779900495785643,
                -0.12579260150794158,
                0.5234018650859324,
                -0.06614788406269882,
                -0.11733644402394967,
                0.13452505388057207,
                -0.5122436488709073,
                0.10565242996313538,
                -0.0007375850620774325,
                0.15498703656197657
            ],
            [
                -0.14829221143080343,
                0.2955460690166687,
                0.17945871216343517,
                0.022239436526645354,
                0.06681479979420168,
                -0.08750198966632469,
                -0.118717126899305,
                0.006539207741725403,
                -0.33712581798983665,
                0.18151434464944854,
                -0.09929527038993773,
                -0.11874806576737627,
                -0.5148718846051344,
                -0.3830678294661459,
                0.5321901625997513,
                -0.2564914591628439,
                -0.1729513735616601,
                0.2088721803336706,
                -0.21045601638281164,
                0.5510624736688461,
                0.7582737794281902,
                -0.2792547253486621,
                0.3026210622618613,
