{
    "architecture": {
        "input_dim": 8,
        "hidden_dim": 64,
        "output_dim": 6,
        "hidden_layers": 3,
        "dropout_rate": 0.0
    },
    "weights": [
        [
            [
                -0.2511720002805214,
                0.21918677555187535,
                -0.9962641440815375,
                0.41150571497132865,
                -0.0950332311086236,
                0.5035718267403095,
                -0.5014354802514694,
                1.0944689398365008,
                -0.4509409882475661,
                -0.9116423588904676,
                0.39796833010644367,
                0.042894630104476215,
                -0.44506322423369077,
                -0.711070530001096,
                -1.2208930650145058,
                1.6210737804625,
                -0.6360456048001537,
                0.5050330106027834,
                -0.8895867871534966,
                0.6848296765575935,
                -0.45983799697697203,
                -0.429361524496295,
                -0.21678484055426037,
                1.2754211712496166,
                -0.5387489817629232,
                0.3133235510965585,
                -1.3442719095353988,
                -0.2667852095670117,
                0.6380687723889934,
                -0.14758317917023422,
                -1.0047779635280503,
                -0.8252728497131409,
                0.08825001317995053,
                -0.3946254671352,
                -0.006569028099480563,
                -0.542247751169367,
                -0.9395385954298675,
                0.686840437776543,
                -0.21652556888576374,
                0.8256262482935581,
                -0.17500775089016907,
                0.47446175131516993,
                0.04152709766132289,
                0.8109705826511453,
                2.1638297287197545,
                -1.4509876139344842,
                -0.461916947546466,
                0.0008323137081998652,
                0.340293148754473,
                -0.1523512726957663,
                -1.858016759582161,
                1.938364785937697,
                -0.7315704077983876,
                0.3783071932171866,
                -0.07999753546402104,
                -0.5142254518380841,
                0.3625674314026392,
                -0.36971084138859905,
                0.1481156772114206,
                -0.6793377130972568,
                -2.066269204160827,
                -0.21669845195768758,
                1.2024143046809912,
                -0.7294677475514886
            ],
            [
                0.281772648124827,
                -0.14460290086264424,
                -0.24002162971911417,
                0.03890223081966583,
                -0.9374479934035925,
                -0.16673545730486874,
                -0.10465355277461144,
                1.109024700624503,
                -0.08327194071885673,
                -0.3569127568670466,
                -0.39143629504146976,
                -0.052236393417833885,
                0.0442383976733353,
                0.45007852113457547,
                0.811815235286531,
                -0.5081818461728357,
                0.5674800150377838,
                -1.2879974438903177,
                -0.3844195691675682,
                -0.753802961677558,
                -0.47519762961694956,
                -0.05465244134262996,
                0.546921235575876,
                -0.4864335368444786,
                -0.7529225854942949,
                -0.19513628822655976,
                0.721275388040838,
                0.5830111798356045,
                0.7141775903342839,
                -0.6149439055397212,
                -0.4858237587968791,
                -0.22807866833413895,
                -0.572525186688989,
                0.22832223803613338,
                -0.1134896814001072,
                -0.3571639480376694,
                -1.229369493129293,
                -0.6952309489482889,
                0.8472968375222534,
                0.9215369928196318,
                -0.23058508754428192,
                0.8348117338723595,
                0.21472184942862654,
                -0.1860928613949116,
                -0.020475233480600815,
                0.3988735070595887,
                -0.3132401886966388,
                -1.1209515845054616,
                0.564723479384572,
                -0.06660388747692766,
                1.502621268250089,
                1.0131970785964797,
                0.892710798229079,
                -1.1420886661486884,
                -0.7043057756106358,
                -0.13490695851256765,
                -0.9954857729338428,
                0.21949533368159785,
                -0.605823186445945,
                0.6131395158795943,
                -0.36079721607770593,
                -0.2887861254017278,
                0.23710445915374373,
                0.712557589857158
            ],
            [
                -0.04928061308341118,
                0.17127960881631665,
                1.0260160840668606,
                0.030696893997936507,
                -1.137915902890302,
                0.019215403883070824,
                -0.14122382269689082,
                -0.02922921888008313,
                0.3435898773251463,
                -0.33750864310707307,
                0.345427655876055,
                -0.2082815712506158,
                -0.04315959099918554,
                -0.555634739114581,
                -0.45396093144366206,
                1.3498459106614928,
                0.7021633765123667,
                0.4809493288787985,
                0.02005742881692479,
                1.107997182585437,
                0.11634301977800798,
                0.5984641851945413,
                -0.07500154422044882,
                0.4123330758942302,
                0.17809944298460242,
                -0.09513849285194961,
                -0.1939707367621505,
                0.16044624323736323,
                -0.5940118489328953,
                0.9097090690076236,
                0.1309700932413379,
                -1.2340530096290347,
                -0.8255869064630639,
                0.8169244381525569,
                0.5956343818768707,
                0.2102035919345729,
                -0.057036712168585746,
                0.7538800574498054,
                0.3039632112582469,
                -0.24464279571032835,
                -0.23698189076622656,
                0.15504269809140492,
                -0.24919181098009982,
                0.4419688600380341,
                -1.1314063888477797,
                0.6518270359865823,
                -0.44864268126465257,
                0.11676587504283027,
                -0.18881549948497559,
                -0.11780796647610872,
                -0.23131020384001436,
                0.7109496435081843,
                0.5051164836227604,
                0.13729878631355,
                0.3199905622187122,
                -0.24497731207763782,
                -0.24623364025067576,
                0.17985939645675655,
                -0.23983680811089517,
                1.1010586876810131,
                -0.06445109857333366,
                -0.24455898677641003,
                0.538289625355619,
                -0.503997972283307
            ],
            [
                -0.7455931073731317,
                1.2225069628176561,
                0.4240901858010784,
                0.3023832418726634,
                -0.6681211792156784,
                -0.3939590663414183,
                -0.3619867576989796,
                0.21478153945493272,
                0.05058482761293425,
                -0.4850938084767202,
                -0.1087741536622067,
                -1.1803539261348668,
                0.513772910945858,
                0.7005576637982284,
                -0.3127875737171279,
                0.72781210732807,
                0.5909515801422055,
                0.5625795540327037,
                -0.1860959506813654,
                -0.268463708019965,
                0.1703692152691857,
                0.46700244223943727,
                -0.30694585266569396,
                -0.6611494339035787,
                0.3319385197073055,
                0.3582869851863836,
                0.6914661870597492,
                0.6530041587261548,
                0.3405294413659142,
                -0.42132359522606655,
                0.13875237924521405,
                -0.024810988135866567,
                0.052491697933845526,
                0.015094379094291791,
                -0.37169102976284946,
                -1.1113639458068547,
                0.7849753138977623,
                -0.06958115516347946,
                -0.5463950226314951,
                0.8538943711721633,
                1.0009819462279885,
                -0.5640519304550016,
                -0.4321986655576638,
                0.22029211877762384,
                -0.3921341714297943,
                0.46124706311179264,
                0.005392721135522275,
                0.30472546655838123,
                0.2890066872664875,
                0.19627678119226094,
                -0.7268354998871434,
                1.2280163031605,
                -0.24138205336022178,
                0.7482819482025563,
                0.6750216971708344,
                0.026310844873895182,
                0.3771765007434176,
                -0.030049421267723843,
                0.4237087938953296,
                0.2725821260709001,
                0.8675430603972113,
                0.42506663529764654,
                0.13492109965877888,
                -0.08756889906866742
            ],
            [
                0.19856433243736005,
                -0.38034499472077216,
                0.659038314961997,
                0.11523846617381131,
                -0.3306917955734032,
                -0.4267500422151056,
                -0.35872103449469084,
                -0.3099675268105525,
                0.051635764333113385,
                -0.3003598932117739,
                -0.6151214607830737,
                0.3865101566104944,
                1.4931832423665805,
                0.7962511139205368,
                0.21649108410339146,
                0.03915341231680205,
                -0.06262282383089741,
                0.5610374119900324,
                -0.20099754183341062,
                0.1269608733166298,
                0.4543672831218205,
                0.046340027427149655,
                -0.38701903639302376,
                0.019637932280350743,
                0.09990524876804693,
                0.48441166340271175,
                -0.2667232444096561,
                -0.41710029002256255,
                0.32851439444412217,
                -0.08727257396232742,
                0.36812249723008017,
                0.22869006984755316,
                1.0485299157096568,
                0.39167953702494007,
                -0.824092658553201,
                -0.38581673485776624,
                -0.0031200598709773134,
                1.0597917551567992,
                0.773642744299749,
                0.33780446287931315,
                0.3033665991509766,
                -1.0281099028450342,
                0.9283509167841401,
                -0.5071183139678531,
                0.22597617458614094,
                -0.22183938373028358,
                0.4091546715513955,
                -0.5264292122409421,
                0.0009530136012040951,
                -0.2138165624689579,
                0.7293163306013519,
                0.2737890995142963,
                -1.087092098422497,
                -0.7726737051620172,
                -0.13501690877043274,
                -0.7119296973335152,
                0.24440914698213914,
                0.9828209962001934,
                -1.0249141852412438,
                -0.14078559646386532,
                -0.29451594018264143,
                -0.0908120938805699,
                0.27108780483091155,
                0.19218358154011647
            ],
            [
                0.3724726771338033,
                -0.18896520692765728,
                0.10765574032251295,
                0.06548254071756267,
                0.3154618928137276,
                -0.17088656403039573,
                0.3337222869043976,
                -1.0650957644770713,
                -0.5778837331234874,
                0.35031171608351214,
                0.09837082158199925,
                0.4130422017701204,
                -0.054477363677828246,
                -1.215341400486594,
                0.6726837941903453,
                0.1916754054299835,
                1.1055838165655956,
                -0.8049410272207903,
                -0.3655539111589652,
                0.48495899316008884,
                0.38820304414110707,
                -0.3103591412082968,
                -0.5406672073869114,
                1.5506178529369095,
                -0.3588266194195486,
                0.38659316595876625,
                0.1536135292823244,
                0.4383310916975874,
                1.2303500386236252,
                -0.46194935826328903,
                -0.10104816714590906,
                0.7674017573588798,
                0.028573260359141015,
                0.15386773226500491,
                -0.1590785000336015,
                -0.10090028274974093,
                0.4086572055336132,
                -0.1820832885791647,
                0.28651668189287893,
                0.6415286207341009,
                -0.3039032220039595,
                -1.0038503854045562,
                -1.134502013714265,
                -0.5770965399347141,
                0.5494541408966925,
                -0.7918052294520456,
                0.6313132877194954,
                -0.0560271335128454,
                -0.8682418926640404,
                -0.33228877804848256,
                -0.18946717937024965,
                0.6104552965390284,
                0.24144315636346908,
                -0.08163691216509165,
                0.6304910567856119,
                0.3001970758356749,
                0.055364302987470845,
                0.14962667859560258,
                0.07099573665617931,
                0.18173749747683746,
                1.0066588762806647,
                -0.11473602947250906,
                0.19775636511744218,
                0.7668821799649677
            ],
            [
                -0.0986872342586723,
                0.6349610896305332,
                0.005778395600141508,
                0.30694989415848034,
                -0.11768969055211463,
                -0.48380129553077555,
                0.9835753198464364,
                -0.7274857942391594,
                -0.06414737396147964,
                -0.6518939417191207,
                0.38045854048804983,
                0.7760993657984989,
                -0.34906668536852814,
                0.4196559813751311,
                0.9379100289592843,
                0.49310408415714785,
                -0.3280880798777568,
                0.19883885426015013,
                1.1391492803594694,
                1.067802143095914,
                -0.14623309678173974,
                0.47890601712108954,
                -0.7189384924937483,
                0.29009338906306836,
                -0.553537706694782,
                -0.5567022699095504,
                -0.555378355708765,
                0.3192877478457027,
                -0.5908052644326656,
                -0.6919576287250762,
                0.6980243074362802,
                0.37577651019592,
                -0.5011096137335048,
                -0.273676694814697,
                -0.14670956848190653,
                0.212428544194047,
                -0.13448748140666875,
                -0.5474997388140149,
                0.990237926761329,
                0.6737824747872253,
                -0.23294555940136952,
                -0.5464369364817089,
                -0.26720779520680604,
                0.32442543074221936,
                0.10392452033800417,
                -0.34753303585474754,
                -0.12116073824664263,
                0.30458200468635005,
                0.03766164441202723,
                -1.1376595689625584,
                0.6988176891999613,
                0.08011641102801972,
                0.532219565411616,
                0.07543790296209035,
                -0.9526711548011235,
                -1.1224199423170145,
                0.9136289389816845,
                -0.427705593370253,
                0.7944091691577296,
                1.058439040943473,
                0.03853678356244186,
                0.3944885840453943,
                -0.6576224015459955,
                -0.38509006279302593
            ],
            [
                -0.34462498198025604,
                0.6532243778395944,
                -0.16932879074203636,
                -0.4757061226489466,
                -0.36584781932555543,
                0.1929897249249016,
                -0.6035454540445986,
                0.8806537652028682,
                0.4843790062557744,
                0.1689935628679422,
                -0.14509613838555865,
                -0.2734674606995487,
                -0.7951784675224307,
                0.4646361372670611,
                -0.7640702100326916,
                0.6933137126942481,
                0.5705348717727103,
                0.1024268207348537,
                -0.38395252566973254,
                -0.19824081441759958,
                0.5807236945024058,
                0.5463860604054482,
                0.244893720227048,
                0.6633824588577282,
                0.3438132824924922,
                0.1427365484996073,
                0.3302800635263314,
                0.27409147841286985,
                -0.04309354536176426,
                -0.4526340852771747,
                0.19850655838314293,
                -0.4662929379841717,
                -0.5153315483993074,
                -0.46644419485002414,
                0.3352910351301065,
                -0.0358606379815752,
                0.24259206960616023,
                -0.31654685683263833,
                0.05120693842145681,
                -0.4633360448368447,
                0.4887589757769659,
                0.35242628344425764,
                0.9059170464630145,
                0.9375684408343415,
                -0.7629236123687675,
                0.3630379833115405,
                0.37240402782970033,
                0.30256316393393756,
                -0.11110654375073895,
                0.5603523602941942,
                0.29524072464364276,
                -0.07184620013622789,
                -0.5164017716500477,
                -0.21721637173745764,
                -0.12920891799069342,
                0.9593935550484767,
                1.4410215314519987,
                0.15948815891491105,
                0.5226858627291371,
                -0.22455007154370993,
                0.1090920357465961,
                0.4539126703451408,
                -0.05966599906782755,
                0.1591393993041374
            ]
        ],
        [
            [
                -0.12260157386554045,
                0.13269896241002946,
                0.00191438119433106,
                0.17376803917907316,
                0.10585260527481435,
                0.0798571740988382,
                -0.23274912665551165,
                0.4009426139401921,
                -0.18837473182154008,
                -0.2428356889490527,
                -0.16057626543886583,
                0.19635945117949594,
                0.03818126861010727,
                0.03068881904426112,
                0.010286629702046548,
                0.03878993994088819,
                0.2555724054194451,
                -0.11568605727542824,
                -0.10385266603219838,
                -0.09509736047267307,
                0.012819937109573333,
                0.14348763395187816,
                -0.12471100463799766,
                -0.2093086963888865,
                -0.09393377594729756,
                -0.0015527025423165916,
                0.05114952653420148,
                -0.0805379539388501,
                -0.14814676721840217,
                0.14412485815402823,
                -0.21737521957346853,
                -0.14863679838011462,
                -0.16988657916064573,
                0.13737034018428135,
                0.05752782638957269,
                0.06453328071581639,
                -0.07746513709796211,
                -0.39830426677817643,
                0.12824464640019131,
                0.05389294061763963,
                -0.014007502453252628,
                0.38980470918922,
                -0.10431375353377496,
                -0.22459499927900684,
                -0.005652528193458214,
                0.17505131669841853,
                -0.0041213730484745085,
                0.20100887740877468,
                -0.07430410763213542,
                -0.15036299645341028,
                -0.30324663205441277,
                0.2305922943952371,
                0.16129538247114175,
                -0.14260938820267774,
                -0.00029635557089566683,
                -0.13562370801460924,
                0.03407199584167178,
                0.09513740456875935,
                0.2044751358587344,
                -0.630652502122019,
                -0.14287074152292092,
                0.023376878690783278,
                -0.11843741785448783,
                0.1579643118598722
            ],
            [
                -0.210863299944367,
                0.054213766374802276,
                0.20286579594126614,
                0.25187071155318946,
                0.2602132101994917,
                -0.13105896585974003,
                0.09346605996470578,
                -0.04251259087241156,
                -0.3585927756131652,
                -0.05224395601486402,
                -0.19024651145555635,
                0.07308932585403828,
                0.30498006481817846,
                0.07854098299618964,
                0.014710609843173664,
                -0.0669519998795482,
                0.029492137587654975,
                -0.002244183738490882,
                0.09910611297512065,
                0.214783587284439,
                0.07625190072413696,
                -0.16062883851440052,
                0.007732942469342492,
                0.09714939469352325,
                0.1968236683822295,
                -0.21733187325375725,
                -0.1590356069102941,
                -0.14421329168066654,
                0.44746605034744225,
                -0.19789835570947498,
                -0.1953015438847117,
                -0.030570266927167227,
                0.04069511661486279,
                -0.19042732912289362,
                0.1850313091202147,
                0.07697046526612453,
                -0.08692941926765133,
                -0.09884921298302919,
                -0.0018551142398927783,
                0.13081772133788439,
                -0.021694729109094764,
                -0.1299677492064644,
                0.1559887090802072,
                0.07482048790225189,
                0.339119062625105,
                -0.11889232577018825,
                0.2126091802909757,
                -0.003707313185445543,
                0.09803774996125414,
                -0.14568474509058457,
                0.4420830478294347,
                0.2307950059382862,
                0.07148765542079036,
                -0.11733859245140701,
                -0.161121930671099,
                0.024728798083784365,
                -0.03128808300979098,
                0.18587240535198823,
                0.41289923109389565,
                -0.2858846349351394,
                0.08877858192144578,
                -0.007935185267573216,
                0.07580939969478402,
                0.11407903461861826
            ],
            [
                -0.11261838826411436,
                0.13805682594472984,
                -0.15825961250935064,
                -0.019753655811380225,
                0.13567835305413994,
                0.1784625741611716,
                0.26312898798476225,
                -0.08775810641657393,
                0.24186479285501672,
                -0.2733503730018138,
                0.1313771170374528,
                -0.17255010762545125,
                0.1754965682724407,
                -0.045930276459547496,
                0.29982683470564697,
                0.31947015075225554,
                -0.15444173806101535,
                0.29736647750227674,
                0.29259837844108777,
                -0.02955596746039149,
                0.09708447188599438,
                -0.18173838652022847,
                -0.16287780091361118,
                0.15134839278090467,
                0.045376788351815286,
                0.23333233317743743,
                0.28091494666618677,
                -0.22514599458402612,
                -0.22714436652891024,
                0.4402791047071256,
                -0.03978504971252946,
                0.0545449049082537,
                -0.04589420307428363,
                -0.011681117487848187,
                0.4228844688635475,
                0.06139949200523936,
                -0.176962959788551,
                0.1585876608831776,
                -0.45248049300540605,
                -0.2751828979724378,
                0.21472039705800156,
                -0.1998787580516659,
                -0.21029318916243203,
                -0.008279565109197647,
                0.1937618210219711,
                0.37280217583007413,
                -0.08225029488793069,
                0.007264456239012401,
                -8.441926854228938e-05,
                0.0684004444761389,
                0.25963699100976567,
                0.21849081046486896,
                -0.10877762249797994,
                0.20991631324575163,
                -0.25760718965049695,
                -0.34517629985216725,
                -0.12614573392646597,
                -0.07534780106149816,
                0.33002760565446,
                0.31641247008165385,
                0.22354191838818097,
                0.05286789529088945,
                -0.005122394408455174,
                0.14626163992622032
            ],
            [
                0.13874347385938268,
                -0.40589158405808085,
                -0.03928182783667256,
                0.21651607776218312,
                -0.15181270438265546,
                0.05275565184750815,
                -0.02762935465498533,
                -0.017573158459653404,
                -0.19875403949420187,
                0.08493016257350146,
                -0.2063200125219608,
                0.01627755832199491,
                -0.04003531914422854,
                0.08681249043090382,
                0.10152755547550651,
                -0.13615430110182108,
                -0.05360339025090547,
                -0.2269095920782438,
                0.021104201007480006,
                0.13572264840297243,
                0.28880738331034966,
                0.10449726226418696,
                -0.007901787797363237,
                0.02119115061919912,
                0.21414654200888183,
                -0.010459303459622687,
                0.03632096538438813,
                -0.35569113579610245,
                0.1460124362665507,
                -0.22559809528231672,
                0.1087314651376446,
                0.0446352735993266,
                -0.028176413406343737,
                -0.04232418537925765,
                -0.09349102056991009,
                0.04814893892807714,
                -0.05495669071781694,
                -0.049778576757397636,
                0.09676307489717047,
                0.17784072312252036,
                -0.06762450085985373,
                -0.2396593252891937,
                -0.10911076235558542,
                -0.309931310342397,
                0.212983328128543,
                0.22446070292918105,
                0.12455163708021372,
                -0.0718798904956299,
                0.24348598554506,
                0.28481690692720363,
                -0.07816594266264965,
                0.12344172381599125,
                -0.13051993653195687,
                -0.42093878783212285,
                0.2321903494047004,
                0.08392096374725291,
                0.0346841237244307,
                0.20026544120670725,
                0.03982453752680302,
                0.052565059333334344,
                -0.00817622469164311,
                0.1513664499665245,
                0.4709690672128161,
                0.07286217252238365
            ],
            [
                0.1714514596034187,
                -0.1625852346395989,
                -0.13982251490641787,
                0.10936338550283753,
                0.09995089303940632,
                -0.14585489448107786,
                -0.14869465074069255,
                -0.07483567929508503,
                0.16771517955959833,
                0.41503709044292614,
                0.12998173924038517,
                -0.039403912343549986,
                -0.04011585634538163,
                -0.13029658552838277,
                -0.07889274030350754,
                0.4976636194541041,
                -0.12266759745486507,
                -0.25908970413008553,
                0.3844152179693604,
                0.06879458567006098,
                0.12631673252260447,
                0.32050164919009183,
                0.1348831271253563,
                0.2679537892591212,
                0.04453536345843472,
                -0.3379132731136682,
                0.0832959567941553,
                -0.2578845686872322,
                0.2322636667277446,
                -0.2347706829784098,
                0.0641794132905401,
                0.11240722531275273,
                0.005469044603882696,
                0.11393753457100017,
                0.3943573859069626,
                0.07492883639861198,
                0.13963936269128385,
                -0.19955277972720448,
                0.31389903838649574,
                0.244601034714611,
                0.27595326046478064,
                0.06951146246501852,
                0.22061591425047522,
                -0.09947226821075769,
                -0.1706368711730674,
                -0.46485769760447765,
                0.05573714732746764,
                0.19595027129065326,
                0.02706893555906143,
                0.14452755792683242,
                -0.13472758767317713,
                -0.020055094897829244,
                -0.032903977023563555,
                0.08387469414460526,
                -0.20425801554052153,
                -0.0850846827316642,
                -0.16437921979788372,
                0.2598992830250316,
                -0.12775246958912495,
                0.04268127204919149,
                0.2544856356281987,
                -0.2846930335559522,
                -0.2659199509815783,
                0.37913912067666966
            ],
            [
                0.21937239653805665,
                0.14674323964937708,
                -0.004377621418252942,
                -0.2587043434239451,
                -0.04536770263424885,
                0.011782775628187336,
                -0.20321487136488292,
                0.1565053029141782,
                -0.10953825757871256,
                -0.10287943700116811,
                0.009539145798508291,
                0.0018771382920573197,
                0.19024215062582067,
                0.04245786213087521,
                0.006468522032435025,
                -0.15183353359583193,
                -0.0904052421500181,
                0.10555966391586065,
                0.1731032513091911,
                -0.10270417775399462,
                -0.073742609162164,
                -0.25047668482298746,
                -0.08956457958237575,
                -0.0991260967437892,
                -0.13873346268031977,
                -0.19745048860189138,
                -0.05637103784078705,
                -0.023639565322002485,
                0.12911776069037117,
                -0.39636469844896155,
                0.3722325210965952,
                -0.036634006630678055,
                -0.38927985505927426,
                -0.05110212411875874,
                0.2582713216608102,
                -0.03752939152477361,
                -0.16385132732387403,
                0.1949926220704047,
                0.19370041109768787,
                0.19020704205392341,
                -0.0257617409145024,
                0.1509242487099215,
                -0.15160841497553676,
                0.09278602881275914,
                0.2294759372260504,
                -0.06376810758198259,
                -0.2198178683146538,
                -0.09669389549340136,
                0.0769651381068528,
                0.07400400298902043,
                0.1150584126646349,
                0.17070702260320564,
                0.03370331306286035,
                -0.07687551187887733,
                -0.16592623769667167,
                -0.3782915732415997,
                0.13818512173021377,
                0.19823663026675412,
                -0.23533960238722293,
                -0.03860384982491005,
                0.2422184154640394,
                0.12407138763667476,
                0.04903728550276993,
                0.17674962691098717
            ],
            [
                -0.035890579473178155,
                0.21713582986371563,
                -0.1597288629954602,
                -0.020880802648737,
                0.6823905693166672,
                -0.014130350908943067,
                0.23922616536046595,
                0.13980449219441374,
                0.18122160458792533,
                -0.0869255962943975,
                0.04572453951657795,
                0.3676363196823009,
                -0.3905703121756954,
                -0.11019160268230985,
                0.04001501277922352,
                -0.2320899007469663,
                0.25941112367259106,
                -0.0672337127643446,
                -0.11947441536031495,
                -0.36325894435566247,
                -0.5805153926008773,
                -0.39547516553925915,
                0.2213873577100651,
                0.33568212472600123,
                0.08190064159980495,
                -0.09263651319032587,
                0.4141231079161514,
                0.13559191180202923,
                0.23591514514896803,
                0.1007961215879391,
                -0.2018582012352035,
                -0.2872782089355058,
                0.07150463051961012,
                -0.081835913508801,
                0.09728766118768407,
                -0.3469654251211125,
                -0.01083595815591341,
                -0.3029627695131629,
                0.17039388464575186,
                -0.11600685194299443,
                0.16267970944480967,
                -0.2382582208627437,
                0.11756399040765983,
                0.13755958331412832,
                0.07497100777147228,
                0.04430264416387006,
                -0.13646065459118423,
                0.13938902272403847,
                0.4036789869814896,
                -0.1881580845104578,
                -0.2746259093462474,
                -0.17596063466578912,
                -0.1777891867039344,
                -0.2508350885138885,
                -0.2043892664452396,
                -0.505846427345474,
                -0.15248864611810276,
                -0.20994384669871646,
                0.11354099087999824,
                -0.26842315291999047,
                0.06216383379619895,
                -0.06727435863617022,
                -0.010391972162915819,
                0.3123340189564388
            ],
            [
                -0.3313240108708021,
                0.2009050302565559,
                -0.2387375728443886,
                0.44232904770129783,
                -0.18090599627614082,
                0.6982571198794363,
                -0.05625037643442804,
                0.01614038997224215,
                0.11392450829812026,
                0.04101959353475649,
                0.5054300334239594,
                -0.317809754291664,
                0.0887414943135626,
                0.36262527850320636,
                -0.06520790738162989,
                -0.3243786012838006,
                -0.14563203293531707,
                -0.06364097900803853,
                0.053063179562067235,
                -0.16119034387409453,
                0.2589645054421178,
                -0.28567331398422197,
                0.16741239424663923,
                0.03930098289040509,
                0.01958299404051559,
                0.02878389691193093,
                -0.2880727433486768,
                -0.15925431372558876,
                -0.06852927926965337,
                -0.11117949305708018,
                0.10218150686135967,
                -0.014863000633763225,
                0.046117988430969155,
                -0.277313153001319,
                0.14646978322991794,
                0.1276855709180893,
                -0.38135904663652315,
                0.2820401729786418,
                -0.054342481685650666,
                0.1982540955860193,
                -0.05659553174520974,
                0.19079217337401785,
                0.12918601927489587,
                -0.1826803385830136,
                -0.08353297174533154,
                -0.030291661109760015,
                -0.6769556830949174,
                0.025982339589675454,
                -0.36869641590148977,
                0.2407329315781393,
                0.12460838807982444,
                -0.244015726955355,
                0.11264283891272393,
                0.45224849652311105,
                0.3216086377150374,
                -0.14093815772171342,
                -0.2762970465642056,
                -0.2587392637456704,
                0.2344973861445388,
                -0.07244441616930453,
                0.2219971645419283,
                0.21539875220575505,
                0.2458004630075112,
                -0.3072910775364258
            ],
            [
                -0.1052344268483097,
                -0.08711569297910594,
                0.17771261575443492,
                -0.022502003655102326,
                0.2440624701709319,
                0.026153477409541867,
                0.20422110154545853,
                0.18213956025014694,
                0.10507637818548744,
                0.09600679328963445,
                -0.0693179485410532,
                0.07327347518637545,
                -0.3032418566545999,
                -0.026477064073435055,
                -0.06350066545359391,
                -0.044341922527702096,
                -0.15420350818090553,
                0.2328036270208503,
                0.13152625401868268,
                -0.34773720895999266,
                0.12466267585899889,
                0.0856187214290438,
                0.07911990223214066,
                0.0012148240321992103,
                -0.22389161800552204,
                -0.08350689964922937,
                -0.2646152345162802,
                0.07981858100957183,
                -0.23545963823187507,
                -0.058721586212160476,
                -0.22984922947937722,
                0.11296171987864381,
                0.25526635564218647,
                -0.33080933420573216,
                0.26192824839361667,
                0.11104711216714984,
                -0.29357787124432005,
                0.40222395890524104,
                -0.0789461837171974,
                -0.004952218013347268,
                -0.2549859733160907,
                0.08623437526648436,
                -0.11032749546942704,
                -0.041504609064518624,
                -0.019553235103250244,
                0.24714985715873727,
                0.24901273486882097,
                -0.08687312908853939,
                -0.5056310315656762,
                0.11520914918968411,
                0.11183987453251011,
                0.14477672465573574,
                -0.227805111192383,
                0.33073447167727765,
                -0.10609987751262269,
                -0.03626841238955881,
                -0.046093363058209345,
                0.11377396044700466,
                -0.28381554791877794,
                -0.14562300214073554,
                0.10805980984680834,
                0.13594519240374434,
                -0.09816839585207542,
                -0.07773802228001575
            ],
            [
                -0.26246862227350587,
                -0.025293710965142817,
                0.0748033438434344,
                -0.15190815836553773,
                -0.128413815127972,
                -0.14383325079024906,
                -0.07546385777868839,
                0.23561641443173528,
                -0.10412814282081526,
                0.10189251475986272,
                0.060533985187111915,
                0.026290931696347324,
                0.04222494416608476,
                -0.15224959169200103,
                -0.23336203558082172,
                -0.1767019126343134,
                -0.052941373826444094,
                -0.023980927024995803,
                0.01141928041486069,
                -0.09267672980436525,
                -0.19374476660182896,
                -0.15126387167179914,
                -0.09772717111580811,
                0.3333968889658287,
                0.03522412921731682,
                -0.10479904218695207,
                -0.32522036086752726,
                0.18721723062719145,
                -0.09830563170761261,
                0.22031148087390817,
                -0.0574711002539259,
                -0.2966490675124915,
                0.0002903871665355813,
                -0.012971449246645294,
                -0.13755716495530215,
                0.16127585768121702,
                0.010675006722508667,
                0.3569849299458498,
                0.12598552988829212,
                -0.17530997818413352,
                0.00034490833409637155,
                0.300770798804161,
                -0.14397293893482294,
                0.022441799891080097,
                0.10767431533212457,
                -0.2933175808586387,
                0.18727307341540303,
                0.009628418203167306,
                0.21422673395559788,
                -0.09792150185761316,
                0.09334365420744044,
                0.2704558776304159,
                0.17899020328416027,
                -0.112738620102214,
                -0.19360045310186072,
                0.006961555296960179,
                0.10725722954914424,
                -0.14057590901179742,
                -0.33602509727570523,
                0.0277957948936676,
                0.0978100516349563,
                0.264161804455965,
                -0.060003376986791035,
                0.027402212260124795
            ],
            [
                -0.054219708875927294,
                -0.23644008657713692,
                0.4618004816739436,
                0.13416072637363047,
                0.0022369174721098136,
                -0.19317004887234268,
                0.033345943679060866,
                -0.19359886676169386,
                -0.05500612102183493,
                0.18687432774112153,
                0.08891088103430883,
                0.16717209846473713,
                -0.08219881265654051,
                0.05193145770817017,
                -0.13349354130734004,
                -0.04537388772460987,
                -0.11585979998746701,
                -0.1603496213134885,
                0.24424754135624815,
                -0.04865298548161919,
                -0.19170615465857427,
                0.24805327365635357,
                0.28928033935994796,
                0.14052121917068983,
                -0.14857220507188004,
                -0.07643905598122569,
                0.000785747594457962,
                0.18493084954485173,
                0.044301643841972146,
                -0.0321599882257823,
                0.4737857524529448,
                0.11937335198394046,
                0.40913593286578703,
                -0.32667275116333216,
                0.08633023664156679,
                -0.3588660353878654,
                0.16541990887654534,
                0.029932969587960663,
                0.02558255743427714,
                -0.19482833616180212,
                0.19659210422021306,
                0.0646843554254395,
                -0.07226115402537371,
                -0.0532263673536148,
                -0.0799305773708539,
                -0.15276940266090944,
                0.04974774476257924,
                0.05615018126384189,
                -0.02069461534494861,
                -0.11198159945497399,
                -0.01764779770237348,
                0.13033470086271548,
                0.055274055749557516,
                0.09875323648481169,
                0.17208540786219229,
                -0.1845244655419493,
                0.16242229617164397,
                0.2203321644493976,
                0.009092323430080792,
                -0.046260180056797814,
                -0.3604191055748098,
                -0.214699625961152,
                -0.026851897275821754,
                0.31775389299430057
            ],
            [
                0.26415636784963936,
                -0.05443659276588449,
                0.033815006665910044,
                0.1764030133451651,
                -0.012671430080750784,
                0.10991306944958669,
                -0.01735548920326981,
                -0.12634595593473183,
                0.16574747413964877,
                -0.1564035420657973,
                0.054481311603445354,
                0.3132104248861805,
                0.22719199195925252,
                0.20163394742391202,
                0.32884571730587503,
                0.06156246281849523,
                -0.07459209923396842,
                -0.16309535145623064,
                -0.050642933144341484,
                0.06506123660272226,
                0.34117235939572854,
                -0.070909086251262,
                -0.04591853278783343,
                0.17238966076935183,
                -0.2456932925276351,
                -0.1900363245988976,
                0.03876420002893157,
                0.021483722116184087,
                -0.12490101058958666,
                -0.38361472556323784,
                0.13647127646562,
                -0.00629076912058582,
                0.2124530116167029,
                0.3088056958370951,
                0.008422205739618245,
                0.08976877127084033,
                -0.17408446017090246,
                0.2612975674129057,
                0.16372964390910766,
                -0.24311164037433797,
                -0.071188577256433,
                0.06265270275173294,
                -0.012598896793013306,
                -0.12351319482162827,
                -0.047680836191020516,
                -0.22595847964956517,
                0.28356302379634507,
                0.26753958985154225,
                0.29538691197834266,
                -0.01044704892454415,
                -0.12198007038284833,
                -0.140336219387606,
                -0.05894295514855128,
                0.12410667487792261,
                -0.16883824096571787,
                0.10954709032538765,
                0.005709358539633389,
                0.22479919852947206,
                0.2555118087251335,
                -0.1971929052121332,
                0.09431705002348625,
                0.2180380862072246,
                -0.04579328115810927,
                0.09449977550035502
            ],
            [
                0.18180811411707076,
                -0.24215020641258606,
                -0.25258290688143226,
                0.2764587042813582,
                -0.20721740400307379,
                -0.15449602011178387,
                -0.23120357869244912,
                -0.09247074301531834,
                0.03892847792687331,
                -0.17751396316685655,
                0.2101539894639443,
                -0.14527830939802824,
                0.16347866758373875,
                0.22033224979848298,
                0.16888720304080565,
                0.11079005401218381,
                0.20766174101673018,
                -0.061786236280819785,
                0.06824049455811965,
                0.30446293574815253,
                0.19059606124905942,
                0.19834131526563356,
                -0.13983902016077773,
                -0.3237623502382391,
                0.028428943667892753,
                -0.2275435088642701,
                -0.14250360310718488,
                0.07111265922506145,
                0.09284475257937644,
                -0.22720215655819145,
                0.19825455357292165,
                0.2949978901401364,
                -0.18166790310882008,
                0.1910765784373974,
                0.2773629859545882,
                0.041052984960283465,
                0.19950914473887582,
                -0.13505692880705314,
                -0.1487670771053964,
                -0.27745355939514216,
                -0.000905233266233162,
                -0.141131368992708,
                0.036363376274435054,
                0.1282324058961681,
                0.26913047183257427,
                0.5264709987392784,
                -0.0441251469821906,
                -0.07786932271627968,
                0.2207795119836104,
                0.3485538724552706,
                -0.06901384563949263,
                -0.08962313970634743,
                0.05492167545802764,
                -0.10372933855260308,
                -0.2383669188688493,
                0.04151523171003015,
                -0.010989019121052372,
                0.13587571735151469,
                -0.12716866422281584,
                0.07113658018644076,
                -0.04610226720498335,
                -0.02462084310814609,
                -0.13192355748835147,
                -0.35797573202141686
            ],
            [
                0.01815025910891451,
                -0.13695309336015277,
                0.2824985635676043,
                0.03933570137764825,
                -0.43413169115764616,
                -0.031513479349325545,
                0.03417190745637776,
                -0.09997819090631178,
                -0.059363460501201525,
                -0.23158801647728586,
                0.22337944342692276,
                -0.10882128493608557,
                0.22858694658965856,
                -0.0019394932114085986,
                0.015111741936012345,
                -0.29672294510495345,
                0.056331287002749975,
                -0.05411412258622472,
                -0.12603685862252442,
                0.27768547656213893,
                0.13262502916325417,
                0.2482562525266925,
                -0.08815417990046855,
                0.19904301146123185,
                -0.06997673467362552,
                0.21599751737214984,
                0.10893489696424159,
                -0.030664329355752223,
                -0.22094205111492796,
                -0.06508503286338362,
                -0.3137918321136265,
                0.30191295265304924,
                0.018970423955369808,
                0.4310904623476139,
                -0.031000959237561895,
                0.24539132926609564,
                -0.1399495647620392,
                -0.09937785090364748,
                0.22375839350354407,
                -0.21162562267177482,
                -0.14186334191157762,
                -0.18732089744728933,
                -0.13641974444738028,
                0.25631047059549295,
                -0.31120572642707767,
                -0.05166523115132491,
                0.5691932901985807,
                0.04470934831100089,
                -0.025263267199835168,
                -0.11027635291603198,
                0.1395893977049827,
                -0.1117046922400812,
                0.007751537004781397,
                0.09611092892759171,
                -0.1499270661454205,
                0.0755813882166039,
                0.2056551728713031,
                -0.09597587581324905,
                -0.2355487301480484,
                0.07184319151360906,
                0.25093716703556573,
                0.11722896917430876,
                -0.06910525517004211,
                0.05837698754500227
            ],
            [
                -0.22289518975772635,
                0.01757178175069988,
                0.0596519792023563,
                0.12265801049582135,
                0.18917091116532284,
                -0.019188280899718926,
                0.22288624337162072,
                0.2633601300323266,
                -0.09812456862892675,
                -0.11579207600856767,
                0.23285721264467957,
                0.25968471295108725,
                0.3790880634939886,
                -0.1422949949762985,
                0.199465068565173,
                -0.07228091763138722,
                0.33267098331322276,
                0.05371403625466466,
                -0.29610298389835554,
                0.40556049705032066,
                0.1688831554293923,
                -0.18903939838347855,
                -0.07677533187246745,
                -0.06894204997666221,
                0.26584606800841487,
                -0.14590243678702142,
                0.28645609654513676,
                -0.33286275526002085,
                -0.033016265603500114,
                0.10571794525701109,
                0.029722197557490934,
                0.25701437622360296,
                0.33451387655508963,
                0.2680685349117897,
                -0.7227466994966213,
                -0.26694516913455224,
                -0.35073152922377065,
                -0.5676222005259727,
                0.43876138680541554,
                -0.22626340196084066,
                0.056048996527750784,
                -0.3135809555956794,
                0.34435309546910114,
                -0.37993145524660116,
                -0.055095629381198594,
                -0.21551737607738977,
                -0.19040116743837326,
                0.088878622013608,
                0.12965021049175082,
                -0.07020858526289968,
                0.10581454577485909,
                -0.09337652057517859,
                -0.03557149182465834,
                0.31658765472958933,
                0.060624175947027126,
                0.00012558548874935034,
                -0.003424722696312942,
                -0.21285358772301607,
                0.3970132066521486,
                0.0993872639853205,
                0.4969879266990113,
                -0.07784708632717682,
                -0.19805199064116277,
                -0.29351293084092117
            ],
            [
                0.23866247334682025,
                -0.25023841555615595,
                0.2611286905501087,
                -0.21048595985706794,
                0.32975400943049743,
                0.03978372703862903,
                0.03956798139629086,
                -0.017247432600380735,
                -0.03486908971587125,
                0.05757429761735615,
                -0.5309976045285814,
                -0.18340978491731455,
                0.1061216541728097,
                0.08234087954892766,
                -0.04789494324267392,
                -0.2083420968459439,
                -0.3641831902769762,
                -0.15580452671509673,
                0.37417940674398215,
                -0.3821241175611424,
                -0.42645001910931285,
                -0.2737023231796884,
                -0.08669344125798568,
                0.28770761266936096,
                -0.2929142321526194,
                0.12202977553255091,
                -0.1599726217486207,
                -0.09085105714427856,
                0.16393214572393897,
                0.1822105062981575,
                -0.08572532195128407,
                0.25132786484249914,
                0.2148093301116785,
                -0.24909394520046801,
                0.29452513540412706,
                0.2987572931742348,
                0.1175536718850915,
                0.4240904292783122,
                -0.06967018011544869,
                0.6674109367250514,
                -0.4139361753872472,
                0.40348671231582256,
                0.06606391633225768,
                -0.023303411862486894,
                -0.03391972881528737,
                0.13395107375799406,
                -0.03426104930070858,
                -0.20063126656973967,
                0.8133742252062482,
                0.25873700129662347,
                0.13205656125350201,
                -0.3576297058974657,
                0.31892761298334676,
                0.32147339041964645,
                0.21470440564225549,
                0.006777758231691823,
                -0.21976075223781158,
                -0.13137930233116152,
                0.3162202606545436,
                -0.0075256537655860635,
                -0.3638175144028036,
                0.042926840595481706,
                0.06651154183131214,
                0.3531141916025737
            ],
            [
                -0.029314014019757695,
                0.05315734819368478,
                -0.01997105148624468,
                -0.09394811141601679,
                0.1707354586299568,
                0.13930221689685626,
                0.048350551410618565,
                0.276328156675901,
                0.41423636440577954,
                -0.19715451232847617,
                0.1050031168754467,
                0.2142516806513,
                0.16729647215778737,
                -0.04760198396312683,
                0.21166999215843937,
                -0.10117579456250175,
                0.21741891104762326,
                0.24240910237825522,
                -0.07241103051251328,
                -0.006063884655448914,
                0.15254913348471283,
                0.11005771725034177,
                -0.1738585061457,
                -0.3489986567175172,
                -0.11121277527036856,
                0.014352696211948361,
                0.07145247102022918,
                -0.09554333926455759,
                -0.2648771494674679,
                0.4338648699483992,
                -0.4142700710948965,
                0.10871813565825017,
                0.18905263037892495,
                0.2659126585463964,
                -0.10827364121157129,
                0.17320429097443182,
                -0.13917341902105904,
                0.17742985277269346,
                0.32283428154042676,
                -0.3689248994524782,
                -0.06975056701436105,
                0.16238242215033957,
                -0.03520372636263405,
                0.09459051132342661,
                -0.35171487464217915,
                -0.01542407627441732,
                -0.037890464326146046,
                -0.11399837082718733,
                -0.27117434446038685,
                -0.06081068639627516,
                -0.3069820457950612,
                0.1977778712608454,
                0.028177749625459887,
                -0.06364093983852427,
                0.0015806020532186085,
                0.17075255438381112,
                0.21006903937123292,
                -0.0713985352162592,
                -0.06759138041862865,
                0.24369135119235497,
                0.13137382763312336,
                -0.011535339683812488,
                0.47475969220265213,
                -0.15847170885295825
            ],
            [
                0.10094262018743938,
                -0.1811496389582666,
                0.4572607046332879,
                -0.15615624418446997,
                0.2627672541095722,
                -0.29705215783322725,
                0.2159357264524858,
                0.07718983191407687,
                0.12883942740268692,
                0.03127031296062566,
                -0.25629660988924424,
                -0.03409675332929204,
                0.401299956077095,
                -0.20996499001431565,
                0.04188622003188324,
                0.1430393699576111,
                -0.28165407996811775,
                0.1697954410432495,
                -0.3318748909523339,
                -0.12105615908213603,
                -0.15715141690244924,
                0.21693348622219805,
                0.2757345662473655,
                0.22964477183439116,
                -0.19114913356031152,
                0.18624438037885668,
                0.13033392354702436,
                0.031627959331319434,
                0.3948589953568943,
                -0.0486671023482991,
                0.0322690839917584,
                -0.1412701399236783,
                -0.44631475667970955,
                -0.3237226496237835,
                -0.02718962120439268,
                -0.2607711933535312,
                -0.034807418756176184,
                0.019110079469704375,
                -0.2781087227420292,
                -0.1712531114920501,
                0.11993274977439,
                0.22383459645994175,
                0.33020519671163395,
                0.2167381033310479,
                -0.10003605844641579,
                -0.13823721820360835,
                -0.027833814778013513,
                -0.1525279860375378,
                -0.09142959065542387,
                -0.03666596068461296,
                0.11019909122731902,
                0.09473048329762712,
                -0.11861786964319831,
                -0.03564231999423013,
                0.041380398225606976,
                -0.03281123099555421,
                0.2936031008647797,
                0.36421252468753407,
                0.3078045812391693,
                0.025649029603470777,
                -0.3576506152859303,
                -0.07984365300155812,
                -0.14201014597606282,
                -0.2633083223293561
            ],
            [
                -0.12231786895408271,
                -0.10357801519770868,
                0.30194102609980805,
                0.0633501545642415,
                -0.03539686714890596,
                0.09288910148501417,
                0.41344645564826926,
                -0.1816475919814071,
                -0.27460131238276786,
                0.14544752089439797,
                -0.00567043050100582,
                0.06811692159186186,
                0.10015604338067424,
                0.05822917498076306,
                0.10363668385849975,
                0.11080870272684745,
                0.16114979832742335,
                0.1233499783511588,
                -0.13490047517134723,
                -0.11485782923435064,
                -0.22167470805935122,
                -0.11844283359741295,
                0.030699807944860966,
                0.2526535160158294,
                0.08131737330298713,
                -0.07532805395734618,
                0.5024048535604873,
                -0.0012133469366875395,
                -0.20220847823144972,
                -0.516046153597275,
                -0.17415261602132853,
                -0.2227995765959143,
                0.10554597245697413,
                0.1421619001700321,
                0.009135152460689477,
                0.10379109568186536,
                -0.4386921572899716,
                -0.42535466434869057,
                0.5077523577476515,
                0.056989700742651396,
                -0.027792947782016977,
                0.1592443161033978,
                -0.10164820638813866,
                -0.15061663115726967,
                -0.04951780215815365,
                -0.007354010792416584,
                -0.16251853536928929,
                -0.13862271794872538,
                -0.12731163483038,
                0.11049439497920663,
                -0.04483354760597395,
                -0.07126239505280695,
                0.06063522959793156,
                0.24843646542175812,
                -0.24924013015318958,
                -0.03200150531135254,
                -0.022300908224214273,
                -0.27573104750877614,
                -0.19171916538171743,
                -0.1263524993888739,
                0.11617608100968779,
                -0.22416852510479532,
                -0.09149785334070275,
                0.3124439442133386
            ],
            [
                0.22243324173836487,
                -0.27689934705358227,
                0.045281547189850134,
                -0.19013139223743905,
                0.3557568201749345,
                -0.11919021065178168,
                0.23544142180665445,
                -0.4216886848545302,
                0.05464419536438685,
                0.12814788416471673,
                -0.09686721131447974,
                0.07593396949068204,
                -0.06342314957528634,
                -0.10289547254024776,
                0.017007957568471833,
                -0.09779171737935274,
                0.2887996125777231,
                -0.15942688525269952,
                0.059450784241598456,
                -0.4598075678359811,
                0.2551522608741353,
                -0.1818291520595148,
                0.1275365510241613,
                0.2126696634347721,
                -0.012089620537587513,
                -0.047781759467449746,
                -0.12784079574687238,
                0.019326250735644434,
                0.14154975056293473,
                -0.08503062314616239,
                0.47700938276302685,
                0.031209385747303593,
                -0.20942571703866894,
                -0.03895028059664645,
                -0.18463440941316753,
                0.205371899828789,
                -0.16089939801043496,
                0.3252935702084586,
                -0.3492906028263017,
                -0.24350613554186806,
                0.08453178059301747,
                0.22929020835951736,
                -0.24657669635349969,
                0.16254771915133231,
                0.34197555935986373,
                -0.030686889380282485,
                0.13435536945634072,
                0.23969276081605329,
                0.3117929014870599,
                -0.17944417837037918,
                0.037837621738148135,
                -0.08681508020234671,
                0.36929905349878783,
                -0.1492501370496121,
                -0.07062638022878932,
                -0.07704275846636556,
                0.34259150800537225,
                0.14235358506879828,
                0.512046883689581,
                0.09257927416979451,
                -0.25749316308267217,
                0.23077175078575438,
                -0.3232012333334433,
                0.044003528171562285
            ],
            [
                -0.11207530803788435,
                0.20634254715499709,
                -0.13831982199139697,
                0.02571695464032884,
                0.04237483887078201,
                -0.1833912130693768,
                -0.05323890830675527,
                0.15362726336189558,
                0.18442956054506907,
                0.29806383825987703,
                0.36155784022865173,
                0.24432832945837152,
                0.3395078230733179,
                0.161337851702632,
                0.20341294456998021,
                0.0746176300182718,
                -0.13104193073756779,
                -0.10668491693022462,
                0.0027927783832276017,
                -0.2168347999817159,
                0.07009745577600676,
                0.0073532275969177986,
                0.1401972472438058,
                0.06009608012197909,
                0.17814706052373144,
                0.010535744266882537,
                0.16230162883576812,
                0.19746201099664315,
                -0.05665810449701896,
                0.11450246814895516,
                0.06620731937372608,
                -0.1501096320664009,
                -0.5773668283456187,
                -0.3594239499717322,
                0.0015856124147506422,
                -0.2087247750560746,
                0.3975607525217849,
                0.4355645840281597,
                0.20071052620745386,
                -0.007922762402991983,
                0.18474672152228802,
                0.12103299910286772,
                -0.05751955110953391,
                -0.16107322710984343,
                0.028330605370981025,
                -0.1956110106335396,
                -0.06926916522529339,
                -0.20706914144439523,
                0.23692721770191594,
                -0.047116840492100596,
                0.06492017373005152,
                -0.22573819781737728,
                -0.04784356974761044,
                0.22223850240821513,
                -0.3181048743488221,
                0.35068024418248095,
                -0.4410102226810737,
                0.0011353369211799336,
                0.342663533070916,
                -0.1542837470445136,
                -0.12107913488175781,
                -0.23140379341425188,
                -0.09051114386662813,
                0.45487515320382665
            ],
            [
                -0.2883766695235381,
                -0.09509066793942793,
                0.07098161796665214,
                -0.035854999675856876,
                0.12811359431255911,
                0.0412006198909606,
                0.2745396399793982,
                -0.0921600287955765,
                -0.3270427654656084,
                -0.03032588786746718,
                0.08745974107914826,
                0.18612958925343187,
                0.027107881635027725,
                -0.21615068069832913,
                0.16510220499393458,
                -0.07325115766346856,
                -0.19932564333836603,
                -0.1704723691196438,
                0.39409249736475277,
                -0.16365278289439536,
                0.2815102590484159,
                0.0986896975710443,
                -0.18581546438409852,
                0.014682957814951181,
                -0.029287624730010012,
                -0.06530241396757872,
                0.23784102792779038,
                -0.048574319309405124,
                -0.32018691954176076,
                0.024528594231952344,
                -0.501273620859235,
                -0.10261713774626181,
                -0.09899784222514448,
                -0.3040844886411316,
                -0.16322930915133965,
                -0.019408339815303294,
                -0.06104233185030202,
                -0.17855494008895814,
                -0.05539468787786654,
                0.3197993774868695,
                0.030033026909878944,
                -0.2456451753419217,
                -0.21929478240313832,
                0.05404596186010321,
                0.19167585046408106,
                0.13709426518172174,
                -0.03945518340186723,
                -0.3418124513068985,
                -0.1972316961307151,
                0.1559504342862779,
                -0.3432672921713544,
                -0.13065223411866642,
                -0.03644563637230477,
                0.38211903630290256,
                -0.05879308565945225,
                0.2096349075472456,
                0.37565775645854776,
                -0.08254475350241132,
                -0.13048171327122768,
                0.1873565522343154,
                -0.022976574212624685,
                0.33002732067628876,
                0.018251340211452607,
                0.15260653636925203
            ],
            [
                -0.28856350513883616,
                0.023294878323079794,
                -0.2850985272274952,
                0.06126440216070179,
                0.09515045920084796,
                0.04794004150712269,
                0.17057463331700212,
                0.13344497594257015,
                -0.18235634918587038,
                0.06920361346772232,
                0.33041407924342453,
                0.12748164907621706,
                0.18785490747133507,
                -0.023088016160937443,
                -0.052322582438855,
                -0.01722043776748137,
                -0.09049100411318195,
                0.046499306990901317,
                -0.00620226145838517,
                0.015605939669173612,
                -0.12738599646660026,
                0.30698623427912103,
                -0.049167756610164266,
                0.2879600444825817,
                -0.02179466240185793,
                0.047389423741225546,
                0.029060504127836742,
                -0.26617976948717104,
                0.15551567072271388,
                0.03869480663071772,
                -0.06372312525462473,
                -0.1132501010168093,
                -0.11740407641382847,
                -0.2196565580366631,
                0.16465715094757652,
                0.12840169913141097,
                -0.0547095008319618,
                0.3933783518234675,
                -0.12677647954076313,
                -0.22165405873745236,
                0.5022702263972466,
                0.2844554097331391,
                -0.23155471412090425,
                0.13828679295591878,
                0.10938216253430744,
                0.10524973984303954,
                -0.101659864324752,
                -0.10638589015790247,
                -0.13217460781569806,
                -0.0344001222948598,
                0.0025022112425859074,
                -0.0795078455755635,
                -0.2184989780293922,
                0.13102289413189508,
                -0.2737370762421869,
                -0.1743357827947429,
                0.06220651114607751,
                0.006457688591382419,
                -0.029543855270772183,
                0.13489635796021632,
                -0.05424087523443884,
                -0.030184943624983772,
                -0.3883397198927847,
                -0.017281802070460803
            ],
            [
                0.32480767786083586,
                -0.2513888175823537,
                0.3567177921288507,
                0.16656971030727652,
                0.21672806024109958,
                0.281682296474737,
                -0.12608818878647382,
                0.2258650148382555,
                0.005585821980945803,
                0.1614287209021163,
                -0.07368657254474494,
                0.008755362244861523,
                0.27815339351537594,
                0.40945936555954204,
                0.06165459931772583,
                -0.28576767780627027,
                0.6520783299850563,
                0.007146692670663036,
                -0.1313320766891339,
                -0.3541876106201357,
                0.11637010154710553,
                -0.2892427750770456,
                0.08016499611528796,
                -0.15451012229301592,
                0.06760558140089812,
                -0.014247246504418214,
                -0.37626255557223154,
                0.03700612864544662,
                0.3884634150460723,
                0.18845363416433364,
                0.04678432331259438,
                0.3129960119784251,
                0.22277160521600203,
                0.32861584593221926,
                0.06399528632524452,
                -0.1755674891206708,
                -0.023710214169228062,
                0.49113965467738013,
                -0.14464130400798575,
                -0.0995735664394017,
                -0.46207314640583,
                0.14059644882292874,
                -0.40797097430872376,
                -0.11471612638945217,
                0.39743097012398293,
                0.15565441420467646,
                0.7051085497237016,
                0.10723062394460668,
                0.1615650628235193,
                -0.198113157592904,
                0.04924972880761783,
                -0.32595161145285606,
                0.27315631103745885,
                0.031181839359655558,
                0.17413880315932417,
                -0.11006534524647657,
                -0.09340196995789304,
                0.24079306753604618,
                0.5339179521073174,
                -0.014053911710923668,
                -0.021937372047520505,
                -0.2551900701118547,
                0.15196333088014247,
                -0.170198359547602
            ],
            [
                -0.05609371047597802,
                0.15279236108530858,
                0.124401458155186,
                0.06255966679509159,
                0.1354364415890736,
                -6.078496105194106e-05,
                0.18922966907196714,
                0.49915133659150557,
                0.3402713679604251,
                0.16558539866215907,
                0.035512992587916854,
                -0.041454694465955476,
                -0.009538346825686076,
                -0.20622551097722175,
                0.01263609865279789,
                -0.02507294408588104,
                -0.2918360392578107,
                -0.10963513399453924,
                -0.3496460132709079,
                -0.14414411774432384,
                0.1623818719175285,
                -0.17590947291471673,
                0.03320049434777945,
                0.027852658691660887,
                0.029404217781856513,
                -0.16015931006212106,
                -0.3403729416653489,
                0.24281036567650166,
                -0.4113196217743008,
                -0.005907457973279655,
                0.13658034468371547,
                -0.05202621025925718,
                -0.001093554974118962,
                0.2899368197542556,
                -0.23857435059498414,
                -0.11041645178539601,
                0.0929255575075922,
                0.10403470234472388,
                -0.0914756642648254,
                0.072082192209962,
                0.2522592661155189,
                0.3937427632575528,
                0.13392605114201298,
                -0.325698735968907,
                0.10269478742352751,
                0.041918697165600864,
                0.04009226755272039,
                0.3507737424166286,
                -0.21250593095492332,
                0.12343512827285379,
                0.12858363295095246,
                0.21254236530678314,
                -0.33716863649678624,
                0.1712134680763243,
                -0.5772818639708835,
                -0.2195725370501882,
                -0.1481264475988452,
                -0.05252266165094498,
                0.25673668311248515,
                -0.1713663008964192,
                0.18783380321884657,
                0.2633946509730127,
                -0.4401586568797093,
                0.09833761933479492
            ],
            [
                0.19039030187799372,
                -0.06432383234183552,
                -0.1884304950812393,
                -0.32699021516870375,
                0.29509652215332227,
                0.0714106333628259,
                -0.18483495063541516,
                0.03355501108288895,
                -0.05144737954040589,
                0.15389359209897652,
                0.1425363217347695,
                -0.03717723844272961,
                -0.10776170006141488,
                0.2863250737057202,
                0.09430561877898164,
                -0.004634985054437572,
                0.13574105512763288,
                -0.06141317062982403,
                0.08554636659280057,
                -0.1391834454286406,
                0.36169843901521836,
                0.08501540934316473,
                0.2825447348932708,
                -0.19686482480807674,
                -0.24174279889036054,
                0.0836996621547171,
                0.575839677404437,
                -0.07821229509568599,
                -0.12671286780766874,
                -0.2343282060946226,
                0.3554590259332229,
                -0.011550120869179642,
                0.04708194782007479,
                0.08867733485235392,
                -0.24881011400630137,
                0.02896414334615611,
                -0.2606835475664206,
                -0.1329775775490875,
                -0.17479494740101972,
                0.0979789203409665,
                0.2135471762808101,
                0.13103944930855532,
                0.118772055497895,
                0.10305958383054807,
                -0.06248485574950294,
                0.12226271474304401,
                0.0783758290941071,
                0.03049732810537913,
                -0.03559118267668736,
                0.10888332350334728,
                -0.1489304831417863,
                -0.16495349495912087,
                -0.19648463748376097,
                -0.13340559822047277,
                -0.25433098399352966,
                -0.19136904482358347,
                0.27900713762852203,
                -0.14997750474898594,
                -0.07786079970372412,
                0.28247117107734765,
                0.2984614519838388,
                0.21474589059013477,
                0.0002038658509965018,
                0.12961367920475886
            ],
            [
                -0.2896859760001215,
                0.5446518335118291,
                0.005271201468332887,
                0.2517172993355329,
                -0.08156611557036535,
                -0.4683105945731254,
                -0.033290097524701086,
                0.18261808470678026,
                -0.13203964955045028,
                0.3293511806206721,
                -0.06779077382949834,
                -0.032006157410200214,
                -0.19383082690789774,
                0.0670477497014964,
                0.20631556761914255,
                -0.1492362687259188,
                0.0017265443881392013,
                0.19923494772949107,
                -0.11548165509351238,
                0.25030432434699457,
                -0.05798796434975326,
                0.2784133551892479,
                -0.04716809137382606,
                0.07003758902715422,
                -0.019653698939273545,
                -0.16617352654938558,
                -0.23309631082392607,
                -0.10284963987288717,
                -0.3120496985215172,
                0.12030656391563611,
                -0.3725355491624977,
                0.10512655017526948,
                0.14906712435325595,
                -0.043575463064913035,
                -0.33559169099275105,
                -0.014734051155653212,
                -0.23116506660257427,
                -0.10293875495695995,
                -0.11566644539525114,
                -0.23358536759420725,
                -0.017590656155588223,
                -0.10290982308915628,
                -0.0008144620053134047,
                -0.21326715610314076,
                0.21253701199461264,
                -0.44059988870176797,
                0.03512512270661802,
                0.6094999134097501,
                -0.044268781900527826,
                0.04048535884347796,
                -0.03710983816950714,
                0.3705254983079329,
                0.12589887503897737,
                0.01639965599233204,
                0.27293494710135535,
                0.1925159944279336,
                0.2715014898125109,
                0.2437341478327948,
                0.0924598334262859,
                0.48768101985069295,
                0.0350663400352133,
                0.0584190246046069,
                0.3753128588810741,
                0.2053764585208366
            ],
            [
                -0.07853440452530563,
                0.05532539901391491,
                0.09677639480955554,
                0.09359430034163321,
                0.0740156928533223,
                0.06329160485194991,
                0.35111534438487935,
                -0.06578500214000316,
                0.12090410255447868,
                0.14050653392976153,
                0.3021318043740333,
                0.15722612123131832,
                0.1912348312547554,
                0.13924718075816894,
                -0.01140275291778207,
                -0.29597390202585067,
                0.006485055254159512,
                -0.15613221628494311,
                -0.2682832846813322,
                0.2804208555509,
                -0.07549553894032769,
                0.1399253452261585,
                -0.286177530953328,
                0.09675718366667928,
                -0.2240305213103877,
                0.25734629238293905,
                -0.2839739740526076,
                -0.11143324330323844,
                -0.14384521379778684,
                0.14008290064788728,
                0.048672749711899235,
                -0.060851140709360166,
                -0.20037717800734722,
                0.16019754810970524,
                -0.21866207405703464,
                0.03472374268368245,
                -0.12609816701196236,
                -0.2617566022481622,
                -0.07960841677196241,
                -0.020773323369407827,
                -0.011862626593898626,
                -0.019546792322593314,
                0.21606797013316392,
                -0.024881789499426356,
                0.29353795902886115,
                0.08873423032775596,
                -0.17255993000917907,
                0.13392769722736392,
                0.015821436213022594,
                -0.15547934671827168,
                -0.021793378867514944,
                0.33899022012781976,
                -0.1944066809043859,
                0.15091109082999188,
                -0.12674147431395297,
                0.08857096944891535,
                -0.2959046439920266,
                0.30780231836604305,
                -0.20359153855142878,
                0.0316203676148294,
                0.040551568094892056,
                -0.14135604599554713,
                0.28384932433006443,
                -0.3275527175300886
            ],
            [
                0.25384336768842786,
                -0.1688867756214081,
                0.05219592910047506,
                -0.29469486343900786,
                0.27156439652735587,
                -0.22278030460708956,
                -0.43801704085548826,
                0.03667042452736892,
                0.1875849985612867,
                0.24463351381250695,
                -0.1611317588872048,
                0.19477728379962836,
                -0.25603912756960195,
                0.2844947769279567,
                0.12994724292169949,
                -0.011713102591527181,
                0.10388843690866682,
                0.14664721607141898,
                -0.1689629680025037,
                -0.012646289139950443,
                0.1869708170254344,
                -0.14015906370705997,
                -0.15269914498315626,
                -0.4837488467270837,
                0.06544316632936331,
                0.1354219976816592,
                -0.07021626962027608,
                -0.05372101181657888,
                0.18990739279192875,
                -0.057598225317746894,
                -0.7296634898743739,
                0.018104332217412106,
                0.13341532048537041,
                0.13618675713633302,
                -0.3798978263926908,
                -0.06618313996973792,
                -0.006704723049707188,
                -0.3348833881007644,
                0.1721570944318318,
                0.478333633545133,
                -0.054948417681163285,
                0.05896516403338879,
                0.016028895853054087,
                -0.285909807867364,
                0.03721879148525789,
                0.1768464206100337,
                0.18360858385958362,
                -0.01397948051250617,
                0.024733238716871928,
                0.28072395517885074,
                -0.11624806528117648,
                -0.12318859121663779,
                0.01772643291679465,
                0.11864257996201673,
                0.11100081899068547,
                0.047332635907323194,
                -0.057397676672860096,
                -0.08715328546688422,
                -0.04587668494367765,
                0.12146694212526497,
                0.37222544967868043,
                -0.4016217969193161,
                0.4464907251048927,
                -0.0011385378062921763
            ],
            [
                0.29098123267805837,
                0.13046032673381966,
                -0.05583695218703685,
                -0.2571958243919233,
                0.29535185069452535,
                0.12953697686137883,
                0.1194649338684067,
                -0.17593455586852413,
                -0.3955717189622908,
                0.005021510667177553,
                0.01225176117727177,
                -0.021867716209926013,
                0.3322199211530786,
                -0.18681249412386144,
                -0.2682284317333031,
                -0.20393217205774242,
                0.03619511336563334,
                0.29016810738438564,
                0.1494146885339243,
                -0.03288698521355827,
                -0.18207439372691187,
                0.014992871511445882,
                -0.07875403601693945,
                0.23053073472459856,
                0.17019292584707968,
                0.03816221681102441,
                0.11785256591611347,
                -0.13084415711580372,
                -0.17412474246834378,
                0.02119522881393832,
                0.018904060205237383,
                -0.07781447122408718,
                -0.08710141730965232,
                0.1664017038822787,
                0.13128519913891173,
                0.003742170247683769,
                -0.19795448260780754,
                0.24523451956678305,
                -0.4613883364753489,
                -0.024228998777092146,
                0.11617149380470024,
                -0.4005838339485426,
                -0.3772828477802272,
                -0.33098409799817047,
                0.16671010795205968,
                -0.05683491249105398,
                0.20468547623293995,
                -0.35069312485250065,
                -0.39299189579547794,
                0.0842896305709765,
                -0.21313087785215465,
                0.3810801980519221,
                0.04090125450213907,
                -0.1382810615755136,
                -0.14387234941070542,
                0.06447966391843239,
                -0.2501415049022188,
                0.06594208271608114,
                0.1528480466950134,
                0.2241896207626817,
                0.10689584919057736,
                -0.014863234428908061,
                0.05594308942082114,
                -0.3409178349043882
            ],
            [
                0.054265667459528384,
                -0.2415309093304275,
                0.5293521995139813,
                0.041148292528314735,
                0.2974508547611203,
                -0.2025522505067815,
                0.2561712097736007,
                -0.04302885377750749,
                -0.15161852725196825,
                -0.13466727557556682,
                0.30652538358897113,
                -0.027093979222267587,
                -0.4880376093079002,
                -0.06591614248069623,
                0.0579820484071739,
                0.11519945542319018,
                0.24240112273227177,
                0.0030573942411404823,
                -0.23574347414170016,
                -0.043849050256532844,
                -0.3029759636472804,
                0.227274203934168,
                -0.06565881543119201,
                0.16173994325899074,
                -0.11405215613876761,
                0.08204313972196521,
                0.09963564079564989,
                0.12069121221841249,
                -0.04324360769385337,
                0.5805602613388829,
                -0.08774857875205161,
                -0.2636110206786713,
                0.2646450487298993,
                0.38102682222654605,
                -0.23396999119340814,
                0.06277770924208922,
                0.27547445978426227,
                -0.26284419235180023,
                0.1828320777187565,
                -0.1337476959419306,
                -0.08850918867199438,
                0.0009742013913929764,
                -0.04072219750619101,
                -0.13943581770883434,
                -0.14270320448845752,
                0.078260209540702,
                0.1726554064744771,
                0.17988952947957407,
                -0.33624835422912736,
                -0.01928375762750421,
                -0.22496767917000224,
                0.1630259180138526,
                -0.39144032874715506,
                0.1833491836820203,
                -0.10157000029862659,
                -0.1296761857179802,
                -0.05552409965331217,
                -0.24998101930474545,
                -0.038882326528539624,
                0.011890312306032918,
                0.10650064391057461,
                -0.04569054184369106,
                0.06427260330595502,
                0.09866321586935967
            ],
            [
                -0.2543187691155713,
                0.2392744859506518,
                0.2875427963088229,
                0.14164975076774433,
                -0.10892125302503868,
                0.2574426248807877,
                0.10056836544613003,
                0.1921168489106356,
                -0.15707197628460207,
                -0.13607843616533896,
                0.3326834878008202,
                0.21379375996841282,
                0.18571684183816195,
                0.21566167794085925,
                -0.05119070475987132,
                -0.4295301546676649,
                -0.002622270869961655,
                -0.16926983315681454,
                0.14267085267497243,
                0.3195547154334335,
                0.08209110659546721,
                -0.016646454773311822,
                0.04540296893455126,
                -0.12173533780441827,
                0.05339376240226948,
                -0.117896657325071,
                0.37098915229502694,
                0.07460787827875387,
                -0.03685534605458611,
                -0.11932198332022319,
                -0.29548089124445776,
                -0.13067147722178557,
                -0.11423604058652037,
                0.16792526363418017,
                -0.20160800547425498,
                -0.09109290543047623,
                0.1187003925038721,
                0.2172304426207453,
                0.4929199586081097,
                -0.6026763099303375,
                0.286040228451263,
                0.010381628933938587,
                0.15370754458845504,
                0.11304810265223399,
                -0.04311029334563719,
                0.0415144083626141,
                0.08836649257444908,
                0.09167989440675374,
                0.15687477288252094,
                -0.15634264252351518,
                -0.019024328762498717,
                0.04598197511021116,
                0.10465918934584284,
                0.06621875953612882,
                0.02130726089099428,
                0.15315786417584493,
                -0.06244303598218305,
                -0.16428421091396908,
                -0.24318737552322597,
                0.19683514329290838,
                0.28618674183395126,
                0.34780886434022135,
                0.6489245762170831,
                -0.04720426458376545
            ],
            [
                -0.08971148248865288,
                -0.24441317213123517,
                -0.2330960627324113,
                -0.057888707825413416,
                -0.1861231258842939,
                0.22028659298354508,
                -0.2838929757880684,
                -0.1985510488281432,
                0.21382294152776882,
                0.07796002142113297,
                -0.3826749607395278,
                -0.18678519766839982,
                -0.16689887899002093,
                0.04274105505809417,
                -0.048886000628191636,
                -0.24342414204840504,
                0.0727678176820973,
                0.05144083439678872,
                -0.3453867896517876,
                0.020640613007963275,
                0.027866738753322715,
                0.020812044502142676,
                0.34183472872513476,
                0.37264812089556476,
                -0.0674914988372483,
                0.33501148489027266,
                0.003440787270110308,
                0.18695636806337512,
                0.19090848843084332,
                -0.03431578174294055,
                0.09166350076830335,
                0.21103668607445947,
                0.14666943985756592,
                0.027805329208830918,
                0.1145094355483981,
                -0.1863918183839939,
                0.3683824737789782,
                0.21790513507494735,
                -0.26997963858530705,
                -0.30290566792339796,
                -0.04233456699323841,
                0.0769966208020872,
                0.15974794701487532,
                0.12908555203541958,
                -0.06668847532780049,
                0.06080583874407061,
                0.09375274060865195,
                -0.06017604785018741,
                0.0035953289833419175,
                0.30422084627855067,
                0.18789979071796775,
                -0.16376397748211857,
                -0.005305701276100296,
                -0.18328332686285465,
                -0.061602637863269555,
                0.025499248806579746,
                0.09483828873856334,
                0.21455579834964883,
                -0.26602197148957824,
                0.09784385284158877,
                -0.06500087659183654,
                -0.041293949483614055,
                -0.3147311746538268,
                0.1778668548779452
            ],
            [
                0.035976956075160355,
                0.12633629146346376,
                0.20991070226306005,
                0.022507484594557033,
                0.1852948277404276,
                -0.23403437890987222,
                -0.013993587112610686,
                0.1227393104577842,
                0.20049678724297393,
                0.005168379854969415,
                0.20523229956860056,
                -0.1209341128658771,
                0.020460050771166055,
                -0.03685817627492728,
                0.07862357655492544,
                0.05566790250137316,
                0.4846719530728105,
                -0.052108940292974,
                0.2684585906155292,
                -0.08154098375144561,
                0.05032600758259777,
                -0.024478263729288977,
                0.030660920794021097,
                0.19750410424082315,
                0.0532913254046282,
