{
    "architecture": {
        "input_dim": 8,
        "hidden_dim": 64,
        "output_dim": 6,
        "hidden_layers": 3,
        "dropout_rate": 0.01
    },
    "weights": [
        [
            [
                0.5017277901484601,
                1.421941401187949,
                1.9120294731307483,
                -0.7779655477995329,
                0.6499946840360592,
                -0.10893694343384498,
                -0.6150305333254376,
                -0.5514295959925509,
                -0.33275574752922304,
                -1.244892707565947,
                -0.8217826329011114,
                1.6106277475987372,
                0.6821271918440723,
                -0.24051493283853492,
                -0.2899784234462732,
                1.1869257455045126,
                0.20126601146698564,
                -0.06093469645456703,
                0.9979099978345564,
                -0.40396061716919224,
                -0.6060541752792614,
                -0.07045673932047088,
                0.8394236180566825,
                0.49388511552492514,
                -0.7857180644639644,
                -1.5057932809309535,
                0.485767357497482,
                -0.6596152402928952,
                -1.4263633052666427,
                -0.26905172075119177,
                -1.7178327593703566,
                0.8519322985980505,
                -0.2848614276434164,
                0.1601595188645273,
                0.6681907638129228,
                -0.5915531539767359,
                0.318725684680436,
                1.3251810959412236,
                0.23513317094530004,
                -0.29905275242949264,
                -0.07647130001057695,
                -1.5106067129108747,
                2.261601152640826,
                -0.16350326362835868,
                1.2281597973885476,
                -0.04432457018112277,
                -0.5608300395513114,
                -0.349302591314014,
                -1.7022347123562538,
                -0.32837571815329497,
                -1.1453359853565557,
                0.019469074362542207,
                0.01928787734339771,
                -0.29422886848242424,
                -0.26396470138596123,
                1.1570599571011775,
                0.9820098524836263,
                -0.42276002470467766,
                2.291310515082607,
                -0.5664852121936838,
                -0.8159138278367642,
                0.6114593389437657,
                0.9456118327379879,
                -0.31412119190462173
            ],
            [
                -0.10389859732092215,
                3.0064130345080433,
                -0.6522158800129313,
                -0.5497726389674251,
                -0.8650330574537536,
                0.06716520244393506,
                -0.044249261450562925,
                -0.46882648841290775,
                0.07340447229451008,
                -0.4930635095867291,
                -0.7339587990307039,
                0.5945172678253202,
                -0.10684355392695803,
                1.936363088986114,
                -0.40637501139895904,
                1.0412731150610879,
                -0.2806376423442773,
                -0.4238764907052108,
                -0.8083082791319075,
                -0.5375542885023108,
                -0.11863554272558033,
                -0.23337825978357982,
                0.27538399293498445,
                -0.9021760434698687,
                -0.8143770620399753,
                0.1938695117109762,
                -0.42842687314518185,
                0.6076137913900638,
                0.028560706927776965,
                -0.3069179043273051,
                0.20766946239544098,
                -0.21351591171941742,
                0.3977992711911273,
                -0.9502178663142561,
                -0.9079878278764716,
                -0.35043623760648873,
                -0.6706722616537512,
                -0.28216232754131126,
                -0.5378245268382031,
                0.1990380892398242,
                -1.3568523351701582,
                0.1308502625262622,
                -0.12279689689093362,
                0.1117819431524321,
                -0.07597340398552023,
                -0.07288683901532961,
                0.05565225913445968,
                -1.28312770854622,
                -0.32142946641576153,
                -0.7164491252824697,
                0.32950471522907915,
                -0.9792256461378385,
                0.4066470121476838,
                -0.45801979025500206,
                0.5635082232221535,
                0.0949979519001048,
                0.7775913504581751,
                -1.7778423749394452,
                0.12833454796111526,
                -0.16648690226450438,
                -0.17895629098898697,
                -0.8684323526195771,
                -0.21008124242435827,
                0.8607803976494868
            ],
            [
                -0.6874710070599853,
                -0.20626593795389928,
                0.04206381667986589,
                -0.24272493447037713,
                0.5006182515194038,
                0.15620717036833218,
                -0.06615087360666162,
                -0.4623019519837529,
                0.06836861655331256,
                0.1995494428083542,
                0.5577650293793056,
                -0.7013942830183865,
                -0.26129226978106823,
                0.17598725978576188,
                -0.4698049953474368,
                0.1325608643729702,
                -1.0134614426254764,
                -0.2978225996741336,
                0.9861361260041311,
                1.0128881557701226,
                0.6744766716855493,
                -0.7876360633820676,
                0.04035658811272583,
                -0.24006682617605907,
                0.6506881665866682,
                0.19778230903216745,
                -0.6151069070183882,
                -0.20223221305045913,
                -0.06489587592701876,
                -0.3852184938794013,
                -0.40943153906421054,
                -0.6351565153355992,
                -0.6523396517501341,
                -0.12874502784968495,
                -0.3533035167443456,
                0.2455808062748972,
                -0.23814133797539475,
                -0.9667843400639059,
                -0.41945502336255597,
                -0.3678986230416541,
                -0.2612124223909553,
                0.4935214279625508,
                -0.6741177256023885,
                -0.7124112131180651,
                0.2322799834576678,
                -0.35491678620082595,
                -0.5515036211397303,
                0.011785929928183012,
                -0.3731590435280205,
                0.4748511691186092,
                0.46072004951262746,
                -0.4180996747658732,
                -0.35418132710906436,
                -0.17628276198249151,
                -0.6444058122731148,
                0.1081698943508776,
                -0.11101032887404862,
                0.8786358235226994,
                -0.22387133409795823,
                -0.45738597921370366,
                0.586714851289587,
                -0.25237450469110395,
                -0.28864216187651603,
                0.43073046342935245
            ],
            [
                0.8042103338913957,
                -0.2011932224440836,
                0.05563404154992184,
                0.2631003435535072,
                1.2549178746129617,
                -0.30484758167255727,
                -0.29387157212561704,
                0.33503629052318945,
                -0.47740142431694593,
                0.4546510315892573,
                0.16251131432426832,
                -0.24787029041590738,
                -0.4488611128938703,
                -0.2409380828578572,
                -0.13656924149856586,
                -0.8942230529482523,
                0.14643745031510044,
                -0.1790536580811975,
                0.43993167153076407,
                -0.3765358695319548,
                -0.35143580235884486,
                0.006104258026818222,
                0.14506589895772531,
                0.29006176353229673,
                -0.1006600075429653,
                -0.8259200084297709,
                0.3614898668911137,
                -0.07040826953560633,
                0.567234897874394,
                -0.9017398241288411,
                0.10667531144218154,
                -1.0598774085488833,
                -0.16716253410760473,
                0.0978221671937383,
                0.18313703736442924,
                -0.7140920690575643,
                -0.6673192077446958,
                0.260717149213853,
                0.2404045728503261,
                0.49383689402911785,
                0.456651839788734,
                0.5573655298757646,
                -0.7455238778715063,
                0.01136394319616179,
                -0.7641152088381711,
                -0.35913421286827907,
                -0.11977674428829255,
                0.15521229435775774,
                0.3255111298308395,
                0.04955828810709778,
                -0.6502369740197474,
                0.3494937786549531,
                0.9840646915902242,
                0.30939660614192427,
                0.18089652811078213,
                0.25590381640450216,
                -0.2678061070043884,
                -0.05444726189232118,
                0.4868274031602055,
                -0.9495561562938938,
                0.006628626190298483,
                -0.4342630569809577,
                -0.5063072295548273,
                -0.1619588316895917
            ],
            [
                0.048951778256912694,
                -0.14789252144529608,
                0.24000290953927092,
                0.2235856494441312,
                0.9041241391137673,
                -0.041349111772486846,
                -0.2197968097031887,
                -0.05678467204052479,
                0.29085782504350993,
                0.24626037941657253,
                0.6154467793495392,
                0.3249264973565113,
                -0.10708618874667503,
                1.2593874081435101,
                -0.8203246497112825,
                -0.24129770330484748,
                0.37068096591697447,
                0.006111161785321203,
                -0.14948020000169068,
                -0.0017848653664853677,
                -0.7572227288422059,
                -0.7007778670762351,
                0.8445112228259113,
                -0.16730706444783175,
                0.5577635685032533,
                -0.6220847187142977,
                0.1357465402807472,
                0.16799058471484338,
                -0.10267094748192751,
                0.4863495667257223,
                0.43432054721352403,
                -0.4408902575157352,
                0.37379858403466093,
                0.07194658717460513,
                -0.4451950189242004,
                1.073300930583664,
                -0.05855389728743121,
                -0.4066564223853119,
                -0.7964336549129553,
                -0.5206942624344377,
                0.5062990075995876,
                -0.1433032984909608,
                -0.5421968758981334,
                0.7950639117882634,
                -0.38959727278318873,
                0.29215914394603787,
                -0.5018364866143875,
                -0.11656854317490664,
                -0.5474524414107008,
                0.8350095626831099,
                -0.6078989589824534,
                -0.5246293971468847,
                0.47564577420578863,
                0.1495433345195981,
                0.009567197744609795,
                -1.43765593222889,
                -0.19037835035824147,
                -0.01814309893789268,
                0.23802794797600482,
                -0.07086845958792805,
                -0.17027444546139925,
                0.10915196498935581,
                -0.44229610497758465,
                -0.340209003453281
            ],
            [
                -0.1412417245866429,
                0.22555144168003027,
                0.22599813034459826,
                -0.6179391788355354,
                0.5223201997314958,
                -0.16714932194687016,
                -0.07806327996229158,
                -0.158600475245243,
                -0.00490792779466215,
                -0.8557547382072229,
                0.713151901767349,
                -0.06686938429862778,
                0.0275024906675979,
                0.02382880601717261,
                -0.2594681978160041,
                -0.09697788288780602,
                0.5348995863431354,
                -0.2996352327147811,
                0.4208417949443688,
                0.00745755077653658,
                -0.8141359519123089,
                -0.6586565737811847,
                0.2469187446394618,
                0.15046017599174127,
                0.3275690837787627,
                0.16081246840128485,
                0.24064907385412102,
                0.05880406095705732,
                -0.3726339244099433,
                -0.19894677223280943,
                0.6415178000332514,
                0.4980487774310399,
                0.1724873238021488,
                0.04230705580127167,
                0.557512568310616,
                -0.17959777204342547,
                -0.6638734648171007,
                -0.4719222599378328,
                0.14055865400688353,
                0.5232385649661475,
                -0.016584792109049368,
                -0.1146276252737913,
                0.0863723633539533,
                0.08434858509247771,
                -0.4634158966094719,
                -0.06778548581789076,
                -0.24042623304619554,
                -0.5756995212816377,
                -0.5100666980878087,
                0.9177894994526511,
                -0.3234212998488655,
                0.06537452928319358,
                -0.25855511405189374,
                -0.1541456941304444,
                1.73690019832549,
                -0.17638072718258865,
                0.20078672079007548,
                0.22207004606347122,
                -0.8495660000976545,
                -0.47714017349378113,
                0.3919956630431193,
                -0.9944221353288136,
                0.02684060400474619,
                -0.6784420501869746
            ],
            [
                0.0940961059778853,
                0.46406671833207186,
                -0.38827693338973135,
                -0.6122843205591617,
                0.7095718957869159,
                -0.06160047555249952,
                -0.2464527973490708,
                -0.476217365127556,
                -0.5947662351405055,
                -0.01328813421296652,
                -0.2985835093415073,
                -0.9199832091798122,
                -0.15374801016808892,
                -0.3008236192157601,
                0.08935644372036097,
                -0.06632929270655413,
                -0.5198507468602912,
                -0.25583340543379696,
                -0.08109705870621715,
                -0.3070641242794528,
                0.022607836477203876,
                -0.05958143577776605,
                -0.3766242064133913,
                0.04670400018544242,
                -0.35005683817204697,
                -0.48166754920061305,
                0.31233280443828576,
                -0.3934308416940663,
                -0.3346238919727395,
                0.7974748499852401,
                0.20471243771344977,
                -0.4533778396373022,
                -0.09319969997185176,
                0.2730191191106137,
                0.1571754826759624,
                -0.9591496509757168,
                0.11923863672664257,
                0.08925277560520187,
                -0.2559154298795449,
                -0.4016222487763699,
                0.021229964737624007,
                0.2900044992740138,
                0.08470743701570936,
                0.44116976695484494,
                0.26865435689283346,
                0.5229927939725568,
                -0.14962129414389916,
                0.7502077990534254,
                0.6743997109094705,
                -0.741045116760953,
                -0.17758138311580068,
                0.17732275670761719,
                -0.22531153574533275,
                0.3079529122468809,
                -0.30895255883889006,
                -0.438604530311002,
                0.38586757641173297,
                0.8477218888685795,
                0.09748297312767143,
                -0.07340675763699397,
                -0.46460433988217653,
                0.20653242776801659,
                0.5092479986293253,
                -0.5672574255033961
            ],
            [
                0.42182603828688886,
                0.22510165130426665,
                0.05526234762907877,
                0.10745206108820243,
                -0.4529869115510803,
                0.5287171552839562,
                0.36115809166500723,
                0.13646446985397015,
                -0.44066090661807783,
                0.9644140503925777,
                0.5333107794214097,
                -0.7301394335490127,
                -0.014400341821905563,
                -0.06218480645104401,
                -0.40320095427772035,
                0.06114636804234053,
                -1.2000906206499504,
                0.3088965866119663,
                -0.38507413299541815,
                -0.1697160374058286,
                0.3408484578377134,
                -1.0987623404300806,
                -0.3492323856058445,
                1.0202020535352603,
                0.1952261561907353,
                -0.1649227679668329,
                -0.2614293934685203,
                0.5249624905740754,
                1.1187051379732815,
                0.2906686695649318,
                -0.1926206551357196,
                0.08988657889280746,
                -0.7186482352515975,
                -0.09503191378564245,
                -0.24731574430023934,
                0.18148377043578048,
                -1.274249905484509,
                0.1645247000479108,
                0.13861288646596295,
                -0.3721982445680391,
                0.2336778042204927,
                0.42260295518740976,
                0.14393169105143302,
                -0.31158810208036697,
                0.2594699026107039,
                -0.4149560367810978,
                0.5458367774254087,
                -0.7062750142908016,
                -0.4547988865526006,
                0.4950101148477255,
                -0.5609037609487144,
                0.5142850383502938,
                -0.4355879620443086,
                -0.017034908728158153,
                -0.24881888319504333,
                -0.21223815271568774,
                -0.42106822223208734,
                0.5119699148950124,
                -0.2404537155479984,
                -0.12478578417425101,
                0.1985670728689823,
                0.2832303738111327,
                -0.2770478351522691,
                0.07800091368345857
            ]
        ],
        [
            [
                -0.33698211738067135,
                -0.22261935580645195,
                -0.07950381476473768,
                0.095181564486666,
                0.33361686284709247,
                0.0065212365635862815,
                -0.22622924099599923,
                -0.24100219792681865,
                0.11131220128517766,
                0.08654206630860757,
                0.24327267042584327,
                0.1121761735102134,
                0.12630763336108716,
                -0.3922556875097859,
                -0.21469424101443232,
                0.12725663096764814,
                -0.14406135013786006,
                0.19870835006568718,
                -0.12419576657220553,
                0.10200854499535791,
                -0.013685198723836856,
                -0.010825325369002015,
                0.2690309378314411,
                -0.008517577147986044,
                0.14577268688625913,
                -0.09663311859117911,
                -0.21910971510264776,
                0.312060199120214,
                -0.03159265695629816,
                -0.05237673101285026,
                0.013521648283606668,
                0.012707997573771994,
                -0.25701255236148496,
                -0.20196673857235542,
                0.010867295503468103,
                0.03388307347624982,
                0.08295028476715789,
                0.0005320815088651458,
                0.30231361872547796,
                -0.22967098703857033,
                -0.03245835924765539,
                0.47770397544065396,
                -0.18905250654081357,
                -0.1379887060711968,
                -0.46783940765396315,
                0.1063930028325225,
                -0.14452351110133146,
                0.1885913184405956,
                -0.2145049817449518,
                -0.032895407225255094,
                -0.06092288624150282,
                -0.24718411968378456,
                0.21003310955962856,
                0.13555841825948106,
                -0.006429355860032013,
                -0.07278270800852465,
                0.028487937800675635,
                -0.007584217071481621,
                0.22237842771967778,
                0.23174881639947134,
                -0.10211262978477594,
                -0.10354350872940965,
                -0.36146759719780797,
                -0.02189832680720924
            ],
            [
                -0.07587250780838245,
                -0.24448811423371344,
                -0.1228509761221403,
                -0.021318130603739893,
                -0.7160267152542663,
                0.5747801157174125,
                -0.09349025869204947,
                0.005150128340813869,
                0.03102969477420858,
                0.2730882473572113,
                0.03639524130850664,
                0.35845644062986043,
                0.8497336165350854,
                0.11301242962934872,
                -0.5625239725537258,
                -0.6274102504280642,
                0.15620144400445618,
                -0.2845735362924954,
                0.0705334595773441,
                -0.4703349212865457,
                -0.16762273349128,
                0.10311918953937439,
                -0.26333476621708535,
                -0.16282823451801556,
                -0.1767450485023995,
                0.25583125182768757,
                0.66494032822509,
                -0.06727368338657357,
                -0.38307138249206657,
                -0.45113474472654613,
                -0.174157155991548,
                -0.11434122845223897,
                0.06319199939089501,
                0.03488215444536114,
                -0.07115934792943167,
                -0.4400370409423106,
                -0.04164870354670885,
                0.3938676174965294,
                0.26625848733723917,
                0.25604318886844335,
                -0.28401779094480384,
                -0.602721182248978,
                0.3258195648405288,
                -0.0010427602037418864,
                -0.4592951700464638,
                -0.025110130600647318,
                -0.23314267896212795,
                0.24807155769607847,
                -0.47138734030786295,
                -0.047314576615027526,
                -0.5296060400479754,
                -0.23867639079838054,
                -0.2544305519307626,
                0.9445011539111647,
                0.988553570523335,
                0.21420255742907449,
                -0.14171853180512273,
                -0.0805899876988293,
                -0.2094135729890319,
                0.6435783247728339,
                -0.1082985210669249,
                -0.10603350899116401,
                0.4296663907743812,
                -0.18765403932140637
            ],
            [
                0.4302150686298038,
                -0.18914482455016346,
                -1.2425546576856266,
                0.11256247395751048,
                0.18041425945353448,
                -0.30256909511877816,
                -0.28791920788077435,
                -0.09982428562640651,
                0.2096726287892601,
                0.14481429366285778,
                -0.10904851306884442,
                -0.2512044876066459,
                -0.004283151291254277,
                0.05585623724029529,
                0.06137407201969863,
                -0.5646707788716286,
                -0.22758008286365308,
                -0.09727524322271999,
                -0.0998357988368165,
                -0.053715783823453774,
                0.1382613757463407,
                -0.3485639299656597,
                0.11676719889441098,
                -0.2766621161912821,
                0.16389059961784186,
                -0.05192415253564968,
                -0.09052215086279733,
                0.18995172680628375,
                0.17897256747796905,
                -0.046455976768466745,
                0.5078113974404959,
                -0.05421924898999138,
                0.05228792731644577,
                0.12967529518384957,
                0.3131296237882463,
                -0.10105674081218138,
                -0.11015326618245602,
                -0.6288229722978136,
                -0.011219679675642576,
                0.12339924342358599,
                0.30004603233847266,
                0.3490526296777656,
                0.27405365908567164,
                -0.20628808147759692,
                -0.11629173228136942,
                0.05209406528163828,
                0.029592491299007366,
                -0.0011760252997827453,
                0.047305921064684446,
                -0.1415717956765746,
                0.7723027968490989,
                -0.46373034576480426,
                0.07488608494640213,
                0.31511498390527026,
                0.2901898122383045,
                -0.4431895695094516,
                0.1723298707125521,
                -0.11896601321985018,
                0.11125137157591208,
                0.08758356795169925,
                -0.5618467781845017,
                0.13691802691929753,
                0.12444249107673228,
                0.45407004317192184
            ],
            [
                0.05033675052149284,
                0.2271731143448374,
                -0.1198882804762346,
                -0.133076895035296,
                0.02100100723651773,
                0.1386796261070597,
                0.4363225281374868,
                -0.049500124099228555,
                0.2513096801856748,
                0.14703956262938758,
                0.09248018030128634,
                0.14025959789162706,
                -0.0006084742599911445,
                0.30183760566376233,
                -0.08673625112918257,
                -0.046279028144154806,
                -0.15694210659160127,
                0.05319828185891042,
                -0.010088694778932228,
                -0.40159823862655475,
                -0.10604318257689312,
                -0.12084961694932052,
                -0.0792899201795373,
                -0.1468306350294758,
                -0.032089631098883145,
                0.26168265230947524,
                0.20386851894782973,
                -0.10030801829128769,
                0.12479449987043205,
                -0.15029859140711788,
                0.17040163588449217,
                0.1803885872963874,
                0.035009123236922624,
                -0.013769051514404815,
                0.3274833182881523,
                -0.12245915548182268,
                0.029123314021428096,
                -0.04232270186786362,
                0.23788932312230057,
                0.2633258319422343,
                0.21832949681020977,
                -0.08132505659799694,
                -0.1137099751018278,
                -0.1196708999693513,
                -0.1100520545698985,
                -0.11955968931431599,
                0.004328907022788032,
                0.3596029378218117,
                0.059307986755691225,
                0.16711809311297268,
                0.06754355936266002,
                0.1340117600739508,
                -0.4460041041230806,
                -0.02391539959043821,
                -0.053205615136851375,
                -0.1508350266751797,
                0.029006497466777578,
                -0.028708069264353535,
                -0.08337068177046733,
                0.0018098730254016945,
                0.13751808192019546,
                -0.12663803543211047,
                -0.1971223654415444,
                0.11753740757588092
            ],
            [
                0.33486306914839675,
                0.021424572112044914,
                0.08592915430764654,
                0.42624746621348136,
                0.32832134466265167,
                -0.0708461615612532,
                -0.06111520118896753,
                -0.14197979414968181,
                0.03926787998784032,
                -0.10782066825450108,
                0.2566687449272488,
                0.03499039390569444,
                0.31158213722763706,
                0.1595029546027961,
                0.28984236641488353,
                -0.3267366874256325,
                0.01785979898207242,
                -0.20099928792877314,
                -0.0027476378219373713,
                -0.10612067770885235,
                -0.0734046461040595,
                -0.14728366353342193,
                -2.0995656315382905e-05,
                0.02857241961295253,
                -0.32480804957218856,
                0.44174741890059277,
                0.4375255460700463,
                0.04208992863880673,
                0.3479950490198505,
                -0.06700389582336369,
                0.12040678508933811,
                -0.05077017884556849,
                -0.5508815012984587,
                0.20327534746814713,
                0.2049037558179631,
                -0.1787580651914008,
                0.30371932314948225,
                -0.10064104525069634,
                -0.08493249009309639,
                -0.16142549609654586,
                -0.055244993049826586,
                0.09431047100511548,
                -0.025899401444950405,
                0.11688390295666584,
                -0.01202942094041577,
                0.11522369906545292,
                -0.029602266883044355,
                -0.10607460118350001,
                0.07357558036269693,
                0.0544929418490658,
                -0.045874910430297795,
                0.3784240744602852,
                0.10330411815064797,
                -0.06656467655618425,
                -0.32886875861811093,
                0.20378831389451654,
                -0.1829377087031336,
                -0.09625711730451306,
                -0.2263280976681689,
                -0.19135432998461954,
                -0.19265969668366598,
                -0.10710383366782601,
                -0.49921494740879535,
                -0.019194716955217708
            ],
            [
                0.10047655602214799,
                0.3554922312067715,
                0.0016506298348398553,
                -0.10368617525834414,
                -0.2029150539725724,
                -0.20941260593443667,
                -0.16097435003695498,
                -0.015660937135569097,
                -0.3250220016871286,
                0.2525267426065385,
                -0.06881132808219853,
                -0.23090489332224148,
                -0.19732727821595986,
                -0.2473568593738691,
                0.262696097582329,
                -0.1092837043027363,
                0.01751457102614494,
                -0.2821901130841589,
                -0.29478926322219545,
                -0.0724106784460114,
                -0.22806769789946818,
                -0.21387930854646237,
                -0.07952027550505202,
                -0.11903812089349622,
                -0.011407286713550978,
                -0.0003607894590831574,
                0.07894572386370108,
                -0.1211661001388856,
                0.19758572994851828,
                0.18765426209173589,
                0.1610102267506934,
                0.05435314332190869,
                -0.14698017051637174,
                -0.0342839974593571,
                -0.2647217998094956,
                0.03616086542049127,
                -0.24141736356100427,
                -0.11239309790804378,
                -0.15019451219499655,
                -0.028945868439052273,
                -0.0030489868905429277,
                0.5429618471231263,
                0.05809480729661148,
                0.07012199409127375,
                -0.161425248974657,
                0.03381146092238268,
                0.18946669715327086,
                0.3040333553106475,
                0.16062399879275593,
                -0.09801178799124476,
                0.017912636665101032,
                0.010806014263421296,
                0.11533358872909985,
                -0.2900932446151228,
                0.017357561634374997,
                -0.2615944505746378,
                -0.009559184717620196,
                -0.35357803328278414,
                0.009640515060957434,
                -0.45435680651742116,
                0.22588111139182396,
                -0.11559488317553941,
                -0.0648740775181493,
                -0.15222648305522218
            ],
            [
                0.41099615585499794,
                -0.017634899012368775,
                -0.08383598665176556,
                0.15630877782978625,
                0.02451958013212558,
                -0.34547137852708176,
                0.09067833283975672,
                0.23286937762749882,
                -0.013064123826330652,
                -0.26093156692177044,
                -0.02720973726046453,
                0.04058100189571827,
                0.19161890065652204,
                0.013990640089124356,
                -0.13706117954200236,
                0.23038767529845725,
                -0.03326948255009961,
                -0.1742598432972228,
                0.26980721850857586,
                0.09353210040387726,
                0.4341602022488334,
                -0.13060807371328334,
                0.06472456446109497,
                -0.2512138581719445,
                0.11446139178484968,
                -0.0810440873047288,
                0.013028305883997096,
                0.1578493168827762,
                -0.15971046540678968,
                -0.010584030695946987,
                0.2168023668196158,
                -0.01913326643633014,
                0.21761647346397278,
                -0.053343314458089645,
                -0.10387209332735535,
                -0.002987834355229988,
                -0.0323116492725251,
                0.1816907403309153,
                0.0810922413976582,
                -0.2383855056147401,
                -0.035480503837490636,
                -0.3338745765050446,
                -0.3052863256295678,
                -0.06952080642513149,
                0.07505119628526223,
                -0.04859784147042681,
                0.15826536386944381,
                -0.11889659116396262,
                0.0545419021467088,
                0.19673140648668375,
                0.5069912540463474,
                -0.0646112872426922,
                0.3065550821516523,
                0.022306493719227632,
                0.17265618793761714,
                0.03838065861917697,
                0.252482291965569,
                -0.051194981263141766,
                0.11939839269693486,
                -0.21793097006418308,
                0.2868245271647117,
                -0.11588958755590797,
                -0.3231601412007428,
                0.054065448672440626
            ],
            [
                0.018272787726122813,
                0.08930646710940313,
                0.1724814721674568,
                -0.1296079668288071,
                0.17173150956560607,
                -0.22509901979238756,
                -0.2638663405820857,
                -0.08497792468492951,
                0.3461016999054037,
                -0.02846175270447456,
                0.05897773245189815,
                -0.06570738855988921,
                -0.027817784930168486,
                -0.028114933354850914,
                0.23140346645225127,
                0.06078284152021035,
                0.1531097071539692,
                -0.13544570572118173,
                -0.15151284822389854,
                -0.13953356217183643,
                -0.09235045094661279,
                0.04817910472725803,
                0.1445016882667365,
                -0.03185764105338207,
                0.27273675470990305,
                0.04522618405750413,
                0.01934277460241415,
                0.3779461203150991,
                0.35260258576123543,
                -0.017377142596075618,
                0.11758232548229926,
                -0.157256481521862,
                -0.06636830515664204,
                0.0799689668279825,
                0.1819578548845406,
                0.07864315500831737,
                0.2334487866527564,
                0.047202535337799764,
                0.22639136111493222,
                -0.07680433221770992,
                -0.06600832305761417,
                0.022291649285484973,
                0.11474297190874287,
                -0.16879816325064784,
                -0.07691492058363368,
                0.002238755497909303,
                -0.36133951264261305,
                0.23558344778502624,
                -0.026761257392563156,
                -0.08209820823752371,
                0.05823956493895834,
                0.09332208039080508,
                0.2985637689097841,
                0.07006083701429419,
                -0.05711160037274712,
                0.2009840544317265,
                -0.12352922545489078,
                0.10436085678003236,
                0.0359047426810334,
                0.36049673334314825,
                -0.074848866462486,
                -0.0586474737802021,
                0.05980023930698674,
                0.16267615077540462
            ],
            [
                -0.12181762403147155,
                0.1830189584744009,
                -0.027330798802011468,
                0.27486202008952,
                0.06012023155560603,
                0.10124260425695424,
                0.01608955200246879,
                0.054699393233660146,
                -0.08011780085383667,
                0.2658071489808258,
                -0.10850094913173683,
                0.1292531799659953,
                -0.29699986007109785,
                -0.28755124539867405,
                -0.02113285143024992,
                0.16136368859050992,
                0.12941610055933261,
                -0.02506740890341661,
                -0.05478180635171902,
                0.03621965086863659,
                0.10013430549951766,
                -0.2770403600698576,
                0.14393254358330781,
                -0.23666794805275956,
                0.060893267727290576,
                -0.28123167816043726,
                -0.3068588701661256,
                0.03542796213289076,
                -0.4100858728644318,
                0.0028161817292806637,
                -0.21085160504590905,
                0.12632762489729427,
                -0.030808551730098888,
                -0.054040385186300305,
                -0.06957421483482326,
                0.11573069937754979,
                0.2442228124670605,
                0.28051530197378155,
                -0.07759547146222363,
                -0.4011850967039896,
                0.017141089358470054,
                0.27500352338700945,
                0.3520129812075941,
                0.3816868075011888,
                0.33779205233300114,
                -0.07136311958777208,
                -0.03174293265699698,
                0.04900739265088312,
                0.11511986634526962,
                0.1570395497273574,
                0.3241493064615134,
                -0.13351943649804218,
                0.0740700599511797,
                0.07422863828803232,
                0.07323140781899348,
                0.10345304929882086,
                -0.24671662418480106,
                -0.04920972668557535,
                -0.10314020810478759,
                0.2191534651206596,
                0.43591060230376794,
                0.21485343499550785,
                -0.06398567507270417,
                -0.024914357064657566
            ],
            [
                -0.08840663229194926,
                0.4385990606708022,
                0.20623500650819074,
                0.07906536728205922,
                -0.20821677874211986,
                0.14354055957954445,
                -0.09151470764775449,
                0.27796030994459187,
                -0.24871346052933452,
                0.1483308723568743,
                -0.4679439258903085,
                0.006458994986915233,
                -0.3181511181802413,
                -0.1843684741742557,
                0.1822034370189238,
                0.1846001737868702,
                -0.4407906999115281,
                0.36425319931895983,
                0.2741984392795776,
                0.05844304273718301,
                0.14573316718397403,
                0.1347425775963498,
                -0.13474958789575023,
                0.14836441505842268,
                0.3297233125180503,
                -0.47858796179061286,
                0.18212575805036982,
                0.12069735996660677,
                -0.23871353763783454,
                -0.23444696335973994,
                -0.17712446868474954,
                0.20924623989289814,
                -0.02798904880436939,
                -0.472740502199239,
                0.15682666602862574,
                0.15052464114723685,
                0.0943204209804194,
                0.32628943299152435,
                -0.08910782003293181,
                -0.22273771884199528,
                0.07953049641888536,
                -0.23782966505802222,
                0.2891769973268928,
                -0.39888199517125883,
                0.14970938173933118,
                0.20322986841763235,
                -0.38555650800614405,
                0.1275931182970447,
                -0.09972407976961095,
                -0.230323378039959,
                -0.08930951512464039,
                0.3606988926207905,
                0.12551916949668165,
                -0.045988226748145115,
                -0.16157334333250545,
                -0.04616373600561577,
                -0.0404137239163129,
                -0.060240584530198635,
                -0.021182504440138732,
                -0.32632685252192556,
                0.4879589964863263,
                0.23345056732287506,
                -0.23542717985682915,
                0.25462596003461246
            ],
            [
                0.28108697439000135,
                0.3395079678230544,
                0.2523218923107671,
                0.07737332441074463,
                -0.14508785814761832,
                -0.22395081408659503,
                -0.044582639987640796,
                0.18026353501482162,
                -0.3482282743669502,
                -0.16601272349897048,
                0.1821624586802551,
                -0.25209703230185965,
                -0.0429033081878516,
                -0.14953791388468818,
                0.2302418105776181,
                0.21000156797569408,
                -0.3678641020136922,
                0.3268497768050185,
                0.0232662427529812,
                -0.04965724582250684,
                0.014348841945137168,
                -0.1662387712880089,
                0.1341349949018978,
                0.08295557916043653,
                -0.29048191248906396,
                0.28920652505444583,
                0.14084960714189218,
                -0.2768844435097573,
                0.19205962771409296,
                0.009719548659509901,
                0.0036324686064853414,
                0.021656329237947518,
                0.052427536269550434,
                -0.0065394472027024185,
                0.33990050975591246,
                0.21222888961681183,
                -0.11104391615620053,
                0.14686948896591817,
                0.14317328258508083,
                0.011812212599497047,
                -0.1189030272265345,
                -0.2726814742355557,
                0.18345969376503762,
                -0.030473778951114586,
                0.045760475086124755,
                0.02970947516664922,
                0.22750822962357214,
                -0.08319292326851885,
                0.3761518547644904,
                -0.14778786521146395,
                0.2028397058513901,
                -0.025768995304968945,
                0.04397387816589573,
                -0.1748468257926077,
                -0.22907963384945249,
                0.3657301325044826,
                -0.051255019064670254,
                -0.05693002160773264,
                0.026740884191329875,
                -0.2158030297683491,
                0.11214417863413763,
                -0.061989950086647205,
                0.28272110169451486,
                -0.040951306351303916
            ],
            [
                0.17914290758779172,
                0.22591672859450962,
                -0.5084431654055332,
                0.08517385602091751,
                -0.15822135036842755,
                -0.41596925683755,
                0.05757451518837389,
                -0.07123501112301558,
                0.16841299847789146,
                0.34987464528288875,
                0.469394667530035,
                -0.253326271169326,
                0.0383291682576827,
                0.11185147073702277,
                -0.02170184750104863,
                -0.267322847869462,
                0.28424037043423134,
                -0.13637043953807634,
                0.04958688743090913,
                -0.008540439596837368,
                -0.08012011853827629,
                0.24241491718095484,
                -0.4133592300008022,
                0.012923692455049025,
                -0.27635994533452796,
                -0.2056616605330117,
                0.040258371739567735,
                0.12367506185476455,
                -0.13757931414208563,
                0.11837270360516772,
                0.07231382752494077,
                -0.26300145487680626,
                0.4329083342001242,
                0.28992256670051664,
                -0.015621353883810812,
                0.30735760751519964,
                0.35027541335967666,
                -0.5954440433384364,
                0.2786305366935409,
                0.3554692323295413,
                -0.45453188907287057,
                -0.29358714080412973,
                0.12549413743339666,
                0.47492571864038124,
                -0.18206825358573175,
                -0.24897293135886553,
                -0.13255603185974765,
                -0.04180185298462544,
                -0.38555944398135905,
                0.18479349974806183,
                -0.02844527085827129,
                0.17837900547655813,
                -0.02784621128193001,
                -0.173383356414236,
                0.08729192812233576,
                0.03418886992464509,
                0.010542855120395359,
                -0.026830495581783152,
                0.05966895838993575,
                -0.05887527248226809,
                0.20139218766839417,
                -0.08199123444562652,
                0.14041181439386258,
                0.5248944507879133
            ],
            [
                -0.008245416891457549,
                0.06504586908155552,
                0.06484410284354732,
                0.03686299869907396,
                -0.053699690492106204,
                -0.2206853112889339,
                0.025775695270618564,
                -0.07796797083040974,
                -0.4470401859322557,
                -0.1684437960803426,
                -0.12558611009367146,
                -0.34436555844865396,
                0.03941883873265221,
                0.1968719434329065,
                0.06049682504342327,
                0.0753565882332496,
                0.11694930062197398,
                -0.040783832625909365,
                -0.10238858015198814,
                -0.014986987710917441,
                0.10772265065741926,
                -0.1929740378373714,
                0.0862895445743226,
                -0.2077014635605369,
                0.009157335836546506,
                -0.0926459340369612,
                0.2120331683207364,
                0.09383909327081642,
                -0.13405406763593697,
                0.0287498832940272,
                -0.08409664647987322,
                -0.08580610439104092,
                0.25034444059675304,
                0.039445143019821174,
                0.23055966772046305,
                0.08492187672589672,
                -0.10084821222043251,
                -0.2487072415557416,
                0.3599547270242911,
                -0.13877823867731215,
                0.006715472797947267,
                -0.01634003916678759,
                -0.17848216350964022,
                0.14140593188191658,
                -0.06927235388167874,
                0.18990838154149947,
                0.46626945683450977,
                -0.008100121846376013,
                -0.025444853180993227,
                0.31694689321215597,
                0.1428545031814395,
                0.022537650280582754,
                0.17869839363874593,
                0.39265515903701514,
                0.27526566235383143,
                -0.10460166023332951,
                -0.10576992071953235,
                0.14079517504969508,
                0.05616290777146439,
                -0.15759404274740033,
                0.025389723353010096,
                0.15752872527402517,
                -0.17122543609318006,
                0.20658344992120575
            ],
            [
                -0.34939705619663936,
                0.15463664936941174,
                0.1334518749873967,
                -0.9122707171669958,
                -0.30635354469867376,
                0.13571667266639154,
                -1.9059916465240318e-05,
                0.11668922724043548,
                -0.05887882295540986,
                0.30174538611672447,
                0.22524983732555387,
                0.019953447178479463,
                0.4056919780268767,
                -0.2691390856901227,
                0.05417184065488249,
                0.27124612021218114,
                0.351361005425818,
                -0.09881032443368609,
                0.1733791574405858,
                -0.3716198288732552,
                -0.10426258612455121,
                -0.20782235363318668,
                0.01298127910759355,
                0.09909081672130103,
                -0.043034773524211395,
                -0.2812784594817629,
                0.1851311538193886,
                0.3000409402967606,
                0.03393146652879546,
                -0.24656411679009427,
                -0.027151848592524706,
                -0.16886533899029207,
                -0.39346878200900465,
                0.06270537537641242,
                -0.1674193595699389,
                0.10021984597546083,
                0.0016491462785497822,
                0.08775932352349923,
                -0.3471590657077862,
                0.3395320248723063,
                0.46072751124805683,
                0.15062298050522047,
                0.31963556585630687,
                0.3976864090512803,
                0.03326440994687609,
                -0.18251019093662985,
                -0.10123242723487154,
                0.23968653722052702,
                -0.26023184887765455,
                -0.005507494748477226,
                -0.32378947993025087,
                -0.035349088618224576,
                -0.4576433118809024,
                0.5114157023360129,
                0.23028381289861896,
                0.0741672149833001,
                -0.022534359453024927,
                -0.21412783528332952,
                -0.016311542265177774,
                0.11557785749165238,
                0.026912001655896065,
                -0.1303945017057927,
                0.6225097504946466,
                0.034725924028384474
            ],
            [
                -0.2836655958511959,
                0.10801608636555328,
                0.01135216837686864,
                0.2715421505438279,
                -0.010339148815607244,
                0.01182292466122909,
                -0.15167227166528796,
                -0.08733269236218871,
                -0.18353888271778376,
                -0.06600589431817025,
                -0.015260181355329762,
                -0.13195645793917768,
                -0.14695028235404012,
                0.3180308841285243,
                0.03271264867121276,
                0.2100990782019817,
                0.11029957873017132,
                -0.16873639864877749,
                -0.14380268277134253,
                -0.06999999222176033,
                -0.3222241820133961,
                -0.07411812401418891,
                0.10972497476501425,
                -0.05993204468608941,
                -0.13858901453232145,
                -0.18998797046788748,
                0.09756211749159195,
                -0.054611492573276944,
                -0.09355389561182849,
                -0.1513561491564511,
                -0.08810165981846256,
                -0.20537235430883244,
                -0.2264673507898425,
                0.030821347198121508,
                -0.08400526378173294,
                0.20421773100519877,
                -0.008660841239129588,
                -0.010685763309937408,
                -0.3722620413342175,
                0.3297497831038291,
                -0.12631890661302386,
                0.10355859691550083,
                -0.09533949784880366,
                0.03967682463143613,
                -0.23267720049851576,
                0.27538490933523213,
                0.08144049800126969,
                -0.3672719180497048,
                -0.021374467110451847,
                0.18710391197286308,
                -0.11180389173585065,
                0.06439182372621502,
                -0.20032483253435454,
                0.03826991071759108,
                0.22788178340530765,
                0.33790736917021386,
                0.03962270316702045,
                0.07238921389310474,
                -0.22944331503666415,
                -0.1207507727348651,
                0.3254379323866041,
                -0.1082418220875171,
                0.1072850922228871,
                -0.10962550345768377
            ],
            [
                0.09927887256594108,
                -0.2718312853292036,
                -0.13053771975069972,
                -0.4910307806369845,
                -0.3977218399729838,
                0.4090543873785679,
                0.07349867216432458,
                0.14284111971830124,
                -0.023546612579096297,
                0.03288414964973913,
                -0.19531775855468056,
                0.24620631451105593,
                0.3640384572940981,
                -0.35379507580800784,
                -0.5092262525094766,
                0.02028708009140964,
                0.17845829281104103,
                -0.13190416601406382,
                -0.08581249345035906,
                0.2339329121001809,
                0.06482291693228091,
                -0.09348382987845744,
                0.3571639373754253,
                0.2710457187519378,
                -0.23920908712969466,
                0.23902158957436367,
                0.35494550873518904,
                0.03927195044547912,
                -0.2525970763165207,
                -0.0479615573328711,
                -0.09978174147484895,
                0.12471935456822673,
                0.061213961897122575,
                -0.31288234589509367,
                -0.3512990042031036,
                -0.13763162586330707,
                -0.004692259332169287,
                -0.17198646804595136,
                0.2539719198325408,
                -0.07862444361429985,
                0.19863881866691405,
                0.18450716715435056,
                -0.033434534792556536,
                0.057324096864779905,
                -0.2736399512126766,
                0.29507787695958787,
                -0.5172445745969638,
                0.2752230161749248,
                -0.168921920276399,
                0.11009709078304264,
                -0.007115640939010397,
                0.4738462443583985,
                -0.18137224105570618,
                0.7412482742505715,
                0.3054834566138793,
                -0.07816906104153591,
                -0.17200658323377058,
                -0.02947613924520392,
                -0.08413514440779114,
                0.32000703220280385,
                -0.0800957096695319,
                -0.27203837520711405,
                -0.2134811597579691,
                -0.08428173931386868
            ],
            [
                0.11206104948880653,
                -0.08570740645958214,
                -0.06530982218811601,
                -0.07305376943387688,
                0.14798242687509,
                -0.0058254312853887,
                0.029779588712408114,
                -0.11032586395677364,
                0.02816397904286973,
                -0.006499268884634894,
                -0.11901937371483252,
                -0.021851252563845753,
                0.019735115036404183,
                0.17267540733888287,
                -0.21140271819202153,
                0.1702067880711303,
                -0.1005042390478357,
                -0.13154484922702103,
                -0.009298946772340243,
                0.1467500453840058,
                -0.18425665339953698,
                0.2141943220622657,
                0.05773622909770524,
                0.10490969516248166,
                0.211640840833885,
                0.002105356399195947,
                0.17181041212869774,
                -0.12188451373794451,
                -0.14054834291679708,
                0.09206324794746855,
                -0.07594580441272826,
                -0.25399802871678984,
                -0.2474446456561509,
                -0.007682175311261407,
                0.20183052583025146,
                0.04641451425564934,
                0.15894065253955283,
                -0.0648360440158492,
                -0.10621553100534298,
                -0.18151111058638308,
                0.13265060546087146,
                0.1222280736510106,
                0.33603451742925056,
                0.181084381495479,
                -0.1436423601573387,
                0.0737846126613157,
                -0.09916549558399974,
                0.3427389874880331,
                0.3183809007139807,
                0.01696512483182477,
                -0.12887891689918304,
                -0.047904233685201594,
                0.25795507236221443,
                -0.008043638811207435,
                -0.10979797412973327,
                -0.01859533228388938,
                0.1094237507807996,
                -0.09395668388260398,
                -0.194147599933157,
                -0.2342370296402197,
                -0.09993933282921198,
                -0.08048388447533482,
                0.22550175758792237,
                0.07395007624674235
            ],
            [
                -0.2878499281663269,
                0.33140102888635103,
                -0.1562331657838841,
                0.12484649653014743,
                0.25498754054787004,
                -0.03997995875989926,
                -0.15899020412549336,
                -0.22557969946045497,
                -0.3560632718491365,
                -0.09010249691170279,
                -0.07143678150304826,
                -0.00014495622390272577,
                -0.03351247267512225,
                -0.042146671955766456,
                0.030678107716380718,
                0.031809117449046805,
                0.3465308079269973,
                0.18526630741874295,
                0.06090942995012413,
                0.2388628054900304,
                -0.11576415162403896,
                0.14242712203574137,
                0.10670761277616461,
                -0.1704381471284511,
                0.10036712082316514,
                -0.08644870964193772,
                -0.3849462700016667,
                0.02812287879480122,
                -0.20662303902828408,
                0.008696907981960817,
                0.015656386396493083,
                0.11564220813613575,
                0.048829908367350607,
                0.0575512194160666,
                -0.009272620463938137,
                0.010689286107804181,
                -0.10787936955249162,
                -0.5114439517612803,
                -0.1055623163525407,
                -0.043081709952237195,
                0.04979148909716556,
                -0.2156246481650268,
                -0.17959588559549647,
                0.02121372652721126,
                -0.30546027489981203,
                0.014055850803442725,
                0.12019650558523086,
                0.30624819156683486,
                0.08611085295312788,
                -0.029548701915489042,
                0.374783081930622,
                -0.4077471784945648,
                0.16972724584720913,
                0.20162772441268628,
                -0.0076180207310368,
                -0.14137468575824144,
                -0.46783217199119626,
                0.043048007323900385,
                0.16379090097347526,
                0.0001936344697366968,
                0.1723966935636352,
                -0.32180145537437005,
                0.0870291758243385,
                0.06734679354271167
            ],
            [
                0.3254761019823609,
                -0.0997113764104397,
                -0.2689035176299854,
                0.26949935206711145,
                0.12828870260318698,
                0.33484601949614357,
                -0.24625672037268004,
                0.08390492535522655,
                -0.17172773845305306,
                -0.13520989291537766,
                0.06038867431064533,
                -0.0324786213721508,
                0.006989627791156689,
                0.12862618066349363,
                0.14969831596661404,
                0.15027250340305232,
                -0.33098063409165784,
                -0.09312435018142795,
                -0.2618505788564657,
                0.00862615959631597,
                -0.2581533877432376,
                -0.18396893037641665,
                0.09179440239624433,
                0.018884837841662054,
                0.09499098063091134,
                -0.3171105184618898,
                0.01615662716015147,
                -0.2978462715988348,
                0.46616507750304426,
                -0.13613427395577454,
                0.044497519880492414,
                -0.205253160504589,
                0.04565637539255847,
                0.423519155116519,
                -0.4449504988459727,
                0.1471972090782104,
                -0.1769371920927034,
                -0.10302167354395306,
                -0.3066575627676715,
                0.4258632486031929,
                0.15271280009792432,
                0.08042678039183257,
                0.013409667853693944,
                0.2661139064179072,
                -0.38491262501098,
                -0.28671821184618024,
                0.040296088738921355,
                -0.05623598555538534,
                0.4055407361148656,
                -0.26942651037254456,
                0.08248263519771898,
                0.22369543633767688,
                0.40041641726762356,
                -0.48612370671617,
                0.3135093321195207,
                -0.3205744621567747,
                -0.13879926446293145,
                -0.24668313423764623,
                -0.4013387467430682,
                -0.22139793703542454,
                0.2736794801219731,
                -0.14530861217176386,
                -0.07684440332733827,
                0.592148522527227
            ],
            [
                -0.17747838987031558,
                -0.14104355459257187,
                -0.16356862519513762,
                -0.06873438409425325,
                0.10701148007203655,
                -0.05897656543340232,
                -0.07387514249933866,
                -0.25971670247044343,
                0.017219397980051027,
                0.23738628286441618,
                -0.024629230688464433,
                -0.13247743111730767,
                0.1484401362170524,
                -0.15940872766464587,
                -0.3076382709908143,
                0.16435291149750725,
                -0.1935774419765672,
                -0.1822161351891754,
                -0.08119511422534521,
                -0.08634431257622877,
                0.01452660824487581,
                -0.18004102772537506,
                -0.03878445570860694,
                -0.3046305921317259,
                -0.01775825712934533,
                -0.30000915087291385,
                -0.14351031712014317,
                -0.4075968367320597,
                0.2374958491994388,
                0.17716011948937538,
                0.25174443988171047,
                0.13798429410245888,
                -0.09699941558512677,
                -0.27790119062315616,
                0.3243547641740231,
                0.13034202782796905,
                -0.2011960797480667,
                0.2859263434925976,
                0.2739181525401922,
                -0.02766252823157869,
                0.38794441252941875,
                -0.40390864655419934,
                0.04908330350595975,
                0.031708579654793824,
                -0.26024978202274046,
                -0.21108460433540985,
                0.03178857762883052,
                -0.2839367249990004,
                0.09619431474157603,
                -0.05548656780013352,
                0.08891475581820377,
                -0.11107721070089357,
                -0.1196932310758595,
                -0.04140905960212265,
                -0.15088778163989103,
                -0.057264995025955744,
                -0.07783880186467447,
                -0.12191926312925341,
                -0.3016219586499233,
                -0.366931404363599,
                -0.12050185825171478,
                0.09703661810560216,
                0.32094703131020924,
                -0.29648292789364067
            ],
            [
                -0.2780104373383263,
                -0.10914038903026474,
                -0.1283758062238073,
                0.31261807731138425,
                -0.08829425399180597,
                0.162933919747738,
                0.2647353592368738,
                0.3197621765344622,
                -0.24440399520376882,
                -0.1325583270243053,
                -0.14446961006964423,
                0.04599388171430663,
                0.030018486052293573,
                0.1047830543603205,
                0.0007292833845906261,
                0.4493029137362538,
                -0.20374730016718184,
                0.05994204799755207,
                0.11981986727539423,
                0.006681203987226452,
                -0.22302899763400713,
                0.11088166504916527,
                -0.17726078568159762,
                0.10071292204661347,
                -0.02085300561401693,
                -0.3218637961251142,
                -0.23077435643121696,
                0.06099315527448019,
                -0.2428245663895,
                -0.03625308551385476,
                -0.2037381502853467,
                -0.060652638786253786,
                0.1330244964574245,
                0.23564194900607227,
                0.039302094804268384,
                0.2567362021366899,
                -0.03910589337260544,
                -0.3320667433456528,
                0.06434856251638463,
                -0.31964431756900513,
                -0.1364301188278515,
                -0.23518724137060396,
                0.10131512752593723,
                0.23389494471995817,
                -0.07009973202879152,
                -0.1746917448347147,
                0.14058096118868355,
                0.21068390237528198,
                -0.05011909055024143,
                0.10767749944917732,
                0.11278111810517868,
                -0.18780178694045055,
                -0.3439156333225973,
                -0.33881636587727026,
                0.26524196603425965,
                0.028146116603985985,
                -0.03701292436396919,
                -0.11025856509101017,
                -0.02147569610758378,
                0.1831921474644533,
                0.4738668727193163,
                0.0007274909209963537,
                -0.12014722232626822,
                -0.00689157231808477
            ],
            [
                -0.14283040990837473,
                -0.04242472144329402,
                0.04514318025683015,
                -0.1822363061055185,
                -0.14308770595722847,
                0.38306243287816194,
                0.05222473073644912,
                -0.07116253164850098,
                0.0492172846052373,
                -0.15424206088757964,
                0.2136337788161511,
                0.192789062284646,
                -0.12140530280598308,
                -0.09044397513642682,
                -0.08773156547155023,
                -0.11011427560813077,
                0.03916082974442201,
                0.07478175476556874,
                0.07430396913069018,
                0.012120661282535907,
                -0.029737069712163288,
                0.1040604043762608,
                -0.03207688388542105,
                0.17541741302362734,
                -0.05555126567969056,
                -0.3121209436163056,
                0.0006707807513363416,
                0.0665147559219967,
                -0.3960735187122925,
                0.3306755021683904,
                0.24691911799024038,
                0.2487312455237431,
                -0.09111298847405505,
                0.11876739685136967,
                0.017861364184446157,
                -0.013539607369133231,
                0.05962020995122958,
                0.1565700562281663,
                -0.09436416087367036,
                0.0871400416254425,
                0.04985829121796725,
                -0.09077179638546026,
                0.1559062951297018,
                -0.19545921033377212,
                0.10065307642950644,
                0.2060962305268466,
                -0.2457611931517377,
                -0.21018333076830115,
                0.0794926874840326,
                0.020641535252989934,
                0.12233108553844836,
                -0.11145189821859901,
                -0.24940887022217118,
                0.09286890498376843,
                -0.18343839607491408,
                0.1672867810910437,
                -0.09158724708183233,
                0.06524308602874744,
                0.16817939302702878,
                -0.06089585921845966,
                -0.18735860225486545,
                -0.3420108067921366,
                -0.03710318537288469,
                0.05253543776334573
            ],
            [
                0.013468115287271463,
                -0.21280682363585401,
                -0.2755120415717766,
                -0.026367206196417373,
                0.3385836691071009,
                0.2981774830786383,
                0.09095910482236316,
                -0.1268062527885679,
                -0.14472196578167967,
                0.22089571935415436,
                -0.23100809817625004,
                -0.08263622595099607,
                -0.001994997596887121,
                0.10399818380424927,
                -0.09933878737104432,
                -0.0835206898309328,
                0.16722196011064824,
                -0.21895885098196638,
                0.08548696332466293,
                0.15983811410097684,
                0.07968196272779707,
                0.5066722862585898,
                0.1256662158403556,
                0.03552100202572504,
                -0.026680360881721963,
                0.297531561908015,
                0.3232095773500609,
                -0.0033461040475163705,
                -0.053101685510629236,
                0.14070290123192336,
                0.346252935252048,
                -0.04667847920763339,
                0.2475692727817789,
                -0.294189067049277,
                0.07187628006661045,
                0.29462476192506964,
                0.11678075310197178,
                -0.5858786725700996,
                0.21514534962147452,
                0.23741587874418524,
                -0.22234582355400015,
                0.11611917256249367,
                0.34298286186766985,
                0.18847489872970993,
                -0.01075321075034997,
                -0.35293663373919365,
                0.13900190658077977,
                0.25442035784260786,
                -0.04713394481781238,
                0.028992648444247548,
                0.009146834958939285,
                0.020703468906720462,
                0.004116535343909391,
                0.10462793864765671,
                -0.048921729030738784,
                -0.020718852195183428,
                0.11090500271118549,
                -0.14436824702362547,
                -0.2564251881765695,
                0.1424012286131273,
                -0.141842372552299,
                0.0369744547272988,
                -0.09132588788107202,
                0.3063218278319838
            ],
            [
                0.19603919169212788,
                -0.08155135771028184,
                -0.21970856491081522,
                0.3620883546299568,
                0.12254730358185548,
                -0.46644446763127184,
                -0.23662830322507322,
                0.07975263628360323,
                0.10560128544857603,
                0.049854257969060595,
                0.2606906032419994,
                -0.2681031580048897,
                -0.047164944974855696,
                0.2959115625756039,
                0.06217221931311541,
                -0.171385233157626,
                0.021631292196176308,
                0.1243383776528474,
                0.039725820386454835,
                -0.0013097989549226334,
                -0.253503588514926,
                -0.4112611381457887,
                -0.22548948723533613,
                -0.07207769215338361,
                -0.21716469458193413,
                -0.3962797074017906,
                0.06783422166061372,
                -0.16524302351881706,
                -0.021570714188059295,
                -0.17294187887215107,
                -0.19105488061134218,
                0.018156664818670537,
                0.23260894191143555,
                -0.04446676847188415,
                -0.05350944398896615,
                0.13054056039257825,
                0.03934800274476002,
                -0.20213523426559654,
                -0.00994644466114454,
                -0.08519766196095964,
                0.25264234928768636,
                0.16049344760295423,
                0.10966027056209467,
                -0.36873089902432066,
                -0.0199255476800264,
                0.02430835814114883,
                0.12699618801700022,
                0.12306633779557276,
                -0.34853434285193235,
                -0.4080700976957841,
                0.321686699278485,
                0.08368574937157722,
                0.27453249567480514,
                0.01918322105864526,
                0.2530277502301291,
                0.016009132565328776,
                0.12791977185619202,
                0.18423980818027003,
                -0.1930277815485683,
                -0.027964196586755866,
                0.1654968170658644,
                0.04727592319995648,
                0.1771963224946488,
                0.052824609194949634
            ],
            [
                -0.23598233418540718,
                0.06733889092817721,
                0.5103339291101294,
                -0.36211013609922804,
                0.619957020163958,
                0.12464927083465738,
                -0.05006902034798582,
                -0.08006504193435908,
                -0.14712778674455418,
                0.02377440778183615,
                0.11068147469621302,
                -0.31781371797563945,
                0.27539139481087127,
                0.2259783488111901,
                -0.16182382110103155,
                0.10185147130684835,
                -0.017000258065789187,
                -0.06711730613941345,
                0.061083307368732034,
                0.052881902572560334,
                -0.11840146040683153,
                0.050620496554127634,
                0.29181378315006073,
                0.026361554807191254,
                -0.27507237977341176,
                -0.22863214979964172,
                -0.24280457098998073,
                -0.061874591145262094,
                0.049574368184734534,
                0.08767011760848095,
                0.16910788006516345,
                0.09074235886154003,
                -0.09297204035429658,
                -0.05080863999105879,
                0.5301207719379004,
                -0.35065763268995126,
                -0.2953436087499,
                0.3254706485897963,
                -0.026906649961773704,
                -0.19338229652179678,
                0.24856037880963724,
                0.005892185349248934,
                0.2728591531069103,
                0.0764447738076649,
                -0.06255733723068381,
                0.2532933214162256,
                -0.1923022067743308,
                0.44895021014712577,
                0.44447902131239064,
                0.0018124048222992923,
                0.3966755504799926,
                0.002931848910943818,
                0.12044337090936313,
                -0.12414512064318041,
                -0.2754239620872424,
                -0.15542603609111072,
                0.010665910421896808,
                -0.21879668063029392,
                0.12160717978574796,
                -0.12629288883891354,
                0.36258469159839773,
                0.4688437919788686,
                0.18968353747764652,
                0.029530708290350073
            ],
            [
                -0.24064960485471013,
                0.001132947050685222,
                0.38065490305492794,
                -0.1284939533221373,
                0.12456905223244959,
                0.3738049513299999,
                -0.09685223630462152,
                -0.19992059587656996,
                -0.03908814005988483,
                -0.32526769898242075,
                -0.0185733690015851,
                -0.08829762037039864,
                0.10884091464775181,
                -0.4009390974032336,
                -0.0414190340321309,
                0.22013934904591784,
                -0.12569778936267015,
                -0.2910037546233636,
                -0.08510451645644294,
                -0.06783041545831571,
                0.4711069138550316,
                -0.17015222510135827,
                -0.024596373720693815,
                0.09491865617810595,
                0.3776695794009083,
                -0.09179701866416926,
                0.32423534276681765,
                0.011528189990665917,
                -0.21546622858217496,
                0.12781641057030366,
                0.24686703344204575,
                0.09262747989703997,
                -0.05432780926198653,
                -0.405813855327259,
                0.05281389729957837,
                0.013315058480793411,
                -0.3082962055166076,
                0.8679887484663212,
                -0.13072948059764175,
                0.23661754895149342,
                -0.062273717577676635,
                -0.043225542803260054,
                -0.027297794089445424,
                0.11107719774739745,
                0.11573890325365863,
                0.38038732778924106,
                -0.014523525188720538,
                -0.3966827021642061,
                -0.2212770369369141,
                -0.09041617884769891,
                -0.09927505820244831,
                0.07612854284805654,
                -0.14625784888242888,
                -0.023765423078023,
                0.15842410766323373,
                -0.40085991985402175,
                -0.2556128971779768,
                -0.12102871966373907,
                -0.34590837189505724,
                -0.5017161466408169,
                0.33001032824171594,
                0.38138968591740097,
                0.26901149732607876,
                -0.164093575953766
            ],
            [
                0.30941785019984314,
                0.004550254518682036,
                -0.29528828435128474,
                0.2566529944698566,
                0.060535509819717566,
                0.0032269994098232508,
                0.1870290781908236,
                0.09566083281408164,
                0.04020832544790888,
                -0.023860314598104015,
                0.1772015398475359,
                0.3336010314210066,
                -0.08809416240328238,
                0.2735080120573113,
                -0.09254895259852951,
                -0.06166072531720164,
                -0.29583208902247876,
                -0.05452161194855396,
                -0.14997439096760345,
                0.0883101675567422,
                -0.14940324574951053,
                0.0031448783567665415,
                -0.007899537557494254,
                0.10052499054718278,
                -0.20375243549157246,
                0.1520816483740141,
                0.11574722107368424,
                -0.27197222178344,
                -0.1534492972547438,
                0.16763718819956658,
                0.1171901052112068,
                -0.043041574611572854,
                -0.047016403533037834,
                0.004131979152482168,
                0.18004686591661712,
                0.39986392953064787,
                -0.04985731434694821,
                0.02732925905735537,
                0.041838399505150566,
                -0.06578569792560193,
                -0.16501245523054425,
                -0.15117328615062,
                0.1707286741110546,
                -0.13946062064789608,
                -0.18892245772576147,
                -0.006910181619431981,
                -0.12578205257003766,
                0.023019642621372485,
                -0.2771544471633796,
                -0.21160767551553747,
                -0.30514148743938635,
                0.01690723617572774,
                0.007959177172869135,
                -0.2859941867580682,
                -0.5501830520193253,
                0.4494395082418333,
                0.16971895963362693,
                0.24434674979389412,
                0.018645811302605547,
                -0.15548064288535704,
                -0.03685800331926933,
                0.0726463645938935,
                0.2241720802447083,
                0.07391875883890275
            ],
            [
                0.004438505805842325,
                0.009818726125557058,
                -0.037678286708383246,
                -0.23013140523608222,
                -0.29207824562306156,
                0.2747460872424895,
                0.11777235607052183,
                0.1564243935190931,
                0.07225990043278621,
                0.14689432325540955,
                -0.17951293610364008,
                0.006132135351929551,
                -0.07241817436987473,
                -0.12418028764686795,
                -0.22670434947910525,
                0.055499822132855425,
                0.21725712624774254,
                0.05902967364007986,
                -0.4186595967887126,
                0.20368744753436238,
                0.25171482534608564,
                0.2986745124660291,
                -0.14218824251653148,
                -0.010902556702677084,
                -0.10325851348305573,
                0.3687518880509163,
                0.007836112507629424,
                0.1935044656139454,
                0.14467108045622126,
                0.05462560548474355,
                0.13071691425215845,
                -0.16586674030597826,
                0.2984586963673608,
                -0.23770530669030784,
                -0.13830205851744248,
                0.11670054687815694,
                0.06450665853563531,
                0.16250026221285271,
                0.2020874609123771,
                0.2233862338375003,
                0.1536649081271292,
                0.024755833336953338,
                0.16132684976797176,
                0.004679899118107143,
                0.14762839370635716,
                -0.12851985732709784,
                -0.06295057716496401,
                0.39596578631416907,
                -0.10598735167895873,
                0.22656744307830837,
                -0.3790729686581864,
                -0.07588513972299794,
                -0.09227053090298498,
                -0.12865886110647404,
                -0.38265466670007675,
                0.11781742671138115,
                0.2180377926992211,
                0.1775922787940553,
                -0.1496544597273557,
                0.12982719326660064,
                -0.03335009478420964,
                0.12527740942961862,
                0.3221705307097546,
                -0.0950538692006432
            ],
            [
                0.15632199978475353,
                0.20014309293734567,
                0.28150277077735814,
                -0.15061657361245195,
                0.18946160451223107,
                0.17015014169331236,
                -0.06081844867792282,
                0.27630230713716025,
                0.2158304790978739,
                0.0841503332493161,
                -0.02036641692584708,
                -0.34778066467336793,
                -0.09053288865889693,
                -0.009764060760199186,
                -0.13666670965335556,
                -0.1547559140930872,
                0.03965256502659508,
                0.24650146042226614,
                -0.014765800688010113,
                0.05408390054434134,
                -0.07240234270468136,
                -0.02198865626194903,
                -0.25865579004343453,
                -0.23562913957885748,
                0.21487956671225816,
                -0.10040546033810424,
                0.023048266421081185,
                0.18078155655934333,
                -0.2542437445304015,
                0.3295573534904599,
                -0.3117532404793518,
                -0.1654086371196885,
                -0.17092480650903485,
                0.2972407187628172,
                -0.27006013483262753,
                0.014202995805920384,
                0.39354001432218816,
                0.36572421026829893,
                -0.2228382734744712,
                -0.04131996939881996,
                0.07344234312832866,
                -0.25292834386776003,
                0.18455188687813182,
                0.09643671781118889,
                -0.21165491939911396,
                -0.01665773545996328,
                -0.08281838555620695,
                0.26866902777698154,
                0.11319281272331347,
                -0.20870853424609542,
                -0.19299229253349498,
                0.1512155721431855,
                0.07985252444407358,
                -0.4385152816791284,
                -0.059854659902510605,
                0.022355058977379477,
                -0.2619724808767168,
                -0.2000871752561497,
                -0.006089936877240824,
                -0.4204854110878488,
                -0.19525619642955558,
                0.010589283350090538,
                0.0320734028355936,
                0.20822782743504886
            ],
            [
                -0.06051154020920952,
                0.09200322116960213,
                0.09911914121409147,
                0.6061352001402762,
                0.20449244054790808,
                -0.09430663416460176,
                -0.3924763983812426,
                0.20205694382699965,
                -0.00244726038907099,
                -0.15739361897339268,
                -0.16994640068994218,
                -0.037597535880825365,
                -0.15553823481116477,
                -0.375307043105498,
                0.07156637137633873,
                -0.2547615213482537,
                0.10973353957294776,
                0.07378152007166373,
                0.03779703580224477,
                -0.17337163304862446,
                -0.05297605978951528,
                0.050803685309911625,
                -0.14718304348057618,
                -0.09391115569788448,
                -0.07473211320042897,
                0.33879909483119447,
                -0.06447459863689006,
                0.16313280803481656,
                -0.21178802950325942,
                -0.11649258597242054,
                -0.2858446048237635,
                -0.15036019635622722,
                -0.20764544317512526,
                0.021626490600104995,
                0.10693844671817881,
                -0.06970865176879901,
                -0.11534017851545171,
                0.019070714677416344,
                -0.4860586039516696,
                0.04530203894905024,
                0.21468597327275335,
                -0.19800517364228684,
                -0.16790656954490799,
                0.018430035734010187,
                -0.2709712290940613,
                0.07962255428979037,
                -0.21321430368365962,
                0.07959682664512831,
                0.10017673189080212,
                -0.07097798760337742,
                -0.022535805636926615,
                0.14799585733899256,
                -0.14447440105209952,
                -0.04303243795203822,
                -0.2780377770563744,
                0.3354208954850187,
                -0.3561222599289295,
                0.31839632201859164,
                0.20854066541465305,
                0.1644898809805452,
                -0.27901900348765846,
                0.5238195631869338,
                0.08321677678736232,
                -0.2896008401296755
            ],
            [
                0.1912338450510901,
                0.5341472028618246,
                1.0021307912187278,
                -0.3499811696573058,
                0.04203866899696732,
                -0.03355978665956182,
                -0.030160389469050707,
                -0.01888141032273502,
                0.1512282420227154,
                -0.08871900109121346,
                0.44311440421152487,
                0.14534386954518305,
                -0.44574706162202576,
                0.29269843270200724,
                0.1924594504925472,
                0.3043137964141499,
                0.11592223606335454,
                -0.2555927885784596,
                0.32799704901290666,
                0.2887051031615124,
                0.23654554867536093,
                0.24236851289678069,
                0.01948856386819096,
                -0.36332427961716135,
                0.3393572426030882,
                -0.21325302212830127,
                -0.15582090132160878,
                0.3609532508450503,
                -0.31296552744616934,
                0.19911294206384955,
                -0.13248533017511788,
                -0.09171034550758805,
                0.08456883146984258,
                0.0119622218331021,
                -0.1808204570504823,
                -0.27679918011044213,
                0.0013702222348073174,
                -0.03471817227656927,
                0.03106314333420744,
                0.05088642865477142,
                -0.1544635703878997,
                0.25426907838039553,
                0.014812606566170903,
                -0.39355849145800703,
                0.4889304878214664,
                -0.028715635100707317,
                -0.18643630627462948,
                -0.3897862927734007,
                0.14611411261959045,
                -0.33369244321696384,
                -0.08169304624311703,
                0.07159468545975084,
                0.07225521792974858,
                -0.10783668012863369,
                -0.12464763055817807,
                -0.4559920129010477,
                0.4079310069496544,
                0.00563538708512916,
                0.03330224788890705,
                0.25208836528903816,
                -0.20580382952429704,
                -0.03950666952397846,
                0.8064342614045996,
                0.04135826114790019
            ],
            [
                0.2717219471122055,
                0.03914488230032254,
                -0.305798583583913,
                0.11219738939934176,
                -0.21680550994626047,
                -0.1626327600313371,
                -0.043475864075387755,
                -0.012011750108830757,
                0.18685630639933656,
                -0.23980463668130142,
                0.061394386659500685,
                -0.08991275504361305,
                0.01789286444422959,
                -0.16181544884840637,
                0.05972368564093563,
                -0.05952393508129113,
                -0.3237821810144729,
                -0.051347300525536745,
                0.12953088661791062,
                -0.20498594048142704,
                0.07250693507749849,
                -0.006629169743068952,
                -0.14850339813192703,
                0.21482527556619185,
                -0.2346555005467167,
                -0.10117424422132175,
                0.5530893866950282,
                -0.192986893877094,
                -0.017443661069283183,
                -0.30773524515968914,
                -0.07023394212106061,
                -0.14306818478409844,
                0.07828460953220406,
                0.5438683893983073,
                -0.2566582279342325,
                -0.08214530733452008,
                -0.4450015798477815,
                -0.42282067518547856,
                0.17097321663994516,
                -0.3072558458821562,
                -0.21270270157116056,
                -0.021052514373974863,
                -0.006782698818456738,
                -0.16019267625009886,
                0.05440742103584968,
                0.18388557601626498,
                -0.18452556250993635,
                -0.287248701591081,
                -0.03569102859939569,
                -0.07931429714728808,
                -0.06926078268204892,
                -0.10339740785087137,
                -0.02960389117906181,
                -0.007392373620204873,
                0.04401942302461256,
                -0.02655950062896967,
                0.06509541387150304,
                0.06594955966892167,
                -0.19052718577585878,
                0.16200660384020005,
                -0.031110278811966194,
                -0.11572563423551227,
                0.21070026519935883,
                0.0026081635266554325
            ],
            [
                -0.36948718112985285,
                -0.2880988185196494,
                -0.01172214057719451,
                -0.1319355978166338,
                -0.16270719549780258,
                0.175513280205537,
                -0.014406885797471035,
                -0.0023408324943826153,
                0.1321575576005403,
                -0.16082715922870502,
                -0.15514807195682548,
                -0.044175770507634715,
                0.1022741627960103,
                -0.1337232526438682,
                -0.18669456916336755,
                -0.020817081239160835,
                0.10337669175866254,
                -0.055772981964541606,
                -0.04705603182753634,
                -0.09601681991945277,
                -0.010708266741663443,
                0.5646382134555455,
                0.30977356522574484,
                -0.1006076083943465,
                0.011614827328704447,
                -0.034884424691520866,
                0.3147275969373803,
                0.12796108342590257,
                -0.024409989439036488,
                0.03460449480847273,
                -0.15352973811513107,
                -0.23440554949323794,
                -0.18658503378460337,
                0.030406757100179656,
                -0.036400045684058226,
                -0.4283419868848301,
                -0.00667206252111349,
                -0.03234424844337321,
                0.29813608124003477,
                0.017441692293764206,
                -0.014661750745923356,
                -0.11838511967010759,
                -0.036758606146741826,
                0.1899163877544085,
                -0.08280737715144268,
                0.20735443567968412,
                -0.15392768882655275,
                -0.11489512400536603,
                -0.11720133163190989,
                0.13150286503103897,
                0.30467418993417567,
                -0.4698322426910706,
                -0.04834362755531926,
                0.04598460473107508,
                -0.1541253744576794,
                -0.10116551054939557,
                0.0027441889879901305,
                0.05480411343769745,
                0.12453683404661803,
                -0.3684094939325666,
                -0.0582368204180204,
                -0.023710418084306406,
                -0.18925608274669786,
                0.3575295455125035
            ],
            [
                -0.13968681354778667,
                0.10931270941826436,
                -0.44224476534884266,
                0.0492901355358681,
                0.03761839253876559,
                -0.09374844026470258,
                -0.16373353173166993,
                0.014455661481991962,
                0.02140198585907545,
                0.2851207351826162,
                0.037482459514318424,
                -0.3591304666740936,
                0.02655074689329588,
                0.003638384906905738,
                0.18581682209307132,
                -0.07164107385267335,
                0.14847770430782606,
                -0.050322946260666156,
                -0.06659860059553362,
                -0.4739209908337544,
