{
    "architecture": {
        "input_dim": 6,
        "hidden_dim": 64,
        "output_dim": 4,
        "hidden_layers": 3,
        "dropout_rate": 0.0
    },
    "weights": [
        [
            [
                0.09432630950621061,
                1.0771960086232955,
                0.4605515663772258,
                0.1576927744249368,
                -0.4061679799589039,
                0.6577408318915122,
                -0.1698525854649819,
                -0.5804864365928097,
                0.08507417338551887,
                0.7913166064895246,
                -0.5782815935086347,
                1.5611506926730332,
                0.29578260309341364,
                -0.3469576527708726,
                -0.30947046166367986,
                -0.3289855044901451,
                0.925222377912577,
                -0.1872914442739631,
                -0.579809735917761,
                -1.3874756665193617,
                0.283466887050507,
                -0.018286140926902856,
                -0.5984856598784887,
                0.2961444001576892,
                -0.30136564970168694,
                -0.12947402630015775,
                -0.04841569443352536,
                0.3214972435997661,
                -0.057778271253575965,
                0.20937795203490853,
                1.0347453267741267,
                0.08821253102497734,
                0.8337646884737421,
                0.5156670854175429,
                -0.33119671116470323,
                0.878281799208135,
                0.23235458685089644,
                0.01428093008996543,
                0.5864197297483889,
                0.9271352808383105,
                0.9509256796995358,
                -0.926981741222159,
                0.3635173581146684,
                -1.1751288053284497,
                -0.2379008355283659,
                -0.319434634126075,
                0.28599191782864625,
                -0.554446521806916,
                1.1757699938661652,
                0.1179493786717259,
                0.5060705893379154,
                0.40573464744481313,
                -0.31235818079606054,
                -0.13651941744597546,
                0.25290206816261857,
                0.7766568456195668,
                0.8370528578721053,
                -0.0014531378181103882,
                0.5134520361083664,
                1.2900172699831014,
                -0.8401830892648677,
                0.17878867250381805,
                0.4038586073229001,
                0.07176077158712811
            ],
            [
                0.01418178037525161,
                0.0067631949242406425,
                0.2856470904119957,
                -0.22885243209122152,
                -0.41118348001712757,
                0.0657158790125123,
                0.5305364850192426,
                0.22310654078902534,
                0.5358744801164745,
                0.8307771068996599,
                0.8951247393773119,
                -0.5205019307179705,
                0.6727492882467198,
                -0.5486364118112692,
                -0.8196194204547945,
                -0.534631232288343,
                -0.5164085857865426,
                -0.04779668417221805,
                0.18836316042446413,
                0.2598166681661388,
                0.07937632424802869,
                0.10553719013218187,
                0.43590621286940834,
                0.3319381701089564,
                0.10142413597159763,
                0.7330660857895978,
                0.4826040763100023,
                1.1112230795794722,
                -0.30512191305800207,
                -0.6712689157397069,
                -0.14739381000919488,
                -0.7825847092472235,
                0.9431306520514724,
                0.2692498875565347,
                0.30061428203850804,
                0.3190103736946215,
                -0.3220922581664872,
                -0.1494824058730477,
                -0.13492131838660146,
                0.040237328484494315,
                0.8215858555908081,
                1.134409369091671,
                0.7067108021320486,
                -0.5990380281614321,
                0.3629610018664371,
                0.8124407600371953,
                0.5606683804122973,
                0.5759287600282785,
                -0.8248837357958074,
                0.08121446341988947,
                0.3770619854092551,
                -0.17652218068447367,
                0.2199609359402031,
                0.05248390696231338,
                -0.24722669070116476,
                1.495949176460796,
                -0.9006676816002179,
                0.8350190234963903,
                -0.11627976121200087,
                0.18588437191860469,
                0.5076875467166397,
                0.30848535836872054,
                0.46860522769633317,
                -0.18404706861223508
            ],
            [
                0.15878812613157267,
                -0.620579488935923,
                -0.16115514979077117,
                0.1284023215295597,
                -0.9087042986382042,
                -0.5616892946099855,
                0.05409065518631898,
                -0.6610370259271544,
                0.1750974269434503,
                -0.1342170166701191,
                0.1943284860507611,
                0.2950039142276457,
                0.9258199332426869,
                -0.007130559143109711,
                -0.2961549605806109,
                -0.5713351522743084,
                0.40079141323670203,
                -0.08236242325115727,
                -0.6812431681468119,
                1.1172749402097835,
                0.3026588251404948,
                -0.5774277857712418,
                -0.43611820654386996,
                0.585955922479546,
                0.7026483980324977,
                -0.0784949478811701,
                -0.6103508521957761,
                -0.2626734116796395,
                -0.001242839020759414,
                -0.8211460322347718,
                -0.031381667006594255,
                -0.8839344219072689,
                -0.523146009403905,
                0.060335529649141566,
                -0.3414620847877461,
                0.5581917624339555,
                0.1719693316139333,
                0.36793701068879686,
                -0.28188997010697114,
                0.8669112998147857,
                -0.46567458401112155,
                0.5131858156156637,
                -0.09113127972559008,
                0.8892660128297744,
                0.39576810134274465,
                1.08225709456311,
                0.146532536482644,
                0.1477458543021547,
                -1.0928257845259655,
                0.49977561703011436,
                -1.2266843685489044,
                0.9790421385237013,
                -0.1293010982962056,
                -0.7118866463306041,
                0.226701765636181,
                0.5507699579342704,
                0.6758394063433647,
                0.7675645868324841,
                0.9528004779438054,
                -0.1336555779222725,
                0.050605219516226894,
                -0.7006527346932859,
                -0.4169893794452092,
                0.18212072664191525
            ],
            [
                -0.47470309830205454,
                0.15323483405738,
                -0.45308260229811664,
                -0.16924828410769444,
                -0.6324439820687419,
                -0.1874121241102033,
                -0.2713431592088503,
                -0.904203147932553,
                -0.2786735031825776,
                0.1629969495740602,
                -0.1981115905634824,
                -0.6750936391506345,
                -0.43642074500615113,
                -0.2623479660074852,
                1.041997691982313,
                -0.32323803595418976,
                -0.5237261074094802,
                0.7784117935842856,
                0.392370295329567,
                -0.16006653923370454,
                -0.29969346303238564,
                0.00265202398161365,
                -1.1312359508118015,
                -0.2637524395779811,
                -0.23040150021018213,
                -1.001294740579776,
                -0.035452262505654315,
                0.41517082940660444,
                0.7814014630036489,
                0.10613302427025828,
                0.19061245466464447,
                -0.1726493762405491,
                -0.5660250302490808,
                0.24981208295393548,
                0.7463200515355034,
                0.2382008259233483,
                -0.4513709450792995,
                -0.027271498470698614,
                0.49738850625484343,
                -0.7678565285267084,
                0.663105316273031,
                0.1623791483982562,
                0.6035938613788653,
                0.0006252109480929428,
                0.5513195368162204,
                -0.9262288529774735,
                -0.4651896365127075,
                0.34605204571755255,
                0.14308144260489972,
                -0.061372617981093606,
                0.6628784026979131,
                1.2175543311633563,
                0.8382931357592436,
                0.06963093503420296,
                -0.20125604091802995,
                -0.9877284762369538,
                0.13011945068784367,
                0.6416098250613286,
                0.3628003240821602,
                0.03879851291985468,
                -0.6195967521176069,
                -1.0656276514441498,
                -0.6414398266427639,
                -0.21330887493332049
            ],
            [
                0.49852201820045405,
                -0.6262318413277336,
                0.6579149484852366,
                0.43526248483346436,
                0.15425647173550142,
                0.8686616514315743,
                -0.2449866485509556,
                0.32073346859021423,
                -0.2193264931874332,
                0.22534983899252364,
                -0.795803734403161,
                -0.10025381961608584,
                -0.2890907653871798,
                -0.7602419854154159,
                -1.056710416137221,
                -0.019340882261516507,
                -1.3163253295108333,
                -0.46579806773044413,
                0.4608827346153257,
                -0.32463732479889207,
                0.9176787159924678,
                0.19975724547889925,
                -0.055890880720754314,
                -0.4006227198108213,
                -0.290654063663831,
                0.17177779312275257,
                -0.1809394345090286,
                -0.9063177908016234,
                0.6544545253995445,
                0.5595922736499751,
                -0.4047367263453129,
                -0.2909067893467236,
                0.6534379390918523,
                0.8946227608506799,
                0.21684925927072898,
                0.1760921377505936,
                0.6846330253848207,
                0.07203181913622832,
                1.0763926847647476,
                -0.41737458225593793,
                0.12031889399121273,
                -0.0643772699280096,
                -0.31564307183046225,
                0.4517315921313613,
                -0.9123838625902299,
                0.783898004983666,
                0.5816373906316004,
                0.13729172235408393,
                -0.14798027713233314,
                0.07446282381403319,
                -0.5444504050224171,
                0.22043805432989794,
                0.7743723337143769,
                0.45275637388550977,
                0.08023200791787766,
                -0.02076774443264465,
                0.24688289205444874,
                -0.5640269657850292,
                -0.05648184974742358,
                -0.2995630159344521,
                0.4330640520029233,
                -0.44415764644396877,
                -0.15961051587337563,
                0.6093137664538758
            ],
            [
                -0.41477718876152125,
                -0.2950822784797756,
                0.1246128458617612,
                -0.44624757184528613,
                0.8492195832287748,
                -0.3700701946112678,
                -0.6397136091753832,
                0.40629368941901345,
                -0.11605922028710568,
                0.6533571541747819,
                -0.411218428132095,
                0.6885329097003028,
                -0.661846486016456,
                0.3825187883137632,
                -0.4058255669915045,
                0.25133321549185134,
                -0.5291421303337797,
                -0.010740158754772303,
                -0.11680027879110447,
                -0.19740987368286006,
                0.47388895399435926,
                -1.2352483199978723,
                -0.16250895972972665,
                1.1723265969649537,
                0.01192204994939563,
                -0.1424388974914974,
                -0.553292075028164,
                -0.3661920573014354,
                -0.09968913884576584,
                -1.1926190848501974,
                -0.5423614484375295,
                -0.075963482646485,
                0.9136373458508228,
                -0.7160462435929286,
                0.10935724172605568,
                0.20341818765479966,
                -0.5988587612676243,
                -0.36492994226216324,
                -0.6163888297331394,
                0.9562745683622741,
                0.16412674852675643,
                0.41419949577164583,
                0.7588357302549631,
                0.51515371728089,
                0.8751708944770233,
                0.4729068176500635,
                -0.08049926207025633,
                1.1452141594865601,
                -0.05018784152242737,
                -0.015255605819707684,
                0.3591859855999014,
                -0.42481901804552796,
                0.5445580250923218,
                -0.39604256699858,
                0.6389520673376415,
                -0.9786747621265606,
                0.26502963191275725,
                -0.17972054549504773,
                -0.8394707479527651,
                0.7379133824058287,
                0.5331898027208568,
                1.1143799229465543,
                -0.23171852640329316,
                0.0053936863314328325
            ]
        ],
        [
            [
                0.13614251503063335,
                -0.16702345444525907,
                -0.043155710255288214,
                -0.0134298107757367,
                -0.049956265497181664,
                0.03542653060841255,
                -0.29537169240597255,
                -0.15565340558793428,
                0.07099475415071535,
                -0.07314094162132066,
                0.19670438064386805,
                0.4296717177422362,
                -0.12496297367821994,
                -0.03333796979988703,
                0.09678291171162298,
                0.0705218013520224,
                -0.16611132637840897,
                0.1464348744151984,
                0.3056743384687357,
                -0.06280956336662447,
                -0.09013377256312478,
                0.04957661946640811,
                0.14530659632291823,
                -0.21481482040801575,
                -0.04934118168954482,
                0.08827102035838857,
                0.0469176222581056,
                0.1765278726074285,
                0.21427064368798387,
                0.021580522165379715,
                0.017041618734391025,
                0.19979298447809743,
                0.2303308632269785,
                0.27156459659869486,
                0.0496146362635458,
                0.37264253147603604,
                0.1444612005799743,
                -0.28347141685759475,
                0.15969113141372515,
                0.006584552937679329,
                0.36389908843562,
                -0.1473770730075255,
                -0.15239926581359164,
                0.11446131816627936,
                -0.08795817649931052,
                -0.18512664655453706,
                -0.13179182934682238,
                0.16591952789455705,
                -0.0750404620382967,
                0.12939952760794488,
                0.05546106626737029,
                -0.2877678793699569,
                0.19371616990837212,
                0.19590025180896797,
                0.21037370112359463,
                0.04570500316614771,
                -0.010135492679421541,
                -0.050941910292136634,
                0.04369571277815108,
                0.20361165754303842,
                0.3811795983975392,
                -0.07876301771913956,
                0.15512442224444611,
                -0.21630508690475528
            ],
            [
                0.03090988202567854,
                0.02965178385916928,
                0.03845881188741723,
                0.04822793177239548,
                0.04614077299891957,
                0.10707822241876788,
                -0.2671796568388121,
                0.2158658002305603,
                0.12101059779448789,
                -0.3744309538521572,
                -0.2617910770302066,
                0.16852224057745302,
                -0.150856632164533,
                -0.0637721719100489,
                -0.39876732197345943,
                0.06611828733171785,
                0.06499121620858159,
                -0.03190149355833744,
                0.4691436147370784,
                0.3286583930632402,
                0.14236326621877882,
                0.07095182972087076,
                0.1864996536455372,
                0.15649745229222073,
                -0.00257597646644467,
                0.19628405150621203,
                0.12235307901979955,
                0.12963237183685028,
                0.043963753164927,
                0.08339413682147681,
                0.20024096427664773,
                -0.003318683549248226,
                -0.2389616384556345,
                -0.2688347828233462,
                0.0221238741380281,
                -0.03585439634536848,
                -0.018519793877505596,
                -0.18758647877310394,
                -0.036168859397186635,
                0.1518867365948598,
                0.07917853849765792,
                0.01536588321899688,
                0.05179107962091762,
                -0.2679948579502767,
                0.4144420305926067,
                0.06048367276492359,
                -0.1583279539551336,
                -0.2589432114093409,
                -0.24593859934466974,
                0.4416872357295721,
                0.11999554070206099,
                0.05012111478138242,
                0.33016808303187667,
                -0.046490752999127125,
                -0.06308265639075197,
                0.17641033545232432,
                0.2871552482435221,
                0.03511269139014128,
                0.12713553406963168,
                -0.1625751109397747,
                -0.16278567373706737,
                0.09473101552242165,
                0.355011562141435,
                -0.19802868651671565
            ],
            [
                0.1171161376251113,
                -0.04076157597554808,
                0.11083358720806126,
                -0.059313124480525,
                0.1499903112293277,
                -0.2593445881561531,
                0.171568543157704,
                -0.3870172261883822,
                -0.011951300000412233,
                -0.06445402552832885,
                -0.06585331087567428,
                -0.024546334021144263,
                -0.23345140869689804,
                -0.03934380637648782,
                -0.005956065176278116,
                0.01449287117902203,
                -0.17824706640751453,
                -0.02662340644468761,
                0.05118409416741556,
                -0.04762219441033099,
                -0.11271845745850684,
                0.012268247048256934,
                0.18978063322967773,
                0.15571171105416673,
                -0.3599427670182851,
                -0.036914516577542675,
                0.01978629733222642,
                -0.2806289718387394,
                -0.016063284182781204,
                -0.021639134987248856,
                -0.28685040992000793,
                -0.05289418262886803,
                0.3154506664509312,
                -0.18460210914885683,
                -0.00780233078214241,
                -0.14580709165642616,
                -0.09189919568371854,
                -0.057545550165838774,
                -0.1487599140089352,
                -0.0008081191335880362,
                0.09387362252266672,
                -0.06735515580204927,
                -0.13228681428291109,
                0.10084695209801209,
                0.012053535479821837,
                0.04657123986724687,
                0.04686762697658017,
                -0.08571064065040528,
                0.04682840792481684,
                -0.03280938387226809,
                -0.3441609538500029,
                -0.016025674438372328,
                -0.3742236353852423,
                -0.2677745896173405,
                0.18159499445100594,
                -0.2684880786691376,
                0.0037050373765069944,
                0.009673190996349074,
                -0.16833079814066743,
                -0.11392795251084734,
                -0.18438948399060082,
                0.22149639124453155,
                -0.010582181881165276,
                0.16568578303088516
            ],
            [
                -0.18987071817140405,
                -0.04758868284405462,
                -0.11116625436674056,
                0.10595910986365847,
                0.20719196939432058,
                -0.06154439848405711,
                -0.07690585011568445,
                0.13268415011074566,
                -0.051098249696269755,
                0.12747270011254067,
                0.0011363394394992485,
                -0.25951545254806185,
                -0.08247426162675293,
                0.20470749110480868,
                0.012236324060990797,
                -0.08919714583582436,
                0.17023546982242457,
                -0.018163914420150844,
                -0.18353459126635926,
                -0.24813117467556364,
                -0.262156039657726,
                -0.18065958614335917,
                0.17467132747652897,
                -0.29062674833568664,
                -0.35726905054441965,
                0.060894395831480715,
                -0.05167003187904099,
                0.0775406534585695,
                0.010765924131992682,
                -0.004180049187746618,
                -0.5699770908419733,
                0.07999801379150188,
                -0.09589872481027487,
                0.07998671033221864,
                -0.01819532197293215,
                -0.07853788920602904,
                -0.3090484515291718,
                -0.05486112025701572,
                -0.5292021223272898,
                -0.07142261973034726,
                -0.1668463065285513,
                0.04157458816789969,
                -0.15040228460043167,
                -0.28723916116888754,
                0.4649016085849746,
                0.05140165971514483,
                -0.05427352835662712,
                0.11897729419183944,
                -0.20611253031536914,
                -0.33523508063848884,
                0.016936116019061545,
                0.01717224984915335,
                0.45862130578692845,
                0.00900044404322776,
                -0.1070212214460558,
                -0.17808433225913833,
                -0.053989716063586615,
                0.10130846336554095,
                -0.22743725727238542,
                -0.16242393061587393,
                -0.10733660943135319,
                -0.17882477760845697,
                -0.25891949120165697,
                0.31413556450200547
            ],
            [
                -0.2589241680832553,
                0.13307089377518752,
                -0.09356248353003817,
                -0.03627127367207828,
                -0.07661365181464735,
                -0.23250465057705372,
                -0.08819335515176022,
                -0.13331766451743524,
                0.22283276490480264,
                0.10223407148145458,
                -0.09298105211337786,
                0.20130048541754125,
                -0.37323680493274897,
                -0.09353621840727347,
                0.03634972053242859,
                -0.14318920292230033,
                0.011125522966903724,
                0.045313829233655976,
                -0.03861640541695524,
                -0.06481644104983188,
                -0.24463045717951204,
                0.20884159600669686,
                0.18927464210361875,
                -0.05599825464744274,
                0.15084261077978464,
                0.29370074192905143,
                0.19108518289317203,
                -0.14980488613337442,
                -0.1884356010060796,
                0.0920703019518505,
                0.1683673487159934,
                0.20978004931853927,
                0.014447498863376526,
                -0.06873218490918122,
                0.186719298428626,
                -0.15185150685602095,
                0.15098567850087435,
                -0.27171637349409394,
                0.25182533871057455,
                -0.03551430014452029,
                -0.2332381745061932,
                0.11560804338104944,
                0.10205723075260868,
                -0.2985321551312287,
                0.14836183053305144,
                -0.024658621029168774,
                -0.22038097292072112,
                0.2588144005308511,
                -0.08981229320475873,
                0.21033336713938489,
                0.0795134735361,
                -0.24832351947260958,
                -0.07951729276725132,
                -0.022916097492312992,
                0.15229870200507137,
                -0.024280123579132326,
                0.03456753786913309,
                0.256424870337432,
                -0.01947891172438045,
                -0.2005985673951084,
                -0.01516255490915647,
                0.24169729905269946,
                -0.05292285892481229,
                -0.15809056152008297
            ],
            [
                0.024143345342751314,
                -0.06068573337904314,
                0.07589244797843472,
                0.10880842901027343,
                -0.10964772543898042,
                -0.08793487550060272,
                -0.08651613435965828,
                -0.16552684439735132,
                -0.053527473907183425,
                -0.10396568683207931,
                0.1179462518301874,
                -0.043830577606238874,
                0.37457510785926124,
                -0.10931947675576083,
                0.16047534370943878,
                -0.16021506513606135,
                0.036900577022794166,
                0.11966330897257703,
                0.036633266620957255,
                0.1468520022733965,
                0.20217706004707792,
                -0.265638185888262,
                0.24980150866023637,
                0.1649850230912418,
                -0.02729110217395111,
                0.2382860801743187,
                -0.19785500183086874,
                0.053004618271930815,
                0.06095611744126817,
                0.24772582135798207,
                -0.14522690108160458,
                0.003727714240139955,
                -0.11149252099515738,
                -0.2487333538265471,
                0.05117289905650809,
                0.11366195140084923,
                0.24386502958794815,
                0.20472979799062926,
                -0.36785304484577586,
                0.10471837864037743,
                0.15378703677104988,
                0.4914861499921871,
                -0.03512504608506556,
                -0.03373837244759633,
                0.03841241230998889,
                -0.15981464752438937,
                0.07859313049353683,
                -0.030225698292062026,
                -0.19953739759606573,
                0.11604212729938562,
                0.1518277849105928,
                -0.10057607290804396,
                0.1558290166054716,
                0.21470530813786598,
                -0.012323148778523278,
                0.010323364775870257,
                -0.009457922647215426,
                0.06682025361396435,
                0.04107148655972349,
                -0.16329815043362944,
                -0.049767363075124936,
                -0.08008823768119709,
                0.38184946690532473,
                -0.17111498924906773
            ],
            [
                -0.11097104546273617,
                -0.015934662760078617,
                0.09721981464105604,
                -0.26550426253666826,
                -0.1595188365487177,
                -0.4471048892860521,
                0.06119910564600612,
                -0.3502911351802712,
                -0.087082169521715,
                -0.12212802072810132,
                -0.12772871354914994,
                0.3399382795135593,
                0.14074498987431702,
                0.20442638365688112,
                -0.024457607769147745,
                0.23172504732008775,
                0.004272185518522318,
                -0.09452056230699347,
                -0.0741821134414036,
                -0.0851394592971084,
                0.1820708215484454,
                -0.005802619011105454,
                0.20944880758871987,
                0.12828354227636685,
                -0.02990484552579755,
                0.032032116030497965,
                0.03251335548333251,
                -0.13939026885154054,
                0.21854515972379146,
                0.33981363736878845,
                0.1095407455519593,
                0.15955363135733155,
                -0.2405583834684455,
                0.285047872469343,
                -0.06300177799823226,
                -0.21256052705012085,
                0.0018899519940867064,
                -0.025647512045830247,
                0.2749796067193195,
                -0.2694740966681174,
                -0.2989451242264379,
                -0.20644394171350877,
                -0.12070575382407984,
                0.18391742044814807,
                0.026263365719099336,
                -0.1621145209116565,
                0.03254953145095872,
                0.03174549917640997,
                -0.17912938097275796,
                0.16230224250888425,
                0.6501254740825757,
                0.12499349507348978,
                -0.06770703784562804,
                -0.09342539499644595,
                0.19445697525287003,
                0.04463396415577863,
                0.10806655683016456,
                0.1031804321304389,
                0.07877702458372686,
                -0.25621478055436475,
                -0.06430454302748655,
                0.28234364048557575,
                -0.27607755019542735,
                -0.02867478673931717
            ],
            [
                -0.1256768467104957,
                -0.3691268748522515,
                0.12279160946789046,
                -0.005697627113067768,
                0.10589667738628546,
                0.2975851799773982,
                -0.26982292846950345,
                0.4575850369181556,
                0.01839386813434606,
                -0.2656597179837386,
                0.1564188701330701,
                -0.0010159475236422124,
                -0.13110052267241945,
                -0.2559265760517574,
                0.02543423720341593,
                -0.01635007359003823,
                0.07224114189216008,
                -0.20680439772381212,
                -0.24567514171315574,
                0.0023626835976774192,
                0.25476070120569344,
                -0.10322032133187634,
                -0.002728692472828062,
                0.08064829054957817,
                0.15370782733630758,
                -0.10580163823107404,
                0.11954860270462267,
                -0.11053196856612363,
                0.144505595814011,
                -0.039793911288663324,
                -0.0842710259703991,
                0.09889864994830616,
                0.2513801514830072,
                0.08621745038410357,
                0.14106905871358913,
                -0.10295236416988361,
                -0.13791322710860937,
                0.47099903790373565,
                -0.06987265211005857,
                -0.09129035131230809,
                0.4546533514907726,
                -0.057676454344533216,
                0.0977995034542202,
                -0.05416415093714741,
                -0.2216795156471272,
                -0.0017462661394833073,
                0.12457028266980609,
                -0.1734254244339931,
                -0.2945720673499642,
                -0.10740584904814073,
                -0.017558878279749224,
                0.011610149108514854,
                0.025384811089674133,
                -0.20417504823867305,
                -0.13837875415648598,
                -0.1416840483217893,
                -0.2530600882839376,
                -0.13723752663541802,
                -0.010939296283458216,
                -0.18752127038244573,
                0.3316829744202501,
                0.013426530990720416,
                0.05844592949600875,
                0.2916566088827964
            ],
            [
                -0.0972070411357822,
                0.08990767432112645,
                -0.03123040857684034,
                -0.057661545473239165,
                -0.0603252613635808,
                -0.03252920099287234,
                0.20351333877487035,
                0.14102891622667096,
                -0.05172231262602583,
                -0.11426346571851861,
                0.04432732126101675,
                -0.06502598996073067,
                -0.7231076831110127,
                0.11824622414397395,
                -0.13847398653548418,
                -0.08746404889719663,
                0.2228399213950895,
                0.14028713951614513,
                -0.014088114619005377,
                0.2565324645582227,
                0.3150507532323489,
                0.035322515507172074,
                -0.06273484755645596,
                -0.16275477683761283,
                0.22831574703401875,
                -0.010873901604545896,
                0.08983131253645085,
                -0.09240877182360747,
                0.3398466017622471,
                -0.1324522246469172,
                -0.20078653823585738,
                -0.14385999001737496,
                -0.0576894263918472,
                -0.0812795858837531,
                -0.21184315289841427,
                0.20278743739106272,
                0.015398879185781408,
                0.31212667689195267,
                0.05405742342273119,
                -0.0460780628247656,
                0.003427301427933055,
                -0.0527683471309345,
                0.11910328751008183,
                -0.04826419045099483,
                -0.32891438799319217,
                0.027171337031412432,
                0.2602798236379014,
                0.26875471584527316,
                0.2629996333938311,
                0.2636473133510093,
                -0.19219854539042225,
                -0.2305339573572115,
                -0.07233366594326163,
                -0.171856656458651,
                -0.07048693464361222,
                -0.15741191036859878,
                -0.18140663740213225,
                -0.038280773429369364,
                -0.20041159797913904,
                -0.010391919107393949,
                0.18615365572885537,
                -0.2009580093864588,
                0.15371070402520745,
                -0.024081820676464527
            ],
            [
                -0.37664258029262293,
                0.028179037293701786,
                0.09844936589968348,
                0.3243250598126654,
                -0.2545495147215315,
                0.1487134124500425,
                0.06615695835697011,
                0.08117204486915194,
                -0.048555280733338764,
                -0.15595232221565108,
                -0.09642549164231129,
                -0.0748919270368559,
                -0.2292130789390684,
                -0.12139681170194429,
                0.035400028888043764,
                -0.06124937530481606,
                0.07528760949365668,
                0.09184940749979958,
                0.061528623464747675,
                0.6935291509946826,
                -0.04825146341226902,
                -0.12470900449759932,
                -0.3627031280545476,
                0.010883239406371351,
                -0.21898758782862968,
                0.02443501531942248,
                0.023675396979222198,
                -0.14645980953244658,
                -0.1543993783607252,
                -0.3177745133891671,
                -0.108893649453228,
                0.23217546614514323,
                -0.23399850991366297,
                0.12021278596669852,
                -0.22708959241980045,
                0.10021436861967808,
                -0.04605183271594612,
                0.1717759163092029,
                0.1938006318006271,
                0.1701996407328079,
                0.0028755498781783797,
                -0.1782439963034664,
                -0.15264134285032427,
                -0.13628659667411958,
                -0.27820744446822904,
                -0.23822982998299935,
                0.24579518629687422,
                -0.274091887926874,
                -0.00838332318882152,
                -0.030222229645543653,
                0.026077252129194015,
                0.14702189239668506,
                -0.15288868825277382,
                -0.17504957977810634,
                -0.06248672379071926,
                0.13313185272058548,
                0.11747505748843637,
                0.21447153243218053,
                0.3228408479306173,
                -0.08384907692471043,
                -0.40517386525652455,
                0.072261466690193,
                0.04767509811368438,
                -0.027467620217672815
            ],
            [
                0.008401352020396668,
                -0.10637643760672988,
                -0.2581539818408116,
                -0.2536046478697387,
                0.39607668471066126,
                0.1675260208822874,
                -0.043909717369284236,
                0.3214124538166072,
                0.037904454375285494,
                -0.3006187134598104,
                -0.29162721673971304,
                0.25859361608316817,
                0.056999979556177166,
                0.07474129221210644,
                0.048281950930241874,
                0.1337177629319027,
                -0.07717175255371583,
                0.052461333289559764,
                0.1744821039195352,
                0.021109622331851638,
                0.023659353892026235,
                0.023291153565704204,
                -0.1841666654210972,
                0.14006226384461845,
                0.022627385967364643,
                -0.36884750514164555,
                -0.2877979589646874,
                0.13278875372848578,
                0.27724429153862845,
                -0.02409381990826236,
                0.0025250928593371575,
                0.14407337485040322,
                -0.057918275793011995,
                -0.18880948208449866,
                -0.05154771546754156,
                -0.07633682034640503,
                -0.050281902809010556,
                -0.3232111378391593,
                -0.15368435834790564,
                0.03489374796362375,
                0.24864607653003049,
                -0.1710979882942356,
                -0.15575802917531414,
                0.11620940302669666,
                0.24485651433389768,
                -0.2434075400793261,
                -0.1286648763559429,
                0.0055209070189464705,
                0.12610630591236457,
                0.22807967747282248,
                0.07567050634153118,
                0.1340790951183504,
                0.38210208800967643,
                0.20323172116729396,
                0.20870334332665572,
                -0.04562716091314,
                0.19193183070749523,
                -0.37997258921291255,
                0.285173310359721,
                0.35769337310313615,
                -0.2992272486604493,
                -0.3098048341826751,
                -0.12101927152417398,
                -0.18890589558104462
            ],
            [
                0.0954028376035089,
                -0.05622316255846036,
                0.06056752872470869,
                -0.1814556792150508,
                -0.10640973384184056,
                -0.11492476614430293,
                0.08654071062762356,
                -0.3621846629354321,
                0.17445628271128666,
                -0.2536798778916451,
                0.12868309523626317,
                0.1345351756509072,
                0.07952758406361846,
                0.15174197756059601,
                -0.24684868597712917,
                0.32142945143309504,
                -0.1169337007741356,
                0.16243395081224704,
                -0.07752723262351398,
                0.1329935811103416,
                -0.10389341582931859,
                0.3790717094346309,
                0.2131196836125499,
                -0.3382763904247907,
                -0.11120373333311401,
                0.015679147885757333,
                0.08677367188533207,
                0.23143139288671197,
                0.08230050303315205,
                -0.09589465415348777,
                -0.10891648819101792,
                -0.10832467132767976,
                -0.1477362322698617,
                0.134987370886771,
                0.048117947257859776,
                0.22519101871056474,
                -0.09319253311540927,
                0.08062412444926391,
                -0.0461697133231583,
                0.030942939580454853,
                -0.29932541627163345,
                -0.00345147312762395,
                -0.13022575192221764,
                0.22636550102527103,
                0.15310723292293935,
                0.29097727704370957,
                0.1011425828096889,
                0.19037232730859388,
                -0.07345757123119948,
                0.13247836601151602,
                0.010554635571640962,
                0.02063324209440764,
                0.09075620026978931,
                0.07382141915788845,
                -0.30237744906364333,
                -0.10933234682384715,
                -0.07951910086617404,
                0.3538370431400524,
                -0.3358152594912264,
                -0.07327239377787521,
                0.032217468062283094,
                -0.14681989076776777,
                0.11611699967086064,
                -0.20320285455462506
            ],
            [
                0.09798390251639208,
                -0.1567856419597926,
                -0.08927403137998856,
                -0.2855423020670354,
                -0.16872925795823393,
                -0.025655724255143283,
                -0.056321132415086995,
                -0.16264593581095518,
                0.033397666275263686,
                0.31061805066560144,
                0.2926552250384939,
                -0.03396030307412462,
                0.032795040526557996,
                0.3987181321230429,
                -0.178290104914573,
                0.16449219410057297,
                0.12118872779607073,
                0.27764476354059037,
                0.04940457310651711,
                -0.09122998384498363,
                -0.10117167178178318,
                -0.16024155922518815,
                0.18585506466543744,
                0.11273738491508702,
                0.053064381723300046,
                0.11913714195000072,
                -0.4448605414158083,
                -0.03799108222785496,
                0.07617602879287544,
                -0.1538027112691015,
                -0.251606924202191,
                -0.25305564050703705,
                0.05865759707539621,
                -0.12095223970507432,
                0.20691143392923061,
                0.02743520891991816,
                -0.019950560650939576,
                0.16936339265426603,
                0.14356289353517573,
                -0.047453113157224024,
                0.06315205558728663,
                -0.02592641179533215,
                -0.02838807438376166,
                -0.12716165439799898,
                0.17656885694594257,
                0.1384099697166767,
                -0.12670454274049214,
                -0.1215960378058111,
                -0.27860057231307245,
                0.06125446480848317,
                -0.004377817203373008,
                -0.04451220756510311,
                -0.33443259454530094,
                0.06330310110618567,
                0.03226514355591261,
                -0.2631824268528143,
                0.07937394281643961,
                0.10839212161279414,
                0.19047316676059145,
                0.10979031432601813,
                0.24212060137181207,
                -0.0810953745302671,
                0.28695026749324,
                0.005495683351668625
            ],
            [
                0.12469049166457465,
                0.20658956824788938,
                0.11589841588227284,
                0.09286833348482705,
                0.029115466827337268,
                -0.34886434120115123,
                0.08569628635499123,
                -0.04521167431476115,
                0.07273524229230446,
                -0.14015730894116699,
                -0.11617112974491513,
                0.3071833909102306,
                0.011679757962759593,
                0.01544024230710048,
                -0.25155398254114414,
                0.09158440607072586,
                -0.03731404839965364,
                0.0808942541949342,
                -0.10070880696207464,
                -0.11882706031953622,
                0.3303359669388143,
                0.3381543125044399,
                -0.22031940464812852,
                -0.19128115626835845,
                -0.06823851584168561,
                -0.009926819095292479,
                0.05762453328490425,
                -0.29407786021441784,
                -0.17880073547930977,
                0.08512489000521423,
                0.17254085461126564,
                0.20393781371241815,
                0.09931595051807594,
                0.1312541797845227,
                0.3161103924385829,
                0.3209148870803126,
                0.28334456539667846,
                -0.24811088112243804,
                -0.289999145305089,
                0.009616342615082651,
                0.08608503070569101,
                0.32129184363101937,
                -0.1891598218582174,
                -0.17938831081460183,
                -0.11270555308391025,
                0.14599015188803416,
                0.19857711477577925,
                0.02885523467192679,
                -0.10816621151495671,
                -0.1932985147431905,
                -0.005904787825245738,
                0.11319258878299854,
                -0.03084435061837986,
                -0.2432219240176891,
                -0.25026931758165805,
                -0.01961836346804223,
                -0.028857022271423626,
                0.17405578790950163,
                0.04655588464808691,
                -0.047936233036487995,
                -0.08975868357557955,
                -0.3474868509891502,
                0.11936781704700723,
                0.20350646743913064
            ],
            [
                0.16586568651508896,
                -0.05340008982014304,
                -0.14686200546670927,
                -0.14747519849320329,
                -0.05694076904882749,
                0.27848617891578675,
                0.28432198115556145,
                -0.3674796970089482,
                -0.21685931585181398,
                -0.47207504137740697,
                -0.292057109685673,
                -0.09312018229518737,
                0.0772302073690236,
                -0.24159633370213152,
                0.09017709947855272,
                0.019673514001998904,
                0.1527768671313572,
                0.2504874905893431,
                0.1609836753674687,
                0.09376996315309874,
                -0.037231674300527595,
                0.05194523438604524,
                0.5254184354803146,
                0.010491413214767382,
                -0.21606217544099707,
                0.10414481691594399,
                -0.003770657914207014,
                -0.1079429644823228,
                0.34091805880831444,
                0.03948433068304134,
                0.13740466602927878,
                -0.07203726395881774,
                -0.2958840692112527,
                -0.030916652090802174,
                0.10082726795662339,
                0.11335856507565877,
                -0.04790018614818193,
                0.3475421181132262,
                0.19891506643380644,
                -0.14264259742834928,
                0.12490538206878925,
                0.1560204304101985,
                0.3438240041875815,
                0.000680282618355333,
                0.1351677751612067,
                0.11963937089935626,
                -0.1979040547696816,
                0.1738581966216765,
                -0.02727357291661952,
                -0.10010391580313038,
                -0.045702415144884795,
                -0.11338928667555824,
                0.1940018870232073,
                -0.0009691900008087495,
                0.007041669991369508,
                -0.09210957853496356,
                -0.10266518432839046,
                0.1725612237799866,
                -0.37483823304524583,
                0.4868828593548306,
                -0.12078860551807538,
                0.1398665086671114,
                -0.14539068383387105,
                0.08311634255803158
            ],
            [
                -0.14563707043277643,
                -0.3929437018140818,
                0.21728293353470476,
                -0.050221409681091914,
                -0.12495487948461483,
                -0.12086028551758485,
                0.23420015441924866,
                -0.0740120016977605,
                -0.3293005985000818,
                0.17421259555678176,
                0.058130995846388755,
                -0.007449009863466374,
                -0.4257969246083229,
                -0.00896056916949611,
                0.10445323556466048,
                0.1676278310342282,
                -0.0883625704889361,
                0.02591917489754511,
                -0.07772236288662156,
                -0.1873624640077886,
                -0.22933708601537217,
                -0.08323493351859593,
                0.07412169726428638,
                -0.05936395379471785,
                0.16968266014214217,
                0.12102353089858904,
                0.04847748180303817,
                -0.05395855246958662,
                -0.007156287008149526,
                -0.19735902565953128,
                0.13816060414292045,
                -0.17636677853124447,
                0.15487927449569483,
                -0.11862489665680513,
                0.09952585636883057,
                -0.3012658464991575,
                0.15662786946219637,
                0.1690026898414233,
                0.13695656830374,
                0.08252582918897644,
                -0.007262891822084477,
                0.2910151116442578,
                0.07926048897193014,
                0.00761097277988388,
                -0.18895087218813056,
                0.2971489499687949,
                -0.07181335215013152,
                -0.2378592478092416,
                0.09326610192258154,
                -0.2813901462296068,
                -0.0717497650282444,
                -0.07244449967337414,
                0.5171346745297576,
                0.11395930769217291,
                -0.09066432802345296,
                -0.058838651931312345,
                0.13800902643546997,
                0.14786940559179884,
                0.06079206719353271,
                -0.1996514314054301,
                0.1524709922035313,
                0.2226894404862106,
                -0.06703217278204952,
                0.08806664554522953
            ],
            [
                0.21943523924141464,
                0.16383920739071867,
                -0.0355572044621024,
                0.49997710056281486,
                0.14829103900072285,
                0.27684678651763295,
                -0.2194581663007855,
                0.025841226790150922,
                0.13794647202381488,
                0.1668547576563301,
                0.00697007743860483,
                0.18771973408508805,
                0.20427787275090808,
                -0.22565592915215188,
                -0.13602258035940035,
                -0.10522058901137608,
                0.004836808444885034,
                0.0009629617882501391,
                0.3019190917582001,
                0.10146134679928379,
                0.12835760527321247,
                0.0752546626399385,
                -0.057092922057869325,
                0.0627198763516129,
                0.04067301337176046,
                0.24280648609891958,
                -0.3246088471661166,
                -0.15195930153736453,
                -0.08657896534278495,
                -0.14677491938823864,
                -0.05168593167343739,
                0.13826952676153706,
                0.391742380140909,
                -0.1670084327723426,
                0.24434256324221632,
                0.2799068895932021,
                -0.13175697607868883,
                -0.0038029808509302044,
                0.23470156358741406,
                0.012593960920547414,
                -0.23187059904905555,
                0.09926276018040799,
                0.1821930174722056,
                -0.19650645456226698,
                0.011906319664507153,
                0.2803516141671641,
                -0.3266313093605695,
                0.04990506190310576,
                0.3137034356786623,
                0.10723847943403782,
                0.054594378279699256,
                -0.19354619203983342,
                0.021580230035931385,
                0.06873936076245775,
                -0.16467720320370274,
                -0.21146268174281455,
                0.08451827722230938,
                -0.06861950569697758,
                -0.23082365199097962,
                0.14600919712044402,
                -0.03239418530234431,
                0.10035956538434435,
                0.09725205698038941,
                -0.27311429992795844
            ],
            [
                0.11687294087146081,
                -0.16420264461506162,
                0.07824394372636972,
                -0.2853027458197648,
                0.06504070895678485,
                -0.006649777907788419,
                0.12130527511047952,
                -0.34461815186607975,
                0.013517630626842655,
                -0.01751599189325446,
                -0.45240588443995833,
                0.06148718803861493,
                -0.08237817751859249,
                -0.06254210577109459,
                0.1196298666710117,
                0.17731823995518606,
                -0.291220839451592,
                -0.44792842453968,
                0.09880058713935064,
                0.22961524731905145,
                0.12581582661765542,
                0.1795900329990454,
                0.30415737434184986,
                0.1199603218407764,
                -0.07031558352601638,
                0.23319887330361175,
                0.33083743455483544,
                0.1906780979297293,
                -0.0067270643708537145,
                -0.27834511139451057,
                0.17201073596598285,
                0.401488312290856,
                0.2304399865609948,
                0.4222469115266519,
                -0.03529667547665344,
                -0.12474254721374561,
                0.24673607390189806,
                0.234012727054323,
                0.06603841482261026,
                -0.3286963845303143,
                0.014832129621053566,
                0.3600800702799832,
                0.03420714809668095,
                0.036598684994655364,
                -0.06788069515639082,
                -0.30730544431229584,
                -0.1371381487589192,
                -0.2517037560021902,
                -0.0903485875049375,
                -0.14058175342090995,
                0.16439670926151057,
                0.0023153787729010143,
                -0.1344074049014465,
                -0.013836980044670913,
                -0.10230746502403774,
                0.0624515477350222,
                0.16063300173675937,
                -0.151437023492417,
                -0.07215557342740234,
                -0.12504993924268762,
                -0.149594317223626,
                0.14441226210938019,
                -0.17580035230805624,
                0.17163343109414303
            ],
            [
                -0.04911909262710536,
                0.21166036324590384,
                0.24943961363636472,
                -0.051548362250023086,
                -0.06786244969239154,
                -0.032032106740451934,
                -0.05372585547261902,
                -0.05400440847082392,
                0.02937441569140426,
                -0.1825629979044631,
                0.1183969342506964,
                -0.24015891892795813,
                0.24301888694801094,
                0.05946536270524324,
                -0.2347151995761098,
                0.2591887934665188,
                -0.2562306967660606,
                0.04947317039504821,
                -0.031681693932053494,
                -0.5015032126263819,
                -0.02704912702711911,
                -0.21448655331292257,
                -0.03353528172968394,
                -0.29178499166561633,
                -0.12446553072810719,
                -0.12823891421500783,
                -0.04981197451738758,
                0.10224780029003423,
                0.2211042979185458,
                0.01399836228732254,
                -0.05423411802488124,
                0.10402961010756488,
                0.01034801770018286,
                -0.09387110691455627,
                -0.4141357361554939,
                0.14492814479755164,
                0.15532326642341818,
                -0.1531270717994556,
                -0.058030869441062234,
                0.22911970601885662,
                0.16058194562900915,
                0.14653085899368123,
                0.16943770532742033,
                -0.16570940071393309,
                -0.27092109902528666,
                -0.014511991780477244,
                -0.2320651873533507,
                -0.13432114459070857,
                -0.07634138213110508,
                0.016121407710960163,
                0.4494959981161663,
                0.22270651238488745,
                -0.18145790415295285,
                0.006808500552587057,
                0.2739229140070465,
                0.10268238359973855,
                -0.2319707370806486,
                -0.27747114385173105,
                0.19929821295471575,
                0.3312783140254077,
                0.14763799069070335,
                0.1670499057915826,
                -0.14338892315623103,
                0.018501164881007514
            ],
            [
                0.17465200192091976,
                -0.003967612314230147,
                -0.07705103249556154,
                0.2367542249779867,
                -0.20505899725288715,
                0.0028339979381595648,
                -0.17761906762072316,
                -0.203784384543399,
                0.03872173958696508,
                0.14386104346542844,
                -0.23055919209405173,
                0.13570016873489602,
                -0.09408402486191295,
                0.0008467443688735557,
                0.0493808675008512,
                0.14157769128043168,
                -0.028209264485647475,
                0.06940029779193738,
                -0.18383593404334547,
                0.2381823142411292,
                0.045064777313257844,
                -0.02431200740128212,
                -0.16792325647591325,
                0.022852842376061697,
                -0.15934512754897354,
                -0.11721980806725872,
                0.1811134274458558,
                -0.2517954169524573,
                -0.03113280837134756,
                -0.16871298590985853,
                0.3412487256949857,
                0.031160714993608212,
                -0.057390829961862705,
                -0.11934125812994849,
                -0.19744557218929634,
                -0.013020650664319696,
                0.13804808325325355,
                -0.21183894219497085,
                0.010923317265330041,
                -0.06942213587676177,
                -0.05366887766480162,
                -0.40926940347445534,
                -0.04327568108003691,
                -0.17035829604062286,
                -0.13877210001715312,
                -0.2769694583026985,
                -0.23788021666107495,
                -0.34827682247528763,
                0.12563763511228018,
                0.036744538292404746,
                0.19128341393137857,
                -0.3539551510867659,
                0.014931592284280109,
                0.1088840297042902,
                0.47052611455991533,
                0.10354620640683698,
                -0.01803609902703404,
                0.06570542205606515,
                0.07495018999631364,
                -0.11931558712783659,
                0.14360758271913382,
                -0.14655406234751775,
                0.19201167052179202,
                0.2228682060795935
            ],
            [
                0.2915562160885579,
                0.2726588315358148,
                -0.251683810344684,
                0.013912710554044918,
                0.2579556079781913,
                -0.23322468154076614,
                0.10221238500349025,
                0.010161405695352699,
                0.07871038944135034,
                -0.05355571584078645,
                -0.11885338945244396,
                0.06854158010525876,
                0.34377842852503976,
                -0.09511372308279556,
                -0.18510735838808906,
                0.003606377716099413,
                0.03274303162644303,
                0.018076244666539495,
                -0.1345318205559675,
                -0.27808765646915273,
                -0.14954515001422733,
                -0.08426625030166839,
                0.10698680257952746,
                -0.061969020395402294,
                -0.02363177674595006,
                0.04455644506269561,
                0.12682169048303737,
                0.2515415416529638,
                0.3708036413857453,
                0.0043650945259188605,
                -0.1829089341840954,
                0.044167086072411404,
                -0.045884533989379715,
                -0.3097341230776941,
                0.021168579656449214,
                0.15380180095699805,
                -0.16807468536073777,
                -0.14024406681180462,
                -0.020327130765788914,
                -0.10863446150732937,
                0.4156788910855072,
                -0.19086107302747235,
                -0.2396319680090654,
                -0.10228336267012134,
                0.11885178273881102,
                -0.040786195581999064,
                0.3350847667789138,
                -0.12920035840222097,
                0.05697618936226775,
                -0.010763621850654936,
                -0.016794295155357852,
                0.06854072897910932,
                -0.37731437932438566,
                0.1454477827091548,
                0.36378358706353076,
                0.1475637814287184,
                0.18590841326148205,
                0.11664135969231168,
                0.09450246791759404,
                0.11267599941499651,
                0.17679837532082027,
                0.0015860491523448372,
                0.08408505600436877,
                0.24955670394943535
            ],
            [
                0.02664648627855682,
                0.09488970419434739,
                0.06288275479014985,
                0.14033068585732617,
                0.030287818456730967,
                -0.42615867386394124,
                0.16216375912656766,
                0.05773644879178767,
                -0.24032250585166418,
                0.18045945807900707,
                0.2269426312073499,
                0.28594375279488815,
                0.012974272540625675,
                -0.1554614192412083,
                -0.011031167755160283,
                -0.07036470691462124,
                -0.22470363816918767,
                -0.2524340064087857,
                -0.3937643105392793,
                0.014606813368008491,
                0.11302496526140775,
                -0.379225446436079,
                0.12360472816143303,
                -0.136638134493586,
                0.1900723715856818,
                -0.09598386403698361,
                0.10217866026304448,
                -0.16548516925967766,
                0.11807128595937487,
                -0.06788254699698716,
                0.25232615188442226,
                -0.16079730412655638,
                0.0756015449728411,
                0.17860437846601557,
                0.16630535450139447,
                0.05500464222321367,
                -0.05460937504212295,
                0.030074469333912963,
                -0.12109722075186725,
                -0.014407910950694046,
                -0.05071696045073961,
                0.016939517177587574,
                0.21565814219887508,
                -0.2426057080602412,
                -0.15569499025778372,
                0.0780858405430025,
                -0.04087553497104528,
                -0.12197567709711575,
                -0.02246554047918696,
                -0.06617550240890151,
                0.2016006755490447,
                0.10694495057271243,
                0.13631970172551583,
                -0.011547295475264154,
                -0.19189570859572727,
                -0.20088188410030888,
                0.299419328735797,
                0.1232221547209559,
                0.22160317026475823,
                -0.21607479985953115,
                -0.2770707031741421,
                -0.0716110041142328,
                0.08816309729535173,
                -0.04006389664371752
            ],
            [
                -0.19569468323016564,
                -0.10431661097489267,
                0.11138248403796516,
                -0.27615632196248124,
                0.282026134260179,
                0.005672352046085343,
                -0.33848501044497303,
                0.10511099874639092,
                0.13466423943337968,
                0.26307789473664195,
                -0.06351295553706042,
                0.04433515429117633,
                -0.011362324939088484,
                0.10205336165062148,
                0.07825340116919101,
                -0.1291280598663259,
                0.04690042364200434,
                0.033296735474698316,
                -0.06457160541743576,
                -0.033463474553144794,
                0.21797137670856712,
                -0.14329300932958972,
                0.07960570369433252,
                0.029800790921498333,
                0.13344151556247544,
                0.09169025435154127,
                -0.03844517737664457,
                0.5049644303620221,
                0.22286322315874862,
                0.12037359147739307,
                0.09634152699113153,
                0.456273482097647,
                -0.13108432441900605,
                -0.37985264028914667,
                -0.036353841952425345,
                0.10442821104863646,
                -0.06905667044134932,
                -0.028062775275116022,
                0.32639209690447873,
                0.19630887436571126,
                -0.23272987402624262,
                -0.31884461780499945,
                -0.28929236211542375,
                0.05660022488153499,
                -0.053534066287781214,
                -0.13681730717509724,
                0.03969409630584078,
                0.18687782849124226,
                -0.021421656446632884,
                -0.08346809919519964,
                -0.23376761940993276,
                -0.26264456910575606,
                0.061688268278536205,
                0.06298417095627175,
                -0.2021716537283465,
                -0.01969507811719555,
                0.2777604714438185,
                -0.14995052966774253,
                -0.13415929279081137,
                -0.12963174829957103,
                0.15742444214730772,
                0.04997057652615054,
                0.2665870900029661,
                -0.2259917952118401
            ],
            [
                -0.10303475237082613,
                -0.09092648018821947,
                -0.15091513500772588,
                0.1579699847214022,
                0.11312666819647021,
                -0.062017552032341085,
                0.3319654734690027,
                -0.36382284149901617,
                -0.16328461683828985,
                -0.15473848536674348,
                -0.08443998116160992,
                -0.12218120344230254,
                -0.17335024587999764,
                0.17431282846454674,
                0.25147702673114863,
                -0.017375957563557528,
                -0.056201859332151445,
                -0.2967962869666104,
                0.1611474959544005,
                -0.030734628474224302,
                -0.036468689583143844,
                0.19031585900663736,
                0.1673367963117569,
                -0.04170391502221208,
                0.004747444013453493,
                0.02382497042019581,
                0.21233140977558448,
                -0.023868058837040216,
                -0.007965585038609443,
                0.00642459109483848,
                0.061570807286714074,
                0.05361452776426204,
                0.12329784060705701,
                0.13200489740311805,
                -0.20228238728524506,
                0.08785896237111274,
                -0.1055112263192164,
                -0.0884223423188526,
                -0.09517225384608315,
                0.16131312837425,
                -0.040392235518892976,
                0.16195014261035212,
                0.12875949550514196,
                0.17711800914446757,
                0.1481752814016811,
                -0.0898382600678369,
                -0.05415033750735263,
                0.1900948067685696,
                0.0825270474853709,
                0.04017209168848493,
                0.10501235379286597,
                -0.5106985897228247,
                0.13620957942103412,
                -0.018678924394535504,
                0.06575446874776483,
                0.05880334869103376,
                0.3252554416476756,
                0.31015110679565494,
                0.04511045400789661,
                -0.054740059921109384,
                0.03621424801797275,
                -0.28265085103306,
                0.16623109994420796,
                -0.16904991722974463
            ],
            [
                0.36978565184090223,
                0.15153419655834008,
                0.008154180371817869,
                -0.047722663500421834,
                0.07510929888739945,
                -0.09123181040444438,
                -0.05320586830653959,
                -0.11964579315998976,
                0.12343765522861246,
                0.21458362397376424,
                -0.020688929469003636,
                -0.03607700801866338,
                0.06836106415614322,
                0.12385537944393701,
                0.1736030577181781,
                0.07842516386713096,
                0.043517006576136975,
                -0.027273845809177074,
                0.03997101380446468,
                0.15012718981990347,
                -0.052147765264512196,
                -0.006543832667702946,
                0.03313199164787883,
                -0.32692660578936794,
                -0.055271190960745085,
                0.09424434362808114,
                -0.09574941520123857,
                -0.28700698317663736,
                -0.39435551261348706,
                -0.12474380891613499,
                0.1692828783922987,
                -0.2586246810488743,
                0.012247966234836868,
                0.1084660478889968,
                -0.02414002176562923,
                -0.08801877929385606,
                0.11091615883816061,
                0.0098034976351757,
                -0.05371878414729629,
                -0.007332624484788012,
                0.040563709148084784,
                0.05818694348597259,
                0.011956446626531041,
                -0.19860113558617362,
                0.0973355514487835,
                0.06017491718923984,
                0.17064948650663941,
                -0.0050289391854576645,
                0.019694917108926877,
                0.3046577812012406,
                -0.11799907735092945,
                0.4860476965492438,
                0.002748821522711781,
                -0.08355446264883737,
                0.018731539473602298,
                -0.12639898807262737,
                0.04996938052907478,
                0.08867493904215658,
                0.1707289559156853,
                -0.2015920572864566,
                -0.33060870265779696,
                0.08209134745083589,
                -0.029746719642021028,
                0.14570832815148435
            ],
            [
                0.172733531791908,
                -0.313881524471312,
                -0.42406648753374826,
                -0.30789861455136974,
                -0.0863947173637919,
                0.09708716670091887,
                0.11791012598607704,
                0.05223493533654046,
                0.1465459055120184,
                0.07980679701816974,
                0.4221832151236705,
                -0.003451929522752126,
                -0.20570617547519782,
                -0.05160593174377578,
                -0.0025341007612395892,
                0.10605473384855657,
                0.014031627149788832,
                -0.04511571447707591,
                -0.04492770139971004,
                0.09591093864873661,
                0.010687773817993787,
                -0.1369368080137578,
                0.0765515671292125,
                -0.020032860781450543,
                0.05658898252332533,
                0.07640404131054462,
                -0.012137537092791471,
                0.21334102106695674,
                -0.15607172712841091,
                0.015475381209303191,
                -0.10469028725542857,
                0.3777563694111673,
                -0.3538051989389603,
                -0.01717440981584953,
                0.152648409504296,
                -0.16862039606425497,
                0.09003889880505843,
                0.06537489525383772,
                -0.06016441528399368,
                0.036689881231368085,
                0.2863358370768687,
                -0.15822069822168672,
                -0.19144635055917583,
                -0.07261746090722085,
                -0.009018551957540654,
                0.1675122926525086,
                -0.06164450939208524,
                -0.08429846783570648,
                -0.032557089640055444,
                -0.33397032997893855,
                0.0621134335911173,
                -0.15858130737537243,
                0.13191875882884127,
                0.2354992780020788,
                -0.4053234071073579,
                0.042585031116954726,
                -0.11916887178152147,
                0.2654518394215765,
                0.1846883187239032,
                0.15073787999994467,
                0.10391738711641636,
                -0.6495792167085361,
                -0.008173403363689703,
                -0.1444869837074173
            ],
            [
                -0.018859744381071884,
                -0.17038949547786997,
                0.040870070066317314,
                -0.06486123209183699,
                -0.030215318201995488,
                -0.03198813658973405,
                0.3780073894087894,
                0.12487346070637806,
                -0.15638613736224444,
                0.19106372787382195,
                0.22026150403298106,
                0.05805788184805616,
                0.11191536984277117,
                0.0032129057999931688,
                -0.031141630266968968,
                0.19315820387709837,
                -0.06974496402508144,
                -0.2823380574814029,
                -0.06274627501047529,
                0.13821779600802406,
                0.1936887544527709,
                0.26612424116497774,
                -0.00019929346642926226,
                -0.13034947799236088,
                -0.17374633340260892,
                -0.007548850720281204,
                0.011819858672972649,
                0.2291629202510475,
                -0.35156189150450534,
                -0.02577476299836392,
                -0.19739152504861224,
                -0.2486605419687417,
                0.23289756014966453,
                -0.21202616620904416,
                -0.09480017030302856,
                -0.045266657126554366,
                -0.13871412893769094,
                0.07490372360146412,
                -0.12327360514781165,
                0.011515259996232818,
                -0.16624720496612977,
                -0.11481544866620577,
                -0.07818160232753525,
                0.11578276589598967,
                0.09037320867204869,
                -0.4027862547568375,
                0.35958721110109665,
                -0.016709730725950674,
                -0.17319795930579396,
                0.17733249955395325,
                -0.07412883688562848,
                0.1762303980891207,
                0.27355189247021744,
                0.04212440643232117,
                -0.08266667299988546,
                -0.06632771032752546,
                0.1374140582775801,
                -0.31689806402530046,
                -0.05756448946144198,
                0.16341643637654885,
                0.3721894164096427,
                -0.21788112203818416,
                -0.0020255399692326753,
                0.24811656828288003
            ],
            [
                -0.04026882609597429,
                -0.12722011063488367,
                -0.07643293355037155,
                -0.06320715055094366,
                0.13472283336403038,
                0.19183668171868318,
                0.20469796438936302,
                -0.2264259381237427,
                -0.06928325966330981,
                -0.07877988553959567,
                0.10716376041827468,
                -0.01998409374840763,
                -0.11809626560680939,
                -0.0902627916157425,
                0.2677874398538386,
                0.43026357792454545,
                -0.013861670787690178,
                -0.11502529751745623,
                0.4442858001434801,
                0.03417671431115029,
                -0.009157810504716661,
                0.22318305622045548,
                0.06024617633116975,
                0.09667003108135062,
                -0.23401476384916942,
                0.2329830027192543,
                -0.05012079207677404,
                -0.010315892323644944,
                -0.03272345885462432,
                0.21604976126207737,
                0.024701622018884907,
                -0.018705186978614268,
                0.03481026743012345,
                0.11440869634990532,
                -0.14867630926690528,
                -0.1287769444555588,
                -0.2878393468657618,
                0.12624333538870508,
                -0.15196271050498864,
                -0.05016793324846395,
                0.1902424669668329,
                0.009849681103694548,
                0.12833801108607665,
                0.29271024129362966,
                0.09464918596105387,
                -0.00382764542182152,
                -0.06058609294551845,
                0.039731936871190685,
                -0.3965602760999966,
                0.13371373495061095,
                0.008197019206441333,
                -0.28208198084763636,
                0.2539688134347492,
                0.22643200518697115,
                -0.25651323530919673,
                -0.06598093495579976,
                -0.0061583533513475675,
                -0.32507551786116545,
                0.13046988110475657,
                0.09114591041148103,
                0.02833179424201529,
                0.08465062403857072,
                0.390972776573858,
                -0.015943072669799573
            ],
            [
                0.08410238372708455,
                0.02362918999516925,
                -0.07774092309983446,
                0.11609640729074314,
                -0.14784896626978608,
                0.09771816523821754,
                0.152121935070706,
                0.08375474996028819,
                -0.03952523071810418,
                0.028453167575212608,
                -0.2892353440843756,
                0.03111898666799011,
                0.30467306677676254,
                0.12952561849171604,
                -0.04789647164386793,
                0.13191740301026653,
                -0.092932869397926,
                -0.12301049791424716,
                0.06530131506466956,
                -0.09183300644376183,
                -0.19543747770811587,
                -0.058619464761783896,
                -0.014255067943382329,
                0.03023036315060614,
                -0.058138800888852656,
                -0.13906476102614246,
                0.027452420243234958,
                -0.1416623005745245,
                -0.12622469415346152,
                -0.18395834420199086,
                0.27988891173757774,
                0.028114001721784267,
                0.2849483208600752,
                0.18868948048433176,
                -0.23727101630420752,
                -0.06863228775432391,
                0.41392467464024774,
                -0.05997886050921701,
                -0.473714079405026,
                0.02373399767119357,
                -0.020589612762525036,
                -0.20588224844449501,
                -0.15016527540844707,
                0.17534431223858524,
                0.07981435723907306,
                0.04789543086722938,
                0.0810384168756119,
                -0.053107951769131585,
                -0.028120579391244474,
                -0.45899202632026287,
                0.20673459401956565,
                -0.04973012884955781,
                -0.5119199603377355,
                -0.22939793661869862,
                0.22499652659581296,
                -0.07649790211285783,
                -0.02757522450276059,
                0.39814748467413724,
                0.1946076467634501,
                -0.005858926095571512,
                -0.08558151799044837,
                -0.16538328111830758,
                -0.10184350289436524,
                -0.38388885878399437
            ],
            [
                -0.2548028167463739,
                0.08000669306375045,
                -0.3503691551566659,
                -0.06401172726753468,
                0.44945952775872755,
                -0.31862931413696155,
                0.05498992747802131,
                -0.21338789801861832,
                0.12574965695868745,
                -0.30519707303220106,
                -0.03678004564816855,
                -0.1589683237548883,
                0.05054774328194872,
                0.06007523039283455,
                -0.05580523801354647,
                0.05504862610052178,
                0.12039189942310889,
                0.2817861001945638,
                -0.16470702635669462,
                -0.024341058708291605,
                -0.08301988851076597,
                0.2514836337687291,
                0.17083842579737274,
                0.00019038784430558557,
                0.06408476155762195,
                -0.009174014470019072,
                0.1932265783284776,
                -0.09862410963830057,
                -0.013789926164199311,
                -0.0681169433032693,
                -0.047623726673467766,
                0.016837325313845658,
                -0.1038195745382618,
                0.24989557430018924,
                -0.06689146411018732,
                0.4082688083312695,
                -0.13293303781495736,
                0.24923777615961254,
                0.03758116109986396,
                -0.12715461876828457,
                0.20325725629618097,
                0.08467593715121914,
                0.3341054398113993,
                0.0748609439443885,
                0.01280862793327507,
                0.1700394204749797,
                0.04122955140607134,
                0.013213504699886898,
                0.015189852212005387,
                0.055109439223836355,
                0.09669587745278012,
                -0.10287322461560819,
                0.22062487207861597,
                0.08934639546480957,
                0.07822312151781446,
                0.3185521408304572,
                0.13133878375449903,
                0.024855806292831475,
                -0.39711180586251543,
                0.07345348564896213,
                0.1894362326864815,
                -0.05351142023528594,
                -0.1412136115559537,
                -0.1574786392132336
            ],
            [
                -0.46732781679282726,
                -0.09420319335891607,
                -0.15544444728962767,
                0.16597726212136868,
                0.06947338694498285,
                0.3036722145167011,
                0.6342259494351614,
                -0.21045058928760274,
                -0.296192969903162,
                0.01694855998278004,
                -0.3617368123413151,
                0.2987313794578411,
                0.19431071093299956,
                -0.18085407455681127,
                -0.03401120091949872,
                -0.03256236545306112,
                -0.23409492065001739,
                0.18891632302343953,
                -0.12003183700578832,
                0.17945678039919738,
                0.06626194461476494,
                -0.20942576946190872,
                0.10570199348818339,
                -0.021044178703573346,
                -0.028742929346279762,
                0.10157309766815402,
                -0.05670171305562136,
                -0.174100644124291,
                0.10426598584282191,
                0.07614477217949502,
                -0.08847374393928592,
                -0.1217683801529311,
                0.299407040493447,
                -0.3857287960464259,
                0.027091500904554904,
                0.09800967645508557,
                -0.22740554539660748,
                -0.015560878551359318,
                -0.001651152687072756,
                0.08050139654944988,
                0.33264089706437083,
                0.03783758395150026,
                0.06096623817988145,
                0.25715886992622683,
                -0.41670661302928336,
                -0.16524096412561562,
                0.03101894297395495,
                -0.2406830393503608,
                -0.08255485740687708,
                -0.3510041106328441,
                -0.12194500278216348,
                0.13036824023826774,
                0.010741099666072436,
                -0.1403243563623968,
                -0.2981804682865003,
                -0.16799585795107183,
                0.07915216342204699,
                0.2799939815118698,
                0.24661089307880754,
                0.1266694808924879,
                -0.10581973865019001,
                0.2751490815613199,
                -0.010236107868194837,
                -0.17152152680032198
            ],
            [
                -0.3248226586143317,
                -0.05211745179906951,
                -0.10311470828625494,
                -0.25002037211552774,
                -0.17812329040653943,
                -0.18138774018379586,
                0.2694170585326934,
                -0.058223929549557296,
                0.06746766182297521,
                -0.12844993134253774,
                0.04235815566160137,
                -0.27654209999178325,
                0.2529385848370679,
                -0.14286314030194752,
                -0.10093104898230396,
                0.062284438445251104,
                -0.24979256815939446,
                -0.23322720645363562,
                0.0922645891082335,
                -0.006112702068113854,
                -0.21459426647627927,
                0.1176215495754409,
                0.18464642819901508,
                0.13648543952591977,
                -0.1191840785657412,
                -0.03558615806111057,
                0.27517875206610637,
                -0.18855242054183022,
                -0.035146132693007995,
                -0.039952972923078596,
                0.0365445591632496,
                0.15566590035179212,
                0.15272145497226325,
                -0.24318329761430493,
                0.08105106717400756,
                0.1769087826908072,
                0.19690943825209997,
                -0.1524287603721891,
                -0.146194848479056,
                0.0477743030549288,
                0.21951883109042125,
                -0.05918267716622916,
                -0.09066736958718258,
                -0.07314358981761573,
                0.055593348445951526,
                0.10626354387434403,
                0.09010832273903414,
                0.08440836803759713,
                0.02837900353239799,
                0.039480157996278575,
                0.11702765924313521,
                -0.11110167790175995,
                0.2550914203578597,
                0.014900335939433174,
                0.03126803657358015,
                -0.1304447637411299,
                -0.14800202262882486,
                -0.19075900296429135,
                -0.23415735640466945,
                -0.1762797705101277,
                0.10705617133920459,
                -0.07463835697145664,
                0.09998643544645879,
                0.03345063097208837
            ],
            [
                0.228679259596186,
                0.09391513628458253,
                0.18408235336319706,
                0.2765286726658729,
                -0.14043331559936556,
                0.36500611056029336,
                0.29528005571289084,
                -0.11059880372434276,
                -0.31098033864723096,
                -0.0715385210107355,
                -0.10256709930698615,
                0.13019961428896376,
                -0.051943254864408116,
                0.020678890288699382,
                -0.26129788427148104,
                -0.18456775056167704,
                0.06556531291446703,
                -0.08231501265321371,
                -0.03036029807156763,
                -0.4381672994799881,
                -0.03724864192334767,
                0.1894713163168681,
                -0.10506931166497789,
                -0.0011068879059931255,
                -0.11986792522042028,
                -0.20853472520995198,
                -0.15265506326495565,
                -0.07349336196788794,
                0.18614079624368232,
                -0.16520611253852405,
                -0.22482703765107775,
                -0.15359296040412354,
                0.07468808705338667,
                0.4382604244880274,
                -0.2933339936476226,
                0.2818170762340859,
                -0.08279108824795951,
                -0.1414665343932049,
                0.08110836511970078,
                -0.348142974641153,
                0.035750996452058315,
                -0.10726490838814823,
                -0.04473105058602857,
                0.21309456877188643,
                0.009233453344644612,
                -0.0900273422486571,
                0.3739241493440529,
                0.08494398966042435,
                -0.2540679143793269,
                -0.3950399312043593,
                -0.12626235301259414,
                -0.0806299910239769,
                0.1178560181825429,
                0.1276385991203343,
                -0.1152458217404123,
                0.017632632476433357,
                0.5459440773978829,
                0.11872808227209128,
                -0.03335325089691032,
                -0.062375351981514,
                -0.03447874486053175,
                -0.02959355584036321,
                -0.33390790742203125,
                -0.35770225648094883
            ],
            [
                0.2176386174144863,
                0.5311760816113863,
                -0.1743850844821329,
                0.36155494893283235,
                0.1654753899643277,
                0.279947252895641,
                0.20813893941917572,
                0.16650827196697648,
                -0.09550528148479623,
                -0.08379894777465392,
                0.2728688575906932,
                0.2812756356192796,
                0.024213377803757066,
                -0.2268131565670314,
                0.04179753288342877,
                -0.06940178598578539,
                -0.10187803870927338,
                0.07858665641177545,
                0.20181980110655964,
                -0.030628367002732387,
                -0.006136777943127738,
                -0.10673955325334694,
                0.24900602270021446,
                -0.06230594309229885,
                0.19260850937266843,
                -0.21471545810046044,
                -0.00690457096096718,
                -0.02926975102270744,
                0.1324845958290183,
                -0.061768175006518294,
                -0.3056333558870186,
                0.18440459140422996,
                0.07302097078661961,
                0.10858773636069509,
                -0.03414409047366603,
                0.17426994548617258,
                -0.06980071681378922,
                0.31367996364948797,
                -0.17498957608713542,
                0.07047304354359174,
                -0.006070752852459977,
                0.20807713508870043,
                0.022805684144016725,
                -0.20028995410582265,
                -0.017350590381553586,
                0.18156534927261628,
                0.06140996666321431,
                0.06938478061401437,
                -0.042951971646825876,
                -0.23919290164909268,
                -0.08880877690080334,
                -0.10868379508116655,
                0.01929837847461656,
                -0.07253768192945854,
                -0.19130379569104433,
                -0.0896721107541156,
                -0.10572813167156468,
                0.032629463882775815,
                -0.15366925516662125,
                -0.12649058926397236,
                0.12073633335983662,
                0.12177266071829275,
                0.028784096628816154,
                -0.14674540641605932
            ],
            [
                0.08555220155802959,
                0.21222291596031384,
                0.07671853804486621,
                -0.07017383837390508,
                0.2178419175253288,
                0.030081603952670576,
                -0.1054162327897904,
                -0.019351545775872576,
                0.03257426212090602,
                -0.14649628229616438,
                -0.3200989566475483,
                -0.2008777919168911,
                -0.0607414547506888,
                -0.040529825708023416,
                -0.12551737629378637,
                0.3167310230113003,
                0.14602733593500253,
                0.09174377017963288,
                -0.2746514550040518,
                -0.04375386268849838,
                0.17268880843261933,
                0.20713248668913928,
                0.024015619790823336,
                0.11940092240432293,
                -0.08867302499824124,
                0.20549509839128877,
                0.01960270336180071,
                0.40221966613631144,
                -0.16545738088768963,
                -0.08232078285501011,
                0.064523320269045,
                0.2269784973024012,
                0.10288100085483262,
                0.11484102810226628,
                0.3162880289618235,
                -0.17610681925764823,
                0.15512123710917006,
                -0.013090366147435913,
                -0.3189969859810592,
                -0.015717262651515945,
                -0.11252009826155378,
                -0.1757520716238148,
                0.12529715832507976,
                0.273791064715272,
                0.24102001612154045,
                0.0894050508179241,
                -0.20806171772903068,
                -0.32661915158475596,
                0.02813648728511523,
                -0.2353873972198509,
                -0.0247502828667656,
                0.3075606709895734,
                -0.03664530458805345,
                0.23479352608973128,
                0.08648863102790649,
                -0.04069717617277379,
                -0.6297490926398176,
                0.036184766150557775,
                -0.06452168987969677,
                0.0349543979369981,
                -0.4971538236748294,
                0.09895558691863272,
                -0.2845185672463633,
                0.02499679463874964
            ],
            [
                -0.037903761600564585,
                0.12223441346678411,
                -0.0028909217719418805,
                -0.013977924815773039,
                -0.00718063256471211,
                -0.008902637238063747,
                0.1656572092138329,
                -0.2260904098604985,
                0.4672140132311605,
                -0.35753552081276707,
                0.3350232394744688,
                -0.18593226104253804,
                -0.06547310164163091,
                -0.2132564409100382,
                -0.01916729906353017,
                0.009970056639706277,
                -0.2334617737029601,
                0.028218615844364563,
                -0.08395664943701137,
