{
    "architecture": {
        "input_dim": 6,
        "hidden_dim": 64,
        "output_dim": 4,
        "hidden_layers": 3,
        "dropout_rate": 0.0
    },
    "weights": [
        [
            [
                1.0344575869382495,
                -0.7141737636713835,
                -0.5763440179305117,
                0.04214499386457182,
                0.6994868558783225,
                0.5341256948794291,
                -0.4821051431170836,
                -0.43789140090305334,
                -0.6785803353933206,
                -0.3158796178669516,
                -0.7238600932653655,
                0.2554357673890156,
                0.27208994499997474,
                0.6627227190290311,
                -0.8259247019369536,
                -0.3483895309643689,
                -0.5452644268500316,
                0.08767967652555744,
                -0.26969094297551793,
                0.950151853263071,
                -0.27871062200152785,
                0.08038965578474815,
                -0.6013278426240809,
                0.46075375820149783,
                0.00019477243210100557,
                0.615418255708433,
                0.8838296986954791,
                -0.42330752707757124,
                0.3763545908892697,
                0.613617959004145,
                0.03111945262347072,
                -0.7322868171811501,
                -0.08305711374032113,
                -0.08919137447041524,
                0.3263591774171283,
                -0.4531784341924805,
                -0.19454073683413636,
                -0.5624384692385037,
                0.3296004953759735,
                0.06399150731763355,
                -0.4365357869814394,
                0.5216402897555491,
                0.17120466331206977,
                0.5197048586929017,
                -0.061577391118619616,
                0.20095776084192396,
                -0.12680875727195284,
                0.01886890702904737,
                1.6324109193826304,
                0.04611291165349156,
                0.08361019980386951,
                -1.3912696791575598,
                0.0982482343757942,
                -0.25337314392243115,
                0.5627917129528951,
                0.5175949892237794,
                -1.0789170729983,
                -0.4446564567332723,
                -0.27708136511285325,
                1.035625126227206,
                -0.6969289147827372,
                0.26526348394796107,
                -0.369046978781626,
                0.4035567905622707
            ],
            [
                0.1645992792088847,
                0.6741486382147064,
                -0.37629352155400175,
                0.6608043579214871,
                1.3446079179255659,
                -0.4125762809231822,
                0.0224590221897304,
                -0.2794801067030673,
                0.04047594186700454,
                0.7746801081450313,
                -0.6033476593471061,
                -0.32600695810683,
                0.2133908690907031,
                0.6354798130206428,
                0.8100738660678949,
                0.12128147921462154,
                0.07503906898916235,
                -0.68936672948757,
                -0.31210352149379794,
                -0.45806103185093455,
                0.36236827158981455,
                -0.18804198551859624,
                -0.6795426371629555,
                -0.5797162422137969,
                0.4318691851955992,
                0.5088757011537139,
                -0.5069049683633593,
                -0.8645513737290691,
                -0.07718835603785612,
                -0.2002777842255581,
                -0.7370745196582219,
                0.19536593154697515,
                0.387152579970595,
                0.47787982938360507,
                0.7630232135229288,
                0.6900968372986818,
                -0.7325155211319088,
                -0.14112850700365384,
                -0.032540627885059,
                -0.6311759544846399,
                -0.7177707272284405,
                0.37259002958999343,
                -0.0465416761720964,
                0.29936170622523506,
                1.0829516303855253,
                -0.16351512713257546,
                0.455361016126178,
                0.5541314341247355,
                -0.8641509932608629,
                -0.32279281976564284,
                -0.1383608830534923,
                1.03529990430461,
                0.016348220192402906,
                -0.010126356911234376,
                -0.3925022011411001,
                -0.4216770043076477,
                0.1247967791310242,
                -0.9806538744676868,
                0.40827488990741506,
                -1.1466479266458993,
                0.24414693943310758,
                0.5966885445623835,
                0.5934442545830843,
                1.088726382305588
            ],
            [
                0.08228911392755585,
                -0.4067374384198478,
                0.1291118705372324,
                -1.0058427098816394,
                0.2700265057862458,
                -0.672566700131889,
                -1.0211529931402639,
                0.9295025953327439,
                0.5255562442995363,
                0.3071222789512689,
                -0.6234761299294055,
                1.5027435376010752,
                -0.42593062881149374,
                1.810036541711226,
                0.6053606323368087,
                0.41285798558627845,
                -0.3925043414629579,
                -0.24501010497568865,
                0.3887168015275424,
                0.12894027638213726,
                -2.1901754910575564,
                1.1283061997847952,
                -0.8668783963497371,
                -0.7821312465028474,
                -0.679720390172033,
                -0.24913949409101582,
                -0.6091107845055583,
                0.602602542480678,
                -0.06405407452375073,
                -0.7196232651307842,
                -0.951471724413819,
                -0.24636800483664448,
                0.7614643339049153,
                -0.7882078958035572,
                0.2981224741147451,
                -0.6312045084896679,
                -0.9555524656700974,
                1.0968518881290368,
                -0.13592399236853972,
                -0.308727350113456,
                -0.5622863326932982,
                -0.2416377358795505,
                -0.03835824870239776,
                -0.031202082919681903,
                0.21312935915910453,
                0.5331184613100622,
                -0.8680395721239799,
                -0.2719876416313363,
                0.358708905463779,
                -0.24617702246321074,
                -0.15775601108984696,
                -0.6913153940182759,
                0.9277693664928123,
                -0.3201855522042353,
                -0.31942431891383755,
                -0.5947809739692171,
                1.4145013719417863,
                0.17422279434189808,
                1.0941439221339235,
                0.13682884602268142,
                0.4011503937113812,
                -0.8388784040350242,
                -0.06426031646397694,
                -0.3031986423030233
            ],
            [
                0.17049777939980595,
                -0.09052522605538468,
                0.5340119120587633,
                -0.641612718377643,
                -0.5769634842165229,
                0.20082506790501853,
                0.5630634507398441,
                0.1839661263197767,
                0.7858014175109778,
                0.4729687988897058,
                -0.8101686556874975,
                -0.23003891583190392,
                0.3471161295436787,
                0.23528617619280215,
                0.07828881143094421,
                0.6071623724632768,
                0.4720836370483245,
                -0.3275736589756754,
                0.020001956754228674,
                1.279258438515953,
                -0.4094475341265658,
                -0.12379491770344321,
                0.20487358583957058,
                1.0450216181853398,
                -0.08701047680040318,
                -0.7173272567391251,
                -0.06633215653688648,
                0.4176019585773648,
                -0.028293440033974493,
                -0.7166961530112645,
                0.7072510459737771,
                0.24247970889644688,
                -0.8095164193201226,
                -0.39605536238292155,
                0.44990568927684454,
                0.4730070399510339,
                -0.657387951633841,
                -0.5120735308532978,
                -0.2681640521207614,
                0.011859315322634406,
                -0.8438804758607361,
                -0.22556750897493916,
                -0.06359155316360245,
                0.08869529410294104,
                0.1195656996113947,
                0.4273166468181731,
                0.7748432429811268,
                0.04306439863356213,
                0.5136289023389271,
                0.46199214736519295,
                -0.4992273484731057,
                0.04351706337834602,
                -0.004288198080163391,
                0.404830305338262,
                -1.129887098634372,
                0.6964886556250848,
                -0.12769035501512993,
                -0.08448974446050261,
                -0.7868641683202302,
                0.1080184730379996,
                0.6097452611641218,
                0.017569376141383382,
                0.5541612850815687,
                0.18773923641856272
            ],
            [
                0.11746746444188622,
                -0.4477984180556329,
                1.357475801713593,
                1.4009959422116516,
                -0.2907625346374494,
                0.1601680586197571,
                0.2584288774041605,
                0.19645645063399558,
                -0.1848013709391975,
                -0.8119996705640886,
                0.15676096074943677,
                1.7572886693481862,
                -0.14941839351282535,
                0.9896844831642405,
                0.43462123845322986,
                -1.2093840221124663,
                0.7803657252134808,
                -0.908622511277952,
                -0.2982765711708861,
                -0.2950212535924532,
                -0.39826512468749536,
                -0.7631419000106293,
                0.9807568611138935,
                -0.20713120206238025,
                1.8590257626227766,
                -0.5541975359623564,
                -0.114173873208243,
                -0.004512263489763269,
                -0.41671997015483486,
                -0.2653837937725121,
                -0.34026550884496737,
                -0.443079567042733,
                0.11910079469371089,
                -0.5138995821464988,
                -0.47143594526280486,
                0.4005650393189047,
                1.2786005497849178,
                -0.005924041272113322,
                -1.063224921192658,
                0.2501148878940119,
                -0.568654395837457,
                0.42107851880700486,
                -0.7921247317698257,
                -0.6878387467446858,
                0.44014248410208556,
                0.9803039080977616,
                0.5035394768768111,
                0.7304993807392206,
                0.3384828037725119,
                -0.3375197171626833,
                0.1704452133061831,
                0.42836935447967156,
                0.20241696024891195,
                -0.9401539000515005,
                0.5835269719240295,
                0.1573822831660957,
                -0.007163243586219302,
                -0.20248912874347078,
                0.11629548268913223,
                -1.0579808754969218,
                -0.7077389030648228,
                1.3948333138332385,
                -0.3477698305238331,
                0.16845098443559564
            ],
            [
                -0.6344482717876821,
                -0.6230293530146995,
                0.9397234186385868,
                0.5970481230709878,
                0.2922000829460191,
                -0.48400476837970546,
                0.5751943956567787,
                0.10916885470748325,
                0.09757664814490986,
                -0.4876555759689376,
                0.6351068711185559,
                -0.5998023340018067,
                -0.23607168942991175,
                -0.43911074443027626,
                -0.38154602622934036,
                1.0957728996961347,
                -0.4601649116390325,
                -0.24775185957468876,
                0.31165041896425355,
                -0.11501746913848206,
                -0.5583625670558935,
                0.7319804995259996,
                0.6398300049164297,
                -0.5638052518403435,
                1.198471439008222,
                0.3280162061840499,
                0.9263453303237077,
                1.1120770160549116,
                0.48295717749030326,
                -0.453946294415772,
                -0.5035667075089435,
                -0.3868261416095032,
                -0.3939904040820946,
                0.20231341262135524,
                -0.4515200791532201,
                -0.8276017951809025,
                -0.5139698992831426,
                -0.7753563458511293,
                -0.12164478287164143,
                -0.20235177168203092,
                -0.29092063004974145,
                -0.45029977422750833,
                -0.06650440969631473,
                -1.258861650477667,
                0.5620406815177513,
                -0.3628961759343188,
                0.12519001896741028,
                -0.9319134426550608,
                -0.8977453910649877,
                0.22855071822069523,
                0.8242151621058593,
                0.17597625042445064,
                0.12186647133564267,
                -0.5917187377336757,
                -1.1265780129608758,
                -0.24144291192416625,
                0.40671227199859955,
                0.527150805948242,
                -0.44308014806998225,
                0.41273629700219566,
                0.48642552282636065,
                -0.35091409171599963,
                0.9629740456678245,
                -0.5916101454850191
            ]
        ],
        [
            [
                -0.1959130970073831,
                0.07378699243132444,
                -0.15229743947711863,
                -0.05083777655214206,
                -0.16318147516329554,
                0.08148153061002557,
                0.05444786920464216,
                0.18116003038351527,
                -0.09638199434127225,
                0.05385473637143263,
                0.042278253931881456,
                -0.03446230718626888,
                -0.06850572963262164,
                -0.12368885710675757,
                0.23099896425587477,
                0.32037874255548726,
                -0.04671715768769929,
                -0.2338019144908956,
                0.05722445860338534,
                0.2754691198515867,
                -0.18786575413969828,
                -0.04155604061257224,
                0.08197607797645998,
                -0.007531481870867459,
                0.06584030090161429,
                -0.4300999490828017,
                0.173899043435489,
                -0.24666249043405655,
                0.34978365985285736,
                0.004367900591611335,
                0.15989578103043456,
                0.06493267361458303,
                -0.22224524885534866,
                0.2157053516628264,
                -0.3143826382985712,
                -0.19714028409832138,
                0.08872448926481656,
                -0.12590750537066492,
                0.1381814103148324,
                -0.061748972758950894,
                -0.3449167013047938,
                0.020462520215490942,
                0.08520261667864704,
                -0.2290938099514385,
                0.04160360811485329,
                -0.04312241616687172,
                -0.14697071359274125,
                -0.10446185345335819,
                0.003210109781534863,
                0.27593172201541866,
                0.049157414855338546,
                0.23565607052543938,
                0.0152224807255328,
                0.24136271784838326,
                0.06211886371170308,
                -0.12326204291891756,
                -0.032281387145175394,
                0.1839615910442347,
                -0.03906201427446969,
                0.08023169352337112,
                0.10378536502867379,
                0.4313854985215006,
                -0.14117894718572807,
                -0.21673015062156228
            ],
            [
                0.0036732661046431497,
                0.21155738356808704,
                -0.06598568053286542,
                0.13068943815058537,
                -0.2246511451617296,
                -0.046383606968947944,
                0.2005314879369926,
                0.033751484625726816,
                -0.048849620010119776,
                0.03517474391124679,
                -0.07440104610976354,
                0.24756521415767152,
                -0.0952423077382606,
                0.32347541055716883,
                -0.04237345667554455,
                0.06560199208048668,
                0.05570003244247765,
                -0.1408525224457849,
                0.15692429295892613,
                0.2711508053007976,
                -0.1332703435655954,
                0.1791372927361561,
                -0.17771251780516095,
                -0.3173649602711131,
                0.11858364681917104,
                0.19932327246558404,
                0.0895540440218039,
                -0.1280634432672364,
                0.056573941869309856,
                0.016346028631113667,
                -0.0498700317045272,
                0.33492493653385774,
                -0.014687224285849631,
                -0.2805119179338613,
                -0.01808496525049502,
                0.39793158260991546,
                0.4453277148106109,
                -0.11536623399192715,
                0.03366895968792917,
                -0.09651271942646926,
                -0.17043526633973535,
                -0.04964015370262398,
                -0.1168709852051596,
                -0.1294750383417256,
                0.32282323642941135,
                -0.05308544747137397,
                0.22153026261316,
                0.016519390883515554,
                -0.08569237478714588,
                -0.09712636940109719,
                -0.10993403647435471,
                -0.2604558051654586,
                -0.036383052536993345,
                0.02061560450338895,
                -0.0052833895930966485,
                -0.05170160829541826,
                -0.2251752976924919,
                -0.0578943135836083,
                -0.02008938737890322,
                0.14147474103468777,
                0.02308125180875543,
                -0.1675755987901065,
                -0.3823221380490076,
                0.06137931838639408
            ],
            [
                -0.0354657793084088,
                0.04455251945080854,
                -0.11066190609355284,
                0.04323493127883399,
                -0.07912064063126265,
                -0.0604498578417097,
                0.10894748465795785,
                0.11398182950727151,
                0.026487867056189687,
                -0.18009829315015805,
                -0.16238205370510683,
                0.1539978385762277,
                0.11668278437353906,
                -0.08105302154105956,
                0.029823559843093206,
                0.11177642143162571,
                0.19592744247461769,
                -0.045845265601473,
                0.2663382857893652,
                -0.0034618820044954074,
                -0.01642925811397146,
                0.44492588344647943,
                -0.047690560274129164,
                -0.03946188986875877,
                0.07648383461231407,
                0.26244175244130113,
                -0.11757115856674068,
                0.12419193539514964,
                0.1115770468782526,
                0.011943297315884307,
                -0.6518846564709694,
                -0.19270175143836762,
                -0.03520550088704704,
                -0.12387561362183692,
                -0.0375166789988967,
                0.39503590283215256,
                -0.06871283336212251,
                0.09899858930912228,
                -0.218546176492555,
                -0.09547114953643789,
                -0.028783562801021435,
                0.016385215056885314,
                -0.1568915736781515,
                0.010495715779833123,
                0.014567954367479187,
                0.07277691378786809,
                0.14273745763791817,
                -0.02965038903379988,
                0.15749661523496158,
                -0.0012680717242132351,
                0.013145226931805426,
                -0.0308424286497729,
                -0.12703886934172784,
                -0.19149271763642992,
                0.1486181921820127,
                0.14058628025886866,
                -0.12811832494669376,
                0.01240534644235406,
                0.2990245960416719,
                -0.17818624517229198,
                0.12568242851567377,
                0.044922319403564434,
                -0.1357168146557002,
                0.042475359976232516
            ],
            [
                0.288136641008772,
                -0.10898596954343105,
                -0.06219749014762844,
                0.2367048899871504,
                -0.19037314531215835,
                0.42326544260455756,
                -0.10113999954617259,
                0.1564395822433195,
                0.03340220580900416,
                -0.03507377610667264,
                0.11842168756213459,
                -0.04606428365740978,
                0.006402798843547401,
                -0.1952758560006279,
                -0.00018056266031115075,
                0.07007969703568595,
                0.1518609522427964,
                0.0068767667110254,
                -0.3157176280954646,
                -0.03733585199554447,
                -0.11380510575620856,
                0.05192960131316519,
                0.11051414231379146,
                0.010980747619099389,
                0.0490383228192635,
                0.05892143735445844,
                0.25038866528710946,
                -0.12607229023742672,
                0.009033851917378741,
                -0.03005994543065358,
                0.03500160792442695,
                0.15270464608462714,
                -0.15116407724668113,
                0.14153138317711217,
                0.10856017459678859,
                -0.04749290516444517,
                -0.23957796929850184,
                -0.07067092856704295,
                -0.1812299421357414,
                0.11294326990079477,
                -0.041913953354783436,
                0.08446753827022388,
                0.11595386042060622,
                0.19264803821529303,
                -0.3577389946426709,
                0.11379099603811926,
                -0.11066354172392408,
                0.1068611255165618,
                0.2896875606754564,
                0.08595219126329977,
                -0.019615690987277883,
                0.07387410710251628,
                -0.09457051041620591,
                0.25038063454032167,
                -0.20255895289634424,
                -0.13598259801930299,
                0.139687572063881,
                0.008852314842483068,
                -0.11784861957729688,
                0.17183959427136558,
                -0.29858013926985894,
                -0.02058618438258221,
                -0.08531506914094525,
                -0.1309679330576461
            ],
            [
                0.12398081149834926,
                -0.03770853252193413,
                -0.05449218741045132,
                0.3910015248075298,
                0.14445351823008848,
                -0.03849291057565076,
                0.1735534843736133,
                0.21364793788238096,
                0.08424241766739271,
                -0.06393035836806518,
                0.322391471419282,
                0.2712009788527065,
                0.09166607319833218,
                0.15261827628065322,
                0.09620447651290946,
                0.03842671842390684,
                -0.052937450711951384,
                0.3062193244932319,
                -0.5120991116161132,
                0.1931784016960516,
                -0.41452303456646417,
                -0.0982246376412578,
                0.0366723551016965,
                -0.03429670607414808,
                0.23951456701939874,
                -0.23458724754469001,
                -0.2886756012767778,
                0.26680463809982186,
                0.05738299817529847,
                -0.39989244079429964,
                -0.012530089274989354,
                -0.3969564283823486,
                0.11602504399970481,
                -0.06961436635642841,
                -0.087253738009553,
                -0.13039636516840808,
                -0.1926167935236985,
                -0.13872465069310583,
                0.14162962336968468,
                0.21982629819099778,
                0.23813442320103845,
                -0.1297059486388329,
                -0.019544536681424772,
                0.02461702748150786,
                -0.15768842451658424,
                0.0017577742931181935,
                0.01896621540194365,
                -0.08021332928915322,
                0.014227331119918692,
                0.09708026252865364,
                0.08076752611994435,
                0.22865671172718985,
                0.10490269615512644,
                0.1883308130537209,
                0.04933220771622333,
                -0.28932355754515016,
                0.36583288026240957,
                0.1695187376311989,
                -0.07509358253005673,
                0.27474943053257994,
                -0.09851940810225114,
                -0.14067549359065767,
                -0.21281300533589262,
                0.10597009840826871
            ],
            [
                0.059846355115223286,
                0.3318528488528657,
                -0.021489005633554707,
                -0.15681198056831194,
                0.27296577820408946,
                -0.28960012898634535,
                -0.20692314555948044,
                0.018277137029591887,
                -0.0851336099768427,
                0.4680022402549685,
                -0.25839653755890263,
                -0.24197533356833636,
                0.07746575563072254,
                0.017294378786636914,
                -0.3533404244435964,
                0.15889054547841397,
                0.1531719389388066,
                0.1786454430562501,
                -0.01895261425037785,
                -0.20929148655878316,
                0.0395858857120043,
                -0.10345095113135323,
                0.3499497832706135,
                0.11981630192178583,
                0.10494467251282442,
                -0.013760992509011019,
                -0.005091685003136845,
                -0.0963112787426664,
                -0.2705410210165569,
                -0.07366763822186174,
                0.2603614569962368,
                0.18375496883030837,
                0.055104386656152984,
                0.12551165650108123,
                0.05899475616327098,
                -0.2062517783304594,
                -0.0019168121919433884,
                0.18105710326359561,
                0.3708248717850294,
                0.07161056856515288,
                -0.143767697065662,
                -0.08206043723246717,
                -0.22423698742764112,
                -0.010951809197740142,
                0.0639984602533168,
                -0.12720211627164676,
                -0.1631121072506482,
                -0.38839983464124483,
                0.19240283187719145,
                0.2147566443280828,
                -0.211581522319199,
                0.1566668812501472,
                -0.0726279236659281,
                0.37451117138478346,
                -0.19614822107423902,
                0.04291939686103479,
                0.12701386095595668,
                0.0919399919304751,
                0.3552863197308601,
                0.15649314315827748,
                0.29100591705355,
                -0.08748675461558068,
                0.133521336187817,
                0.12010600133043596
            ],
            [
                0.036916033880999385,
                0.03470169662358937,
                0.14812868780066354,
                -0.2171619079442125,
                -0.04039070055318737,
                0.0035113952021131535,
                0.04697380195743674,
                0.10495300927574398,
                0.15995439126079666,
                -0.15848193352158393,
                0.008307024157169215,
                -0.011818189784794245,
                0.0035396540263255426,
                0.23854403282724326,
                -0.09285944941290056,
                -0.07778096336078424,
                0.061060837029831026,
                0.14627265955701202,
                0.02971401536342247,
                -0.02042960092259911,
                0.4369563133437138,
                0.203253365819038,
                0.18931536686542547,
                -0.031665539128795536,
                -0.03291055110924563,
                -0.08936588921141563,
                0.08917970009073062,
                0.17548180740519914,
                -0.3262962931180483,
                0.3583874732253317,
                -0.23585092080592857,
                0.12455598767812559,
                -0.19426569212461597,
                -0.16997033141675413,
                -0.5384155027521396,
                0.0992090096344182,
                -0.32215925716962984,
                -0.08332894173741348,
                -0.17377883675935257,
                -0.4066275174776172,
                0.23448550573057736,
                -0.08154177066296145,
                -0.019214669349997802,
                -0.04580093379476856,
                0.1757315794144275,
                -0.33066253781635413,
                -0.047961843073642665,
                0.1645529007634635,
                0.28178300267972256,
                0.031244984656779256,
                0.03383544356527756,
                -0.11312168282121578,
                -0.16110387876993512,
                0.10682688308138329,
                0.1754316857150736,
                -0.2749883572957735,
                0.04607346372803959,
                -0.03121434405994804,
                -0.02755748231244068,
                -0.17935011594855954,
                -0.01242580478229179,
                0.1890159419622254,
                0.007501338870452468,
                -0.07902051968188187
            ],
            [
                -0.04355303342932867,
                -0.22376732345967465,
                -0.2801078945541415,
                0.01528881761505762,
                0.08274942151854708,
                -0.3893505992729607,
                0.09575458521557823,
                0.03876987983026325,
                0.0421461162457543,
                -0.038140929605523406,
                -0.016101667878043017,
                -0.02327233283722776,
                0.14766918870484208,
                0.17474234550791712,
                0.12920061490160684,
                -0.0005946658135103926,
                0.2158311577197858,
                0.45418889617977243,
                -4.518063307635555e-06,
                -0.16462668447689452,
                -0.13409209608127853,
                -0.008672730202100888,
                0.08782424941344913,
                -0.4502305373836366,
                0.15877397950950908,
                -0.2940101322628403,
                -0.06742748512037304,
                0.19742807183034522,
                0.3662307999325996,
                -0.011627615216261841,
                -0.0011613443766697695,
                0.16903841990498808,
                0.02435642476369868,
                0.2363924843851806,
                -0.10428326887908711,
                -0.17629514714495742,
                0.11244748052435659,
                -0.08259390209668425,
                -0.316080222297714,
                0.11248798405604725,
                0.03720412716572113,
                -0.2396414418645969,
                0.37437882703771147,
                -0.3114191220042289,
                0.15640810413477468,
                -0.47833035316984834,
                0.19094026089094684,
                -0.3361114654295854,
                0.1435427302409865,
                0.12358373716478172,
                -0.0554061513482673,
                0.09798365058007126,
                0.044148679884702634,
                0.0863131373690003,
                0.032034153646920985,
                0.026321695045531553,
                -0.14272018472332387,
                -0.15472324760891712,
                -0.31900124359475546,
                -0.15210563616185951,
                0.2342410556306494,
                0.2936791967494255,
                -0.034070595347277674,
                -0.1695660209231278
            ],
            [
                0.11988854680555354,
                -0.09472241415972814,
                -0.27753486602983224,
                -0.03718491621916553,
                -0.07804928569646678,
                -0.12366956205180736,
                -0.18357298612675083,
                -0.10139702073782926,
                -0.05058026216017184,
                0.323570646313475,
                0.1483381872891476,
                -0.03570049049688818,
                -0.3795550473517533,
                0.21331837458350056,
                -0.05824726836238109,
                0.18242546447002397,
                0.06288176961791321,
                0.29447577628174587,
                0.017788366986050918,
                -0.31957223416103375,
                -0.39463581205650816,
                -0.08199425747845075,
                -0.17852041325853232,
                0.32276793602768117,
                0.14527328721892546,
                0.08782003106131038,
                -0.24539499968554854,
                0.5152189503951853,
                0.22643813473004762,
                -0.11213977625981453,
                0.1188135816471883,
                0.29736886457560363,
                -0.012143453616206104,
                -0.16263816275754694,
                0.20685813185164661,
                0.01657672125973692,
                0.005221682878545085,
                -0.07248075269283365,
                -0.004454730282101501,
                0.19668007601003037,
                0.19897573348597242,
                -0.13859229902774903,
                -0.07720045906785582,
                -0.13005796079572468,
                -0.025125831356528922,
                -0.3093529544084687,
                -0.12169308838785978,
                0.1836402586133433,
                0.035164202717101106,
                -0.19366999691357784,
                -0.029522966386289033,
                0.11732026191325406,
                -0.03546965742835294,
                -0.04352453893187627,
                0.17065463883831258,
                -0.2722580259144338,
                0.1759806819279723,
                0.0035514185060160595,
                0.45151789995100094,
                -0.08662202647847726,
                -0.2776254820369088,
                0.034868141278845556,
                0.053303198754136534,
                -0.011642054593549118
            ],
            [
                -0.09376434025052581,
                0.18906447392327222,
                0.1233234119128357,
                -0.05657243399092497,
                -0.27195232272164704,
                -0.01672838207393095,
                -0.08602134852784006,
                -0.01682815533238446,
                0.1541617279233519,
                -0.1600799747125895,
                0.2643621613619314,
                0.1275250882514038,
                0.12065061536935302,
                -0.03936197079447572,
                -0.03825405070401637,
                0.14174124576936953,
                -0.15932008587636626,
                -0.06241275131748765,
                0.1993231741018957,
                -0.0020505627173591787,
                0.044326758525272694,
                -0.2221484455403544,
                -0.13926820231790837,
                0.15655889555178912,
                0.19963141506470675,
                0.14549286690950783,
                0.08582674897376326,
                0.1359141576043465,
                0.19869857334505478,
                0.10277505306979902,
                0.0029808171538600894,
                0.1593809319451268,
                0.09224009614941395,
                0.00052638389968521,
                -0.2867954524833112,
                -0.0822473051195476,
                0.5875898485353624,
                -0.32339026323682873,
                -0.18726848068537624,
                0.009679177884330007,
                0.1955864795303103,
                0.4472001804416484,
                -0.10941999567495417,
                0.03729225513203277,
                0.13250006060194983,
                -0.04250652009623186,
                0.027738608401500667,
                0.01682496113864353,
                -0.3024271193581573,
                -0.07893506580242353,
                -0.23409434632733137,
                -0.1374537511865227,
                -0.3909061664507235,
                -0.19019750580309305,
                -0.010620994609261494,
                -0.06196691795501742,
                0.01675177766716662,
                -0.15135236525819587,
                -0.18082333138189707,
                -0.3360779308597199,
                0.08174291254123993,
                0.24926874416466044,
                -0.23971219832567278,
                0.16703019834171354
            ],
            [
                -0.10007141100666982,
                -0.3867518443948759,
                0.07636648886149426,
                -0.0914713665425552,
                0.08748460289624867,
                0.0704334148480388,
                -0.3551348454115575,
                0.015475699797672183,
                0.21759976999881186,
                -0.39947285828111945,
                0.24217772616904815,
                0.30946300336637117,
                -0.2794938963777673,
                -0.055265778925843785,
                0.1474049642976501,
                0.03327558201258271,
                0.17598845920358197,
                -0.18590213259525168,
                0.060594001104713774,
                -0.17636585365143587,
                0.23364075669147902,
                0.1577704147055343,
                0.3201402791178937,
                -0.03491088078888942,
                0.25852371099781685,
                0.16510647455473082,
                -0.11107434126997992,
                -0.23894171727065142,
                -0.03842828759326765,
                -0.03233200156874643,
                0.2684533016709069,
                -0.0019100921034116978,
                0.14615374274603943,
                -0.020432995788702554,
                -0.42640619861777895,
                0.01930724781154861,
                -0.6488047521925979,
                -0.12889722772643045,
                0.27471887254775795,
                -0.13549335082643177,
                -0.34828545415315726,
                -0.03813346901039457,
                -0.054935743767315484,
                -0.21585949332339943,
                -0.06365472668968247,
                0.09956832407691862,
                0.0696090180478921,
                -0.06255598331485282,
                0.2484800964730842,
                -0.03312656815330261,
                0.12076203825892383,
                0.0851123667801565,
                -0.001045460991705371,
                0.35613895275976537,
                -0.28151290116765126,
                0.09607098539470199,
                0.20447954887597627,
                0.35719392275417544,
                -0.1920938372772029,
                -0.07778533416821991,
                -0.012618544962978298,
                -0.021972638916001076,
                -0.08582254134674178,
                -0.016475985895038698
            ],
            [
                0.10475924923943482,
                0.3427722510691742,
                -0.004831046642318454,
                0.03564834150081759,
                -0.18562831824405443,
                0.007007744530582422,
                0.3553913590971523,
                0.025934383257803353,
                0.044269846942485015,
                -0.29069332134937315,
                0.09731648073319533,
                0.07519170200709568,
                0.0925280626952432,
                0.2025737199136728,
                0.2667328474083267,
                -0.09278450616220871,
                -0.3965642201063372,
                0.09840659637627026,
                0.12789883492651916,
                0.3740267989589102,
                0.09612921661124214,
                -0.03663027180019424,
                -0.27562986728242567,
                -0.08770860660863912,
                0.243817555806627,
                -0.10651114027301295,
                0.06496491893175181,
                0.3642451407833468,
                0.08889251143923693,
                0.1629942297637259,
                0.030676069342103686,
                0.6099675011510124,
                -0.09526356193431382,
                0.43413245707332954,
                0.11095208674994213,
                -0.31129865018843733,
                0.1252919810581297,
                -0.13352586278943168,
                0.20860809450249673,
                -0.025442076852446004,
                -0.17351420719366178,
                -0.057700460492861295,
                -0.1045290118756677,
                -0.20702770786472488,
                0.011766961684680605,
                0.128411126351633,
                0.1589123530726025,
                -0.10984473931255911,
                0.11093039742217328,
                -0.08317537863623556,
                0.09973030705495414,
                0.02480204365374319,
                0.0733825471146142,
                -0.008643001897523026,
                -0.12316626327845778,
                0.1691593865176407,
                0.19218278866085353,
                -0.2760309516342686,
                0.05887417756997541,
                0.11492684685492793,
                0.07679162260328003,
                0.10409848618530375,
                0.01342294171656197,
                -0.15536610704847134
            ],
            [
                0.14232043633715238,
                -0.1971796385253867,
                -0.21192990578780385,
                0.03690812349243362,
                0.16272293726320444,
                0.16613879414674534,
                0.11959180190326586,
                0.11527615191645646,
                0.0206884462882211,
                0.030445337086286352,
                -0.10960776683298994,
                -0.09298181198178239,
                0.06616221846584698,
                0.24822963600182857,
                0.10526170324809286,
                -0.2535538990840876,
                -0.0021915684931077335,
                -0.1165506415760879,
                0.027876043629081405,
                0.11395879626813873,
                -0.07953982548432036,
                0.17899743891867703,
                -0.12029445203764146,
                -0.1833038026548764,
                0.06337901333975517,
                0.36101393533309617,
                0.045314635147178595,
                -0.018303840148850416,
                0.31415123976943915,
                0.04193726907383675,
                0.02113102443391496,
                0.04027805504977128,
                -0.0886013573768003,
                0.06002024700828797,
                -0.019470576906073442,
                0.2849545007240241,
                0.15785475292022588,
                0.14306129660301145,
                0.02582592709363505,
                -0.08705606144845543,
                -0.025278977822212608,
                -0.25232810454007903,
                -0.20756903122073855,
                0.3320983293397201,
                0.042208472755264126,
                0.09846939416364862,
                -0.195955950347491,
                -0.029187450157326218,
                0.21086556704813472,
                -0.025625381622568815,
                -0.0025685034633114597,
                0.018126467366273945,
                -0.3047633692051973,
                0.03575503878404183,
                -0.06685680960640004,
                0.08050143370850912,
                -0.09976907625302375,
                -0.13485475367030964,
                0.24862407796549482,
                0.0060087606516175405,
                -0.041129268740607065,
                -0.18444648667243532,
                -0.038583422809146554,
                -0.19258453471093254
            ],
            [
                0.20461631069054692,
                -0.18664956769401553,
                -0.046418111029967866,
                -0.06627837633605108,
                -0.18834378064893859,
                -0.09294221778949388,
                -0.17471232039022364,
                -0.01837505668801839,
                0.42832291221478636,
                -0.055453624719107364,
                0.07470596596556364,
                0.018662424952887873,
                0.07022589725388546,
                0.09006086234358021,
                -0.18719515609452525,
                -0.1127691830967771,
                -0.1228246975143341,
                -0.10282841650163242,
                0.1404311876297567,
                0.0929725701399866,
                0.31119906712707895,
                0.22329684718447682,
                -0.18476818912445814,
                0.011198073681174387,
                -0.08218987093391723,
                0.08845705153173138,
                0.20988678980550446,
                0.1429277097743969,
                0.10816346984784492,
                -0.21301304769282803,
                -0.09834743888657344,
                -0.02693532028993066,
                -0.18777929763236326,
                0.004673409397793869,
                -0.1686549267984569,
                -0.07568585371699435,
                0.0006300562044458966,
                0.13699864606972892,
                -0.10306600968929287,
                0.19211385784599097,
                -0.09644120069120954,
                0.3990570973714884,
                0.007371200797228629,
                0.132933409448869,
                0.04958237544211311,
                0.10418975938136654,
                0.045549344011241534,
                -0.3025633158771732,
                -0.09494724344751722,
                0.07315655377057784,
                0.04268956510092031,
                -0.049153552837844394,
                0.399244924569164,
                -0.15048156292875023,
                -0.06725101632634013,
                -0.0024207000540274705,
                0.03833622087467103,
                -0.0640123991766615,
                0.16853688955285667,
                0.5964712949921102,
                -0.05669910418342167,
                0.54111929479326,
                -0.03756589267655388,
                0.08357628672059743
            ],
            [
                -0.24455813148143582,
                0.03638546678535265,
                0.05496949479228698,
                0.0714794853287399,
                -0.027131313812090597,
                0.2641218936478165,
                -0.01684314139432718,
                -0.10049011952043596,
                0.05329584262597872,
                -0.017604972085920836,
                -0.19263159100974037,
                -0.12505369515606446,
                -0.06223338842002173,
                0.18915049928469438,
                0.12276732545762978,
                0.2040132746771152,
                0.06503562830894649,
                0.10672244616909936,
                0.05002779265726185,
                0.135417084465296,
                -0.05363835640667861,
                -0.16380459324143104,
                -0.05250906827677599,
                0.006795901015040098,
                -0.034681254130266,
                0.11102095455998211,
                0.23999137432969048,
                -0.09092526668415177,
                -0.13968771059120536,
                0.11237798473025198,
                -0.1127444352350616,
                -0.2517488890151451,
                0.16046871275877495,
                -0.15250943427030592,
                -0.23918667761296084,
                -0.18603376127182764,
                0.19361652657053258,
                -0.053417016041282905,
                -0.07178866481973194,
                0.09957765990641286,
                0.1785085796286623,
                -0.37318026926928666,
                -0.054038568152035865,
                0.20413169644503118,
                -0.16424580632238028,
                0.05790417623198339,
                0.1994409815967419,
                -0.04713734622877335,
                0.43255289713369427,
                0.01964429083522731,
                -0.1404446786866526,
                0.1001287715015101,
                -0.024143272988970066,
                0.05833098425858163,
                -0.44199085504769386,
                0.007657677758288213,
                -0.12172038644768483,
                -0.042987834484500796,
                -0.12233500172674025,
                0.09339128861858846,
                -0.050577649662539276,
                0.04332380074946529,
                -0.1526470268915192,
                -0.19447862890792392
            ],
            [
                0.1710180826792067,
                -0.18282932245681308,
                -0.3605912805404895,
                0.29120659511935554,
                -0.17841814672571776,
                0.1399947982908946,
                0.18927459767993612,
                -0.26276693953141167,
                -0.16776760384914366,
                -0.13730448013700983,
                -0.07080001599087747,
                0.07562678946506568,
                -0.04401381858148906,
                0.13311345519935083,
                -0.09503799905729907,
                0.20067383517201814,
                0.1571315119069361,
                0.21799550971177467,
                -0.050787395458947664,
                -0.06216618548606618,
                -0.10359202630856555,
                0.15261242571454536,
                -0.0007158900290817877,
                0.0949609283022298,
                -0.32087685823699547,
                0.35534694943930806,
                0.1539292253466831,
                0.07532697446173366,
                0.19053710443050262,
                -0.15863221632448427,
                -0.0949097072833344,
                0.12546983434265696,
                0.15106963273971238,
                -0.04536355953017022,
                -0.3899789714987898,
                -0.0989977923040291,
                0.19738428450736237,
                -0.1355727670495975,
                -0.1588363419262143,
                -0.09287189138375292,
                0.24600174676377423,
                0.07747249532410223,
                -0.3296120887379714,
                0.06549536667886098,
                0.2511098077587652,
                -0.10136761805773768,
                0.08307427223674388,
                -0.16146859612152575,
                0.017290950943834572,
                0.17298281242081603,
                -0.19166807400101055,
                0.06658384649327363,
                -0.17790396773191214,
                0.11996009141729819,
                -0.2304205449226633,
                0.35811368598000964,
                0.13138111016595655,
                0.1754259701628975,
                -0.288781619672865,
                -0.04149682981471277,
                -0.12913514360104242,
                -0.4160214033468174,
                -0.1464405509543391,
                -0.12063386405393997
            ],
            [
                -0.017082523377699704,
                -0.041620554517794624,
                -0.17903084244153994,
                0.2403133922128639,
                -0.3777397510807293,
                -0.03541535022565385,
                -0.05279987001077932,
                0.04705694108414961,
                0.10797911124146428,
                -0.16224374221541998,
                -0.2342199486773167,
                -0.0007343993680416823,
                0.08486978737406371,
                0.08057452200600994,
                -0.034205436236257346,
                0.13266416236658168,
                -0.06314191583972174,
                -0.0021915427663757293,
                0.0597556022251347,
                0.07169777239011738,
                0.15891136002943615,
                0.09519550212025829,
                0.04382262021398577,
                -0.02346164417659717,
                -0.12093788827007328,
                0.1521555628656381,
                0.06954471717066178,
                -0.04941788556041629,
                -0.01821894212389708,
                -0.09020135849994489,
                0.1786454553229591,
                0.09916798044768504,
                0.009577587266665582,
                0.04580142939991561,
                -0.14200610261782637,
                0.27748896036972687,
                0.05450483611010893,
                -0.08394186153582293,
                0.020781042191330944,
                0.09993278402314097,
                0.3211339762119161,
                0.0017386229210085197,
                0.023745970154544254,
                0.05141182309289851,
                -0.18907765403151686,
                0.04298134318360407,
                -0.11034344825684506,
                -0.1725357864345117,
                -0.18443602353052962,
                0.02112368721098512,
                -0.022764698703417394,
                0.07405161104314344,
                -0.0004108231448734675,
                0.15870001046998858,
                0.07325560346541915,
                0.09804964776255468,
                -0.23277776993540533,
                -0.1389022978930028,
                -0.3416618665514723,
                0.01516208528875844,
                0.11028138532953215,
                0.12457786949737315,
                0.03533641146364028,
                0.06536678058779036
            ],
            [
                0.13008573921724612,
                -0.0907078701121033,
                0.13931063072983843,
                -0.010654164861240729,
                0.010719332735458147,
                -0.026681897018753054,
                0.29438651281612355,
                0.058306578412786664,
                0.03246114929686941,
                -0.004011687390001331,
                -0.13816432863567463,
                0.37574220895405347,
                0.04519602398018447,
                -0.2864329500667579,
                -0.19164095554019814,
                -0.0026257504995375993,
                -0.14041845070086606,
                0.09688631402541524,
                0.056366132797430794,
                -0.10413521807552127,
                0.3048766917482433,
                -0.12477949497612702,
                -0.26114117531526215,
                -0.06281167745907897,
                0.3032443672292896,
                -0.05701878894778758,
                0.12052368134036623,
                0.040979189567813344,
                -0.30560406182247685,
                0.20859667320654932,
                0.2139737027436056,
                -0.1777534554850746,
                -0.1089658309864564,
                0.19641771228580393,
                0.11727597367835835,
                -0.1170832375786796,
                0.005043327047145427,
                0.35337225668791533,
                -0.047437827414141494,
                -0.17346381944350137,
                0.06057562064709946,
                0.1248282308942103,
                -0.2186287643912854,
                0.23266374505458537,
                -0.01293580383718548,
                -0.15356053692797825,
                -0.02604748222776684,
                0.10946980414175496,
                -0.17533204632316424,
                -0.009227940720519839,
                -0.08957782858036595,
                0.04013209179333612,
                -0.1724997170764994,
                0.26074414875677393,
                0.14157886183429308,
                0.13124138661683507,
                0.04408768159355584,
                0.03439708681893736,
                0.04411651202137666,
                0.060215380682784606,
                -0.2890451391260376,
                0.23983444007087085,
                0.019410825866326222,
                0.12627208328004133
            ],
            [
                -0.12093647030103563,
                0.19063553788945403,
                -0.11630551995775651,
                -0.028456310271041358,
                -0.34449615961253216,
                -0.31956444774075304,
                0.09012495402325289,
                -0.038504285853316916,
                -0.1367210075177517,
                -0.25566163763899,
                -0.23084197227752118,
                -0.15756161801039686,
                0.052335502540851925,
                -0.09399662198273123,
                0.06081308384508972,
                0.18800769395314942,
                -0.023298297271019976,
                -0.23737396412475387,
                0.12783342456325186,
                -0.2008502563392217,
                0.28532450460303094,
                -0.0989750979750484,
                0.012008732022491723,
                -0.1642918042198863,
                -0.01080746283080003,
                -0.1796026800491945,
                0.14698118707029717,
                0.1201482654406121,
                0.04062014993234763,
                -0.06831725051901266,
                -0.04869517412348158,
                0.31979860739204646,
                -0.20657553813215243,
                0.18305008759799393,
                -0.12324629520904676,
                -0.1208873576608039,
                0.019930774086163495,
                0.32837412372528707,
                -0.12616641783121282,
                -0.2619534131450605,
                -0.0018328091846038157,
                -0.07151147316038582,
                0.3252069743655867,
                0.0036961982334281175,
                -0.348980930255991,
                -0.24701627641400795,
                -0.060429239522045326,
                -0.22938102923309125,
                -0.17229504999544693,
                0.04294200925830529,
                -0.0250795415369573,
                -0.22620986108782978,
                -0.0644963438277177,
                -0.08027074650202623,
                0.2508364397695266,
                0.23673368208773768,
                -0.10543972745197479,
                0.13868829484988363,
                -0.29830018123369345,
                0.06139006854843025,
                -0.2889405130401002,
                0.20772512350330466,
                0.06080741151141277,
                -0.0511062413535244
            ],
            [
                -0.3248989247232269,
                -0.013160841584698744,
                0.23883432347215228,
                -0.005924185241031299,
                -0.0064077217134902165,
                0.12273827939818081,
                -0.11218047348100332,
                -0.135451898297508,
                0.06127835278145055,
                -0.11973560737450654,
                0.0505231100745684,
                0.16550715139593786,
                -0.32871376742092195,
                -0.2455527895299248,
                0.258681220290248,
                -0.050593821517719094,
                0.09654781825726383,
                -0.4727980226732811,
                -0.09504899974379281,
                -0.14841399730846067,
                0.17785702464411957,
                0.23888308285791124,
                0.2118741557975814,
                -0.2442721273081107,
                0.31275796777597237,
                -0.2929110460916796,
                -0.38585565848878456,
                0.09386807447346338,
                0.0773205130380998,
                0.2819620377805373,
                -0.0776882650514073,
                0.2915603803264046,
                -0.09081713547008953,
                -0.39599097162643004,
                -0.2593864697873092,
                -0.026913450275035267,
                0.09682147200623951,
                0.14280525794880936,
                0.26024566258109333,
                0.12422976674723074,
                -0.2812327333087044,
                0.17553241365987773,
                -0.18371304513385686,
                -0.6021852507629614,
                -0.06715470137998011,
                0.2714116778171391,
                0.019111267229863678,
                0.014242603534696984,
                -0.0206508281418108,
                0.16479675952429768,
                0.16365324193501343,
                0.03472872943061158,
                0.14524133587705698,
                -0.19281836612959422,
                -0.10476557358491682,
                -0.18592067628576767,
                0.33237629268875574,
                -0.04305269425925053,
                -0.09081395853610531,
                -0.34349017651466573,
                -0.012899279908540517,
                -0.2436763459872132,
                0.015134940790577658,
                -0.00015846724845977578
            ],
            [
                0.32776145769395765,
                0.21953798896467566,
                0.20047174011176677,
                -0.08476333037619063,
                -0.06289158070002197,
                -0.048762004644207484,
                0.015033203089076365,
                0.07425373801307787,
                -0.14174546318892908,
                -0.06082708960704169,
                -0.17401120758800986,
                0.07427481596158511,
                -0.059485979460856084,
                0.08011499508882358,
                -0.2656229556655496,
                -0.33228999752886196,
                -0.37119110144446493,
                -0.03793136111991976,
                -0.057672205974240026,
                0.09139924146229766,
                -0.11020473727908803,
                0.15851500033742497,
                -0.054127927441640605,
                0.09751305519547024,
                0.3226547813505734,
                0.10324554591321089,
                0.009423783507204832,
                -0.09853443398156385,
                -0.3086949440788029,
                0.34396497465979936,
                -0.12426713613201901,
                -0.013140000699210334,
                -0.0809444951109319,
                0.27423492590264004,
                -0.058150146140891534,
                0.061033471635631685,
                -0.019027559464754092,
                0.4726305284479581,
                0.308636574870985,
                0.11657405851358535,
                0.3453554003467535,
                -0.14815739976285683,
                -0.2240974590996402,
                0.15433461245502259,
                -0.18000648277681042,
                -0.16434876377453178,
                0.032686465119719364,
                0.2631124866242577,
                -0.22040765257623549,
                0.18166550865710598,
                0.1491178678817344,
                0.12790138761083863,
                0.38512116942255065,
                0.17368770479225304,
                0.27183744987638825,
                -0.26911758091463883,
                0.08263643752563521,
                -0.16789228399149067,
                -0.07085215722254756,
                -0.34150038569391955,
                0.20116625272097693,
                -0.12768356097043335,
                0.0612423006611702,
                0.006421188801517464
            ],
            [
                0.03776430952612405,
                0.28322500694916414,
                -0.11519255931055221,
                0.2161917592169847,
                -0.025847045089765177,
                0.2538433663719233,
                -0.08950194627455092,
                -0.15140806651490385,
                -0.15867591381161233,
                0.21047167865724015,
                -0.1578167310276075,
                0.2315460784168068,
                -0.2626878543420756,
                -0.14998448976084724,
                -0.00424488686030836,
                -0.032452735499158225,
                0.24932769324729698,
                -0.055626834197069104,
                -0.20238817603898282,
                0.048527017539833836,
                -0.31465356692876467,
                0.14626052871931494,
                -0.11139840637543946,
                0.1298098024507794,
                -0.15681543915129897,
                -0.07962594648551088,
                0.004981743433588915,
                0.17306992185035658,
                0.20407414953316544,
                -0.11065684852987674,
                -0.31895224552542556,
                0.21901797087374777,
                -0.05019150928402918,
                -0.20513825469669567,
                -0.01605394332110948,
                0.3708580588902073,
                -0.3358346451685538,
                -0.15062367511784372,
                0.12178778520474773,
                0.09084619694484315,
                -0.05380493410273782,
                -0.08108307679064411,
                0.04249316519608813,
                0.08042627332162502,
                -0.15507592999485892,
                0.19467537715935965,
                0.48577640032940056,
                0.15436756930921441,
                -0.05521611382875912,
                -0.2935141924096955,
                -0.07724084227523759,
                -0.13742360306471324,
                -0.09209396824973691,
                -0.24250587760513287,
                -0.21397806429811797,
                -0.35522277318206547,
                0.1326735186300009,
                0.12876043702222528,
                -0.0001441108557983479,
                -0.10594786523331669,
                -0.07381365837080478,
                0.2762211429565205,
                0.623632758625078,
                0.04941963325658018
            ],
            [
                0.19659109795612045,
                0.05664082521493338,
                0.021494164523601027,
                -0.06998338581882717,
                0.20504761129162935,
                0.29183062875613835,
                0.532713238938078,
                -0.17696764720092162,
                -0.2835185408175142,
                -0.19689240749056208,
                -0.3894743546851711,
                -0.13859444381641792,
                -0.22222431626796565,
                0.19684374269515584,
                0.05775378023310837,
                -0.02098445144136371,
                -0.08066233145193329,
                -0.2922088810682563,
                -0.09563561759244993,
                0.3121532623956652,
                -0.2048279222858473,
                0.19250558221307823,
                -0.018074677106979308,
                -0.17116083537970128,
                0.24198770664492775,
                0.27881850877820075,
                0.10193503049763594,
                0.33180357210253963,
                -0.23365533549128198,
                -0.14060733171833215,
                0.14731074902207333,
                0.16693817046518075,
                0.11185878922807105,
                0.04451374782969387,
                0.25559816910609884,
                -0.21415518026867333,
                -0.0772710282857943,
                -0.21989245900556928,
                -0.15735958630592792,
                0.06964260902378926,
                0.22487464185174522,
                0.033230883119988036,
                0.05030351495121673,
                -0.08661773487692724,
                0.01999352664699663,
                0.008923631499048429,
                0.038220054172253486,
                0.10728940079836069,
                -0.012708805860788626,
                -0.2808838011862847,
                -0.29499788473722743,
                0.0198006173689882,
                0.037116452349802063,
                -0.18330446235816836,
                0.299025928195017,
                -0.16211150485153433,
                0.07734053173250179,
                -0.40820320286640943,
                -0.1977861764907647,
                0.1719740316832208,
                -0.3370814861104032,
                -0.16743845092994672,
                0.07146832982212868,
                0.024966980560749964
            ],
            [
                -0.27581378569355725,
                -0.059503590178642075,
                0.1302620990265795,
                0.02649851536207495,
                -0.13537768908826311,
                -0.0011229029684785522,
                0.07902495900500801,
                -0.06739603674791912,
                0.1474779173088549,
                -0.035771199916518684,
                0.04650527720673074,
                0.1473725047934522,
                -0.2571792829215337,
                -0.04892798909188312,
                0.09285601694930196,
                0.11849787338839715,
                -0.11840559254380369,
                0.25471329442532714,
                0.03609285352844758,
                -0.44619179870352776,
                -0.3909938225971229,
                -0.05375240985739858,
                0.10498592235940812,
                -0.17124208784401027,
                0.08549021887883798,
                -0.29328892661800526,
                -0.1325317049655937,
                0.19449658464699698,
                -0.04057304853947472,
                -0.31232615293627447,
                0.04165596735994844,
                0.019985725685160015,
                -0.03663828326225944,
                0.13167093012224187,
                -0.033813041148296405,
                -0.15815237507557345,
                0.07473318846178877,
                0.17837360458731846,
                0.260600673933785,
                -0.14942719323315928,
                -0.06347166004403834,
                0.4732359273949211,
                0.05743105431658562,
                0.3302822584358465,
                0.42388599911448727,
                0.011614131178353013,
                -0.0006666835912818089,
                -0.44651009499240846,
                -0.250151204250344,
                0.15286730111757074,
                0.04422059179946536,
                -0.025512028692796736,
                -0.10422605504902492,
                0.02859589943972481,
                0.18182219922984416,
                -0.029631883843138036,
                -0.1525837882595333,
                -0.139295605761354,
                0.07427921089898644,
                0.10961482415215026,
                -0.07368099311224552,
                -0.28807485941449174,
                0.05464557649622227,
                -0.34076749294785424
            ],
            [
                0.04810639303109594,
                0.050751644188504356,
                0.08746576419805538,
                0.3163350280372513,
                0.12152906994615584,
                -0.28744195011170903,
                0.18127979521469592,
                0.12435860413421217,
                0.10695357105587122,
                -0.07099754210513129,
                -0.1571663572906902,
                -0.31235068278520894,
                -0.2848139989099076,
                -0.03116787223697007,
                -0.2742174155897488,
                0.15324679906191624,
                0.1893851366904312,
                -0.05605193118834905,
                0.1865461294131911,
                0.023682042252766832,
                -0.17458741767360522,
                0.40818165765122316,
                -0.2629446482415194,
                0.12666752937197526,
                0.08831354694692334,
                -0.096528466328851,
                -0.19751665950151537,
                0.2648687677528925,
                0.24273860611950848,
                -0.010761378827203228,
                0.09996077414746381,
                0.3195399459230029,
                -0.21069762053898164,
                -0.11760422566216111,
                0.07929688122717332,
                0.013146965116690994,
                0.12048544613887707,
                0.31219408517144526,
                0.28052318782008057,
                -0.1827625672822373,
                0.2985447715822907,
                -0.09064031225645829,
                0.2462638567325725,
                -0.18562932854468897,
                0.07683663333213156,
                -0.1461131221601638,
                -0.12938481491032403,
                0.45659829322261025,
                0.19269419191090004,
                -0.05306797741675202,
                0.12258819915366323,
                -0.1882282153338415,
                0.20203979441194345,
                0.06543530937175977,
                -0.19018649983625713,
                0.18261219162046602,
                -0.014371552763824883,
                -0.033825101283305604,
                -0.22651979228003574,
                -0.07967774909631488,
                0.047256597892900334,
                -0.07517170529611585,
                -0.31230465211339536,
                -0.1754995301685816
            ],
            [
                -0.06352125043442025,
                0.05225390639907482,
                -0.04131404895669356,
                0.39072529116130306,
                0.06853727890208228,
                0.09450974034091798,
                -0.09024889752989128,
                -0.023857023225929336,
                0.2090188205112225,
                -0.08506316765389718,
                0.2800786275826464,
                0.10650516706174265,
                0.13793478499612138,
                -0.07336319977199895,
                0.19094254207187256,
                0.1400844742809953,
                0.12176709154439384,
                -0.5711539950374394,
                -0.3501544745443723,
                -0.07229690892992927,
                0.1932212545996127,
                -0.03678376826880689,
                -0.015485446439918863,
                0.09259791549656207,
                0.3314001594963363,
                0.04621694978027191,
                -0.1383409397163599,
                -0.2948970982390084,
                0.0648015748042421,
                -0.011152304724032254,
                -0.056969009930024836,
                0.011881203251930025,
                0.053223092374402335,
                -0.21152900772711225,
                0.3168989974280744,
                -0.36375334082518407,
                -0.08143544561424004,
                0.1431125498257639,
                0.176386932638666,
                -0.14318440372657665,
                -0.026730633082802407,
                0.34559596359004413,
                -0.09212436193009182,
                0.6334069053171182,
                0.3421557079592022,
                -0.12231241963616275,
                -0.1202172389730268,
                -0.18675860872338465,
                -0.1281371779006892,
                -0.29990687009131944,
                -0.06609471633043994,
                0.12775177868069124,
                0.004722152398341016,
                -0.17558419451668483,
                0.29735628340567666,
                -0.11292826751757756,
                0.055517026849773055,
                -0.024361936162881834,
                -0.18980904933100462,
                0.025641947992487882,
                -0.06688700120235284,
                -0.07765783851857837,
                -0.13904985716593787,
                -0.08154326614541255
            ],
            [
                0.09916746499169088,
                0.019886304795744512,
                0.00041156120620769747,
                0.004723018016713512,
                0.25699978558636033,
                0.22112090641647658,
                0.14315663503253026,
                4.657172262384333e-05,
                -0.10725199310369371,
                0.4593294569285277,
                -0.20045646671286677,
                0.1518017926145573,
                -0.16098485169851534,
                -0.16555491809199732,
                0.08358761519663387,
                -0.2095081720314931,
                -0.19269673894434164,
                -0.23606309095059183,
                -0.042645410549986267,
                0.09941315935941238,
                -0.16323861716789637,
                0.3019137402997034,
                0.06057026801230785,
                0.1535143522664823,
                0.07325501024323175,
                0.15161008947402282,
                0.1914073249963835,
                -0.013475341141589662,
                -0.2383421212776618,
                0.09726159531501913,
                0.05955449569533276,
                -0.14369267304482608,
                -0.2184573980945215,
                -0.09868869074972016,
                0.1492373039293383,
                0.06470030942091348,
                0.3975602594665989,
                -0.10507311144232438,
                0.043956254999604684,
                0.10928332124227408,
                -0.22182109670652633,
                -0.07230809665346592,
                -0.17589476050871197,
                0.1352679015546912,
                0.30123591107886805,
                -0.014117958540644404,
                -0.191126928054031,
                -0.18684239933621385,
                -0.03977185410168193,
                0.1730854361240954,
                0.05965404874179142,
                0.1322559036246545,
                0.07804730195698217,
                0.19287292636301853,
                -0.1199748706409434,
                -0.009093595848941939,
                0.06575491005547886,
                0.2707403072260739,
                0.26653930142337434,
                -0.22510458465194363,
                -0.3023015331346793,
                0.031509115276552174,
                0.17838293034073502,
                -0.030126862816487226
            ],
            [
                0.04291831016687362,
                0.22414679940709487,
                -0.06545673613692647,
                -0.005672302364365451,
                0.18254753844296412,
                0.08739084636398209,
                0.10654719839146665,
                -0.04816170446272699,
                -0.2553784678075816,
                0.0829841615954481,
                -0.03898572917091805,
                -0.18334587688744264,
                0.11544038755525045,
                0.028740724157525824,
                -0.5031557870874055,
                -0.11884351090401307,
                -0.056923328801432554,
                0.3228240549070978,
                0.040798972322419726,
                0.04993273176655961,
                0.05413899866841371,
                0.4872827197994383,
                -0.1124645228225854,
                0.25961052111790334,
                0.31368896536667995,
                -0.3325084022161951,
                -0.18742082781605252,
                0.20388548410043117,
                -0.17884931444180688,
                0.013091479439780852,
                -0.12980623783634795,
                0.07301237195478466,
                0.06648269356759198,
                0.1376143651335217,
                -0.2601734959112428,
                0.09809887441482144,
                0.11891889054800348,
                -0.04105716623256753,
                -0.18031832978173187,
                0.0343898275701788,
                -0.013535752690946997,
                0.05299561277273932,
                -0.2988880342217768,
                0.053887486077969046,
                -0.058056125974566844,
                -0.1955001675227791,
                0.04440185753322855,
                0.019415979008800332,
                0.39159656147795135,
                -0.003750982674692251,
                -0.08760551085093064,
                -0.13882994323400663,
                -0.016973847915461148,
                -0.3339708895940972,
                0.24544427038306313,
                0.30320495323652996,
                -0.242380336393963,
                0.1715923646563812,
                0.06362860834668733,
                -0.060139990836954246,
                0.2123477680236997,
                0.10291663113324359,
                -0.0654167705571212,
                0.14138801724621164
            ],
            [
                0.17797464603294685,
                -0.1294747527151533,
                -0.26954971045502674,
                0.15471179148608669,
                -0.07663708116010612,
                -0.17339480192220746,
                -0.18005415373798433,
                -0.07368571765650253,
                -0.10299155340454497,
                -0.2380086982830515,
                0.09055421383999297,
                0.36097975567581725,
                0.3138627036883224,
                0.1076567037770068,
                -0.1388458092162615,
                -0.09188721700756472,
                0.3021615309116127,
                0.5046613158785717,
                0.03470187452261668,
                0.2310521555771976,
                0.28000922194043787,
                -0.24607733377092944,
                -0.18518007913178874,
                -0.08025172816870225,
                -0.04282067898217342,
                -0.04253246843808547,
                -0.39150622005662344,
                0.3126797219986927,
                -0.2843149814049779,
                0.06409418057180193,
                0.02940274866730307,
                0.1532722159748262,
                0.4160050223505106,
                0.012087372770550935,
                0.09210881643039609,
                -0.11494540175298801,
                -0.022900276187944796,
                0.035218621702389825,
                0.21153192484006975,
                0.0015959888093847947,
                -0.09555288913234876,
                0.1607027081729373,
                -0.2529473778486185,
                -0.07723175102330337,
                -0.130564988420528,
                0.03876386532633397,
                -0.19932626354685207,
                0.15797064951714956,
                -0.14822238597744125,
                0.04872773533000895,
                0.008756431342103181,
                -0.030502829976538005,
                -0.305820453394792,
                0.03476340359348139,
                0.030227138665484078,
                -0.15199801893428247,
                0.12155641239144704,
                -0.06947571032960852,
                0.10078773216212934,
                -0.13774095859682542,
                -0.33119701034711413,
                0.028910950629786165,
                -0.26244902504890855,
                -0.22277759702103325
            ],
            [
                0.1035789069986216,
                -0.3581543731174245,
                0.2777442090727616,
                0.20773202638125463,
                -0.2829459472224491,
                0.2130808112814942,
                -0.038888969640368684,
                0.27586708882834626,
                0.10382356530423409,
                -0.204137940835165,
                -0.22894039888161538,
                -0.24547458279832904,
                -0.17903170082288208,
                0.10788767262926197,
                0.27199609048620815,
                -0.04118017980699293,
                -0.4190072732615366,
                0.5604600006458478,
                0.04099872588577598,
                0.07347255120618851,
                -0.16961432337896662,
                0.24021304347875133,
                -0.07424477539776557,
                -0.09650981906677945,
                -0.13445418817557084,
                0.08414377042221127,
                0.4342406673901875,
                -0.20909721385157237,
                0.10908701880258478,
                -0.07339583901477782,
                0.038926203660070845,
                0.028410734725290054,
                0.0040380130746189855,
                0.022548095764209655,
                -0.23249001581916146,
                -0.04100173166925446,
                -0.07744072263367953,
                0.1963933378949288,
                0.08671304412259023,
                0.14521087059411406,
                -0.12904992074266858,
                -0.05575212339995662,
                0.20331031551084833,
                0.1758117251394483,
                0.13921829845329006,
                -0.01093365216939933,
                -0.21547675517511844,
                0.33521284654168354,
                -0.2795046206367915,
                0.07229284984638805,
                -0.15205009139444278,
                0.011614130467558126,
                -0.21049006500509027,
                -0.12253145656893437,
                0.10925855318105084,
                0.30445363138275977,
                0.15501251056465404,
                0.024496880112893783,
                0.20102282143289768,
                -0.1255165791725635,
                -0.05450367462722691,
                -0.30027254055728586,
                0.04818382640659129,
                -0.05848989267940235
            ],
            [
                -0.06624014385142746,
                0.17015277067874324,
                0.04226618758796796,
                -0.10711659371048837,
                0.12909291138229562,
                -0.2700762020319868,
                -0.09873047000574459,
                -0.1372373009474043,
                -0.015125767455352625,
                0.012104408330461619,
                -0.11359715925206373,
                -0.03738750383483408,
                0.14346240270883948,
                -0.05519242944743687,
                0.01836536397037766,
                -0.0016073588267949822,
                0.10287556147771056,
                -0.02198273070240469,
                -0.04894570437217741,
                -0.061236867880354554,
                -0.07982471775567475,
                -0.10766775246112571,
                -0.04151996389430979,
                -0.16350070157717547,
                -0.037033269348017636,
                -0.23348375693625037,
                0.14522661141409893,
                0.00981752072088242,
                0.08090701451788872,
                0.13374458298257347,
                -0.17067493613300586,
                -0.03562198728538932,
                -0.19342894022084742,
                -0.2201795047855862,
                0.016636599274813344,
                -0.058903185117235364,
                -0.15297671172315402,
                0.08436152234966332,
                -0.030052699710860123,
                -0.009966169061585577,
                -0.16128859768418807,
                0.10490792981473683,
                -0.009343877276793209,
                -0.265309500367996,
                0.3758075406441555,
                0.24679021700222292,
                0.08868445989436256,
                0.1470400162148736,
                0.15547691553970988,
                -0.1731086387206953,
                -0.12880598868923004,
                0.25413942106746684,
                0.08404455405379052,
                -0.014476903212329006,
                -0.26904933696271666,
                0.23085736670995202,
                -0.23576058573924638,
                -0.06191421262652067,
                0.1703030627963297,
                -0.1150099580246394,
                -0.20197773932809693,
                0.1385387410236731,
                0.08582069010027275,
                -0.07876457851864922
            ],
            [
                0.4194268831698059,
                0.4340849628745595,
                -0.02872992328896515,
                0.11481486196000737,
                0.2024542829956881,
                -0.006685534615312187,
                0.1411240182680205,
                -0.1353661327241302,
                0.3678463553291991,
                -0.0778220350588931,
                0.09826571101408754,
                -0.02154930234141142,
                -0.07622080817544895,
                0.09086150210231056,
                -0.1296285433093578,
                -0.02717581264827262,
                0.020063820278665635,
                -0.06158538502815136,
                0.041806848008002356,
                0.26025452067542804,
                0.12444477524185776,
                0.09412402337737291,
                -0.06589381978658206,
                -0.22467914407295955,
                0.05204104575083977,
                -0.08978595792896645,
                -0.13805530804313385,
                -0.23161797022229108,
                0.09807248862679001,
                -0.07266606411618155,
                -0.14702812010902927,
                -0.22818933841326078,
                -0.011741080082442935,
                -0.22289090773198686,
                0.007214858321681214,
                -0.14506904004327512,
                -0.07335369482448503,
                0.08981447979158828,
                0.08697548127488196,
                -0.03522749806438633,
                0.20007451452949243,
                0.15542046420787092,
                0.09764017488223677,
                -0.13130183861782313,
                -0.19648839785363664,
                0.042332092564047734,
                -0.14100205689524556,
                -0.03877825188078967,
                0.15945628486255609,
                -0.22590880790765855,
                0.04967770087458621,
                -0.13186857389747775,
                -0.09491267107085077,
                0.2789571121109743,
                0.13096918438188537,
                0.013357394837833754,
                0.10984559385440405,
                -0.07283387559653078,
                0.1590710317480586,
                0.020823096672403407,
                -0.06020506868732017,
                -0.2368426597365692,
                0.1932787809443481,
                -0.07758095671801805
            ],
            [
                -0.14874199892657705,
                -0.22835540225845194,
                0.0892277002304492,
                0.1627082931174438,
                0.03941571453463255,
                -0.022128235957028113,
                -0.07583955047024987,
                -0.10509083946602256,
                -0.18926126862072412,
                0.026134054074777948,
                0.2613015484065155,
                0.003319325475897113,
                -0.296704103020046,
                -0.14056455380811822,
                -0.21247555356308803,
                -0.03528347854801979,
                -0.049157544108047777,
                0.0388143537263442,
                -0.005175150883347775,
                -0.0032735511514712912,
                -0.32609655783967567,
                -0.2180752795809923,
                0.08525890794514819,
                0.13817076703961917,
                0.11718395651534667,
                0.21059976484652007,
                0.09251232185609637,
                -0.17896997110096627,
                0.0967348291284733,
                0.0063600747413745376,
                0.09296060205675113,
                0.2431914523603317,
                0.24219270809457294,
                -0.08754205414464103,
                0.16477679159021308,
                -0.0037881348493981845,
                0.08046243178514716,
                -0.04651265656024763,
                -0.08811644458860321,
                -0.2768551011625905,
                -0.03201602300617651,
                -0.04353402416062441,
                0.03469316026269547,
                -0.21559739675483958,
                -0.44583118914134773,
                -0.05005003893358855,
                -0.08325293699887332,
                0.32300171020906127,
                0.018605247089559886,
                -0.20659381596167747,
                0.16897479110974112,
                -0.030302453046893274,
                0.14937410190519745,
                0.34496662590766747,
                0.1501912068790812,
                -0.027089997779602863,
                0.05485663902729989,
                0.16862317237869648,
                -0.12656598420197301,
                0.1769244972241583,
                -0.14386434102042883,
                -0.10494332357531873,
                0.20361035928771076,
                -0.11846990239105694
            ],
            [
                0.2177479481864457,
                0.38458200963085837,
                -0.3132254927265852,
                -0.15927329354944197,
                -9.978134835953246e-05,
                0.08972109040752445,
                -0.020812740079056997,
                0.22629853021260032,
                0.17603013165021858,
                0.10797733677957018,
                0.08883531025687427,
                0.009235945690939218,
                -0.4170376194335866,
                -0.023271420198449577,
                0.0224771175853456,
                0.04943935000911284,
                0.08009349917847088,
                0.003883083850171082,
                -0.21766676927549442,
                -0.32497320186649703,
                0.18175439234706958,
                0.11496530118666612,
                0.09531674800082843,
                0.07072659439985815,
                -0.0938665188600933,
                0.14681280714516823,
                -0.06572641668674727,
                0.1599236465266137,
                -0.1280192249010054,
                -0.04780018820261498,
                -0.04642319535063791,
                -0.0434950702563481,
                0.06645949045992075,
                -0.01710153242108874,
                -0.0225887658475208,
                0.1315044848507541,
                -0.005289622200901771,
                0.09332479796376995,
                -0.016209593740196593,
                0.013699345404540191,
                0.19514800413024735,
                0.1524954497741749,
                0.04680156127669593,
                0.09837636049900818,
                0.005843666260549518,
                -0.17780665722877426,
                -0.05655605474603484,
                -0.1388501634436474,
                0.12204848087142504,
                0.18554623745561927,
                -0.23529746132870494,
                -0.1371262438171184,
                -0.15062361618308986,
                0.049672188768490846,
                -0.2910228488908782,
                -0.09877288951557651,
                -0.14885027610382556,
                0.3189661031786789,
                0.1393313865202205,
                0.0905213311118094,
                0.248343596338996,
                0.1283906946048514,
                -0.06025934159338949,
                0.31562520443758785
            ],
            [
                -0.25739040954836945,
                0.05858595142205456,
                0.027800792685281055,
                -0.137747492200882,
                0.26812053961362137,
                0.14038508114496068,
                -0.17413044692742297,
                -0.18820013619743944,
                0.04321638180989529,
                0.2010712841505191,
                0.22757259063988688,
                0.06291320339498668,
                -0.13438559841285502,
                0.20135374084204416,
                0.07461884404486861,
                -0.01913398439992327,
                -0.06254726283026586,
                0.05243419338599933,
                0.24828997501267272,
                0.08742367511551054,
                -0.207028601120916,
                -0.08371136246880216,
                -0.09785608615995603,
                0.18452315504227218,
                -0.22991909699457586,
                0.033117355218756445,
                -0.06639786801121975,
                0.13724080107412676,
                -0.11718409258444924,
                0.19798429229472234,
                -0.10599563975563785,
                0.1328766349309461,
                0.10852303306964987,
                0.2086866729671495,
                -0.24177516980213762,
                -0.01098280505876525,
                0.5368845366103009,
                -0.14181258467710905,
                -0.19365057726278026,
                0.12900078210582783,
                0.14479252719569038,
                -0.1437925154877735,
                0.26580647677369496,
                -0.1294368066116407,
                -0.22767575251528957,
                0.020994009389073028,
                -0.1304845551813669,
                0.4096930826619616,
                -0.11476431409524275,
                -0.19879304185712385,
                -0.02990150297122765,
                0.21163576460247954,
                -0.3149881504978345,
                0.17960814344694945,
                0.13812913322091305,
                0.12504510444714256,
                -0.04610362327996288,
                -0.4722740297979155,
                0.522891582115353,
                -0.030407319633143984,
                0.061518917155570535,
                -0.1139489522134862,
                0.24972523744855415,
                -0.20538666546203677
            ],
            [
                0.1713401222381901,
                0.06468923969369386,
                -0.14570318462876708,
                0.08981993288721157,
                0.20301999678479352,
                -0.19592914412878412,
                -0.20308889442148542,
                0.11626545936555534,
                0.2653398361573873,
                -0.05395780937158965,
                0.15257006575828577,
                -0.140714321809021,
                0.1688453060823649,
                -0.16264361850078982,
                -0.03676897763277269,
                -0.11930074674677323,
                0.005736506159968159,
                0.23021645054794357,
